delta_time,x_bias,y_bias,spot_1_bias,spot_2_bias,spot_3_bias,spot_4_bias,spot_5_bias,spot_6_bias,spot_1_bias_xycorr,spot_2_bias_xycorr,spot_3_bias_xycorr,spot_4_bias_xycorr,spot_5_bias_xycorr,spot_6_bias_xycorr,total_sigma,rgt_corr_sigma,spot_corr_sigma,xy_corr_sigma
24796808.8931338,10.281887091421625,3.699830063026195,-0.07391771818557605,0.027694291165617415,-0.02165244819598553,0.012144810332112916,0.011379679683327492,0.04435138520050488,-0.020428586368275752,0.025794643302311748,0.006131317775369039,-0.015595537886408647,0.013502853180770453,-0.009404690003767029,0.07196312185601147,0.069957415826176,0.04384327947836483,0.04935635146651295
24926888.29118596,8.724147612603652,4.164365596347279,-0.08227145158034743,0.023963720757066556,-0.012782539231404544,0.013748676846280406,0.012646979905672135,0.04469461330273487,-0.029701907818593744,0.027995903709895117,0.010374292338513426,-0.009618576985801682,0.008057751615618012,-0.007107462859686741,0.0834719245939517,0.07599063283096778,0.046591942374086655,0.05391478535251901
25141871.438425474,6.279680246823622,4.586697951239953,-0.07754269478795564,0.013378427650616495,-0.0039373209064849785,0.006810746089610679,0.019056655506703976,0.04223418644751055,-0.029352325939044608,0.02656155237019791,0.013477400223747132,-0.010653163738951575,0.005708800406112915,-0.005742263322062082,0.0818511964280778,0.075442416703638,0.04985313037758882,0.05590541188624085
25402114.441028334,4.459272433574329,4.616736501683463,-0.06746384078941775,0.002282048941801509,0.004375223810573258,0.0002999086148816213,0.025528627628236468,0.03497803179392403,-0.023400071952622167,0.021395483179744743,0.016895543102610492,-0.012244459176921454,0.006553205648499817,-0.00919970080132497,0.06747955456335528,0.06550195408592233,0.0455595875176233,0.05077298583899108
25662352.589144588,4.083370013391719,4.807368038103379,-0.06783600610116976,-0.0014557414706480127,0.006670700294997152,-0.00030329971510616486,0.026512232687793937,0.03641211430413512,-0.023228200444735066,0.02020775978739821,0.018173547615839745,-0.011833025240641257,0.0049620858796321915,-0.008282167597443057,0.06473355172979213,0.06286076551802541,0.040399638636026095,0.04604771342780947
25931214.770109057,3.5529288607295513,4.404531918381042,-0.058114569464637306,-0.00044805423753363445,-0.004883574131132988,0.00072333028621715,0.024333066259893867,0.03838980128719238,-0.017585949785275695,0.020157765720950804,0.005020179829773039,-0.009155100173019978,0.0036877509570654578,-0.0021246465495059017,0.08611770402550482,0.0787561684130576,0.04336309260227762,0.046608335394727626
26180034.374466844,4.4048025764615915,4.269253052636581,-0.05523452338374692,0.0015926286022452882,-0.010487441310298589,0.0014275495306496232,0.024269827019755975,0.0384319595413901,-0.013435100382468474,0.018532423895138997,0.0015879184821245035,-0.0108903907837889,0.007183703781776769,-0.0029785549928084214,0.08517933186367656,0.07868834639103618,0.04518240238117911,0.04769143854500066
26448878.138094626,4.929093884278763,4.954301182941489,-0.06676547304340893,-0.004109942772625119,-0.0012285605506976323,0.006279434157414032,0.026266989286607416,0.03955755292270785,-0.01913187752731277,0.015879903737287024,0.012620101945047497,-0.007533930007312903,0.006351926709314739,-0.008186124856971714,0.07025094196265473,0.06747683002529767,0.04427082249327162,0.047542472484151325
26700493.623832192,3.5922650799392026,4.196632224579208,-0.04416536662299663,-0.014513796341575525,-0.008685242386312434,0.00915232407543215,0.02192026776180847,0.03629181351364528,-0.005205984239124993,0.004174016290557283,0.0014850123769603195,-0.0010008578676827307,0.003283563016135251,-0.002735749576845842,0.06521526209264983,0.06151369496016049,0.04514173858252307,0.045243352107773076
26957908.445315365,3.2588200888439554,3.1520819948464665,-0.024629519187284038,-0.01373822501713008,-0.019897417754028063,0.010022011478658287,0.016677492768389313,0.03156565771139465,0.005969620939707843,-0.0013961881478596735,-0.010736415377851742,0.0008890607770055508,0.004374764255168022,0.0008991575538351851,0.06275868910827585,0.054897280035706895,0.04355127716572564,0.04398983746205707
27224014.46055337,3.623645831138659,2.7143780485377844,-0.025169498071965144,-0.0030813486289898947,-0.021785716164661562,0.005488589349109398,0.016429522163081797,0.02811845135342324,0.003108087499149919,0.005100744934356405,-0.011742690616610157,-0.004571655068210568,0.008312405374758348,-0.0002068921234592073,0.06160015542622627,0.05218054282269675,0.04206259452555497,0.04280249083901189
27475557.153286245,3.9591287627861873,2.9681293899793078,-0.03873069948372316,0.006500737569239824,-0.015227747776055803,-0.00015722779422634538,0.020738870753940035,0.0268760667308275,-0.007801135027360658,0.015474140606316383,-0.004257823282462892,-0.011169218568648848,0.011849739141171454,-0.004095702869001182,0.057837633254410506,0.05291542774666423,0.04042729158765548,0.042619127423571164
27744414.442121685,2.9418139309140816,3.281913495557644,-0.047514542420203046,0.005216727000939316,-0.0028275638835583345,-0.003419414529553025,0.02530069840972018,0.02324409542264948,-0.01673147928425632,0.0194493954541703,0.00545466003734812,-0.011726382187963803,0.011130303321704936,-0.007576497341036578,0.057706240877715996,0.054912561493707907,0.04112022688535091,0.044922473385602735
27993200.323160287,3.6341642658823314,3.417162947717756,-0.0551849920978579,0.006105072720914118,0.004678880957210853,-0.0002929441777328882,0.019991853583098664,0.024702129014367066,-0.0217887319988329,0.019213995781149202,0.014844052299336448,-0.010463716726347303,0.006959594853463018,-0.008765194208794978,0.06048474241638158,0.05653195593269406,0.04149696329808121,0.04645131141554377
28253433.712772623,5.378801385606497,3.5649100764772523,-0.060097685151444105,0.0076112499602398985,0.003409916743781335,0.005536814418538481,0.011832342268151183,0.03170736176072864,-0.021450216539762843,0.016566661644440844,0.01831716213484033,-0.009355472202919556,0.0029719414268285964,-0.007050076463461542,0.05941440439584969,0.05689133946736471,0.039781077986366487,0.04470199191447566
28513660.425824165,5.746654517349892,3.6072312537944624,-0.06215650397921446,0.008226541649652069,0.004261774766516665,0.006991618236765082,0.009966952443124294,0.032709616883154324,-0.022328942351030157,0.016405154692779398,0.020167976136934086,-0.008886804646685429,0.0018892068087610707,-0.0072465906407621836,0.05827646049353162,0.05616595401378946,0.037839359098684446,0.043274543454195534
28776958.22122588,5.939391469310743,3.2267630551882505,-0.058366431983999933,0.010729892518104377,0.00233048746017992,0.0077138103398003,0.007003265429822807,0.03058897623608916,-0.02083720165713017,0.015664454070304396,0.018707377103303682,-0.008642947349364714,0.0021695079114969914,-0.007061190078652608,0.05568090478016668,0.05443187062688089,0.03770178472611656,0.04258053740451493
29037189.46301399,6.1337095248643765,2.886355643705806,-0.05483313343680112,0.013311106198006004,-0.0006329196391663779,0.008435075956218249,0.004910930963785502,0.02880893995795968,-0.019312884747621446,0.015271994065218245,0.016222691737474728,-0.008394118649882175,0.0030560700417913648,-0.006843752447005998,0.05495790518467161,0.05407157111711697,0.03916904389004643,0.043283972822406876
29283011.98643781,6.818198735376126,2.5999189470552215,-0.05616785032034279,0.020622286346886343,-0.002031976090844426,0.006670579165653277,0.0024578026707347224,0.028449158227911907,-0.02107250495122339,0.018552196002398536,0.016627862323026505,-0.01197467334645779,0.004651776380037823,-0.00678465640778848,0.056009433566038797,0.054539928086083087,0.03827773190487114,0.04356284926799758
29548913.575873107,6.895733625240304,2.2235853051304395,-0.05382520259501134,0.02426198648610117,-0.0015708961670175487,0.0050452154204197715,-0.0009669941493903758,0.027055891004896984,-0.021278419983907743,0.01931175486321547,0.01726491956152516,-0.013772990213644459,0.004107450648150406,-0.005632714875331332,0.0567487106821633,0.054019310746804945,0.03852233735079261,0.04413113720986926
29829057.29950848,6.727807560230483,1.693473683766937,-0.04866676567709959,0.028285578477746154,-0.0031170458206323977,0.0033019429635997746,-0.003398836146180761,0.02359512620256676,-0.02034834691824061,0.02012493287749786,0.015196984446864828,-0.015005493272134735,0.004884395226141954,-0.004852472360140705,0.055732510912226293,0.05346277349172653,0.040049157498744485,0.04524124673070791
30072501.43542107,6.285292388309844,0.8932157185427022,-0.0390083692633671,0.031448848432810116,-0.006263792338083032,0.0031054190654799772,-0.006092169869324765,0.016810063972487282,-0.017546220900488445,0.01898727344706568,0.010758191246927075,-0.013910703779215902,0.00648133838854837,-0.004769878402770034,0.05157088825593486,0.04990993941696017,0.03914494067630522,0.04337051984251549
30332652.57548652,5.90366981423399,0.12823372064950112,-0.019784300937564347,0.028022446380412708,-0.017593874515128855,0.0038936559384482503,-0.01036941804823755,0.015831491182068717,-0.004749904048141463,0.011320881411615968,-0.001706619501602722,-0.012004333716297362,0.0064223300513725524,0.000717645803070541,0.04748472473108263,0.0465215167373974,0.03924827500441698,0.04066723104057181
30592809.403822076,4.974177407351961,0.08405328928191518,-0.006902804358895411,0.01261170839107131,-0.020066610086949464,0.01143958096536722,-0.013332419059037794,0.016250544148446528,0.005598123320930663,-0.001644138543544171,-0.006688804479788273,-0.0019417776135654654,0.0009780120808128491,0.0036985852351542415,0.04550261660319635,0.042798464094568986,0.037911509218817294,0.038337663767015286
30853046.191864222,4.446022543190973,1.0194625030283686,-0.02140381245468299,0.005610688276065352,-0.006878321713966287,0.013995895286297303,-0.008067956155220138,0.016743506761503765,-0.0034095738339306953,-0.0005083185343493474,0.005198601265284567,0.001924026873432713,-0.0018943607637839515,-0.001310375006652179,0.047679102908209196,0.04362467233488788,0.03923996793814848,0.03950302673440591
31107722.571413994,4.036098796830921,1.2887350284214192,-0.03322879013357077,0.008770466217407855,0.0016648704155653466,0.012370533995360073,-0.0025187535748547466,0.012941673080091995,-0.01653229391242603,0.0061607664146542795,0.01142295695598203,0.002716184951701789,0.00021342982356876804,-0.00398104423346841,0.04664805308686141,0.04384105389743819,0.0371132035657901,0.03946739396295271
31368025.993784018,0.5008343394669196,-0.017175508440990563,-0.0027925778573202036,0.00042621787892976784,-0.007424348952931549,0.004701385769657574,0.004119739437147637,0.0009695837245170084,-0.0035607138247499433,0.0015632885423929642,-0.008366287950705533,0.005662687279310012,0.002964362790938338,0.001736663162805805,0.038470938941126805,0.03659050966381841,0.036111023303600116,0.03652415155681527
31628113.53062039,-0.3538067176148665,-0.1716060017500884,0.005733710529261506,-0.0008100019446045132,-0.015442272895898591,0.0014654333164979304,0.006686424997539808,0.002366705997203921,0.007832641425226869,-0.0006621751619070002,-0.01447179415217736,0.0004949036070066398,0.006532219936251936,0.0002742043456219825,0.03724426138594713,0.034705073883857684,0.03311823465048367,0.03465196229333899
31885603.3249104,-1.4877740019405679,-0.5662359075783578,-0.0024055009115692585,0.003746887501690677,-0.01806690093048251,0.0014684051077349812,0.00815295821415272,0.007104151018471548,0.005292819648364444,0.0032798314532321653,-0.014003121694044525,-0.0025970902097727662,0.00859918844217973,-0.0005716276399494477,0.038831057978214935,0.034396186289388016,0.032055859534121496,0.033630510238349724
32142969.163133245,-2.2181239303241376,-0.9822366564657302,-0.015269479496898112,0.0074781977387910654,-0.01139801919005956,0.0018110180447507914,0.008242024023185208,0.009136258880230083,-0.0028003480683395946,0.007757925723855351,-0.005321683480269133,-0.004270331591804378,0.007942008006647638,-0.003307570590100668,0.0407502120259274,0.03719694156720581,0.034496897176275736,0.03539603458494477
32403203.339018695,-2.550220161033683,-1.4099859188311608,-0.03302901322774327,0.012608498464489776,0.0016318130362095791,0.0018702863269191654,0.009970094977619024,0.006948320422506095,-0.01666849746506667,0.01491364930273894,0.008651231079800514,-0.005150702609299886,0.007648855847463887,-0.00939453615564657,0.04344826222716388,0.04147752965348784,0.035404294502586926,0.03876019143469187
32660664.285145864,-1.996818336118632,-1.5437053035206691,-0.03994251699723743,0.011833318391853774,0.011552211929917757,0.0027922917084408304,0.011580262546712322,0.0021844324203138046,-0.023948863185831296,0.01673750041806309,0.017095565396778693,-0.002751012598589962,0.006657676878815518,-0.013790866909229338,0.045533880144543286,0.044319895865376255,0.03591463771432891,0.04187665788477385
32920842.486539815,-1.463480551290546,-1.0596729310204105,-0.0326903440380822,0.009837435240818154,0.011547618693278559,0.005204151890674058,0.008789183228883824,-0.0026880450155723924,-0.021483255950592677,0.012924490317455083,0.015603151586254473,0.001151467632353803,0.005680260860988696,-0.013876114446496151,0.04451129383154259,0.042069693736108464,0.03604314134140431,0.040818886527977175
33178308.80887822,-1.1401201911601873,-0.591384373905994,-0.022906042249419962,0.008579197148029846,0.008226127723390143,0.005035693619498795,0.005180233127564645,-0.004115209369064859,-0.015875233701174,0.00933400089478354,0.011361598274957937,0.0019032532088953196,0.004411671708947549,-0.011135290386427679,0.04369518482362803,0.03998410630999269,0.03678121420170327,0.03947513341204364
33438475.979972918,-0.7974663562656036,0.0424559201702458,-0.008145412330851143,0.006888842339303846,0.0002565857618447225,0.004805886842359232,0.001417026787435937,-0.005222929400092613,-0.006526094446746156,0.004208125642611962,0.0024025871638906878,0.0026619307063540224,0.004087102371148332,-0.0068336514372544606,0.04156200419357792,0.038090797184775455,0.037358427844738896,0.03796418997753724
33698718.661665864,-0.9792948169090927,-0.22208891616840262,-0.010085772784178888,0.0047154438453986,4.6980130483093224e-05,0.005825178107107247,0.001966799455703806,-0.0024686287545133876,-0.006114271874048107,0.003346092327080484,0.0027095186513702955,0.003164875629405556,0.003320236321158912,-0.00642645105494971,0.03973589827661958,0.03729398252558592,0.03653960794275428,0.03706994977486177
33956132.92002353,-1.3892104399743332,-1.6566804526530117,-0.030520490143049195,0.0016909531804604066,0.00824372641413815,0.0042201789937168855,0.01039978095531701,0.005965850599417121,-0.015200699253048906,0.00916971350443555,0.012165891391792716,0.00030809472907846884,0.002907431405574728,-0.009350431777875652,0.04456592030150296,0.04320605621846251,0.03830494103674371,0.04057666387544552
34213621.01318067,-1.7558438026189092,-3.388383526312579,-0.049644721809833404,-0.003556532334942219,0.014091994295609131,-0.0013902404550032133,0.020374855604185397,0.02012464469998722,-0.020940196007390107,0.014981893789541057,0.019205672094274373,-0.006479287970594807,0.0018272141711564154,-0.008595296077007352,0.055741936079937646,0.05463684057019419,0.04160130655541113,0.045700059239006434
34471041.58174582,-2.123822493101528,-4.189740660221263,-0.05535621468097587,-0.005038108266476249,0.011173179966718086,-0.006470149027459633,0.025734109782719443,0.02995718222548217,-0.01992954314688934,0.018056374717821455,0.017358575036429135,-0.012646760421462884,0.002646788881840041,-0.005485435067701118,0.061577517074385614,0.05985323282953547,0.04305429173418342,0.04709974166514204
34731275.14816843,-2.4054186645053037,-4.364173630250111,-0.05238193595507497,-0.008059148674510642,0.005882378033986379,-0.00602175311485327,0.025698764023230326,0.034881695687223754,-0.015003165059792331,0.015425368507336423,0.0128322466685566,-0.012984498451316237,0.0022213482264807623,-0.0024912998912597255,0.061805171124075325,0.059130887115096335,0.04248810626123437,0.04518044834810613
34988691.259298265,-2.213526430272561,-4.189340547439335,-0.046482915616863844,-0.01042695168927699,0.002352920425443523,-0.004434015250326418,0.024967358443061492,0.03402360368796015,-0.010831382317514236,0.01241347305700654,0.008746112803569918,-0.010852792344912765,0.0021456968161047514,-0.0016211080141903548,0.06249173467090956,0.058468916122478565,0.04451420761877302,0.04591322420716159
35251668.12805472,-1.9224753830061392,-3.6723644036467964,-0.03108693599430466,-0.01398725950204071,-0.008054949228798102,-0.003228790348878342,0.022559218938832917,0.03379871613519199,0.00014299234762236692,0.006086234341923106,-0.0025024912379188672,-0.008804650166705919,0.002488605832797364,0.0025893088822464268,0.05832263876291384,0.05532727058340584,0.045355061722461266,0.04558646831758552
35506333.901978,-0.990254263634551,-3.1428801533373925,-0.016422090525314854,-0.020904689427125398,-0.012424873581398793,-0.0010683612734694082,0.019919211296069435,0.030900803511237192,0.008726232630030485,-0.0017731312837350752,-0.00944590114200323,-0.004054161281323217,0.0007695560199990615,0.005777405057044371,0.05452213370551139,0.05189505083056745,0.04390583174736489,0.04462984103415691
35766495.07964721,0.16165183353831114,-3.3466730191210656,-0.015481006034603286,-0.03013110170117464,-0.00628340961106637,0.0017484050015332479,0.022071618864381307,0.02807549348093195,0.008348852073794408,-0.006133346065081899,-0.006376727699607948,0.0018594395045981144,-0.0019422066133175408,0.004243988799632097,0.059473162760830915,0.05453349397442585,0.046103963134557634,0.046693769552528526
36023933.896086216,-0.02437058992719752,-4.4244492302643295,-0.03686591170044016,-0.03016783420678111,0.005731097688816889,0.0025006806094920054,0.029625549697029463,0.029176417911883794,-0.0047938096856203205,0.0008460113044716888,0.006249881021289093,0.0019927291970436188,-0.0014081415704559352,-0.0028866702667362546,0.06562081910682104,0.061863502387746065,0.04925676131790157,0.04938876649911842
36284145.32405657,-0.6908821368429469,-5.0008059802704725,-0.053839883394895184,-0.024305038521278053,0.014054408988435262,0.0005986611429132336,0.03255118043092156,0.03094067135390085,-0.01598535551838487,0.008796363278044853,0.01642771450384534,-0.0017684281594762415,-0.0005563779890415059,-0.006913916115034119,0.0661517171286342,0.06468914859724323,0.046891596628342275,0.04899677483318051
36541636.34374075,0.09565818343466012,-5.166889613122149,-0.0517170469321312,-0.030585609913947532,0.018821366930617027,-0.0012001643755298187,0.032238315406138245,0.03244313888485976,-0.014564275518612562,0.0060434838357221465,0.019074399097340395,-0.0014704374629646551,-0.004380780731152342,-0.00470238922033744,0.06753618853311114,0.0650947773423523,0.04581372212982664,0.04793529660999797
36801796.69445498,0.7645768695655053,-5.207496004717983,-0.04991317266589447,-0.032438164482256455,0.021314970121724508,-0.005895423174007672,0.03331406416055318,0.033617726039892,-0.014145427368427383,0.006469290785080962,0.019749949854644854,-0.004344711414691252,-0.005571967688311597,-0.0021571341683379566,0.06831401247545664,0.06411700019957808,0.04409134075032692,0.046514302686516754
37059235.79615654,0.5986910051071594,-5.063557470584897,-0.05267383030544475,-0.02661306264033398,0.02341791874316718,-0.009876601407941743,0.032708112386742885,0.03303746322381106,-0.017553213293733293,0.010807607690669713,0.022283924805814394,-0.008750083702651975,-0.004684306486421765,-0.0021039290136349717,0.06686625499766946,0.0637138203071019,0.04381565931409948,0.047500659963852575
37319445.949162826,0.7882061915258243,-5.047212817155453,-0.05114453124814879,-0.02538485496344374,0.021982796391713785,-0.013382671988700412,0.03428067059825945,0.03364859121031475,-0.01660631552421007,0.012483745684624509,0.020337201969357975,-0.01174855710733843,-0.0035545521395928077,-0.0009115228828511065,0.06986740542235337,0.065598741522288,0.04681932017121103,0.050172441245656216
37576936.11592968,1.0290062221997107,-4.977576782253335,-0.04661598196312871,-0.027087251680261746,0.018674868530593844,-0.014051726079470474,0.03489034884120499,0.03418974235106507,-0.01317967695257184,0.011000520583400427,0.01636607792282985,-0.0117618680348851,-0.0031559083860051886,0.0007308548671892423,0.06854139252727312,0.06544506505626083,0.04795856103594712,0.05029987994831782
37843007.926451825,0.3922998492552234,-4.96308926094634,-0.05011948175485745,-0.02130676335374981,0.01630347449219912,-0.015181680203035276,0.03571998379188724,0.03458446702755874,-0.015227121136384037,0.01480079172693664,0.015711882992784674,-0.014602133086281893,-0.0003522052478946826,-0.0003312152491313301,0.06739706455033055,0.06474280160942465,0.04590203994122889,0.04901759676014168
38103244.42485825,0.7901512254564983,-5.3346506270978775,-0.057495692903493885,-0.02065080311936074,0.021462711426596,-0.01801428671271236,0.0410221330778069,0.03367593823115653,-0.02089516247560969,0.01925424329474035,0.019832670697620042,-0.01639726248412984,0.0011593245155602644,-0.0029538135481835368,0.07217755335542182,0.06838945497566207,0.04631176177218558,0.05128805281439197
38363384.314717434,1.13798854297707,-5.452552456518476,-0.056166026623811836,-0.027689080412046138,0.024134363287234468,-0.012962552659897287,0.03982574714767125,0.032857549260852645,-0.019561456814935388,0.014071370676530887,0.02157253730727358,-0.010412913475205962,-0.0018985484476717624,-0.003770989246045503,0.07217126840952649,0.06989084136460934,0.04643708231021153,0.050415578682544225
38612241.54104604,1.860597247710406,-4.510776508963527,-0.032237717996909214,-0.036574005964592725,0.014815639074814197,-0.007776509261852115,0.03122518110208441,0.030547413046457444,-0.004203620025575978,0.0006680171076186372,0.010218423731450961,-0.003185377967949651,-0.00599016939304118,0.002492726547530651,0.06347580405620123,0.06283918073890518,0.047030714400369704,0.047633178838218916
38878333.280463755,1.2812948705514589,-3.452122149117998,-0.013366057351914505,-0.03368857008099533,0.0012949873313571497,-0.007043757986189197,0.021520310568550187,0.03128308751919122,0.008442098640179993,-0.005605506450741613,-0.0018338327191604572,-0.003918862088965415,-0.006540132652844612,0.00945623527154085,0.05594301582317744,0.054111132768814456,0.044505049445255934,0.045443250201361855
39138545.9691883,-0.022978103607029284,-3.36209594970278,-0.021950594937923642,-0.024989417379112498,0.003648123396139113,-0.005685034457140464,0.017264244671988827,0.031712678706047964,0.002397979920375396,-0.0013898635034482868,0.0040239762306469576,-0.006065940473267586,-0.006322942539514869,0.007356790365223849,0.054870143901653914,0.05235418264526727,0.04373785106708388,0.04429681639237537
39398778.73296021,-0.2942819614678478,-2.8323858196446072,-0.02012515057762964,-0.020567453697808272,0.005019161080893645,-0.004113426503522637,0.012050585790196874,0.027736283907870946,0.0010605551276729255,-0.0014975041431588465,0.006075084044547966,-0.0051737870314000345,-0.007012872465746138,0.0065485244680707705,0.0520058537923677,0.04858340920989207,0.04189321188026525,0.04250293447080438
39659016.07351854,-0.5832407416509744,-2.3138644813545732,-0.020147113254640553,-0.01433418679543284,0.006402481599567801,-0.0028818772415268616,0.008464597694959958,0.022496097997074898,-0.0020032376736041713,0.00022795760406466676,0.008191639365838511,-0.004672632463163833,-0.006096694492593636,0.004352967659458024,0.05540061767809164,0.048340685207320905,0.04378400418892804,0.044334913085011175
39916442.691966236,-1.5185095814657326,-1.4462798286849436,-0.01521338675216989,-0.006782695993571863,0.004791982433659347,-0.00029022883032587534,-0.0021551361387343064,0.01964946528114264,-0.001048848781406238,-0.0010890572973845743,0.009020944319438482,-0.0045182894640741576,-0.00786186328780713,0.005497114511217692,0.05714454803110764,0.04805509479124309,0.045567364391891726,0.04625383455399722
40176677.90094032,-1.7143507550157717,-1.424067039366931,-0.015653786363631857,-0.005814801541629332,0.00417128582401136,4.913310016301684e-05,-0.0026438906730983,0.019892059654185303,-0.0011686704891382552,-0.0008559647378301154,0.008926925494750925,-0.004701438178100832,-0.007622436694770537,0.005421584605116876,0.045949945558850264,0.0431331022551382,0.04031009769059512,0.04106768646160547
40434077.26062464,-1.759762350044288,-1.7987727292665119,-0.021527753618782293,-0.005940584635394783,0.006430752121595719,-0.0010806648121249654,0.00041687958526972796,0.021701371359435354,-0.004226405911649346,0.0015243654532810153,0.011345943874246402,-0.0059906046037182074,-0.007063807869552314,0.004410509057366154,0.04503551563163533,0.04286120632175732,0.03868958422185128,0.039764101755211195
40694312.42846686,-1.8274478995882908,-0.9059786089120138,-0.0049443780097452456,-0.0032432112186014076,-0.004411511699411716,-0.0032338540991847355,-0.005540059771373401,0.021373014798316547,0.006081485256219501,-0.0022603834628595297,0.0005951998404125257,-0.008241777919258383,-0.006541390239618091,0.01036686652510511,0.04723397653610768,0.042959934851207277,0.04073978290748483,0.041790675234732566
40954592.52379937,0.024955271735319768,-0.6655625582865105,0.009996639620968063,-0.013624937012994642,-0.007531749344675595,-0.0042659947423925,-0.0023128895868136426,0.01773893106591128,0.014746554198559289,-0.008867741344013018,-0.007537146347412927,-0.004260674883163828,-0.007070718595429397,0.012989726971482343,0.04518191751584942,0.04184709580938258,0.03903977031172263,0.041478981732162995
41211971.21672951,0.7125760777278416,-1.5546872167087948,0.003697008785311147,-0.022003698182739204,-0.004427720538947235,-0.004127481351281087,0.00614586047525929,0.020716030812399172,0.013189566762999818,-0.008958497782709478,-0.006201270469352949,-0.0023547264975716992,-0.0068919607046401855,0.011216888691288307,0.04446979474720928,0.04311334901423671,0.039032609779670546,0.040993602089273835
41472205.194827884,0.4356291157980487,-1.8125000710781614,-0.000626356392484081,-0.022763593466223395,-0.003908518908623358,-0.00173601130026204,0.007602417311615557,0.021432062755979187,0.011410179289269429,-0.008725799733241476,-0.00491130930207738,-0.0007314962876958635,-0.006436748697822664,0.009395174731551078,0.04458118794613471,0.0428707225214253,0.03854095834666949,0.040074079816750006
41729621.608693786,-0.37139488271528126,-0.8834254717581627,0.006326065967848302,-0.014929809706459478,-0.007958000227648235,0.00012424368416780323,-0.0014581173876612986,0.017895617669750754,0.013624674323867358,-0.009813917561483162,-0.006875588336790754,-0.0009563444697178559,-0.0065850446819910625,0.0106062207260953,0.04084626977491224,0.03942416611842504,0.03657503687941097,0.03872468127879899
41989865.131817475,-1.8199052569326415,-0.7374931322712167,0.0033421335418863836,-0.007300221676559367,-0.012608122644619683,0.0011412183013696376,-0.0055661411760906535,0.020991133654006993,0.013139406314423546,-0.007487119016025916,-0.007642153562779989,-0.003825541084393568,-0.005408475925784536,0.011223883274626395,0.04206124572312575,0.040119380716271,0.037103432871851506,0.03909883511593477
42250101.897912756,-2.7672351900062697,-2.123329258053615,-0.01965333918875404,-0.008530048880980743,-0.0030059728332451764,0.0015168844554657418,-0.00022244987561637587,0.02989492632313446,0.002468151725416755,-0.0017504726306945752,0.004650194196865839,-0.006143384353838323,-0.007025233763705629,0.007800744825945109,0.047942322576761,0.04579878719731118,0.040493467913088756,0.04121228783829048
42510340.82677677,-1.5363367847649354,-2.5192536271961865,-0.022721086068935352,-0.015944409275179153,0.0051875712945443995,0.0018008093218747198,0.004471475900737071,0.02720563882695554,-0.0007583476919127807,-0.002757294506333961,0.00957242740808733,-0.0025759087363325106,-0.00873580753030524,0.0052549310567625305,0.04641809074819896,0.04526155585036192,0.039018416341034375,0.039892122208935184
42767749.656446636,-0.9890944333417891,-1.6161397451484796,-0.007559707153507073,-0.013576256400140995,-0.0024195960170415596,-0.0004717856919651665,0.001637204488394065,0.02239014077426183,0.006546181239263327,-0.005125175370438635,0.00039602031517690185,-0.0032873840018253185,-0.0068286870193603475,0.008299044837170021,0.04182149077790299,0.04017676791639716,0.0368895884893006,0.037759613284451085
43027987.9188222,-2.117001461816201,-1.80429894388347,-0.01819494369319904,-0.007871538004610849,0.0013158261971356075,0.0014124860246560106,-0.0007109677216346076,0.024049137197652802,2.7525127473847706e-05,-0.0014218703048198735,0.0071933947547052745,-0.004464940879961675,-0.007179884524424312,0.005845775827018159,0.04466335308751086,0.04295841425601093,0.03894414312840161,0.03961644050539524
43282569.52023274,-0.7178463066601501,-1.577835040030923,-0.013208265966030974,-0.012172745495587752,0.006169847952167209,0.00016120157334759247,0.0008031839846781881,0.018246777951424428,-4.9185732356040494e-05,-0.003188152180787911,0.008255238654682258,-0.0019222169761170867,-0.008189494641793523,0.005093810876383493,0.04631968191636229,0.044883146251409586,0.042187424350280944,0.04287658087686291
43545638.589847416,-0.10423757415393495,-0.8252759878942717,-5.584987870212026e-05,-0.01002271910199798,-0.0008527941286372236,-0.002457921355220664,-4.890827037449482e-05,0.013438192734934278,0.006164516073379422,-0.004521914393815559,-0.0004952864567641809,-0.002815803054315031,-0.005551298100823234,0.007219785932354139,0.042948089213784235,0.040875810024028555,0.03967616843546699,0.04029914675592748
43805863.91272971,-0.7174599886553864,-1.2907830024673346,-0.009557074533878563,-0.008944153058891086,0.002960325992393513,-0.002173732571717641,0.0005290187130415364,0.017185615459052835,0.0015279337819801618,-0.001976018843090319,0.005014707381752095,-0.004228203136385498,-0.006445516113784409,0.006107096929527672,0.04350275997261534,0.04116377144519364,0.039140858435806926,0.039687481049852265
44063285.55127965,0.02729470835099873,-1.2288580514165572,-0.0039020104285720234,-0.012004311080705522,0.0009916980078386445,-0.004344314526026089,0.002768991277958143,0.01648994674950552,0.0049122626423136004,-0.0032740212577044513,0.0010331602902110431,-0.004386367746632067,-0.005959853675733727,0.0076748197475793355,0.04436121758018522,0.04182040679184105,0.03993846722012663,0.04055838891862586
44323524.849212065,0.6879241936556952,-1.2678384330887102,-0.0033803829452728877,-0.0143011099363232,0.003223339224868361,-0.004893418426429007,0.005356631133484949,0.013994940949670596,0.004098104796480238,-0.003345849936151602,0.00148884742659489,-0.0031605938204475187,-0.005589577994689832,0.006509069528212284,0.046467943411861966,0.042557416690432184,0.04065052779169867,0.04111152643873098
44580929.82067776,-0.6457476006901051,-2.094016203631751,-0.022402267216105685,-0.011257976680502005,0.011309732386273311,-0.003129821908938435,0.005483214980579828,0.019997118438691796,-0.005693811049530363,0.0015741960474978825,0.013252502879060697,-0.00506881731491915,-0.0073520044587153015,0.00328793389657523,0.049264725190923654,0.04540982991598711,0.040731534247082736,0.04193723492658937
44841134.522633836,-1.772384063887673,-2.070703572007166,-0.025368660927038086,-0.006047258695664756,0.007948427984946793,-0.002460297210658223,0.002669792102202222,0.02325799674621171,-0.006074740059254972,0.003301449341855429,0.012927496045378344,-0.007435480485985918,-0.006684456060968535,0.003965731218989024,0.04639730557509383,0.04432833225861794,0.03908855778288501,0.04046507357512466
45104195.62148772,-1.8760797839720498,-2.068270955253685,-0.025593705268881408,-0.004330801189332453,0.006374511636882018,-0.003705579452378993,0.0036025456456713753,0.02365302862803927,-0.006063334157676001,0.004696777515378705,0.011630809672082578,-0.008961032247465337,-0.005426964650384296,0.0041237438680536915,0.0470490134133367,0.04422271635776942,0.038954613978588896,0.0402929800294082
45361606.83421256,-2.251603869339874,-2.1540301911811732,-0.029483371246626717,-0.001746816498075291,0.006980725025934129,-0.0036900127356955313,0.0038231087856836162,0.024116366668776194,-0.008421396974114054,0.006776699963901139,0.013261175022291466,-0.009968337407884281,-0.0046987290151664545,0.0030505884109455024,0.046625534523356695,0.04394356538651265,0.03762951384680672,0.03943722788516797
45619057.16867403,-2.313523495708247,-2.082930422244166,-0.028738179666619935,-0.0014283569833834513,0.006924786896335365,-0.0036402732636768315,0.00261759061103663,0.024264432406309207,-0.008037972529508585,0.006408466693139356,0.013365459826554451,-0.010077737582533107,-0.0052227843455231225,0.0035645679378581313,0.044989318656777834,0.04344676313416673,0.03726567708056172,0.03909030837306234
45879255.84867115,-2.042642327136476,-2.0377117413073877,-0.02866872930662703,-0.0012334582257756378,0.008390930480381488,-0.004330049992808338,0.0034003775351701565,0.02244092950965633,-0.008958789921793798,0.007084689265169278,0.014096591675436646,-0.010032614738746644,-0.004919641754273739,0.002729765474195042,0.047889503029053954,0.04498685728293417,0.03926414113089384,0.04112253726460222
46136641.63675186,-1.7133013330440514,-1.9905703734513498,-0.027437877696530714,-0.0016640612587112782,0.008803451366562673,-0.005419711281693096,0.004380964361841586,0.021337234508528653,-0.00887300760397828,0.00729713554512461,0.013613907359278844,-0.010230960031390223,-0.004577714255867967,0.0027706389869102863,0.05121420247957005,0.04637677249574122,0.04122978958286424,0.04297679680832752
46396902.365395,-1.6630767169171379,-2.032647527477827,-0.027406451398521953,-0.0019290575075007702,0.007639625461500596,-0.005101490864822353,0.0058077575934666024,0.020989616715873616,-0.00865599982136943,0.007479093680691055,0.01231733353285709,-0.009783159901943063,-0.0035944760366510755,0.0022372085464164803,0.05648614908124786,0.05032121152627391,0.045711570642929314,0.04710788549150921
46597531.97094874,-1.9233634928734964,-2.1074346514303537,-0.030129181681724456,-0.0006871183754496884,0.00782586223426048,-0.004138576867365677,0.006203456170215625,0.02092555852006204,-0.010202403770842309,0.00847860260336552,0.01321595487460386,-0.00952822830281752,-0.0029593482905022413,0.0009954228861946655,0.05784672716521026,0.052538623284969665,0.047630030781248396,0.049152336726400805
48077114.7519053,-3.3439358737312257,0.40866681435805385,-0.01764766649984494,0.03508237514670288,-0.014851891143533453,-0.01437852124183203,0.0038601301848784518,0.007935573553630022,-0.011922088429795436,0.0227573345974716,-0.005837650360455727,-0.02339717822644612,0.016155567582397543,0.002244014836826093,0.08527145558075604,0.07788121904635818,0.07344069855546038,0.07671016330098208
48212892.644733466,-3.784552439556149,-2.0061146906386016,-0.07015228363606826,0.03621067685435845,0.02219188425034398,-0.019476592165973708,0.014538340747405705,0.016687973949938643,-0.04621642131244984,0.039566087789458325,0.032513961243440775,-0.029773014550707237,0.011168511104696428,-0.007259124274467064,0.08929697912764058,0.08167472331485312,0.06473053576469591,0.07855698613805413
48470376.73961666,-4.169902016739754,-3.942534515662631,-0.1069120671286709,0.032367500061840734,0.0519945322761758,-0.021823526394346374,0.019711482942919883,0.02466207824208037,-0.06822642737756811,0.04807900940029141,0.06351251989493573,-0.03332575999242268,0.00397495113844278,-0.014014293063404846,0.0940638325271919,0.08845142756578406,0.04608670625179506,0.07972717246477855
48727869.35362424,-4.202093317746679,-4.173990408260012,-0.10537418814430859,0.025194168148183305,0.05066776480533081,-0.01727416485510957,0.01966783464892162,0.02711858539698946,-0.06491082302978503,0.04247871891004195,0.06229641890415448,-0.028896882432692075,0.002375079197632188,-0.013342511549300608,0.09582149732495057,0.08764708553934983,0.047169055079452654,0.07768343179149101
48988026.13796572,-3.954843354386299,-4.409460743471005,-0.09946644108739836,0.014602034506739638,0.047011613409567284,-0.011170454261828588,0.019100986677659058,0.02992226075525916,-0.05791642523041,0.03425521045287445,0.058000311484951335,-0.02210026595671145,-0.0005871976857636854,-0.011651633064904184,0.0947637906905785,0.08622969311170142,0.051055956666211905,0.07483384300467807
49248223.90951872,-3.7837791613487908,-2.6475733375669,-0.06494812962336699,0.015368761200279977,0.026008102776725262,-0.0038536767565662358,0.007585913587097445,0.01983902881583253,-0.036526116734975,0.022999456528438107,0.03640535927358937,-0.014262431931756659,-5.4919608609514796e-05,-0.008561347526630599,0.07660080373719298,0.09199757259961877,0.0549839239319666,0.0647847366067514
49508465.56368795,-3.542812721707484,-0.5068945388116383,-0.0310350954980246,0.01723938169242223,0.009374727217528167,0.006635590304928298,-0.00742752974177321,0.0052129260249190075,-0.018696615253508832,0.010372440671329844,0.018985912516825985,-0.002966546093712973,-0.000591328857396793,-0.00710386298357043,0.04857666070473127,0.05908863409269472,0.04052381708255038,0.04391788643351017
49765923.76154275,-3.8472319361085088,-0.19273170190597197,-0.029443151170220498,0.018562351364220873,0.008905769928659633,0.010996842245173881,-0.010793284183867166,0.0017714718160365243,-0.01864384497100437,0.008563016748910688,0.019312719877899887,0.0005982183370447505,-0.0008304482950545832,-0.008999661697737369,0.04117508279769999,0.03971710836787163,0.032704109583344784,0.036880254420286994
50026160.27672018,-4.1704737190151935,-0.1364935919657847,-0.030789641039719685,0.02112043344624289,0.008612737061081017,0.01062861166110086,-0.011768492268986462,0.0021963511402775166,-0.01960987030655219,0.009770366980139365,0.019889577213593673,-0.0006406697075465378,-0.0004526392954553144,-0.008956764884259796,0.04267737625715322,0.04080853941586058,0.03307903180925495,0.037556554596324496
50283530.117795125,-4.0975345647012,-0.1151526900056551,-0.029486841015379368,0.02103400828313144,0.007459469383399666,0.010302626575547522,-0.011229040295595759,0.0019197770689004133,-0.018637205625589345,0.009751154358694244,0.0185373647365918,-0.0007683486267214389,2.139111833996169e-05,-0.008904355961333271,0.04589121511327371,0.042099695371995316,0.03518994328359825,0.03906769861566527
50543767.36372524,-4.0851562850616325,-0.1490762759726584,-0.029647950179767943,0.02141859754430758,0.007219515207785887,0.009043139459780804,-0.010908736845048785,0.002875434812947336,-0.018577926582408172,0.010415149698162823,0.018266454804064674,-0.0019986415117656357,6.217209715761193e-05,-0.00816720850520299,0.047851078108933305,0.0433837426164113,0.03678078759472203,0.040463548075199626
50804004.204582006,-4.215772492182357,-0.1032951587460804,-0.028651019585982956,0.021781906796126876,0.005942962849194932,0.009015200365111714,-0.011575646374919044,0.0034865959504665404,-0.017598351904306916,0.010067301004911907,0.01733934893534868,-0.002376730543421328,0.00010867120942470393,-0.007540238701948191,0.04422147902376542,0.042386489887801936,0.035293113545457264,0.0387682710226092
51064179.44150412,-4.307528886702867,0.14712306276302944,-0.02267320179020063,0.021284381553843736,0.0021673147016705177,0.00924132262227821,-0.014257629666587609,0.00423781257899572,-0.013211781654212279,0.007525316897057976,0.01378087046225372,-0.0023740720863141837,-0.0005257639160997685,-0.005194569702643528,0.04258580476237775,0.04064697173836962,0.03439705019933169,0.03652323785216477
51321661.58772722,-4.312129843767056,0.392417294860548,-0.016321808914167145,0.020958989482211896,-0.0026150002485282055,0.008976176751944646,-0.01578260043802332,0.00478424336656299,-0.008623830395310096,0.005455545261835589,0.008978776779035953,-0.0026272179200262317,-0.00030204190602430204,-0.0028812318195027297,0.041743197769301445,0.03845397278771897,0.033484783853956764,0.03446016928026618
51579082.52331778,-4.0995708393627,0.23605738348874197,-0.018000659234828745,0.019926462965950246,-0.0005781868496501863,0.007749138943042025,-0.014383458603537723,0.005286702779024654,-0.009696426627260474,0.00615003117788044,0.010457819964692718,-0.0032964924668861927,-0.0006260544747871944,-0.0029888775736169656,0.04302408061859375,0.03995769768483924,0.035422558200458754,0.03662764119561654
51839311.029815055,-4.131724968706002,0.2038688829815696,-0.0182736926948139,0.020242074280511904,-0.0006870638802814084,0.0070722553024705655,-0.014297421308130186,0.0059438483002458705,-0.009655654556742247,0.006597481445589281,0.010436188188254926,-0.004063907256386611,-0.0006728929123342755,-0.0026412149084010248,0.042776349324156145,0.04108275379314712,0.036617065688878375,0.03781817017921751
52099552.8522328,-3.3158164705410216,0.5514074833083626,-0.008341555372879709,0.017121899122351344,-0.004126970108851017,0.005710332131865856,-0.014174906167931873,0.0038112003954458456,-0.004215598801282967,0.0034396035724512603,0.004753185926516667,-0.0031835263089499575,-0.0005189518917831573,-0.00027471249694283083,0.04108766545464425,0.03845197378218788,0.03560708067299425,0.03589739807091013
52359733.221599795,-1.2346186081280601,0.9685566451770969,0.007490258441232677,0.00915689054454166,-0.006950334193254499,0.0025643157218612606,-0.010287445792944537,-0.0019736847214378954,0.003513365015492288,-0.0013110445556651319,-0.0037187872670650843,-0.0006716190043627089,0.00016463330409709263,0.0020234525074975564,0.04212032970749922,0.038471592129155685,0.03711255727662318,0.03725615810121939
52617143.12504823,0.041613481425949755,0.6437050021099,0.006174555173149381,0.0025589326090056327,-0.002108210127054806,0.002941056367434406,-0.0035849485189632414,-0.005981385503571405,0.0014191634074304555,-0.0018449376204310868,-0.0022813241141234936,0.003113629695200427,0.0008217593405495386,-0.0012282907086236076,0.04174442221857009,0.03849066898804306,0.03802505737634464,0.03811843355379658
52877378.18781109,0.1309818758397158,-0.14427435905610386,-0.0009412251420973398,0.003752255037037813,0.0016670323248094922,0.0050896978964068175,-0.0018379448560755663,-0.007729815260081175,-0.00045633067716351647,0.004683050565215392,0.0014449519133046007,0.005321167308261224,-0.002777656255959599,-0.008215182853679243,0.041954248326261975,0.038619601086885426,0.038159351090358604,0.038596757903327054
53134852.95479412,-0.03645133782342505,-1.0094774095483108,0.008948559126322026,0.00911599461980335,-0.004337799518754922,0.003991051028195812,-0.0027205176922566166,-0.014997287563308846,0.006061787705367988,0.006320234647947988,-0.004388064961204216,0.004099367319784336,1.654022207162948e-05,-0.012109864933956745,0.041693566940881936,0.03991096890941822,0.03808200371852535,0.03902334384621172
53395032.0918539,-0.774473257449281,-1.6520992372835426,0.017790747059579275,0.008122316198939257,-0.008274619355865242,0.002800431641652805,-0.002763846252813981,-0.017675029291494282,0.003951785226324886,-0.0012207015599975135,-0.010511679285803743,0.005043060797852046,0.0065816153070810835,-0.0038440804854769396,0.04261477175048299,0.0410757966565188,0.037747702056402446,0.038665052151752456
53655209.29172384,0.4174503833704209,-0.9245570893403295,0.007452217853225711,0.006889693164651566,-0.008214271071157991,0.006349846894702251,-0.0024249355462827673,-0.010052551295140053,0.00178801005209313,-0.0008434853435290073,-0.007177217247722064,0.005311512816458288,0.005316379836369193,-0.004395200113692484,0.044333757035564594,0.03913504522390471,0.037745968863017086,0.038318216401091273
53915374.61269663,1.500923239815851,-0.32090721265555655,-0.009107619564912656,0.009772776082832798,-0.0009934257929288606,0.010548922299026101,-0.0019044058901919708,-0.008316247133827337,-0.007774316354392077,0.0030967624006116015,0.0030196424368020853,0.0065296290214455315,0.004794005150832161,-0.00966572265530263,0.040697445879528595,0.037968940087533015,0.036334992828848445,0.03740895578916343
54175635.694662936,1.1834929750525875,-1.0541743817821194,-0.007379214597859322,0.017167090758132476,0.002542396401906769,0.00948101623718656,-0.004366109556812113,-0.017445179242551782,-0.012117654468287276,0.00626562210512243,0.005631588989590635,0.00638980956325389,0.006551470128163268,-0.01272083631780086,0.045203885679289416,0.04260768388623562,0.03948929599693342,0.04139434785587103
54430344.45634808,0.3992323207503555,-0.9904674486688567,-0.0023344427795739977,0.013306498512098544,-0.00022069823914343758,0.007041506686840601,-0.00029202381242040296,-0.017500840367798472,-0.008521599963053498,0.005163246978596826,0.0007608657815670728,0.006059353157245225,0.007858749203972552,-0.01132061515835642,0.043403356929154424,0.04202218815059274,0.03982921994615156,0.04116278104492485
54696093.07823432,-0.3415736636770724,-0.3648288388824809,-0.003002268774599407,0.005690463484842254,-0.0006784052331233025,0.005330958848808287,0.006629586711029854,-0.013970335036958059,-0.00647111765791433,0.004131347908179284,-0.0016329033144670344,0.006286437532333655,0.0081872738440507,-0.010501038312186007,0.04153988555102652,0.03856055208594367,0.03720262640846427,0.038426393834656784
54950753.98419776,-0.6986672518807794,-0.9464504831756456,0.002325626908513674,0.008351292629666275,0.0015026392073120745,0.0035175589631689817,0.0021323612053454747,-0.0178294789140071,-0.0062166164843053965,0.0037528378258629824,-0.0004677156617682636,0.005490534440095052,0.006727547280079429,-0.009286587399977652,0.04705611363980479,0.042517843009324464,0.04086948119353398,0.04173103623957933
55208208.35092947,-0.4618490255384585,-0.8986111463005639,0.004364187765842737,0.007927570678867448,-0.0018489314899540626,0.002556965012784911,0.0014604729092725162,-0.014460264876813868,-0.003256808467856395,0.002967280428388114,-0.003175750764548051,0.003886715135385612,0.006418991007793774,-0.006840427339168852,0.04713920214668263,0.04228782521888459,0.04108290137773111,0.04161165515086531
55468396.57284564,-0.05424218387540544,-0.365570085502216,0.0023214809343238933,0.003647604570178655,-0.004735250328974964,0.003211815839627163,0.0029232247802622956,-0.007368875795415601,-0.00045352426617600205,0.0012356389746420342,-0.004915182049878193,0.0033926728405769633,0.005335278739382859,-0.004594884238541443,0.04477518598377145,0.04058866931275169,0.040121976841483956,0.04047550145000965
55728587.07997084,0.13308994272231833,-0.34491580043288816,0.0019737375870564813,0.004040521993646839,-0.0045244694285742045,0.0025537480577226793,0.001541417070968195,-0.005584955280820099,-0.0001949580882964279,0.0012217263418620348,-0.004198521904811455,0.002227515685460222,0.004361870849278834,-0.0034176328834873786,0.040307072358017844,0.03805050116953169,0.03769894736013836,0.0379369839953063
55983270.514905095,0.35362769183238313,-0.2142859468195317,-0.0004301654609761392,0.004290741305898861,-0.004388048389183962,0.003138515441771057,0.002047480521807175,-0.004658523419317874,-0.0011165883096328352,0.0017417877930614154,-0.0034567517904539077,0.0022052404273996723,0.004600452998232427,-0.003974141118597561,0.0369925224845747,0.03543276190070976,0.03508808110871179,0.03535801401424394
56246266.08170825,0.6422796345032831,0.08839575652911373,-0.005556790565018654,0.0037633550840307024,-0.001881197960954799,0.0036836090764288403,0.00222430441919384,-0.0022332800536803577,-0.003352363910360905,0.0024948646102266924,-0.00014441108349415313,0.0019429041854550964,0.003501168122877098,-0.0044421619247088226,0.038101994667444315,0.0361333419946388,0.035800139029439716,0.036045003068518995
56506418.13845076,0.8994313860939979,0.4613111915178706,-0.010777343773663945,0.0027971777429281488,0.00025185567733941003,0.003561920717424991,0.003134661786510492,0.0010317278494613687,-0.005252956697849164,0.003397136419345286,0.002716443636261149,0.0010913712156274008,0.002548982058951312,-0.004500976632340009,0.04293863496684111,0.0382079622882662,0.03755082619065378,0.03788056495736435
56766514.69094842,1.206270772885725,0.9256163801019275,-0.014111628088703261,0.00034565329157702356,-0.0013337543993814681,0.0037126023759512655,0.005413562701095904,0.005973564119461328,-0.00448574120650699,0.0033095910922985336,0.0020007058989907575,0.00036934193095916243,0.002470553119475456,-0.003664450835222792,0.04510427283430524,0.039340883834803095,0.038123605500942466,0.038362083399661795
57024063.51470001,1.1810052016066501,1.1694065360705892,-0.014975868610081057,-0.0018775885609057024,-0.0014259130262102534,0.0030544817137698774,0.006495110631235666,0.008729777852191355,-0.0036487668971786334,0.0028743742491653245,0.0018636272995801503,-0.00024375990886585795,0.0017626813308417354,-0.002608156073568677,0.0425803834634575,0.038597047946703815,0.03699554735423973,0.037149377729335714
57281570.47763348,1.2915185851138835,1.5161717601996452,-0.017998110896478504,-0.003448661601812345,-0.001592838089773611,0.002571206710306121,0.00872618992855546,0.011742213949203814,-0.0038945326484892827,0.0034220662303182598,0.002026498708077531,-0.0010599187304866507,0.0018804637289373113,-0.002374577288375304,0.04201763037263003,0.039087901781746065,0.03659185133350752,0.03677690552793496
57541715.32910259,1.1018292150935862,1.6201084560693582,-0.016892960160560397,-0.005708443003087899,-0.0029496836505701622,0.003083185563612071,0.010511129817327266,0.011956771433280153,-0.002499722013946726,0.0024531145126561837,0.00016778574185625657,-4.450689411055525e-05,0.002370856189756186,-0.0024475275362119443,0.044138120700707204,0.04016727121547911,0.037599753536508435,0.037700416387550575
57801941.71752442,0.5751407845332633,1.0903668217815943,-0.00985316708070518,-0.004573979085165677,-0.0030476261320822153,0.00137676780260782,0.007932267598211291,0.008165736897136202,-0.000569311283385624,0.0014066483909354905,-0.0013978906232581,-0.0002783790877392237,0.0019609758653530715,-0.0011220432619057116,0.044346184642695546,0.03964479704967195,0.038517198498021675,0.0385541889857907
58062181.327683516,0.23238271810352845,1.225029736970588,-0.007971367991381852,-0.008367831539870918,-0.0028391055491350514,0.0008428465752542473,0.008546023165566768,0.009789435339569419,0.0014500093937907946,-0.00043256714320265895,-0.002098982783261183,9.922621855994854e-05,0.0006148078310018283,0.0003675064831111938,0.042674646293632164,0.03902004776484354,0.037648790938831354,0.037673909308558046
58319606.672276184,-0.19649449035295205,1.5022567392910136,-0.00909531493114237,-0.011506335504568966,-0.0023389137592989494,0.0004814176065726587,0.012574914519293623,0.009884232069144634,0.0012859786237026,-0.00035836627859272505,-0.002726568005935524,0.0008683576214545319,0.0014244258952310154,-0.0004938278558704558,0.04086177021448358,0.038717991469617505,0.03658337432312857,0.036633169613000525
58579841.17286775,-0.5300548760636941,1.660516309318366,-0.01015881250145117,-0.013938009244662227,5.478739705584469e-05,0.0001811334590142679,0.013914369534850056,0.009946531355193773,0.0005550593320324613,-0.000693950714586725,-0.0012158819029098901,0.0014536411698563877,0.0006624615821833513,-0.0007613294665649772,0.04156709224312648,0.0387527463485239,0.0360831815052699,0.036107534796244116
58837239.88466103,-0.7864280775451556,1.7270636828626973,-0.011445194875309515,-0.01564181913226853,0.00255537391726104,0.0015641767687889763,0.014791250053792197,0.008176213267738016,-0.000875280315890356,-0.0011772208379210772,0.000601196212201308,0.003520946410826608,0.0003151760215554074,-0.0023848174907834803,0.04431717199760917,0.04017057500505232,0.037245817207935815,0.03733698771555851
59097475.85257605,-0.704793520543646,1.608060185636068,-0.009967203941782935,-0.01563637744349347,0.0033509048962074716,0.0012671058803392192,0.011854829600241146,0.009130741008493246,-5.873077483312063e-05,-0.002249666025760236,0.001606982083897169,0.003013109788355052,-0.0015411987269064848,-0.0007704963447470117,0.04312319150843519,0.03947596400100672,0.036895961102589074,0.036982322561291255
59357683.24587874,-1.2149248092607108,1.1899674964790525,-0.0031304461636594205,-0.015987188021602823,0.0037303408975429106,-0.0006907917478078416,0.00883994700036172,0.007238138035164788,0.0025126650248422167,-0.004038412629288593,0.0005742041462742522,0.0024693210252020466,-0.003123158557670551,0.00160538099062346,0.03987173851567809,0.03778012293299033,0.035896645082411346,0.036085596847367944
59615133.47324552,-1.7858713434141948,0.6913230768458382,0.004069738128410947,-0.015595869375072048,0.002895222080342235,-0.0014642235973599076,0.007260313961826288,0.0028348188018542286,0.0047155485288762344,-0.005470098356499799,-0.0018465867259252154,0.0032823620758698257,-0.0028829560193510606,0.002201730497041515,0.0381422379898235,0.035565923017946595,0.03396686604324461,0.03435564552348264
59875366.90968439,-1.6414541545605148,0.14532227535617034,0.009406228027746901,-0.01229070087780359,0.001355816598549249,-0.0015417590192090506,0.0024959042018788094,0.0005745110688382759,0.006454363812950568,-0.0064307087193192225,-0.003048437490799788,0.0028675225226707478,-0.003378424647820839,0.003535684522313592,0.03698629113246264,0.034189963795421635,0.03294742900575165,0.033570564740174995
60132740.80660539,-1.5866906661431324,-0.6598806735581154,0.016453611372092395,-0.006240828758186872,-0.0005386722116174037,-0.002784481552223707,-0.0028546859359429135,-0.004034942914121372,0.007810745470238499,-0.006207226934794255,-0.004871136895141167,0.0015544081753923371,-0.002901111780006785,0.004614321964309071,0.0370718635237032,0.03439475821648153,0.0326901337458999,0.03346827932961078
60392975.75511108,-1.3658328968534228,-1.0078315829736617,0.01816129697449954,-0.002428886351399097,-0.0007346747881093502,-0.0035055530816534386,-0.00612921404256603,-0.0053629687107716595,0.007540946837461785,-0.005497487201783403,-0.004505193689902487,0.0002724904112843045,-0.0030745726381119693,0.005263816281093616,0.037602145289018,0.03554766930234433,0.03352158606696573,0.034227607813342956
60653211.2183735,-1.069239013866888,-1.1543186289073453,0.017504428695008,0.00023414638270023822,0.000548550016575701,-0.004251890403241772,-0.009059979357337402,-0.004975255333704002,0.006550429123072863,-0.0047409885167991606,-0.0024390598349762114,-0.00125715142197473,-0.004098556760150767,0.00598532741082354,0.036686617178956965,0.035374987868354295,0.0332472352316854,0.03386665171256925
60913457.56535864,-0.2065718330158312,-1.330070347302217,0.014801248611551333,0.005566565718695039,-0.00030347862963683,-0.002856596195827289,-0.012478142148926525,-0.004729597355855743,0.004683363998753396,-0.0031849515668289476,-0.0009877371920345456,-0.0021693500791182424,-0.0037332905282892173,0.005391965367512837,0.037658025144209545,0.03600841730678112,0.03388071168644931,0.034267102009729176
61170861.72936037,0.35769397593154545,-1.381134414988538,0.012181030022020626,0.008257624352499066,0.0005654352172430289,-0.001929829834466329,-0.01527879860250793,-0.0037954611547872984,0.0030711326067328006,-0.002512675928227974,0.0013916332002726973,-0.0027578188274012348,-0.00450837377327929,0.005316102721900536,0.039437051157723724,0.03672055690903012,0.03448445627470671,0.034827674095019814
61431108.50224807,0.736393177160386,-1.13690331794894,0.005657593187073154,0.008654083720261458,0.0050328615927870855,-0.0005495861746558566,-0.016285141052912965,-0.002509811272552263,-0.0007691215396621855,-0.0015117640290024112,0.006902124551750681,-0.002422085615387966,-0.006112546944873143,0.003913393577170883,0.038335306488072804,0.035635594335972534,0.033669505645891364,0.03419665816896404
61688511.591828026,0.014227285215376894,-0.8221037134305075,0.0005813653428829698,0.0037658068139722646,0.012737223338950353,0.002258134120363886,-0.01309159058179843,-0.006250939034373118,-0.005324853933229411,-0.0020592176064639276,0.012692303060575312,0.002302714147823764,-0.007268971312236271,-0.00034197435645348103,0.03649599119732113,0.03473844312064605,0.0328118629857715,0.03405939250417804
61948751.22670347,-0.9999491399526473,-0.4843406487390508,0.0003101066169482185,-0.0025329391308742595,0.015225646674236037,0.0021007938354847167,-0.007202462749556752,-0.00790114524623672,-0.00561764214300838,-0.002995447518868554,0.012478344168174518,0.004846372111440976,-0.006754947951234314,-0.0019566786664841182,0.036437914880315975,0.034570528168602024,0.03281410075835216,0.03414813483491676
62209038.11084248,-1.7694900560749707,-0.38037923794639494,0.010091350626572492,-0.00945202272449239,0.007689417039382243,5.911646628598635e-05,-0.003380044342849673,-0.005007817064900278,0.003037824560429748,-0.006913118768944301,0.0028826726389044087,0.0048660486727697795,-0.005938844392220949,0.0020654172890384338,0.03834506425867942,0.0358614338592128,0.03449739881235637,0.03511063097270883
62466446.386416614,-1.1173752159994963,-0.2070955202570256,0.011177968660295513,-0.007798878556760133,0.0002085872815306717,-0.0022536900022572144,-0.0023313748029862046,0.0009973874201760326,0.0069594295153153456,-0.005964568768386661,-0.002819365823926645,0.0007790300798406715,-0.004179269351534385,0.005224744348692501,0.038734120040578836,0.035581678675842214,0.034637875824198604,0.03529319983941394
62726730.58623436,0.19457030931636138,1.273892963292321,-0.010377302999446298,-0.011241625171574923,0.006027212975213119,0.0010954084865499943,0.0023673679256869993,0.012128938783571725,-0.0006969352884283199,-0.0028552735456759014,0.006681296638063646,0.00044347629120132986,-0.006015646663474098,0.002443082568319588,0.03941586364387815,0.0371681510228085,0.035204799761848087,0.035647759600728114
62984049.75911003,-0.4371560305554403,1.1039143439591845,-0.008069038633075665,-0.01126791822851289,0.006950830278205713,-0.00014912373255429465,0.004325572192510516,0.00820967812342621,-0.0011527916144247227,-0.0022162955683652313,0.005883801335647154,0.0009203013196404399,-0.004730992822243806,0.001295977349749915,0.038519359431014207,0.03601410887807941,0.034451242286827194,0.03475925234437711
63244288.80700857,-1.8190469906373163,0.1275355830011743,0.00771786155956616,-0.01027465479899856,0.0034708168080531485,-0.003916301741414617,0.0034124281509140073,-0.000410149978119536,0.004208290825952175,-0.004021032317194157,-0.001412244221735354,0.0009753911647027341,-0.002864081638484726,0.0031136761867537875,0.03704577720217902,0.03518104621224179,0.03419038350012444,0.03445442772238744
63504573.7751002,-3.1821375590528542,-0.35031864342136876,0.020861223909128628,-0.01512671299037116,0.0012370290015308605,-0.006058305709261773,0.00362969454652914,-0.004542928757553746,0.010562556224394542,-0.008212714766702156,-0.007356730176995314,0.0025488950860911327,-0.003309664298436728,0.005767657931645701,0.03741246428353498,0.035741187332002225,0.03208012624599714,0.03353283632985811
63764837.10673369,-2.7185729370678815,0.1970775911300889,0.011588226141180434,-0.017129485451186144,0.004580097564648857,-0.0026054067023894446,0.005666402467518568,-0.002099834019772958,0.006386834348303521,-0.007737288229980865,-0.002720375433541512,0.0047012571966998365,-0.0037533731777153628,0.0031229452962468615,0.03823157282309332,0.03571337186421751,0.03331970536203213,0.03408608930757127
64022250.608494714,-1.7105688548842595,0.8154078693476668,-0.0033585659042169314,-0.0161982637521145,0.009106650910030928,0.0020528797462723916,0.007559807406222467,0.0008374915938035534,-0.0016427090572451388,-0.005477457108719322,0.004569573415242936,0.006583943571818218,-0.003207571067527657,-0.0008257797535550526,0.03821258061964376,0.035954824241362274,0.03394177162680586,0.03459602150323337
64282465.15920973,-1.6791159673381544,0.5904779516412104,-0.0022715779968881292,-0.014394178432355485,0.010549734143325844,0.0015819717280666941,0.0048591977480575334,-0.00032514719020506786,-0.002103478645108093,-0.005364609455790425,0.0060928132677217015,0.006068363687666431,-0.004244179704214428,-0.0004489091502712534,0.036991938488241546,0.035052367877709524,0.0333321492087289,0.03403979934191447
64539874.10916652,-1.5984489222399672,1.187881380881709,-0.0024917907630144574,-0.019295285016102465,0.006571585810734424,0.0015606481036791304,0.00840507719537936,0.005249764669323365,0.0022085696995633917,-0.006236112665190634,0.0023820973782036716,0.00575538795520531,-0.004679809380580299,0.0005698670128106202,0.0377316053672605,0.035550095930177376,0.03297468902046638,0.03349666891246414
64800113.721484825,0.00629671587016887,2.2833765609022008,-0.01224170484835334,-0.022476860267510057,-2.5861085886304367e-05,0.004264086879933895,0.011503847461657958,0.018976491860156396,0.004284620890574328,-0.00644105434819516,0.00022232191108785996,0.004024604972687318,-0.004542594601042707,0.0024521011749074847,0.04132324275254776,0.03925873598786614,0.03387359650851108,0.03437196188733493
65060358.621761344,1.4106656608738055,2.4720101950782145,-0.01611020990685247,-0.01872384780095901,-0.004790822260719512,0.005265005683013339,0.00870480908871795,0.025655065196800855,0.005200102384246576,-0.005491613372901323,-0.0007419282244940169,0.0012098813545868088,-0.004508368924652561,0.004331926783215594,0.04537114811656058,0.04285712034887706,0.03693337709154521,0.037363228342906486
65317718.92815383,1.3810957201961291,2.772392656707271,-0.020636267195799887,-0.02052868335498232,-0.0014887287283270728,0.006109025229605567,0.010111182359720054,0.026433471689788223,0.0027637341256496056,-0.00510832262089513,0.0025213040365015763,0.002106953478799439,-0.005299427222535377,0.003015758202466221,0.046586126713069574,0.04438832795572848,0.03737670871325359,0.037728989619811165
65577964.27659431,2.1335797719278538,2.904927367902742,-0.025608552949792585,-0.01920660352567009,-0.0006408103179598159,0.009574484922692141,0.008091157599316775,0.027790324271420277,0.0005758843464006606,-0.005069388466010065,0.005418956633553941,0.0035242670053855685,-0.006020275659773531,0.0015705561404387568,0.04597925455055782,0.044769918457377364,0.036577947744340665,0.03704859537502154
65835443.89286904,2.11093970471967,2.207222464668713,-0.015656414382190325,-0.01422796103261608,-0.0069093533821990676,0.005694293935423754,0.004811104553885785,0.026288330307696044,0.005441972384740429,-0.004911017609208011,-0.00099816872379075,-0.0002249073865580969,-0.004468453314362462,0.005160574649172281,0.043373491827430714,0.04154375904153493,0.03614990811936487,0.03661889674236977
66095680.77028102,0.6447602404004324,1.1189113968178555,0.0022333859601860783,-0.01332443777413426,-0.011611171085701685,0.0022644288811620858,0.0036837178340598997,0.016754076184429485,0.011900054882667347,-0.007352976743635518,-0.009765528133197601,0.00041492830325427554,-0.0022825890883352296,0.007086110779302166,0.03977984768197347,0.037253095249120474,0.034385227900180455,0.03602919444261696
66355843.84749809,0.08246843844613357,0.6039911379550161,0.009545635613421316,-0.0131224708527579,-0.01100518104159122,0.0005978763580207689,0.0003849934685703662,0.013599146454339994,0.01411652570152442,-0.00911790059057861,-0.010723760104666635,0.0003164517799738601,-0.0036213570040339246,0.009030040217757846,0.03708277630257448,0.03498304825242313,0.032151302441689115,0.03462264062987751
66616078.49574304,0.0801118849206988,0.628501738790962,0.007728643118679727,-0.013588829722600894,-0.008300296139358659,0.0018831232107501068,-0.0004169115511930562,0.012694271083719975,0.012470639741139808,-0.009405835649396123,-0.008022047447357251,0.0016063226108820777,-0.004602862624010778,0.00795378336874035,0.035272257213689595,0.033997090608486435,0.031564516973069744,0.03359621859544822
66873547.75992334,0.12083999022331611,1.2723494983040369,-0.0034736257640861864,-0.016024858123080986,-0.001585369371523182,0.0042653071815877165,0.003606100498500032,0.013212445578601519,0.00602287846240516,-0.007436980433077235,-0.0011308660921118907,0.0038167648423948907,-0.004989345795747184,0.0037175490161430224,0.03624780939728785,0.0350864295899022,0.03272168810981614,0.033459512969344414
67131025.18341073,1.0395007156754865,1.7148926521509966,-0.01473450466979832,-0.014629985790089879,0.0030030303776108816,0.00783310569903546,0.0027505803597788255,0.015777774023460363,0.00018977906900969854,-0.005639377445232748,0.005985551586252523,0.004859955147822339,-0.006234237984323678,0.0008383296264569618,0.03739876174973512,0.03608855181981208,0.03235467216680464,0.03302451457013752
67391145.0776136,2.001838016477363,1.7850571833596343,-0.01964256917764125,-0.011913027271078088,0.0040457455374643524,0.010221783058652283,-0.0012008021090934992,0.018488869961695097,-0.0018782110527194146,-0.005263557366274045,0.00963950143302348,0.0046424189172485425,-0.007827646280184545,0.0006874943489003574,0.03887041764340774,0.0372511989601927,0.03245654409388934,0.03350786745598494
67651386.70819071,3.166383498079267,1.7471780264347214,-0.022954607480340252,-0.007355791953840649,0.001806681570454095,0.012148282418891005,-0.005014008868041299,0.021369444312878905,-0.002634044601625441,-0.004397602678860182,0.01054483195088456,0.003425591031399737,-0.007927143287136333,0.0009883675853684282,0.04004404592137234,0.03884543510451491,0.03318803025913829,0.034245852982138315
67911675.35953489,4.1986178311647935,1.7003832758297723,-0.023885820721248056,-0.004458800406914022,-0.0017832938784854483,0.01426757154963949,-0.00887720003112614,0.024737543488141497,-0.0013949665052307573,-0.004861599341857903,0.009738303573182335,0.002757716398561713,-0.008402640624588674,0.0021631864999162105,0.042979184832688706,0.04115941703651849,0.03457700908281648,0.03554697396320094
68169082.91624567,4.799895884580301,1.7247303668915943,-0.024807472059678756,-0.0025665483146200606,-0.0035810599444918594,0.013971228139054227,-0.010972191334964906,0.027956043514700317,-0.0006728232410167429,-0.004555184947472877,0.009562437152207191,0.0008352918273934319,-0.008899231552152028,0.003729510761044748,0.050186762851499214,0.04555492697373412,0.03862362008084713,0.039497701400908414
68429318.12855291,4.670272960473664,1.96024437470072,-0.027132417077369606,-0.003556192214993642,-0.0025759742709697076,0.012695112449108797,-0.008674577705968543,0.029244048820192603,-0.0016067699558431684,-0.003495549933051628,0.010236834245798562,-0.00011280857177532774,-0.00865225337676514,0.0036305475916393586,0.05074624907577461,0.04647009232524529,0.03921285772629163,0.04008242871237835
68686695.91164094,5.237316229010611,2.138334581131869,-0.02969418722135795,-0.003409129683340594,-0.0030451041639992142,0.013514905328458067,-0.010331075902825625,0.03296459164306064,-0.001510344102288133,-0.003767545406719846,0.011315463099234972,-0.0008417250750861568,-0.00987482761915491,0.004678979104008562,0.048598936995468606,0.04631867245791084,0.037172601322158556,0.03834998158049191
68946976.59024537,4.925355425133126,1.6152541891174736,-0.019019349038193592,-0.0016610784899163727,-0.011266623748356675,0.011256836698797592,-0.01017028652209429,0.030860501099761094,0.004640345875464863,-0.00479641226423513,0.002174314846501044,-0.0022000393792669408,-0.006953218319416331,0.007135009240963574,0.04730308733065473,0.04541366649063009,0.03877544296841354,0.039447507235463225
69207220.33370505,5.123136046265091,1.5561740290569614,-0.015711617682206087,0.0001753921788559682,-0.017877952150618694,0.010346506098860732,-0.008436819909852795,0.03150449146496309,0.007987508854853817,-0.003987071019631323,-0.003922527187318976,-0.0036130308680141104,-0.004206316715080156,0.007741436935198962,0.04733939930295813,0.04553366572337438,0.03862724567672974,0.03934424434919831
69467375.83211309,5.983883506975679,2.224321685436509,-0.02639919985258921,-0.0008839847015667308,-0.015640374901722407,0.012769509371156005,-0.007333621456584777,0.03748767154131308,0.0041669512079739665,-0.0029712582888643214,0.0007336534750788497,-0.003570553506160174,-0.005176210412877785,0.0068174175248497315,0.0505690315371995,0.04904266411017102,0.039077287160606794,0.03945768503283729
69724868.8480588,5.848288470552136,2.6318855594732247,-0.032965686763347324,-0.0051630836892197,-0.00893356073939106,0.015127834746601582,-0.006445309783027181,0.03837980622838888,0.00015429179127301947,-0.003925481077448881,0.007035428264627878,-0.0008550179515426668,-0.007513510159608179,0.005104289132686089,0.05229898946512792,0.050988546713578435,0.03991719149587988,0.040571389402398766
69982299.9637917,5.653110472042251,3.0517700160608037,-0.03735556908521225,-0.009120652727375642,-0.005247215784135053,0.016697004183634002,-0.004150250615725489,0.03917668402881526,-0.0015583205092064261,-0.004300240133767911,0.010317989196864817,0.0011236343411945144,-0.008861456201957834,0.003278393306813073,0.05292335282474675,0.051754491642173384,0.03945066615862428,0.04040312767692179
70242513.23125398,5.2954480828673205,3.1725493464039545,-0.03691062847364396,-0.011725000338424585,-0.005175717513925553,0.017247460844340586,-0.0017551246018742733,0.03831901008352755,-0.0011123813905561408,-0.005007962515955234,0.009460162948903587,0.002637607186497042,-0.008398357722386358,0.0024209314935025603,0.05739379824717376,0.05447775621293469,0.04316584494481516,0.043923323355809146
70502780.16511819,3.9638192484121757,3.4078909389495005,-0.03271013238786088,-0.01689645916487561,-0.0068045111340523335,0.012860347815657253,0.006319418567404033,0.037231336303727054,0.001561267800596676,-0.004609319943562428,0.004256165994014707,0.0018377724283058802,-0.005934794044638537,0.002888907765272931,0.05615001733545601,0.05409800937026247,0.043763903145245295,0.04407853345798441
70762995.09088476,3.7493643236270406,3.413902109769576,-0.030915840209323402,-0.01892655737593127,-0.007390460430966901,0.013505212798166235,0.006922880421908428,0.03680476479615113,0.00290994716949282,-0.005930403204249984,0.003069928761923909,0.0030667990294094985,-0.006042080938566297,0.0029258091819884657,0.05654548583059955,0.0541709846719967,0.04395476613315753,0.044307739225216025
71020406.2970549,3.5244909081840223,3.4242272328000163,-0.028998018837593054,-0.02053939651726296,-0.007588686630164267,0.013363801194930403,0.007120622504475608,0.036641678285612427,0.004292457144856949,-0.006720344802564444,0.0022107726860679812,0.003501946573541722,-0.006583342785989839,0.003298511184077779,0.056252471896317005,0.052483568600491914,0.04216538663555097,0.04228613899965045
71280646.9538225,4.317831107250808,3.951138909452793,-0.036444881345583165,-0.020698164573131346,-0.008278173302020773,0.015679681310847134,0.00864975375917574,0.04109178415071123,0.0024850825372888068,-0.005601464774943435,0.003712335013008505,0.0036066428483316924,-0.006282994113880542,0.002080398490193902,0.058063917605725185,0.056159226601560384,0.043160282217711766,0.043037233736559814
71538058.80597764,5.903574705614521,4.247350366505351,-0.04572777667371126,-0.017735801894626018,-0.010583246759560976,0.019957437765558524,0.007296976605299089,0.04679241095703092,-0.0005479527005577997,-0.005228307043878914,0.005565758515852809,0.003576632653522319,-0.0049788357801627756,0.0016127043552112829,0.06977099673436027,0.06511785155415499,0.04618068916736116,0.04659860477339369
71798298.74305998,6.713486281712393,4.158773109825097,-0.04689997715253604,-0.014662581495153825,-0.012656176976059152,0.021985896449548153,0.0034551041044458865,0.048777735069756356,-0.0006424736609396465,-0.0053766130156956094,0.00578821037727735,0.0032540303433216586,-0.005652727759390342,0.002629573715409835,0.06702059245165813,0.06519902660917135,0.048439059968630245,0.04864364087277594
72058529.75406374,6.712730025285571,4.087596366326602,-0.04612215112838233,-0.01391350391867758,-0.013197921250447503,0.02119900349908208,0.003402098796337853,0.048632474002090136,-0.0002278211965491917,-0.004854708427719759,0.005227869112936883,0.002604153045491762,-0.005379132559650443,0.0026296400255011584,0.07193570391111839,0.06691096682290043,0.05158236234921733,0.051791089816559055
72324567.23012364,6.503652107269303,4.106982203762885,-0.04425412907531578,-0.013893574176445564,-0.013405277189822479,0.019033455379217988,0.003787929241863571,0.04873159582050627,0.0012623191532168628,-0.004138035118236126,0.00457014275654361,0.0010619401901182642,-0.005868241848276569,0.0031118748666271625,0.07367819393411827,0.06774662693201032,0.05352319369464869,0.05377959523012786
72582057.51527421,6.57029656702043,4.032291817251119,-0.04397684233639443,-0.012548445472606952,-0.012375594773595936,0.01784579786424826,0.0021558204484143475,0.048899264269941706,0.0009584282466687619,-0.0035810183995247692,0.0055852077260830045,-0.00013779091683461205,-0.006668461901862802,0.003843635245455699,0.07241150128789658,0.06670438188163992,0.05250529792096151,0.05232221586438067
72833599.37350222,6.702713786686907,3.982787631868297,-0.04565371299755997,-0.010845209394524562,-0.01239115602132373,0.018698885414215122,0.0026467410516477947,0.04754445194754847,-0.0006560438419172506,-0.0025703051339927953,0.006005053318729257,0.00024081640432082834,-0.005491045809948004,0.0024715250628068943,0.06827045454772575,0.06557396011011697,0.051170361336400426,0.05113926828986139
73102446.05844449,6.444085006278389,3.7831488905888895,-0.042795454470870534,-0.007963897469289124,-0.014975223814939697,0.016747075719998387,0.0046570132711896564,0.04433048676390595,0.00018610205593880643,-0.000375553565635422,0.0026788144430814308,-0.0009330618665687509,-0.0028713398938531036,0.0013150388270335947,0.06655826612072048,0.06370245815037352,0.050774259386016624,0.05040277525243065
73362610.78636043,5.795433985553249,3.1557247116694747,-0.03347798750549157,-0.005606909465904435,-0.018716074129672185,0.01318564108946731,0.004469100881411377,0.04014622913019252,0.003423062821493948,-0.0004697824833453128,-0.0028292545821967533,-0.002738307316432781,-0.0005826509234596319,0.003196932483944178,0.06346243556294286,0.05871812820036699,0.04794363690984538,0.04795939496132992
73620101.09670097,4.671302739539505,2.7249546810586005,-0.024118243021781987,-0.009900899456720645,-0.018534107602667008,0.012085317776360575,0.003744406660283686,0.036723525644519195,0.006943790071074569,-0.0045664958859770914,-0.005711445200976508,-0.0007914852688686833,-0.001516852539959999,0.005642488824702113,0.06514430779887488,0.058499618656141075,0.050632788569825546,0.0510856853199069
73877519.42188182,3.0480817181929867,2.4770977475239073,-0.019308560756118153,-0.016537941917202377,-0.013844727601381076,0.01202445839393355,0.006617294510819871,0.031049477369952005,0.0061198265583174505,-0.008461670521020447,-0.005261788886983161,0.0035884857687461208,-0.0016713363907658824,0.005686483471675072,0.06138336628375654,0.05574122615845049,0.04921869366930349,0.050109259283033565
74137700.27542527,2.776375368240448,2.5733656251665122,-0.02041681946727288,-0.016253744487108458,-0.010596239817952886,0.010709696366169613,0.006949434475883302,0.029607672930283196,0.0048159545746747955,-0.006767427249003088,-0.002649656047286261,0.00301986619902482,-0.0027768991449719756,0.004358161667612434,0.055812000589327976,0.05322857501575346,0.04689072654438541,0.047222243845792156
74395164.80571528,2.219674442935399,2.4220312502649506,-0.01979375427383364,-0.017055159852594308,-0.007508038879970207,0.010620056844380247,0.007398406235100216,0.026338489926917466,0.002969149505008168,-0.00680279480495531,-0.0010753222003311595,0.004264402564661699,-0.0027935046168580543,0.0034380695524593523,0.0686349622722967,0.06029029533396616,0.055492909252081064,0.0558353815982996
74655397.42782262,0.28872691313683396,2.9716930013556575,0.010431864833232109,0.005670629008993316,-0.011110389271113786,0.008525187636382965,-0.010750047778139362,-0.002767244429354955,0.010449434361441468,0.005519297475755882,-0.01084903081924008,0.008262308513454398,-0.01046583136255892,-0.0029161781688362438,0.06777898346550679,0.06116926540997818,0.05963838311584396,0.05516047239303854
74912820.56016897,-1.961975200223794,3.9965068630699125,0.033234417487090225,0.03196319023671793,-0.016463205020591547,0.008085916153492521,-0.031186787605973442,-0.025633531250737963,0.009051023552566283,-0.0017764456573783362,-0.011473247386929687,0.0031107349966931876,0.0028099472292850134,-0.0017220127342702073,0.06036201580500596,0.05812585456273947,0.044326639882087605,0.045600568785960964
75172975.37418246,-3.4986996290613845,3.8641862653636365,0.023745769769128275,0.03840338123677433,-0.01495962011033096,0.011622915136349252,-0.035919666572324906,-0.022892779459595683,0.0044125447356264036,0.0008294445893214544,-0.005678320772961511,0.002575475293865998,0.0016786419489124506,-0.003817785794763763,0.06776654739984558,0.0628675378149632,0.04583351460809593,0.046588733252809614
75427721.0154891,-4.566714758907993,3.6091774436661828,0.009883055499374765,0.042735082763599726,-0.008021118813595997,0.015165714689101314,-0.03715749364871095,-0.022605240489777162,-0.004815323019581607,0.0039384973474891035,0.0037303345033619434,0.003328799378332426,0.0015709787693118011,-0.007753286978894781,0.06322249730569535,0.059651966944464944,0.04625601637446599,0.046778374174877374
75687886.32334754,-3.979620316343561,3.29057393870688,0.004786532237646618,0.040465337667808896,-0.0032242392478108867,0.014447631013575083,-0.03248217613696036,-0.02399308553425381,-0.00903378747957913,0.005666544698254666,0.006960627593302851,0.004100327904283269,0.0022353790633068893,-0.009929091779558549,0.07560995187219718,0.061089083433463545,0.04439931427031279,0.0455277742191152
75948110.35938704,-2.625700694784445,3.3632352675227537,0.009818765884073806,0.03770585603799014,-0.0010305930277537505,0.010753442074973953,-0.028452117312630386,-0.028795353656654234,-0.007610440298893668,0.006368148590619883,0.005443254543861417,0.004030239565214227,0.002632404661033811,-0.010863607061866377,0.07703630700532878,0.06227075125702115,0.04568985172312327,0.046722235371772884
76205530.00487,-1.224601264006587,3.5270430579979437,0.01598275936101285,0.03171570546101129,-0.0013966889115898827,0.0079125552257211,-0.023443676328768127,-0.030770654807386007,-0.006268777162416896,0.0032752085062978317,0.001399307340676425,0.005044656398395521,0.004876146818231816,-0.008326541901188542,0.07284304084105925,0.06004212509830205,0.04788159643301765,0.048027155271343804
76465768.67403667,-0.6591399136049589,3.676738860245812,0.023246882021116782,0.02939135855033568,-0.003794942259557678,0.006942960723301723,-0.02384184714545891,-0.03194441188974007,-0.001409726710938437,0.0018216846816518281,-0.0022551095164557535,0.005334052670355149,0.0039150419489862465,-0.007405943073596266,0.07107726976855484,0.05759695445047189,0.043743443182044664,0.04416735130058821
76723180.91378993,0.1952310201450379,3.5696539010181674,0.031806105783685375,0.02433045816006822,-0.004822112695861934,0.00410073142240925,-0.023675597124645995,-0.03173958554565621,0.005618715621099144,0.00023886841317873243,-0.005464483344210952,0.004735277255429203,0.0010057052887924472,-0.006134083234311914,0.05675218791767019,0.053809956939779545,0.04163084293765774,0.042727325575589045
76983358.31994894,1.5047031318360338,3.7630567785876767,0.03926139969056349,0.018446628955616814,-0.00662685404070502,0.0007836495128253723,-0.01913654028780756,-0.032728283830491395,0.008270907624767069,-0.0034938235168364366,-0.010901739010222872,0.00518240677482458,0.002927856487352747,-0.0019856083598618034,0.0584191713951908,0.05452760762827328,0.04043337315549754,0.04169832775949768
77240824.75367752,1.6755655891983272,3.579165897716883,0.04097447195453671,0.015995007948105266,-0.007694451079329292,-0.0003912170986606447,-0.018496947830413224,-0.03038686389423796,0.010855957688460916,-0.003974545191335694,-0.012303234738367747,0.004270883998531648,0.0017617556112173654,-0.0006108173684888627,0.05831568284919588,0.05541388514632487,0.040312058407383285,0.04187877388170447
77498257.47166303,1.7345585910149866,3.415568314517947,0.04294183078113383,0.014469701355636699,-0.0086753375923862,-0.0006863935409381159,-0.018611102963422648,-0.029438698040026155,0.013699322943432473,-0.00400960773826182,-0.013360294800775696,0.004013382984938337,0.00033548470913713534,-0.0006782880984173039,0.06059810228172218,0.056892028126241286,0.04217385575709054,0.04442045100418377
77758427.67649809,1.475632869692892,3.7373402059868943,0.04431406881596845,0.016134602776467742,-0.010192423729995468,-0.000619861005877342,-0.020657412315381766,-0.02897897454118414,0.013508902083144942,-0.005414182653547769,-0.014430450455547328,0.003571475094111127,0.0012723291249135623,0.00149192680692674,0.06222058065783812,0.05794687952244792,0.045869668297412305,0.047793445602565286
78018635.080001,1.8050911262466545,3.775078443571381,0.04533014275005604,0.01339110173974899,-0.010317050770858293,-0.000663395211454377,-0.019171573705190813,-0.028569224802300317,0.013717444835659096,-0.007711966269612732,-0.015561347904244429,0.004603865123453175,0.001950423341317244,0.003001580873434906,0.06313819603605704,0.05908941211794812,0.04695796270208125,0.0484167710213543
78276125.3005309,1.5247298033004228,3.4790667539858067,0.04327240101168189,0.014207359017461276,-0.011762281974618916,0.0005490888412394825,-0.01756171979820347,-0.028704847097562197,0.014334292164959484,-0.005502459028788624,-0.016149708834170193,0.004967773739027808,0.0023087668917928807,4.1335067151389954e-05,0.06005491218148088,0.05725930161555661,0.04454665749370881,0.04653939054716109
78553185.88963154,1.0466949405166,3.54458279350037,0.040351464676016274,0.016985980798083836,-0.010774088504718195,0.0006488390235027045,-0.01968856672163937,-0.02752362927124644,0.012043603510923689,-0.004697355104724687,-0.013773089521011299,0.003787368246857257,0.0020849429936695752,0.000554529874279832,0.06250843800125691,0.056373192072097233,0.041173524051916814,0.04298572162123169
78793773.15859339,0.7174757937059355,3.3269341003951958,0.031723020126447676,0.017513106289579885,-0.007773818178831833,0.00303903746489051,-0.017234639073457365,-0.027266706628629706,0.006084707035357439,-0.0037359813628986696,-0.009985987576237303,0.005251250631090514,0.0038443262553948736,-0.001458314982715328,0.060543646306613304,0.053376449383713824,0.04161031396968354,0.04197342648870219
79051189.30849048,-0.7283268958248122,2.7117205429348825,0.013926627428362521,0.023474122654503334,-0.0012171685360356855,0.006136261534342762,-0.017549494652322584,-0.024770348428851903,-0.0036487964735226843,0.0023687892111677595,0.0005131233148273193,0.004521995857447715,0.003282482877811229,-0.00703759478771712,0.05381851414194608,0.0477942465650725,0.04022024148677818,0.04030229632573108
79311424.07216728,-2.550631932110869,2.147001601644043,0.0008279642318452365,0.03006423400114171,0.002800018671862853,0.00945080531971823,-0.022862686458237358,-0.020280335766332154,-0.00815583091318031,0.007574215321707798,0.009291449570259526,0.0027930666892264405,-0.00023984823989769654,-0.011263052428122563,0.05058640682509407,0.046516276637015436,0.03846791572155391,0.0406997798444408
79568838.12113939,-3.4270231111135434,2.017256000157378,-0.004923018058350446,0.03357140156336888,0.004341918992994636,0.009693696611522855,-0.025709879285885053,-0.01697411982364864,-0.010749281254826529,0.009257757342118797,0.013200419747623955,0.0006632045721712937,-0.0014980535088464258,-0.010874046898250294,0.06415256321014348,0.05244581128717752,0.04289468965016388,0.04541418699395965
79829002.94753127,-3.9537331416025174,2.6036357443840497,-0.003911094275080659,0.03832342830115418,0.001172189337940451,0.009671243093111811,-0.028446494909249748,-0.016809271547874222,-0.012906415632251906,0.008338085634756192,0.011548739258319769,-0.0007485597742276862,0.0014841928463688787,-0.0077160423330085905,0.060524142783571724,0.055479177021633394,0.04541117321755688,0.04688129632490344
80086487.467573,-3.8803800071388816,2.129971104671203,-0.003724063297290208,0.034552344724459824,-0.001262840271691585,0.008206343320118804,-0.025362126237116714,-0.0124096582384783,-0.009530522103040406,0.00813214583459315,0.008979595872699584,-0.0020189065925964793,0.0009296771800792022,-0.006491990191704046,0.057886918340211,0.05318774934704567,0.045939642156646913,0.047201510902935215
80343908.94977516,-3.3337103582777368,0.5752005915541825,-0.013192520257684607,0.02156890042237537,-0.000869295903556362,0.005530457410642944,-0.012197358119234912,-0.0008401835525467743,-0.009285828419803277,0.0077140319426947665,0.00813175206851193,-0.0034474751782576436,0.001691931838184621,-0.004804412251330553,0.05305066695000519,0.048053204633779434,0.04508982792536174,0.04588092468493393
80612803.00785142,-3.3478106303311694,-0.07608142492092336,-0.018050027383017277,0.01574606561843802,-0.0008938886639380528,0.004805960455360142,-0.007887725625278614,0.0062796155984365986,-0.009336245807439612,0.00641726894709475,0.008151007885514823,-0.004244302041596478,0.0014445106037080226,-0.0024322395872963046,0.04657905736767805,0.041779207523988206,0.0388357807567102,0.039720119996856984
80864298.58011073,-3.55968401714226,0.5268667186462903,-0.01289864582418619,0.020557316663638824,-0.0016372289799607305,0.0047575898607802045,-0.01407994683626203,0.0033009151159875275,-0.007964889647247526,0.006373233439094903,0.007921075154982984,-0.004797318168915583,8.345062508742419e-05,-0.0016155514030101394,0.04655105417104214,0.041586415908996324,0.03809667486593453,0.03888540153206573
81124535.02713974,-3.5959101711248818,0.7127155822328877,-0.011676302888993352,0.022593300230772103,-0.000983416563887418,0.004140270733326024,-0.016115977781856094,0.0020421262706386747,-0.008017573003696512,0.006962969661742461,0.008638919468190488,-0.00548511015293211,-0.0005292882237874184,-0.0015699177495058913,0.04406560164773128,0.04090091947121736,0.03690664754905537,0.037900692664083954
81379206.00333485,-3.8187592558804706,0.4455814885850055,-0.01391846297209473,0.02202862659839246,-0.0011903779912523275,0.0038473006933065794,-0.015451321616139017,0.004684235287786996,-0.007768892686242889,0.007643119624507103,0.009067387699552964,-0.006434850624013668,-0.0010931174983597955,-0.0014136465154531168,0.04262802288554865,0.0395628370758305,0.03529789112149391,0.03646142961973672
81648106.03236449,-3.5073331799454697,0.1197837971411457,-0.015953062987901247,0.016910611731786762,0.0004854312780877221,0.0038655557527834433,-0.012800120044610466,0.007491584269853717,-0.00824979204373165,0.005742702795348182,0.009944927240275046,-0.0056352802908741055,-0.0016118687006347733,-0.0001906890003589808,0.04514781679666803,0.04069992937523795,0.037342550546895927,0.03832631485992293
81908341.75733593,-2.8457003436528656,-0.2621916800947401,-0.01676667965450227,0.010334566437073808,0.005065444028202681,0.0030257664206200393,-0.01118930328574863,0.009530206054355865,-0.007923181123932092,0.0037756513080227337,0.012770929822661545,-0.004687747580222436,-0.004644889444196867,0.000709237017683925,0.048315525281717266,0.04237546658868235,0.03976703907378815,0.040924761977724135
82159833.5752245,-1.953050323039561,-0.4124270107770076,-0.015086905439846655,0.005429132027136659,0.009820349390134504,0.0020860164233584924,-0.010354848611874422,0.008106256211091468,-0.007357910776197642,0.002542726755411836,0.015135875672200155,-0.003238711577503419,-0.00744936854481881,0.00036738847086960824,0.05548468090000959,0.04281029195389868,0.04064583741165863,0.04200476208940146
82425979.23282547,-0.3892642022239123,-0.378505999286883,-0.008101455308635467,-0.0036180257702036604,0.011391599742663239,0.00011671604559445913,-0.0062615456276053335,0.006472710918187688,-0.004443818636035369,-0.002102710800880456,0.012478690261610463,-0.0009764346065208685,-0.007757651661453757,0.002801925443295856,0.05235322000575307,0.041160845950031416,0.039914120342611444,0.04095900702993914
82683406.87327015,-0.03356360501817089,0.04738637348409998,0.004257254029463496,-0.004451071575157122,0.0028858072626958093,-0.002112969855087669,-0.007183750620880628,0.006604730758966104,0.0039982598661060164,-0.004882945570751324,0.00297168625747532,-0.00219758431450985,-0.006752996480993796,0.006863580242675856,0.04365389378918259,0.039659957234945316,0.03904115652170696,0.03965759795803114
82943635.17735119,-0.16507534814019986,0.19267579049635605,0.005417071068146103,-0.0024297045111242705,0.0008610952403848854,-0.002654737167628177,-0.007273956672464782,0.006080232042688269,0.004436974857969486,-0.004257481258897716,0.0012919056437504088,-0.0030852331699601702,-0.005432897767956327,0.0070467316950964184,0.04684692346894276,0.03959736480044533,0.03902690874359495,0.03955464371335315
83203872.2475004,-0.010841494339468344,-0.09875790611359049,-0.0011319839937312748,-0.005330550593429194,0.007422023719776627,0.0007834708979955307,-0.006210072440839952,0.004467112410229737,-0.0003952303131502498,-0.004672964688076471,0.007458466607955826,0.0007461559815302773,-0.006872362581860352,0.003735934993613416,0.04669290510388092,0.039541133807570884,0.038932830663224505,0.03953198967606145
83464080.78771162,-0.16530056601438323,-0.0930064900887239,0.0030275216891205675,-0.005316163755984238,0.0019213046939866802,5.578736255754056e-05,-0.00628477396889864,0.006596323979217491,0.004104654966161093,-0.00515055498179167,0.0023762580607643085,-0.00039917941680562896,-0.0064525140410480325,0.005521335412719473,0.04435141800124284,0.03943883939189864,0.03891003956245372,0.0394269405035599
83721580.02802235,-0.9564501780616679,-0.39863471419401214,-0.0012408858236163704,-0.003799362743586572,-9.076193530011417e-05,-0.00044641967593928944,-0.006449657085422707,0.01202708726386486,0.003982756946303243,-0.0038206809008136393,0.0025281660426738437,-0.0030664152970918336,-0.006438958390938196,0.0068151315998678805,0.0499611982316426,0.04378230235322647,0.04300112058960988,0.04351983103863506
83981762.80016237,-0.49706205237458745,-0.7263381347064523,-0.0035007393173987654,-0.007865038163794408,0.002286824544730825,7.275214785039393e-05,-0.002943381801545836,0.011949582590157553,0.002967113389549043,-0.00422468418072132,0.003700808618640727,-0.0013400382845177332,-0.006590500289077224,0.005487300746133033,0.051238789373103076,0.04389969196491566,0.04301194834248949,0.043457904116259785
84239170.92920905,-0.6080121402640877,-0.4049186304309444,0.00034632440004686186,-0.004845939420302702,-0.00016728945185610913,-0.0019237965727115034,-0.005207625088910267,0.011798326133733834,0.004762555373108619,-0.0037942686426849516,0.0015136247589652044,-0.0036040259025971904,-0.006267699403270759,0.007389813816490833,0.04774032276854212,0.0428977864346687,0.042140249318858625,0.042712262455062135
84499415.78225255,-0.4486546317317466,-0.10178484220621978,0.0028943785721201316,-0.0037566515084740083,0.00032624655660628307,-0.001148334539039789,-0.006807991071452217,0.0084923519902386,0.004727603522107581,-0.00436697833898304,0.00154718711721954,-0.0023677835975658137,-0.006203693325903688,0.006663664623128739,0.04724294600655734,0.042570310186182465,0.0420077181020452,0.04252912106590045
84759654.70178828,-0.35773683001683276,0.16418966909748745,0.005002501139756988,-0.0009592513087714316,0.0004595560948658847,-0.0035198730762179276,-0.008152327935000153,0.0071693950853649385,0.0046899829818209315,-0.0031719718666589143,0.0014082800954345193,-0.004467993896552786,-0.0059439034453142095,0.007485606131307478,0.0396987800683148,0.03786189062885492,0.03716015970544254,0.03780947842639361
85017069.11418761,-0.22305635621729042,0.2426594133397056,0.007347882157592034,-0.0009207560579207398,-0.001639319391182626,-0.004063448336244802,-0.007401334651639546,0.006676976279395692,0.006138642427962599,-0.00328737018468845,-0.0010618890172251138,-0.004640753010689552,-0.0050373022052018325,0.007888671989832575,0.03919162812264571,0.03622008402925364,0.035413518699154746,0.036150780713128224
85277300.88290936,0.02618629742586894,-0.753540498368832,-0.0005637479038235634,-0.010714745154493667,0.002306820962785155,-0.001416163607180374,-0.0017286207150599908,0.01211645641777115,0.004821397999198741,-0.005338275940186712,0.002312578061266448,-0.0014198962985854803,-0.007107262689616347,0.006731458867892263,0.04423311273458886,0.03986129245870069,0.03870334660993501,0.03936376724213348
85534723.95450112,-1.8524367083383417,-1.7885893444912682,-0.018444415397531572,-0.010873718605685883,0.005448816435637419,0.0038293618357807023,-0.002493374577139267,0.022533330308942306,-0.0009935145957958756,-0.0037694647081227962,0.01063947020465372,-0.0013468961417016634,-0.009616285710669276,0.005086690951608518,0.046181113676618105,0.042694158667761224,0.038484218539056335,0.03955155316536553
85794961.708248,-0.320864654562772,-2.0313856661268765,-0.013676904072458421,-0.018301167606609894,0.00592830084226278,0.0001482177687493352,0.004634445177116427,0.021267107890941116,0.0017973466951296082,-0.004964478307467083,0.007003401939992634,-0.0009213662223117088,-0.008710396695032988,0.005795492589682382,0.05496388758182324,0.047377513583447,0.04358004458239016,0.04428889468113173
86055200.95868826,1.9142859558517873,-2.1248831218501767,-0.003339181810489585,-0.02767187963096318,0.004624980214269465,-0.0055408678554380204,0.013517925038479562,0.018409024044139254,0.007350403504564422,-0.007064656372998986,-0.00032474116776615944,-0.0005905866794794784,-0.007071114962043074,0.00770069567774809,0.05585601996058932,0.0492324889848506,0.04441407328854408,0.045207120741995926
86315352.5644441,0.42852417382415114,-2.1246486424337787,-0.00949685188679118,-0.020489181837127394,0.003670245496267097,-0.0050069760016721206,0.008660434666055728,0.022662329563267407,0.0048210952536959124,-0.004276632517618414,0.002730110629393235,-0.004065399590452163,-0.0075488007293341,0.008339626954333676,0.048123671588639824,0.0443428704209078,0.03979630129484523,0.04059818516468685
86572846.10252962,0.6765861218632603,-1.9246335931037486,-0.005442474699351173,-0.02108848297176101,0.0017102834331239982,-0.004457667790906459,0.008712985409924226,0.020565356618967613,0.006819882408879936,-0.005548921739199374,7.80188273776066e-05,-0.002820840921353423,-0.006821927491076785,0.008293788915367183,0.044989560477666966,0.042160638131601036,0.03798578020615855,0.038857738539194504
86830300.11148813,1.0333531951255897,-1.8115298022197641,-0.0020144040619032425,-0.02193768203204134,0.00014286735402488506,-0.005338840078206776,0.009755062788925357,0.01939299602920097,0.008552442549196881,-0.0061419383809696105,-0.002465583796716549,-0.0027246933194498314,-0.0060347644201680555,0.008814537368129484,0.045538909259667186,0.04282322460302194,0.03875517471290514,0.03978059305789101
87090496.47806707,-0.19645243523791026,-1.8660436837046093,-0.010695365200029432,-0.01589309929950021,0.0023972323133835344,-0.0026112791487215075,0.006214521780047766,0.02058798955481623,0.0032770500071459593,-0.0033467011442756454,0.003112706954392535,-0.003327444060830834,-0.0063362453147151445,0.006620633558276808,0.046159464496628555,0.04242180739035301,0.03891634952880299,0.03946776825672197
87350727.76345061,-0.37647817140337686,-1.3589694551509706,-0.005989048213442466,-0.012460617010152995,-0.00045710790247255914,-0.0012276488851067206,0.00308935380195311,0.01704506820922119,0.004757436463126153,-0.0040119740324594515,0.0006928268647261664,-0.0023782533726183874,-0.00536337909952551,0.00630334317674469,0.04030315613260737,0.03807560257837925,0.03583687086748712,0.03636310263146343
87610927.06018487,0.024188758478769952,-1.3095929264875823,-0.005910778592022897,-0.01345355196154765,0.0023514578927560474,-0.0011020388497148086,0.0034630035894196204,0.014651907921110338,0.003498770712834139,-0.004170184546786835,0.0024166139542803073,-0.0011650382436214596,-0.005822398433270377,0.005242236556578924,0.038723305549195695,0.037327542437620966,0.035251674731735155,0.035716358689560156
87868389.86215773,-1.37506393724121,-1.316860523031559,-0.014707113712829031,-0.0061755821447171105,0.004325964574913284,0.0011881641658324541,-0.001027002591529488,0.0163955697083294,-0.0018286756535452553,-0.0009718198217711547,0.008168219668979427,-0.0026546375738465407,-0.006238298955249073,0.0035252123354401537,0.03894700271670839,0.0371974580343904,0.03463660941087084,0.03524998498351464
88128627.0818536,-1.156060515721669,-1.0995995660641253,-0.007903023272432214,-0.006842588556695355,-0.0008295404038706591,5.754464277844794e-05,-0.0008605383094267969,0.016378145899645417,0.0028748861772983914,-0.002521299338052771,0.0023968038687735343,-0.0031711149144218655,-0.005190913237706635,0.0056116374441138785,0.03894086605027689,0.03666180051102293,0.0348790595154922,0.035298353363076344
88385989.20141774,-1.0623346239948952,-1.0677368900646171,-0.007420892450887154,-0.007886228128405217,0.0006224229963240202,0.0004257895319900569,-0.002048238032891204,0.016307146083869115,0.00289742439733849,-0.003513757954583129,0.0035941937229305816,-0.0025463758806025445,-0.006430803080948685,0.005999318795878087,0.04257659125844561,0.03912889325070702,0.037430609554999425,0.03795084610778759
88646228.8582831,-2.396934681027673,-0.7789634982561654,-0.009411607837512895,0.0003723907838449977,-0.0033336663254096713,0.001505285105805883,-0.006806445142689855,0.017674043415964968,0.002083893125537872,-0.0012263003414221551,0.0032067788581315675,-0.005039040849294569,-0.005228587535269138,0.00620325674232055,0.042047412751958474,0.03890656811245139,0.03686857708465873,0.0373472449743243
88906467.78799936,-1.5108620121812828,-0.07251582747446035,0.004580302911807496,-0.0002436965555233987,-0.008953085281487864,-0.00030064497888050164,-0.00782558309406041,0.01274270699814577,0.00880656344883857,-0.004199811754055783,-0.0048754979239437985,-0.0043817551137240425,-0.003888599377364708,0.008539100720227752,0.0370808972231183,0.03542229088936208,0.03385145722737101,0.03494512649649766
89163921.15274942,-0.3320724064357017,0.17824661476848178,0.01304756365914657,-0.006549429921433452,-0.008347098441028922,0.0006456336101287794,-0.0073662649656135145,0.008569596058802137,0.012571817979312276,-0.008785443783323235,-0.007469640594571501,-0.0002323078852780977,-0.0051341994438011875,0.009049773727653374,0.03690397209272211,0.03471231886826101,0.03267507276244536,0.03465389745888485
89424120.11984926,0.24195226053282698,0.22353515475645264,0.015135841407584614,-0.009595905918859922,-0.005298989531056717,0.00021772964972822118,-0.007867282844109815,0.0074086072367132196,0.012925696805742405,-0.010451331054598029,-0.005973257618250285,0.0008913702358225072,-0.007006499633379527,0.009614021264674153,0.037306022500756014,0.03439278375772404,0.03204925249131828,0.034332992890313975
89681530.41408886,0.5825621985836102,0.4234272405054336,0.01648484006945115,-0.009392825378967518,-0.003440541041265931,0.0003178168498272352,-0.008207503497363043,0.004238212998318089,0.011994323887393037,-0.010645699245407045,-0.005053090185751158,0.0019283161698064135,-0.006942713312624324,0.008718862686582292,0.039452406388567667,0.035557799839038944,0.03332963351645338,0.035326311080868436
89941769.10619491,0.5932539425731223,0.9765504314706751,0.021224977496307904,-0.004891327640639246,-0.005085892111220374,-0.0007890302836668737,-0.011104298068163258,0.0006455706073816723,0.012706693600792069,-0.010002949721386375,-0.006780287447442142,0.000902734214019573,-0.0059774180306987725,0.009151227384717034,0.04444685706627146,0.04009079926158428,0.03735420586079035,0.039219836154748215
90201985.07439263,0.2637051190263624,1.4812802897378161,0.023959829783663338,0.0010439321900838471,-0.006602519020396967,-0.0014985361536817387,-0.014737082149712765,-0.0021656246499559112,0.012597896047231496,-0.008594231490196929,-0.007456451991711643,-0.0006458214584020309,-0.005088031640529608,0.009186640533655891,0.0430651008164804,0.04034797478262427,0.036647617253275165,0.038416609261332564
90462299.06381957,-0.3199639650814122,2.0827873257597904,0.026771190940807633,0.007641114566025602,-0.008493841527417702,-0.0008569883130428325,-0.020254244562693268,-0.004807231103677569,0.012490197260708321,-0.007955620296435945,-0.007833304206179906,-0.0015193467364947404,-0.00465450075549428,0.009472574733900925,0.046179089431002,0.04298101436962739,0.03756054869239758,0.03926963676797108
