delta_time,x_bias,y_bias,total_sigma,rgt_corr_sigma,xy_corr_sigma
24819586.29641579,10.412656580554243,3.6811171735417263,0.0700055458018812,0.07004769294661065,0.0500940552071902
24881791.419172414,6.793208667456219,4.039433149885411,0.17540887697946478,0.1755819131815515,0.05745724415298845
25011842.731271144,6.195817426364724,4.733975291269135,0.15950940021114843,0.15958981674338038,0.05935546931230989
25142067.010990217,8.91256444129736,5.003930030250535,0.07680204731401098,0.07681962346894519,0.05732223803904044
25272135.009895526,5.723890043009585,4.493037353994421,0.0714389412499163,0.07232191797555357,0.059264907013198996
25402251.0008489,2.364225425033911,4.134932977372429,0.06135659949940361,0.06137333912201839,0.05071010455278173
25532337.57766226,2.6007695365961725,4.413357650633441,0.06173994607048914,0.06206560220862469,0.04985012873222776
25665318.846777342,3.179132996386176,4.766807855568169,0.06417131988942482,0.06436393217581095,0.05018103303815362
25798245.539673075,4.026710294234039,4.942287446854731,0.06597731848233301,0.06643446423500791,0.050906978043158364
25917056.33935927,3.6273002365929004,4.197446090806679,0.06818191582160661,0.06819401812954792,0.057402692632772354
26050000.07392223,1.1911979731130382,3.406815992654937,0.07846608852795854,0.0791905826302614,0.05926766054748819
26177321.897411093,2.6385156619533268,4.078557209747785,0.08090583207299414,0.08107758794637406,0.050606594243276716
26310244.488246705,4.984537431563156,5.0379605418826126,0.06566881915354156,0.06569106628032513,0.04831094941173407
26437566.203178797,4.684648430282575,5.495257799287521,0.06867941581668253,0.06868332997312321,0.049530014233001685
26570482.494521033,3.9004449709410984,5.370201422627802,0.06784505194784476,0.06785696261527796,0.04996802758619666
26694996.5669718,3.445170624400154,4.595371267229349,0.060209214203831886,0.06027427047822821,0.04549816242952366
26827877.33082877,2.3357805067137605,3.8187016208283016,0.05746703780650173,0.05799794325525838,0.047956839219540005
26958069.591557354,2.284059209571972,3.2004072239705,0.05824301200208431,0.05834996700603221,0.05128551077019618
27096641.122307654,3.1424721241171487,2.7295003103173845,0.05676812747435387,0.05681655017914383,0.05095150446442031
27184334.736397207,2.765726935780541,2.827034091635826,0.05368544057418835,0.0537029995532762,0.047470011089409216
27345556.38454455,3.790394515859419,3.049910481935225,0.05354763299466437,0.053674486421257425,0.045553497832936225
27486983.784370217,3.9321513615765618,3.2034278859479035,0.05350226506071439,0.0535521193351856,0.04464343094813822
27605768.159038994,3.4279582415800705,3.33676272364724,0.053438484752961014,0.05344132197267398,0.04437211445989802
27733121.012222182,2.7391104151001358,3.5519682472109437,0.0567274546202457,0.05709986514576595,0.0482079392265385
27863136.49907144,1.762097387701572,3.7707684208735737,0.05955795692916538,0.06004293284143946,0.051044322073815214
27993336.51186999,2.525870035816083,3.6507265111240357,0.061956607900667274,0.06314654132013583,0.05495944001634588
28123413.38558246,4.790396138258344,3.2387129670246626,0.058010058921419666,0.05817339690010454,0.049145337158018346
28253584.411012508,5.030153238370795,3.3106290675450296,0.05626978121402667,0.056369913866004775,0.04633999147800181
28383664.533237662,4.870101486997805,3.442233912288713,0.05691606728139952,0.057025088281481104,0.04678333135866318
28513805.851644717,5.343745375926299,3.3768763098628285,0.05635496667757838,0.05642897213547755,0.04568331253641611
28643863.307388254,5.768926180309961,3.2108478354345165,0.055467620948467564,0.055495733996286725,0.04456452176351246
28771232.315097347,5.731596703846336,3.060887860346764,0.053813031233441964,0.05383209943275858,0.04323712570648494
28898526.08870697,5.366208823430499,3.0166803709864554,0.05396036027083808,0.053977131004545625,0.04419687641128154
29028629.996506535,5.512282946366538,2.8228057308719254,0.05503210752087501,0.05508187101273755,0.046099931620551794
29158728.667803757,5.8741803645648485,2.4761518208269635,0.05427504267182151,0.05434666779210728,0.04589164712320947
29288884.02875284,5.795007028208544,2.3026882265629767,0.05521468966737588,0.05529170993530183,0.04766664825010126
29410479.475148734,5.922311326202927,2.0829955491838046,0.05569409030983718,0.055698153898695445,0.04854942258783466
29549119.71479341,6.453897010090763,1.8472033537889019,0.05286747434929507,0.05299696104147658,0.04504606703612497
29699011.860280596,6.147787766801035,1.7023552669618498,0.053794338050031636,0.05384233673330271,0.04693532640605125
29809315.667571563,5.446543145219768,1.2532552385449942,0.05378782585690956,0.054054716893597664,0.04917863055164094
29939454.516938362,5.325021664789778,1.177375860691384,0.05395470248763659,0.05397553427836525,0.04935840529540519
30066741.911262956,5.725233554553237,0.7242169929929196,0.05207033379278795,0.052100088736040016,0.0471409557085603
30196853.729129016,5.668385202537641,0.35233819243733483,0.049130616207013304,0.0491370458289871,0.04414505085632248
30324171.637689102,5.664908503647863,0.031249105074020133,0.04758735927111733,0.04759456472888987,0.042433816167796075
30454260.159228504,4.81821523847598,-0.22731293912278122,0.050743620522615655,0.050757104392756866,0.04724140947451052
30590075.651717193,3.4117450760811,0.5203792468994856,0.048266254536305106,0.048271512263367296,0.04637929200301379
30714500.228188246,3.849195998973775,0.9535726930999893,0.045045457589025666,0.045255290761418404,0.042301432942404814
30844643.099697977,4.183866990048834,1.362725184732873,0.04515777282017418,0.045165754601581155,0.04109422046200015
30974736.88977147,4.285703909211228,1.6330520168422662,0.04862562174740248,0.04862902205119319,0.04418303573807406
31104887.930685297,4.416167039485015,1.4907937017850184,0.049975199023366265,0.05000923738108257,0.04582215963240489
31237801.790946368,1.7839446531993302,0.28111642985433877,0.047815810546570525,0.0478261394152616,0.04704556284673758
31365153.709622353,0.26600950954960234,-0.11598823442867866,0.041930294004982605,0.04195538737728438,0.041928402841134485
31492406.513339393,0.6144821731631722,-0.11872190351109149,0.03713566585817436,0.03717559840762677,0.037083765657231586
31622536.128851667,0.254192298286729,-0.29633418148757973,0.038747627883811,0.03875984091489836,0.03866640900599662
31749812.70995611,-0.4300353099572919,-0.36687213045946543,0.03981837605063692,0.03990828664820918,0.03976628503138016
31879942.45382667,-0.7953737014218364,-0.7872838021330417,0.04134359746911775,0.04177482136080413,0.041178490823715164
32010047.71003349,-1.049170859618419,-1.026576239642574,0.04364695606153983,0.04378419886742598,0.04281650763667376
32140185.761740245,-1.7258026381283578,-1.2814436933609772,0.042995584746781876,0.04334756346143734,0.04162617614786231
32270300.816081867,-1.8077298866867715,-1.4028162636658723,0.04373200174042167,0.04375667930255118,0.04175320525831967
32403252.277418025,-1.9123818992766162,-1.4692628205871836,0.04380288214044434,0.04384487264057298,0.04162630103972424
32530533.248979658,-2.0185463917350623,-1.7910369577299263,0.04637785350897285,0.046381518473750334,0.043451304209690046
32663507.098214053,-1.5376674473194814,-1.808255385950796,0.048516522383613835,0.04855368853586901,0.04595678183445283
32796417.26027682,-1.3913276632777496,-1.4348812926168457,0.04757422544082334,0.04761334250701927,0.04589298978624441
32918068.246462274,-1.541438431692025,-1.4118632698838336,0.04779874630491424,0.04796451406367011,0.046244075271813574
33048199.01437769,-1.308021883044142,-1.4149718497913382,0.04859811374061452,0.04871055090660013,0.047102550162307605
33175481.932424553,-0.9567956978665813,-1.0704388333521135,0.04872274312533749,0.04874791726003001,0.04784459051213848
33305596.377724454,-0.7050058505284896,-0.7661131664357571,0.05086936542587666,0.050876014840531926,0.05042431753719418
33435731.429070204,-0.49977954142761116,-0.15764998501736432,0.0455800037557166,0.04570264799740037,0.045647479336576084
33571487.857436635,-0.8865898954546935,-0.3405413394039015,0.040799183365950634,0.04083947471565102,0.04061558907524176
33695984.27303968,-1.132034256400771,-0.8047937660287466,0.03886563479077462,0.03888606826460621,0.038118059786556406
33828922.17530966,-1.0979623888429373,-1.3336458142826275,0.04186066674895805,0.04199432392543353,0.04038547671052118
33953383.85843547,-1.3305575989565246,-1.9598468872202448,0.04503723686165813,0.04521190842336128,0.042030029628657394
34086347.05573782,-1.3386069284668807,-3.1756719428526496,0.05495298761500988,0.05495771808708732,0.04817841704457002
34216453.62845142,-1.3131312942091222,-4.376603474872283,0.0625668358755801,0.06259476066989181,0.05094936456868
34343741.876119316,-1.4605482055871053,-4.526664360498908,0.06109673286693443,0.061321335295390626,0.048474862232546975
34473879.63083117,-2.1100717544685668,-4.512247738185278,0.061339843968616685,0.06136637827315036,0.048337181706286994
34601155.87721313,-2.461834925938541,-4.449709607703564,0.06087194298337573,0.060942629502460446,0.047971713771972485
34731275.576639995,-2.6658757491722764,-4.390738486672192,0.05936495670124626,0.05937058255903083,0.046281090293094525
34861400.17847599,-2.65116003052711,-4.423209455628339,0.05893770932596782,0.05906153996299253,0.04576122764976318
34988684.255808264,-2.714817683151499,-4.269385382617905,0.060394206433529225,0.06107321881354723,0.04919573719635402
35121642.79181601,-2.0022789989454486,-3.9261025520411343,0.05902446964965011,0.059316247972060455,0.04936298626358861
35251737.06767616,-1.6395313276130943,-3.402400244884169,0.05087364198817065,0.050950838818979466,0.042270709737905796
35381879.66238088,-1.739035334388935,-3.1062805051848255,0.04778403387109967,0.0478161866208343,0.04010626673095087
35511990.85370925,-0.6125536766346779,-2.8022499030924997,0.05184475756584969,0.05219329906192793,0.04681457619462919
35642120.62562692,0.008410501100455848,-2.742875378761892,0.05355547041503006,0.05355807216687373,0.04852676093830941
35766557.57835312,0.7381256280328584,-3.0018917550095683,0.05417155496616463,0.054175921153952505,0.04797749436792945
35899526.727564424,1.0249510797499082,-3.773410670480264,0.05670042638861164,0.05762900200806668,0.048094906236105094
36026811.33966024,0.7541185345200856,-4.500091872611844,0.057630333858686475,0.057697445709746026,0.04384901604957925
36156916.70227711,0.1398110390831648,-4.9259139871953,0.062297960796238463,0.062395795701686636,0.04722820146836528
36287047.942175195,-0.45032540330630866,-5.279466439647378,0.06745732896718237,0.06758075446512578,0.051683317214200004
36417183.44599869,-0.1270197031729196,-5.414801629457009,0.06765781517203454,0.06766372724526695,0.05076469500370754
36547298.065871954,2.4095145781624128,-5.266790682600878,0.06798562943607105,0.06803458668260705,0.04913468854767731
36677422.3603724,2.8210765856372837,-5.348530262442236,0.06743264801696838,0.06749557182963781,0.047229661958900535
36807518.39821713,1.4631554035326158,-5.427781926921424,0.06468651017434797,0.06475085065720557,0.046074960980426675
36937682.21898054,1.2937057706409636,-5.407468869203876,0.06637449615474192,0.06637858275144792,0.04857132130484749
37067757.77142438,1.1369129824011572,-5.375421467774955,0.06726766429215271,0.06733320718324037,0.05021088028947761
37195062.85132904,1.2121761195898384,-5.302096475388299,0.06751750708712528,0.06758011041560817,0.051032595134255856
37325160.05918047,1.5641517491276362,-5.181026724787914,0.07458575763428664,0.07460310812241577,0.06072130363869024
37452487.794795,1.879458430885313,-5.082467450432002,0.07242737862211951,0.07301651867783326,0.05898850108336813
37582578.50719692,1.3515314983784188,-4.80038363436573,0.06418955777511155,0.06419501206525045,0.049975240307349844
37712722.01058303,1.3053776296351849,-4.872032326379248,0.06395192537821216,0.06399582902396327,0.049340623357294916
37842817.72903274,0.9727206815203007,-4.945386457708376,0.06389027529945751,0.06399958572121602,0.04840029176490438
37972958.380753875,0.5854387274098034,-5.2978804107028825,0.06801595667235105,0.06833643569687523,0.05172758047922167
38103057.13519283,1.0055239876960007,-5.415878659897599,0.07028441621948397,0.07065999844192772,0.05438229668593235
38233195.09258568,1.6889870886438867,-5.516662391568672,0.07364715636181501,0.07384777012434941,0.05740277838374569
38363310.73553506,2.029187875874567,-5.564420145971132,0.07370710869713923,0.07389799050296846,0.05694898430330574
38493421.77599371,1.8615936985611192,-4.847937103896287,0.06834144549990068,0.06859031068266055,0.05251105355560662
38620706.20793839,1.8527874187542173,-4.5887446716842275,0.06120268634286768,0.06140994038308829,0.04688386508462196
38750854.286802754,1.98195381691916,-4.033185149575099,0.05709516189410483,0.057344209516036755,0.04582793546293958
38878111.160242945,1.4583421915308412,-3.2856349953872304,0.053231524938224674,0.053456813443292235,0.045553365309471815
39008227.092944235,0.11054190502982673,-3.6089126610971176,0.05188263109347189,0.05189236131049804,0.042562447730248816
39138351.34252974,-0.6833704742042385,-4.632322002307295,0.059689069874375444,0.06058542053510079,0.04708946481739644
39268485.76608166,-0.11119622792044404,-3.5844045937592885,0.05423473364906167,0.054256296746458654,0.04552290064810854
39398581.00554729,-0.08877982509557572,-2.4804606230199204,0.05093764628317968,0.051047560252313426,0.046767135297787435
39528729.770416796,-0.40698282360128246,-2.236889426802192,0.0503464819351307,0.05071148010409141,0.04725786197542969
39658820.2575257,-0.29205486808969494,-2.158890428156069,0.047328660076124775,0.04752747504995322,0.04408634046782394
39789006.91353437,-0.8825750524881099,-2.43290385622452,0.05213356954605592,0.05291478246806208,0.048933191243555337
39919046.0663576,-3.0003231835993205,-1.9279817097225993,0.0522265237228725,0.05225784927614433,0.04865631763772069
40046399.1366489,-2.5205832833507187,-0.8155868461588032,0.04606184728528635,0.04612217061094043,0.04468896382503574
40173718.914902374,-1.0299828642873095,-1.1096919979685045,0.04193068664444931,0.041990477024904924,0.04084265078207741
40303818.906445056,-1.1339059125289492,-2.15589146049668,0.0452104340004499,0.04526705824892344,0.04151760245113099
40433879.79269108,-2.1142836364906383,-2.3298975306358103,0.04901323278619126,0.04901668688516727,0.044596447702711
40563985.277023435,-2.4930699131396,-1.921490135917849,0.0505813180093268,0.05099773427239479,0.047716359125891714
40694117.95704724,-1.5857918250119563,-0.9496771171886121,0.0494205396610413,0.04989551222658162,0.0489617908579376
40824306.120369986,-0.5823175157204028,-0.5283993361610824,0.04847056062950308,0.04854320893656316,0.048306535351704843
40954356.788791046,0.25409494914789144,-0.8375867201255902,0.0458708903889946,0.04610901163583352,0.04556997708534737
41084525.847143546,0.5639332314993656,-1.390618917228934,0.046629314080371846,0.04674002138056008,0.04522697091732428
41214608.95553534,0.7796629687103349,-2.0573540291148658,0.046794021471838566,0.04680009668507951,0.04346362739980188
41341956.46357947,0.6527587652330639,-2.212250509189824,0.04679434747219863,0.046826515512042755,0.043020247287920935
41472007.277869835,0.5549788861359339,-2.0106083801846437,0.04538291372382246,0.04539832817053678,0.04217669882263747
41599352.404935434,0.361596634862885,-1.4939790016943726,0.044194991184556755,0.04443779669240856,0.04265551838280656
41729417.52081303,-0.4943483886128924,-0.7928696739186039,0.041566047514508084,0.041894633120919796,0.0413552297569498
41859601.01374149,-1.4287565625540046,-0.33098785354200166,0.04105157860848095,0.041166343059477285,0.04073301491921888
41989668.88539156,-2.3451636538174037,-0.5646989481248428,0.0445547825810746,0.04464518341621597,0.04354670802412657
42119828.401199,-2.8184619514807276,-1.9155209082741225,0.04930150300157926,0.04930925714529864,0.045665844465669785
42249908.214105435,-3.387824958614785,-3.0312521959446754,0.05109692720075517,0.051330148158887555,0.043377196510095445
42380089.26238099,-3.239836996575856,-3.1119448565975145,0.05249453007183032,0.052518895834679225,0.04454644052759883
42510132.946789205,-1.5822575359902662,-2.787718140593207,0.05070891698392398,0.050825334071231895,0.045125050267181666
42640327.436118856,-0.07388538425826008,-1.9872161308140013,0.045556816597904524,0.04557654850768679,0.04254305340829736
42767560.74716038,-0.575960517887754,-1.1622859033394592,0.04195614134994282,0.04224592259740789,0.041115476879197733
42897726.42956093,-2.166697537930807,-1.1212488536316194,0.04154236991568502,0.04161620952442276,0.039840913065725576
43024968.58437483,-2.502306685189622,-2.1559597007404245,0.050106724849349395,0.050170509617407696,0.04611749486687455
43155141.54629779,-2.1326954703813126,-2.286486839890814,0.05113664005087378,0.05170460504953813,0.04761097578451694
43285195.12158804,-0.2635711562698838,-1.6440890355526625,0.05329988598464294,0.05347576480498558,0.051745987269762796
43412570.95735338,0.5370304711960903,-0.37656742960446965,0.0512228647997846,0.05150232242237342,0.051359901708711145
43545432.911697164,-0.4963347317697906,-0.1147228346189105,0.04251316971390333,0.04304872069506671,0.042999097152792744
43675615.82527845,-0.8454708137146169,-0.6370578492782057,0.04108552648979813,0.04109482224315489,0.040652611754913734
43805672.1217926,-0.24128196758828593,-1.5564206234527909,0.04543085134570652,0.04558327987340941,0.04373795686619946
43935852.21906926,-0.8147661428736275,-1.7044198369581645,0.044361281755749035,0.044367606344986384,0.0420226566106616
44065923.58384013,-1.244876743156843,-1.3203715397596996,0.04692728017326741,0.0470027783247723,0.04554194290268595
44193249.3726826,0.6864068099001494,-0.6425082103852963,0.046902423514410756,0.04696012862326546,0.046568065188059185
44323336.458360195,1.3152060847225215,-1.2982566709079624,0.04484186124774091,0.044870132679372336,0.043201432712402246
44450679.7763428,0.26560719102267444,-2.0592585498076166,0.049583131951186965,0.049627416673003764,0.046589072333435136
44580746.85322896,-0.7210255605321776,-2.388230062039626,0.051345290354703095,0.05151176479814399,0.04756434371410384
44710918.606742255,-1.7625886213661532,-2.376059408701829,0.048075454898369376,0.04811096877684573,0.043593314046879834
44840952.03319234,-1.7079566957881982,-2.160162019322096,0.04780826580879366,0.04815386333100324,0.044403030799315325
44973972.67936796,-1.6477024089883736,-2.2075435860459636,0.04825992542456965,0.04830306665333771,0.044422418709241365
45101223.46165608,-2.14726278534731,-2.4700360052123007,0.046128668531298336,0.04614467305174055,0.04081385497603633
45231391.909011334,-2.1728553278477514,-2.548622487447122,0.04821897947164484,0.04823894160996754,0.042845092410898775
45361448.13309434,-2.1965657703545336,-2.502845513397811,0.04987308400512693,0.05031707409070263,0.04535533259960215
45491644.51607691,-2.253683561436263,-2.425139348568762,0.0480903840686524,0.0481032908312428,0.04312434176033558
45618876.47897754,-2.6008047537312446,-2.491802787186101,0.04665836873695052,0.046682776153068886,0.041000416477195795
45749039.95193197,-2.6922522386143743,-2.4069422121602906,0.04617908656962603,0.04624133930510052,0.040758018473811934
45879096.64430019,-2.4603134237637647,-2.3466604626524292,0.047347039715078074,0.04738687021544398,0.042453732481221404
46003615.68126091,-2.2597877051608775,-2.224745094546739,0.05205335203864715,0.052086393843060456,0.04814748729367758
46136540.51319909,-1.7588954616869403,-2.1190470282859724,0.05455027920842702,0.054804655145449875,0.05163419299157867
46266677.70637998,-2.1202087467090016,-2.276217986223936,0.0519868644583253,0.05200403549316218,0.047985779311203285
46396729.95008616,-2.551903880579571,-2.2563729812072104,0.04787364541084693,0.04787839811419446,0.043260378521678695
46526931.82005014,-2.2448508006467165,-2.2526322954521545,0.04774873543039743,0.04778118084285164,0.04338562323021582
46656990.193744056,-1.5964893493912258,-2.3860761908038257,0.05140510298350662,0.05180607328094847,0.04770502045975516
46727720.37394586,-1.5324797833596546,-2.2795897908814955,0.051015343383898806,0.05124460131372562,0.047409223948825366
48011932.95562826,-2.7348651365987595,0.24710801597788937,0.07530187048827403,0.0754836978587745,0.07473281600156463
48082703.19423404,-2.5081539294755673,-0.4646881289783469,0.0802550026366842,0.08035488883332996,0.07968592160700959
48212754.51509561,-3.4221964417779205,-3.430682473041958,0.08898717567739026,0.08922489351011745,0.08358948727578372
48342930.748709604,-4.0285703704276505,-4.588367890550792,0.09020126595068935,0.09081227138263388,0.08105128177709704
48470198.43238379,-3.9695127683790705,-4.6932982084971995,0.09022335064671558,0.09032994408247154,0.08011905034530256
48600342.03343227,-4.301561775012546,-4.951056099953121,0.09135767734940259,0.09144171361900667,0.08005025307114935
48727594.93682472,-4.6367305973593105,-5.123007495574059,0.09516667530134007,0.09591489178340844,0.08414295008323903
48857740.4750019,-4.019210019737388,-5.050154571246404,0.0931365195622993,0.09315814052908414,0.081748386135989
48987848.051185936,-3.678941658646398,-5.417737692554601,0.09642726396108013,0.09812818827332483,0.08594326183706656
49117996.843226776,-3.8051138845496366,-5.724133136218802,0.10213491548842632,0.10295649286487008,0.08991008844478242
49248063.04964256,-0.8768705292358079,-3.662860357085629,0.07986398480562978,0.0799199296280682,0.07283660922111145
49378229.84357752,0.01283832270891674,-1.484510475588736,0.06369146793632603,0.06495266543383724,0.06377611523623404
49508319.44300665,-2.955468036045661,-0.6201596461351057,0.053873271725614444,0.05446648055381686,0.053095377771505456
49638480.58098009,-3.106745318430137,-0.4706653083278703,0.044968438976047916,0.04525680332266941,0.04355948022605083
49768558.43883079,-3.378939000569561,-0.4039113160916418,0.04331347826242506,0.04333909708994636,0.04129506886784738
49895877.73841568,-3.653542229869837,-0.30892435685759245,0.043393174556487335,0.04346393267152643,0.04112636301787402
50025980.43020682,-3.6953427417662215,-0.2410787826831216,0.043284314838965186,0.04328642207150858,0.04090453028394664
50153304.664129056,-3.513604247003423,-0.09424923756929053,0.045299744703427486,0.04593671100711958,0.04393085276622183
50283385.36357778,-3.402349741951919,-0.058399064868672045,0.04811756639910496,0.0485692527797999,0.046793649472839274
50413528.30330573,-3.621630774035865,-0.10203196794043035,0.048145476252228425,0.0482857587203598,0.04626178868323195
50543620.15137478,-3.7842164656168844,-0.19445016954691383,0.046546437080179984,0.04702573430153469,0.04474115116364278
50673781.622996725,-3.974533522522587,-0.19916930560071774,0.046025971568508066,0.04607391822188893,0.04349050993937888
50803839.91825841,-3.6436818201568264,-0.28407564525548057,0.044870575663419565,0.045146322565044444,0.04292226797871088
50934028.33340701,-2.23432466479402,-0.048336721222544544,0.04512850897864015,0.04559395655497139,0.04464939320979206
51064096.43344555,-3.8071142354415572,0.22567983406873282,0.04429851208700614,0.044326340443272376,0.04172493916477996
51194239.438744776,-4.651017863520757,0.1390203555737863,0.044586653206132046,0.044595793640034284,0.04083245551456068
51321499.402447,-4.447769121769488,0.04947046369316852,0.04519967145925334,0.04561444552788744,0.042296780877349255
51448913.32919882,-4.32826584083944,0.08468919644571073,0.044938202840929385,0.045598724486714495,0.042456587965298075
51578928.92850208,-3.7215535063127625,0.09978229834908846,0.04721456534639171,0.04817948858717209,0.04600070748919962
51709072.22582845,-3.652183271077552,-0.03929486771298732,0.04810979523710637,0.048130872759473954,0.04604978995509277
51839194.28856857,-3.882950993753023,-0.13757736233271137,0.04414392135744688,0.044408652971086635,0.0418446818374895
51969323.81393929,-4.107144490843244,0.018664734618255838,0.04247942063139723,0.04263386605584895,0.0396188254172667
52099414.87191294,-3.555321849267924,0.25477803665124826,0.042467096882942736,0.04262678024717594,0.04029847303557838
52229542.55349305,-2.3837026475561607,0.49824482783788004,0.04028993114994894,0.04031347825319198,0.03899225707223172
52359634.442451864,-1.1022960312199515,0.7898021000917631,0.042698329957318176,0.04272345147910754,0.041973840886273546
52489768.756913334,0.1028009440212645,0.8851101498245891,0.04290279770272728,0.04291890154784217,0.042298110436896484
52619883.82862398,0.6319893881425971,0.6430240831925836,0.04178361916187728,0.0417911425845912,0.04140343434955174
52747177.3669204,0.5241398338070814,-0.0002947806253907738,0.0418296271073759,0.04220571252761991,0.04215782480955373
52874497.577740654,0.6172419137827686,-0.09768484377029525,0.04617924399235693,0.04640983858389024,0.04634000722544004
53004666.31364167,1.0772567409657512,-0.8306281337445522,0.04769878983581307,0.048002934155380136,0.04729164162359198
53134698.980202936,0.40496289136941527,-1.8111350275350357,0.04548074233111206,0.04552781076076233,0.042949396858280274
53264843.14949158,-0.9007495473651641,-2.4253747961199146,0.049437146375348566,0.049440283631899444,0.045184828486942434
53394937.21522058,-1.5366143047239778,-2.6740561741857127,0.052907967433681785,0.05304429025708212,0.048038926435641
53525083.18901661,-1.017692489892063,-2.536931863025499,0.048672515805854945,0.04871112624049691,0.04393925377664318
53655189.63561395,0.6084210683416564,-1.7669640683471277,0.041725511538426414,0.041800611698798305,0.03906326369451844
53785324.3907946,1.6903906977675487,-1.0703023903222522,0.03920985407496953,0.0392366055998998,0.037586237967878314
53915426.894126,1.8636548171020515,-0.7641914204519032,0.045054961442080835,0.04509853419671697,0.04401259166302705
54048320.30947919,1.719898742264807,-1.0905965952810932,0.046036326209614814,0.046521361459105924,0.04508326954659692
54172847.26073153,1.813836999510262,-0.9625312156110661,0.043889794243939996,0.04498405083383843,0.043654588748990045
54300160.945671126,0.8819199933647309,-2.387148031509923,0.05282794678871063,0.052978306795979486,0.049000747719669356
54430238.68293756,-0.07152551142325196,-2.4231184072418355,0.052901459639285955,0.05290866089999178,0.04900644834669968
54566044.23072329,0.31076576153447255,-0.7630970263701757,0.042755678697702394,0.042757945442194675,0.042264070840279555
54690483.59221201,0.2099957241774883,-0.7653451349836217,0.039977062475228184,0.040000124178731035,0.039484380422875734
54820649.91776611,-0.2672593236788455,-1.2191979363443128,0.04514398643004834,0.0454343432943211,0.04431771529194511
54950723.21631629,-0.45851125273541754,-1.9106159867325079,0.04828754152163256,0.04858561696600523,0.045971266654707514
55080865.41105093,-0.19988873050307304,-2.0512803703047875,0.04742108170821668,0.04743410114617712,0.044329873415653885
55213813.98204257,-0.15244013327963665,-1.654914279218236,0.044392612818225215,0.04440934410733081,0.042269772005037745
55338229.97232255,0.5750767273475562,-1.424880400272005,0.04288900672872682,0.04293289276466855,0.0412005735569376
55468394.36800589,1.1923428825821336,-1.2348796326609748,0.0455948964770731,0.045677415627616715,0.044225357429995484
55598517.280803844,1.3828334414124173,-1.0207694621474412,0.04442215764725816,0.044454175803005855,0.0432672598137096
55725799.21504283,0.9883769551997065,-1.1292485143934983,0.041089816998314654,0.0411792785272327,0.039877039561359684
55855927.946040004,1.2623853844472093,-1.3084083400875326,0.0393679845510195,0.03992922966676458,0.038054798950059
55986045.70802155,1.201736449090565,-1.146221436615887,0.04166338342439473,0.04170813110538516,0.040301568550537126
56113337.52413753,1.0768276184763286,-0.7865091435921452,0.04081079524375348,0.04088114477478854,0.040113525366057314
56246286.083039954,1.619540125605261,-0.5338582464420646,0.038163305157409975,0.0381737084069074,0.03736542235327716
56376405.026865855,1.835898445577899,-0.024531171718552604,0.03774965176460011,0.037764531146100025,0.0371021122497662
56506533.70460731,1.7103568952975015,0.327725711830492,0.041790274871308,0.04222866925276271,0.04165797515904685
56636632.294437,1.4806219318355476,0.46359022353459467,0.0435368755649888,0.043541214691039276,0.043032781498547994
56766775.715313375,1.4856127722658805,0.5720378787089071,0.04050522039168526,0.04051586384343972,0.03987819482930438
56894071.928401425,1.6317988416231617,0.8582773561589899,0.03816708268905391,0.03816931746694598,0.037057429558544436
57024179.88600613,1.7765868365360957,0.9906182399353444,0.03696853124499295,0.03697696769842031,0.03551803001223235
57151483.23060711,1.4738827300865323,0.9892132636880674,0.03821645127561762,0.03822695441031263,0.03699485056658176
57281588.48308197,1.7648247014533498,1.2928411026922229,0.04083601791693572,0.04088206367088062,0.03900053327064231
57411707.35004828,2.011581204542059,1.4080659948983365,0.03949763542140702,0.039540695249900865,0.0371589441337234
57541835.38005192,2.1030883138952623,1.3932738501678181,0.0380483056640131,0.03821781674980109,0.03571234647695837
57671950.93801583,1.3281166527485277,1.1949042491843385,0.03889079126565628,0.03889279253227045,0.037356563043332944
57802075.66664994,0.9947440427674898,1.221915185703271,0.041984561445350066,0.04205272755795303,0.04069752117214497
57932171.51397836,1.1331725181725665,0.3542398473681128,0.04026809928598351,0.04051274081936006,0.04019234360711086
58065125.25501189,1.0874583950917813,0.4196711288085783,0.037544495076122696,0.037546471954060336,0.03717838924418434
58192410.61320524,0.48942380026525467,1.2397426219291638,0.03648480727405017,0.03653152775405073,0.03505550249073875
58319722.206375025,0.12716394437471257,1.2088988116661714,0.03663777659534986,0.03670186050273062,0.03532703393146774
58449836.086737655,-0.15918892451341354,1.2550513214876087,0.036232804897635085,0.036341991779145065,0.03482502472172722
58577136.10680424,-0.3708640124142452,1.5444746120460635,0.038611342495150754,0.03861334771204691,0.036394525086218044
58707247.71020435,-0.8272832104482991,1.5714163786697695,0.039538594768631266,0.039747543833058056,0.03738671476259564
58837377.94331716,-0.9250342811183544,1.4689128668330595,0.04165246327345388,0.04171963146678301,0.039712308607604864
58967468.36442036,-0.9921867382253667,1.5024036354183994,0.044818163970294075,0.044925450584848196,0.04295613421332616
59097622.27046184,-0.9486793033372025,1.7074925520785984,0.04542992306315164,0.04644102292215163,0.04404552038650536
59227714.023586735,-0.8932968839758204,1.252866653234192,0.0391012519067735,0.03912065953933926,0.0375195898742207
59357886.35068405,-1.350720693024131,0.9819186141494989,0.037306377437679304,0.03731426492581539,0.035991737568961055
59487952.66300015,-2.0568970794785253,0.7845627498612476,0.03885566786891729,0.03889603866123399,0.03745054400318848
59618091.486180454,-1.9772259763825772,0.5298451792533725,0.037543668140806244,0.03766658035524588,0.036584158278492054
59745363.15992125,-2.233804166117268,0.17019563681836783,0.0359739574947811,0.036582624435823226,0.03552556514892015
59875488.08325657,-2.415570449126334,-0.11992398810888723,0.03731244535340814,0.0373414253062768,0.0361848241376302
60002787.10557651,-1.966638451084649,-0.5681377038119353,0.03734794418072108,0.03750752355544257,0.03650501408057196
60132939.60127173,-1.8283138224810493,-0.9568381311340323,0.037011336147170705,0.03702140954410481,0.03558636908152936
60263011.821925804,-1.7334814469275333,-1.230152600509816,0.03844460000086887,0.038495584654371494,0.03666109493944372
60393154.02291635,-1.6299774100428273,-1.4106436280283938,0.0395502041153839,0.03998977542860155,0.03787176554233567
60523250.88927916,-1.3418640041674537,-1.5769612515044542,0.039291110309279516,0.039294388573967616,0.036835944780816046
60653393.22414738,-0.8854428665440658,-1.5857307356659447,0.038928430975996096,0.03898976285759306,0.036639899594688115
60783481.40164132,-0.6619445442540645,-1.6972226574198288,0.038788886138199384,0.038795205491293956,0.03614262452723438
60913604.81226772,-0.4694728637821447,-1.8108619626037772,0.039110518142795925,0.03926472039414582,0.0363190335973861
61043713.55641251,0.15143263598155002,-1.8339220794675783,0.040859183829638,0.040873111787917964,0.03796414029155652
61171049.77448539,0.6615215966813357,-1.6787825647854906,0.0384965695243056,0.03858269938063369,0.035890225808374136
61301134.842710964,0.8448475378665726,-1.5914446108446658,0.0391779727333168,0.03918635145490706,0.03668456741833208
61428445.35712634,1.0103731555533313,-1.6209197389567749,0.04368289264535336,0.04373049171673315,0.04136445174949821
61558565.196476206,0.26426310418887916,-1.3822643515314121,0.044870946301929206,0.044885786837631385,0.04339961588887592
61688700.60624885,-0.42951778007847463,-1.226668879518286,0.04272412034994475,0.042739321522708866,0.04151616048396187
61818771.702179626,-0.9818470916008711,-1.0001254550674206,0.0394752316892948,0.039482538544112294,0.03847314936332833
61948910.62499548,-0.979078688871103,-0.8358459301083252,0.03929263103090541,0.039366359577746146,0.038610240432700706
62079015.80016718,-1.54728856527688,-0.6852129686801753,0.038573548214370125,0.038985041073404676,0.03816737218839092
62209204.40977931,-2.5607302140739656,-0.6863956190616294,0.03766444950763898,0.037673038118521796,0.036031699429344165
62339266.074559964,-2.437260765743571,-0.9039115732295312,0.03767921911951843,0.037682091868961334,0.03585938540567797
62469424.12744892,-0.8817154150425485,-0.5574469730255966,0.03789193244279007,0.037894115926696476,0.03748985658443579
62596681.47233498,0.5508208263743599,0.2377746315101288,0.03801932578354743,0.038062980805433425,0.03796092808164622
62726870.47850175,0.7021366267510224,1.3157192176736843,0.043241090635459896,0.043257980767992726,0.04185592435421781
62854076.14085704,-0.8681534486198086,1.5407858908394543,0.04636420859630937,0.046374961460525804,0.044423598800714593
62984262.30597255,-0.8484890034417697,0.8523732019795639,0.040639787780710084,0.04065877164529819,0.03987804543421031
63114290.198614344,-0.49338711303903476,0.5449649769972077,0.03709846213596608,0.03710416920893566,0.03676791597819502
63244498.33974509,-1.8611996541516251,0.2895785930210851,0.038558675445729405,0.03860357873805692,0.03783812739204125
63374566.79558876,-2.852342945698162,-0.5100434991217849,0.039786778319518,0.03984195391088861,0.038160756355260124
63504723.26928585,-2.688220725801895,-0.46303740849940905,0.03982156815766548,0.039953125561448546,0.03847837646016615
63634792.69571264,-2.901232241001308,-0.30911839983937445,0.038478116537384754,0.03852004026184102,0.03684970371048994
63764995.90592661,-3.1549777932083964,-0.10927401531414677,0.042240652264369426,0.04226197347511983,0.04046705546705316
63895032.526233844,-2.3508547442667616,-0.2795997606819217,0.05165870308931244,0.05175788225612426,0.05079618692556693
64022393.19453472,-1.6803150355569436,-0.10520339613447811,0.04931569386883978,0.04935653707823233,0.04883069431161083
64149690.916854575,-1.882643944187713,-0.15487845878790504,0.04634832108600757,0.046409597792955136,0.04554794917717541
64279796.855930135,-2.0281077769922553,-0.4576851293415016,0.04656861288931892,0.04657168847147141,0.04492974536250466
64409866.31324753,-2.1599925907850697,-0.9358590714607908,0.04280578492012565,0.04322173545232397,0.04074389451220268
64540026.43061121,-1.9514958979133428,0.7073211824124972,0.039017617679948186,0.0390354356503803,0.03780087373851018
64670094.139007844,-1.032156245236492,1.90932138661608,0.03801888566996682,0.03806319443596603,0.03434456259955731
64800286.3585186,0.5975978977629717,2.0876124916281684,0.041211618636622045,0.04143065977229632,0.0376746898050735
64933177.82755189,1.3013154822579431,2.2261995645679566,0.04469443271413311,0.04469890774958293,0.04055471245005922
65060513.652510986,0.9563688135918972,2.5580936452418195,0.04649474127145682,0.046537375791411796,0.041392704978710795
65190572.76788069,1.5764943730511123,2.4503249254734274,0.045298425436068226,0.04556492355443684,0.04056284318180564
65317924.03354828,0.7710816237161319,2.178536730259859,0.04425420934472123,0.044315532697605416,0.04050739832770688
65448001.01491991,0.9221323897123099,2.8439289810804675,0.04397989343283159,0.04405698543838738,0.03729470009701668
65575352.97412783,1.8719672581437772,2.9985600145777593,0.04485963090912885,0.044877730077438734,0.03703178600212605
65705381.28548227,2.6924198243023434,2.8273905613644845,0.04442076274799903,0.04445016411905737,0.03681407373720575
65835587.920622766,2.575170699884066,2.244709001350758,0.045838223030672504,0.04588754302453144,0.04107592001076879
65965647.10480419,1.1346066352551043,1.3712439954343103,0.04240402060264014,0.04257514470442551,0.04089098460537844
66095831.88641094,-0.03553900103934369,0.9624186205708323,0.0391314073614702,0.03917209305313774,0.03836127468548549
66225868.91321395,-0.9115838103101289,0.4518835774569882,0.043321860083637934,0.043379318897638894,0.043060793560565934
66356075.14158788,-0.08604911045171958,0.5191016901167551,0.04130826050150997,0.04132300808982652,0.04109647174617128
66486103.32917413,0.11947081616729507,0.3788650142941743,0.036562712713233296,0.0366182984030852,0.03648421105909274
66616308.20797312,-0.5887845633310445,0.5272646030886521,0.03644076577493,0.03644433698888198,0.036097503235017286
66746290.85681634,-0.8046938840175214,0.926114814650432,0.038584452686253434,0.038599084805104954,0.03767409216611534
66873704.56731574,-0.7940175840099285,1.2926807031040897,0.03907615768070907,0.039159756066228325,0.03751138375893562
67000951.42887605,-0.038746337596878073,1.5834597582813879,0.037121981498459175,0.03712588031492296,0.034755765347929464
67131123.73491518,0.5832564399017117,1.6543727717273347,0.03674640495520597,0.03678914542686128,0.03415477102151098
67261181.38522819,1.3587534225158893,1.7765990710817006,0.03933319723867595,0.03945594096118369,0.036418814762400165
67391362.50743714,1.9494999345023338,1.7463010938343195,0.041190646067101586,0.04120534585433533,0.038033736835609275
67521443.24075967,2.091942182531318,1.5901920666818372,0.03905091631819185,0.039075790934309476,0.03611107377024398
67651600.95628475,2.570559420455144,1.549084790529327,0.0388900644362732,0.03889515049493153,0.03561505541338579
67781657.27487263,3.328839753237482,1.616013457865655,0.03995114435426575,0.03996887167217755,0.035752874252238984
67911832.34429896,4.160129274125564,1.6290624453781168,0.040063743731949264,0.0401166283577225,0.03466833157438383
68041922.12010336,4.557043478604758,1.6113027855174702,0.0434392158561329,0.04344674949939065,0.03788250967295064
68169241.75534925,4.633324307786558,1.640765455551732,0.04636062707273361,0.046533061823897964,0.04116638366368563
68299307.38915238,4.32085117854726,1.8135798738770992,0.0496457199973803,0.05023017479710938,0.045327325583821805
68426659.75916287,3.8805669268070857,1.8674872260166973,0.05184707732199721,0.052099492933702155,0.04778682497267769
68556699.52734601,4.55450362404777,2.0153529150619542,0.04813545695972674,0.04840922916182651,0.0424072914729989
68686895.19234633,4.773360163600471,1.9068529612086325,0.04790884629146278,0.04795347476224178,0.04190649327711156
68816977.93088183,5.159602565044154,1.9492536131438292,0.047860212851740976,0.04786490338369942,0.0410282014002447
68947134.2570357,4.488745650169066,1.4534967119688416,0.047478412065496134,0.047576697346986815,0.042965639243613844
69077210.98253211,4.102682955448591,1.0174141238547736,0.04636596382617491,0.04636945798255297,0.04295248881531942
69207355.13252616,4.967994769933063,1.5093267313777434,0.047979512781328774,0.04800918937936328,0.041836059116880674
69337442.30399686,5.317164560381439,1.7925449099715969,0.05443972560779975,0.05452367594258779,0.04068577748034651
69467610.24275798,5.237305280338587,1.9691532268520537,0.05794599861938174,0.05796008711521116,0.04170913699356032
69594837.35121438,4.91863685695941,2.2337095482923868,0.06730616128469122,0.06731022122355608,0.044150766786362095
69725020.64231373,4.996880847190865,2.361624338268493,0.07913554690530614,0.07924552618299902,0.04712533141006925
69852259.76687664,5.679401910733147,2.887579616464905,0.06716396993042781,0.06734894567786544,0.043553009213626814
69982420.77689072,5.591324361067571,3.110895353248477,0.05253694052690822,0.052545055293128466,0.04140990356623423
70112504.80193573,5.414231950997061,3.2423697837841243,0.05368360126090314,0.053695352347291295,0.04254076593169887
70242651.848081,5.351160413254312,3.345075596894339,0.05525174956349549,0.05557865425321238,0.044522249096946506
70372706.08797348,5.152548444514496,3.487312657533611,0.053724770622369834,0.05374642111177332,0.04178750935541614
70505731.95456916,4.250601165514943,3.4543691724366252,0.05341422189612568,0.05342600928980284,0.042870903455907924
70632984.61261445,3.814912447327266,3.51587925284109,0.05455167186793447,0.05497509453703396,0.04495046683812029
70763128.086406,3.65640711785583,3.586848252164295,0.05472668453530772,0.05485238913378652,0.0445610016105244
70893216.6816496,3.6829194276025037,3.6604130498809497,0.05485679789628817,0.05487874215453638,0.04419963018905862
71020539.75354964,3.1834602160873167,3.259493178876654,0.07925531298209464,0.07978282258407543,0.04545613239551232
71150632.75735936,2.291275117415268,3.142780654448705,0.1081823538929892,0.10826575457393017,0.05138020278541241
71277966.5176554,2.0138261040869585,3.268559043758519,0.1044620967858214,0.10449682964915125,0.05136686563146913
71408026.5429377,4.6994961758125005,4.326188902265361,0.0856605884057678,0.08626699779408392,0.044675197206056956
71538207.57955202,5.4450003956475435,5.168642185730231,0.093777759044888,0.09411238746437907,0.047811006804954106
71668272.37051478,5.543230881590372,5.285520799286263,0.13155467099035822,0.13166524400585417,0.05297906226474067
71798432.1852166,6.355066825607962,5.4314310179838525,0.12936731745953184,0.12952782830652015,0.050835405416940774
71928515.20190728,5.899538973429034,4.270763249594342,0.09973398930754691,0.10009649886731148,0.05460259239780582
72058704.32682177,6.812193151905934,4.162773207296617,0.08031629536998687,0.08069079989379406,0.053034773568997565
72188760.92630878,7.624535024319241,4.656423166453741,0.07851305497066279,0.08231654753383987,0.06762704471078375
72318926.83526286,7.1589423564895185,4.525153124161579,0.07949262370672984,0.07970746765983769,0.06579009440555576
72446180.92132424,6.9852442672564585,4.555504290954474,0.06996105643273666,0.06999672000984422,0.05364311272603467
72576328.8325029,6.943658748397108,4.8688004757191035,0.08574771037759003,0.08582471423189592,0.056544022609789926
72703577.94726098,6.868172392511044,4.595815827469138,0.11395067800706161,0.11428841638218297,0.057540332390951125
72833756.86534292,7.0295989546160325,4.328797909292117,0.09322698181903635,0.09417206579892524,0.048558344888975924
72963813.30285776,7.707841935719503,4.571329687030103,0.0669774797252167,0.06742285191070882,0.048921358223187696
73093963.85690492,7.845977132169459,4.33985798173152,0.06660240328331123,0.06666732184365345,0.048992311752613434
73224062.33613044,6.930481310135828,3.4382614379429235,0.0772241755586619,0.07730253253448441,0.05134326496347377
73354224.07180947,6.622563446652356,3.387761645591138,0.07893056139731117,0.07897611647671943,0.05175769320701676
73484303.87850025,6.209195185822734,3.855743782939255,0.07602807938280302,0.07605391819441884,0.05014525836603988
73614442.83153424,4.432887666245022,3.7002119978735246,0.09115132760406346,0.09141228757298973,0.05306045732068197
73744544.19502774,3.5575242173947417,3.471555760181795,0.10142187955445121,0.10142605255662916,0.059196308297490695
73871855.77735817,3.2659132232141808,3.337688693700581,0.09835051054203796,0.09840956045642735,0.05819591660518456
74001948.48287062,4.354660975502149,3.4542083956559173,0.07693331275895761,0.07714041550771018,0.04869075165779746
74129289.18900952,4.750886454082148,3.328732773648339,0.06848962179953384,0.06849564262212333,0.05166558011133896
74259362.15606987,5.345188139344669,3.6986223574095844,0.08911872425446954,0.08912608465612536,0.05329210082330405
74389525.46030079,4.757046445680222,2.7724741601994936,0.09649944471747755,0.09711236338814684,0.06344880543738661
74519603.2528126,4.634532048815921,2.573220489822243,0.08549729621356632,0.08585860774141388,0.06546113794240717
74649745.84603849,3.069256561535199,3.9905397940446616,0.09478669807078781,0.09608717996468277,0.06101361593299801
74779832.64274238,0.026256003042566183,4.021546890142372,0.09606270267542341,0.09606968786723698,0.0571195461162785
74909985.87452763,-1.9859913801063007,3.0876847077428455,0.09354339617494054,0.09516579778755702,0.05965609193552661
75040113.31428462,-2.6912859129894886,3.6039288675907835,0.10432935663642087,0.10435637906142427,0.05180161610427936
75170225.91093698,-4.029640340668848,3.0743478375114384,0.09021026110361849,0.09024120711385081,0.04929130798465388
75297508.97259429,-4.702130883602855,2.835850830438322,0.07984930036547401,0.07986048730135523,0.05002518115689494
75424889.64507431,-4.752529672881912,3.7859322120505086,0.09701850944952739,0.09714947089891239,0.055128973905838076
75554890.29276052,-4.785407515862544,3.6906255749119574,0.10656674504822469,0.10660231275391806,0.05509212574731659
75685046.17928933,-4.142427806655903,3.61818945803404,0.09231567743317139,0.09261570060653712,0.049137710479115165
75815141.53692374,-2.7708995878710323,3.5960881321654057,0.10092523663549158,0.1010008079359973,0.049785155820643245
75945285.49163958,-1.8817907466739032,3.3534388310686425,0.09308663665288239,0.09312987121841304,0.04994736712969578
76075346.52554263,-0.8011477923832784,3.30687327472048,0.07712180173332037,0.07725204498316643,0.05183806668086683
76205583.1648317,-0.8323133362784997,4.462733753526421,0.10961676225494717,0.11126862614476378,0.0653929807246254
76338486.85451844,-1.3116250098178466,3.1940431245852157,0.09802098562501353,0.09909489277178693,0.06954521420796785
76465763.93388769,-0.14078270855857725,2.979881375142034,0.09064249523452925,0.09065376919593611,0.05827239904364539
76595874.45076072,0.06870535719759786,3.9489694618250373,0.08863079867249574,0.08887516403554745,0.04892742619338847
76723173.52565134,1.326830252220296,4.956156393211132,0.10189807523013664,0.10194348532281157,0.04818385391545488
76850494.11116263,2.075168150391021,4.487570885231679,0.0865182797350595,0.08657970971052441,0.04980295704383477
76980599.1469301,2.029410615425205,4.299321958139035,0.08536463878188243,0.0854814224088677,0.04734456928941809
77110693.16291362,1.521826266164928,4.288779867446493,0.09328251812158202,0.0936569245049677,0.045140242315299756
77243666.44015446,1.244565207747342,4.285854954927579,0.10600078759225028,0.1061638555550025,0.04700462138606962
77370937.3057153,1.7881416535344345,4.332297592031286,0.10256548283597919,0.10263947193499579,0.04645934235853614
77501077.6342178,2.045983049563529,4.243607005252859,0.09240457802184801,0.09255356352029183,0.04868108428318943
77622639.92790617,1.5214343675180468,3.341567665722744,0.09344501196140341,0.09394489602066321,0.06076852523030132
77761287.86287099,2.312250738169253,3.7432451481443314,0.09868229676909866,0.09870098302221825,0.07139691286557198
77888583.03238347,2.298598611360061,4.254588432651148,0.10166322257425707,0.10179974302063921,0.0596908471749151
78021487.67175892,1.8079341115215144,4.1082683349942775,0.0970026034169491,0.09730003265976103,0.05518901116778633
78148882.05640002,1.7548077917513434,3.449522481075391,0.0945748628573387,0.09462005405318023,0.05863543436197847
78276163.64600325,1.2510785347269988,3.259655745737178,0.10018701412700294,0.10033683095801924,0.05834123565404971
78406246.31017141,0.9679252112845379,3.45262108827358,0.07717502642899557,0.07755027813901201,0.04906306646559732
78536383.56887497,1.3816635131858657,3.9759541016337754,0.07521624071479964,0.07534592726287918,0.04598384788823945
78666476.02305365,1.2651717729329583,3.8343515123864567,0.09036265722891632,0.09042009529922385,0.04906155372792397
78796588.97723672,1.5982816630238719,3.9075500760874067,0.09348121406223206,0.09349063858057165,0.048294779836142956
78926721.70793319,1.2100897551387193,3.2891727999845863,0.08073135387915908,0.08074033201999813,0.04879030544845291
79056842.26639909,-0.25569973251801004,2.9658473559140575,0.08444233931783227,0.08444701087376698,0.047890564479768374
79186974.93446025,-1.460647301199625,2.8620490145823294,0.07143978931587451,0.07149673761398491,0.0450138521279364
79314251.41519853,-2.3746508717248633,3.0192696220940713,0.06494823912517664,0.065032515944884,0.04482086598721278
79444373.7065734,-2.6985506057251105,2.736156457433513,0.07100529603143459,0.0712254291993999,0.04671987116790216
79574506.30104503,-3.1395785941831855,2.475379302161475,0.07093072921357611,0.07115862913611108,0.048194602962886204
79701783.88571087,-3.680364673906385,2.536269390922348,0.08252272523603754,0.08257019479340189,0.05108010475969666
79831905.62478615,-3.619934778121117,2.665105550682387,0.08555866990426442,0.08576314657336004,0.05392213516288425
79962021.26036057,-4.280720944506622,2.4731628703522213,0.07708544768082151,0.07724003840457876,0.05035367504840519
80092145.06868269,-4.342970063500005,2.7475570884174343,0.07498302996072741,0.07513292377887983,0.05256877398363371
80222275.70691456,-3.5983087373786025,1.6046643133187153,0.0638243313177229,0.06547604152574153,0.05464604447699048
80352370.10286596,-3.078986990205628,-0.1775628549785942,0.051615003110433336,0.0516371928682215,0.049803755371839425
80482513.6110703,-3.6798688912313606,-0.6988290589566977,0.05029365197377652,0.050328400617308665,0.04633203765877967
80612609.73894103,-3.1031021792115947,-0.21703642598466438,0.04632398382620122,0.046350208794339,0.04436388066971123
80742773.98545933,-2.8626541823094067,0.486147663453431,0.05098301069690294,0.05104974176887576,0.04796199493946437
80870021.25043842,-3.30549819269667,0.41749880769356856,0.04991981516131755,0.05101798005339529,0.04762607454392523
81000135.81313477,-3.6156161204034896,0.7041602166363664,0.049587704508317905,0.04967401612094003,0.045180422583281726
81127444.82448885,-4.626523261350123,0.6664642790147082,0.05200221411504142,0.05200803207508687,0.04562674000692443
81257572.91641606,-4.9017297246222125,0.7380240594643585,0.05028890370656787,0.05029730621121916,0.04311166285448904
81387670.09896344,-4.048613894641658,1.0549031333856411,0.046227206306159445,0.04630190662212635,0.03948278383241274
81517833.67054689,-4.561921071580863,0.9063645216615983,0.049047067735688565,0.049049284171751695,0.041423925527788466
81647909.28425927,-4.456253951523308,0.10267523547919807,0.049760641417784364,0.049786905565777514,0.04559932991548595
81778066.52609575,-4.0058637480508,0.3734142863150909,0.04715691354180875,0.047615875274263995,0.043397586766956896
81908148.52403578,-3.8039280843366923,0.21985402630082496,0.04846826403595541,0.04847387515877702,0.04548781817552382
82038297.67115597,-3.6882944111239033,0.003992538083965756,0.050607028313307066,0.05419908345383302,0.051873746575201114
82168373.26030035,-3.5135064120049457,-0.15780611755450322,0.048852256277832004,0.04914228091722991,0.04682845122110201
82295631.74411544,-2.66279995309346,-0.510391062879266,0.049818575340713045,0.049890607364827096,0.04771168586207635
82425794.00311694,-0.8897766311171732,-0.6709577124566208,0.04820270873812399,0.04832211649814514,0.04681679665914953
82553169.02333906,1.0559352697079276,-0.8756992488587199,0.0571994542204743,0.057211239012807405,0.052384658986665895
82686038.50391656,1.5727812862283173,-0.5774551463002461,0.05218582039946752,0.05223002164762792,0.050202963391839606
82813348.92560577,-0.18682724791117541,-1.4753874368882478,0.06198539649510714,0.06318824729017389,0.05284202127636695
82943450.04049417,-0.78873302678831,-1.5044849504075735,0.05928485998007831,0.05949783982682456,0.047294829925479176
83073584.69326724,0.12116456112573523,-0.9765099960180378,0.04716811389243357,0.04721064726979369,0.04328091296204866
83203674.4800296,1.442275116402267,-0.7118970160612967,0.040254762877562016,0.04035342380667402,0.03853450104439602
83325275.7877647,0.6182677019047675,-0.5164100854183639,0.04184861881102826,0.0418637473373582,0.041563296166736034
83463913.94174522,-1.937443709413162,-0.22112181594924543,0.04646321446518828,0.046541335894314514,0.045929203459838384
83596960.94020128,-0.341282639257644,-0.07232279199578255,0.043338103719402755,0.043401408776671424,0.04337873415739641
83721354.62693062,-0.06335320756446641,-0.8924728006655386,0.04046410138540185,0.040525283313464555,0.03985174405102669
83851493.58308315,-1.8915336500386561,-1.041873771605736,0.04317280584769513,0.04357181329074413,0.04218664715504521
83978742.64453608,-0.7444431090857695,-0.41170388596980506,0.04931893967831296,0.04933024167033227,0.04914345151660226
84108869.41385567,0.03567188022001024,-0.6001458892254316,0.046774639338816155,0.04686119386373742,0.046597499910021434
84238974.75303143,-1.4279968419670008,-0.9419863661466342,0.04523996588196639,0.04525578740294507,0.04430524778786722
84369161.8351958,-1.9198291261801737,-0.3236214015897206,0.04712694726256884,0.047167900567734254,0.04654253966669175
84502057.82130481,-0.40711847341757057,0.5411158468735572,0.04735636002527002,0.04878950977997034,0.04854969684324656
84629397.06857526,0.8818592877525069,0.12120005899706573,0.044598609883062,0.04468034442085562,0.04454637348334315
84759466.77031349,-1.0024331096884045,-0.1973584771855759,0.04074068352506476,0.04146364923011665,0.04126267956119706
84889626.56755298,-1.2769832935394974,0.5747267363840886,0.03932713529918662,0.03944383428133333,0.03881738022706181
85019694.75654562,0.4120334316944423,1.09863928823416,0.03948820249827416,0.039524755876956405,0.03846224175031743
85147038.93314163,1.351443844770882,0.4440112072141866,0.040626753101996815,0.04149296207795407,0.04103407021640257
85277104.72990957,0.4586056387823213,-0.7322782792002497,0.050490147994310716,0.05290123004610959,0.05251507198332051
85404471.84756723,-1.2971209585679997,-1.6606419343648338,0.0558957008994115,0.056416175552898525,0.05457926621303946
85534511.11109251,-3.1356578066408938,-1.6650564457232102,0.046177690811560305,0.046297246508474034,0.042787224365144816
85664684.1022473,-3.0849149994353118,-1.5875418472493708,0.046880534105276865,0.047431219369286265,0.04424255881632011
85794767.77308574,-0.8423448389097495,-2.04102929353129,0.05116735083990077,0.052953254621422446,0.0501702656682437
85924929.3272856,1.4180047635806416,-2.24421290715753,0.0511181426859504,0.05112144050021046,0.047225329073595834
86054969.96807146,1.9726234241672533,-1.9775279398743573,0.04687112791139342,0.04687423083295489,0.04314579567997443
86185185.46046153,-0.19482528987935338,-1.4803456129917465,0.04447278366188678,0.044482505616405495,0.0427808534504075
86315250.20367944,-1.727328261265245,-1.7477399252726473,0.04585516959443454,0.0459533636810684,0.043263022056653944
86445421.42261097,-0.38659531195305025,-1.943290491743325,0.04388747363795211,0.04416535728004799,0.04115870991675217
86572641.25257562,1.2057740620325175,-1.455115149437972,0.04189262987248813,0.04195789063411702,0.03985475290899183
86702808.50903645,0.7126706270822443,-1.1862301862724896,0.04168214613830049,0.041730961092799286,0.04043680788358449
86830066.11893508,-0.6971667759776674,-1.7270676855850577,0.04210363955240175,0.042203730374309294,0.03969420140906716
86960224.62158227,0.2382738181933506,-1.8477310548958945,0.04832939412239467,0.048758141823273246,0.04628362864899574
87090291.29564449,0.057070641509928084,-1.3425785599110247,0.050676463174586205,0.050709872433518315,0.04948346262148064
87220479.04125488,-1.4854963415143163,-1.5219421744285853,0.04551639474690801,0.045935141602046356,0.04391615598263793
87350547.02480611,-0.05784996349475218,-1.4305152213567796,0.04038809890132981,0.04051890156336582,0.03877091407936207
87480713.86037175,-0.04453353206233223,-1.0248235935740633,0.040282225507436514,0.04034169500384267,0.039447950265862015
87610771.07042912,-1.2102725074692469,-1.207829104820047,0.04152234558225529,0.04152438469997071,0.04011583041625323
87740941.59517989,-0.272290407300021,-1.2820636741318057,0.041914912051374,0.041991291298811594,0.040641629731408335
87871025.35236913,-1.6338441869522766,-1.0835877431279228,0.04073233424739614,0.04074254290677704,0.039346677428052194
87998365.81132987,-2.3169138227957,-1.29996357754748,0.040607033696497395,0.04061364526290623,0.038315482551575554
88128424.60059768,-1.588438822394056,-1.3460038441530828,0.04157797226601395,0.04161463761631946,0.03974538108099013
88255779.36942726,-0.23753118597594797,-0.9908359776835266,0.04201104738220973,0.04239729226920038,0.04160528723849034
88385834.45938793,-0.31741422217318277,-1.0674627406371822,0.04272083390078594,0.04319348698946394,0.04228537761346912
88516015.22240606,-2.247634859383337,-1.205471766919558,0.0448749347126984,0.04488325971335417,0.04303355821138776
88646086.57988566,-3.223770186103729,-0.8612101137431334,0.045415134796014785,0.045862876822042535,0.043727969875101226
88776260.5181851,-2.3488952687386306,-0.22493963539902836,0.04481569285966143,0.044820914981896186,0.04389727533746113
88906304.63401803,-0.8487641873191077,0.22310458754573265,0.04392658492337477,0.04495981304581917,0.04479661898196949
89036496.78221911,-0.2856788124509983,0.19041782708741528,0.042466186676869806,0.04271359151280571,0.04266823211698407
89166584.0228832,-0.12276492265767408,0.2598564472070872,0.04094587767861572,0.041851575065291566,0.041792464727196936
89296682.94294336,-0.1857607373086291,0.2500425938262247,0.03958675804950038,0.039950937029120615,0.039889350272094996
89423979.90734923,0.20226503373223315,0.2794178245436058,0.04071287684569601,0.040717889517640084,0.0406481161968019
89551340.62827794,0.48274999682356934,0.3367838972411463,0.04508323133499913,0.04540999076868591,0.04529418513491724
89681368.93826663,0.9394452956960316,0.368539270367614,0.05884445459595476,0.06004774945409999,0.0598738355404754
89811556.04640768,0.728099759281418,0.8520311438957744,0.05632357693077282,0.05676574727033329,0.05627760778805494
89944440.98957416,0.5257878158949841,1.0774698441276442,0.04574603562877114,0.04583157898584674,0.04493551563078211
90071796.51726083,-0.053223138903572345,1.212311919672923,0.04272230082223166,0.042847119704889816,0.04166088875388269
90201889.16812608,-0.48968379141059487,1.4795746471845783,0.040264127108663054,0.04029247800970632,0.038319572114992054
90332034.38492,-0.5157270224742408,1.8552028225194999,0.04322482593030407,0.043878588343711965,0.04101711737055519
90462109.35054421,-0.7547050806805791,2.425749061427589,0.05088901240500293,0.051032863830108084,0.04677553734982814
90592237.31072354,-1.1968811808592597,2.749838132401492,0.05457627183205308,0.054742848357180275,0.04945369293860331
90722266.76990527,-1.571095217541759,2.277475302343757,0.05224503072715928,0.052419041706494106,0.04843244779080739
90849680.21949962,-1.612462650874231,1.8802211059838556,0.04602909309127339,0.04604809487875927,0.042756878873251296
90976964.5034333,-1.0534975283046948,1.928212529791878,0.047643521718190134,0.04766428075226044,0.04464931651919234
91107099.50450009,-1.139532682029717,2.2462165707370154,0.052057828720055536,0.052213126381069265,0.04849858231615757
91237187.43457666,-2.654764229248123,2.215777188226418,0.05186828252775658,0.0519228788283958,0.04725311984677834
91367324.32576427,-4.005723130618837,1.9719393860451964,0.04744689726390206,0.0475176437758766,0.041576240587072114
91497407.56113052,-5.239859099931019,1.5831869658419564,0.04646413371801673,0.04647633709977611,0.03948322797849135
91627555.88278717,-5.761477654019971,1.2510380598270707,0.04797590139494177,0.048137169206418674,0.0412106759977174
91757631.9306519,-5.767264722459098,1.0179556652084503,0.04733301674967861,0.04734738161946011,0.040767377398459356
91887809.71526052,-5.791743643753355,1.0247236175808807,0.04677089906781758,0.0467957417725626,0.040057912963001804
92017873.4225301,-5.605614273135276,0.8980837309231245,0.048301730241418164,0.048533348337013685,0.04267496560012324
92145219.6561001,-5.227450051561012,0.7232623419003675,0.04982019491772916,0.04985155452629406,0.0451188234534867
92275301.54831299,-3.9111715710311223,0.690979943586156,0.04766126874586325,0.04766503735731384,0.044782810298547526
92402616.5395309,-2.6697806260910015,0.5827236488861449,0.0473046086158992,0.047480856151871795,0.04606193476294612
92532713.27191123,-3.137336601429261,0.5041199261938201,0.04475352730131022,0.04488762760135887,0.042995139892446986
92662862.3667036,-3.2275209749559193,0.5384131917866258,0.04337390383656531,0.04338214748358765,0.04127686276717582
92792948.23853359,-3.1600533857331508,0.45144687237472114,0.04286990486295695,0.04287475738621032,0.04087664997119966
92920283.37399393,-2.950816117090171,0.4481387654127244,0.041859382763248645,0.04194289502305824,0.0401352694057771
93053175.49339108,-2.6111746812670398,0.4784942870286214,0.04468810207285969,0.04490782086657895,0.043551495940594355
93183365.56143974,-2.823674209929824,0.30597039642826807,0.04494118128200124,0.045121770768357064,0.043696904781109935
93313470.51861525,-2.7260575216396816,0.20260623972209663,0.047542889930627344,0.04762231985659854,0.046415640030530496
93443577.00068203,-2.6778874548383382,0.3577117463493417,0.045962052815970614,0.046095528588665134,0.04480435634925908
93570845.48321305,-3.129997175577284,0.46736507797257554,0.04191510526453997,0.04194064739016729,0.03994309741019498
93683996.33813223,-3.3307411221905574,0.6341112362550372,0.04413182325140684,0.04423759601054139,0.041936220497672365
93828236.85683614,-3.7598547253742876,0.7956592901926747,0.04536323276959829,0.045371743957086874,0.042379812720746625
93969681.94734903,-4.677819990335372,1.0012334905225653,0.04350430964903701,0.043528337123797216,0.03857077742453799
94088525.74966106,-5.347846297977841,1.2229941825561406,0.043622123255793024,0.04363305698323436,0.03684393536572361
94218652.93121228,-5.0566597155919935,1.1610311948824452,0.043685994121596954,0.0437846310431648,0.03778160513270074
94348706.73018548,-5.315379169559626,1.435618892626986,0.04687499745377876,0.04688015837273805,0.0401740591588895
94478877.71107659,-5.481080472866744,1.6302257309129875,0.04961964184352158,0.04962231531135031,0.04252365275739102
94608969.7883339,-5.620886258362142,1.7353264445804453,0.04985890144723314,0.04986428083258273,0.04223017674708435
94739129.23976332,-5.474181806920003,1.9186522229474832,0.049963578137741584,0.049977214617959266,0.0420404606602458
94869204.80455294,-4.985325010966731,2.0673446895368004,0.049561238747573975,0.049566965684183846,0.04197618776310654
94993706.22186497,-3.7073508044344767,2.362794157228801,0.04790484272568506,0.04790911751830106,0.04101258971008252
95126614.16467014,-1.4534024451045555,2.619486453898767,0.0472169394102852,0.0472936370371288,0.04154034431653292
95253954.09028491,-1.0316572908692019,2.3667651485876537,0.04449330038664357,0.04521129648228535,0.04048404301813735
95384008.91382219,-1.4743817073154208,1.929239018967529,0.041644616672144585,0.04199544737078802,0.038326024941043514
95514201.85138348,-2.4190832193499032,1.9456133494273713,0.04286054964427033,0.04286589988138957,0.0383968319440386
95644264.11491631,-2.7476294415899263,2.04942819891394,0.04440061623218671,0.044744778977160934,0.0397737673913003
95774429.8271383,-3.9219762160699334,2.3659586077977615,0.049424440763357065,0.0494718961178919,0.042495069746428915
95904516.58796096,-4.800669172256132,2.186731616943186,0.053358227251986176,0.05344294532040165,0.04637695483839763
96034642.54307535,-6.522059686998511,1.6298028166245035,0.056139608370261926,0.05633905234247737,0.04824235866521082
96164756.68004403,-6.8035042857808765,1.2474917306340276,0.0545431372952301,0.05458208634169875,0.04649589223440104
96294903.4949458,-6.624324913616158,0.971211563708907,0.052320605570271586,0.052336992662061974,0.04480043441324333
96422163.53213818,-6.608760130400234,0.919919630175168,0.050349663644429055,0.05037428584742095,0.04262416016696537
96552317.28128156,-5.61578851330158,0.605419756815395,0.048311212009464054,0.04831450977687345,0.042832155327795544
96676744.18088622,-4.4211930945274895,0.5974828739741923,0.048281715809024885,0.04871255254215852,0.04529721962111751
96809708.75007915,-3.0203102004250244,0.9199050811580434,0.05030712611217784,0.05040583976694295,0.0483678007678055
96942651.55253391,-1.2733132143285484,1.3285611421013046,0.0475169117774561,0.04752237811586739,0.045926863265029406
97069939.73104964,-0.7013096360998539,1.7302461450870854,0.05030358960308843,0.05030703842941211,0.04812947458666208
97200055.27531722,-0.48998812681758225,2.1158462413400496,0.04958941247447378,0.04962529748718618,0.046362947231807276
97330192.09272861,-0.37438824825848493,2.3245262793879746,0.04667622601984574,0.04680368322420454,0.04262975605097658
97460298.11139223,-0.10407444931251877,2.6376241033706247,0.04551711211082453,0.04554280905552723,0.03999151417875685
97590418.4953522,-0.03149690456897881,2.8384499654710655,0.04799414632589252,0.04801755479975282,0.041900294196380895
97720549.75940204,-0.04783829113325134,3.0792337157793317,0.049309648264722325,0.04933176041081684,0.04227196211334227
97847843.38163154,-0.3213638815132117,3.3875933047228295,0.05096210057579236,0.05110571707554854,0.042762567096093156
97977954.49039502,-0.49212928835409864,3.4996892749658173,0.05084509400063571,0.05085829921866588,0.04179944498942132
98105239.68136895,-0.5374410291628575,3.6011402201179674,0.05112863814365957,0.051267023855493185,0.04166339535091101
98235360.74344726,-0.5497586373107307,3.8455094935169223,0.052632956550568225,0.05264782391578816,0.04191821917336719
98365508.35283914,-0.73310947009972,3.874490961908526,0.05275645514383287,0.052763896330884894,0.0418486888112482
98495600.5150254,-0.6771413994435799,3.75293708985566,0.05133673008572096,0.051339111221796054,0.04081207774022609
98625717.56782514,-1.0573038384894597,3.769597153457111,0.05151021711264353,0.051517337201509576,0.04071362769406775
98755862.80488364,-1.567814281880926,3.5504640635342146,0.05053359679090209,0.050544712885786096,0.04055633758610526
98885986.44867846,-1.9629287396489137,3.3020657095647903,0.050427316324112105,0.050435776131581886,0.041501243333341424
99016092.29169546,-2.5516567675471284,3.1293549716448528,0.05249022489433341,0.0525153177725863,0.04433727327883069
99146192.62539637,-2.965225980970589,2.8823847966678127,0.05281120412126584,0.05291121675932282,0.045548065046194026
99273494.48472217,-3.560904520424773,2.3919993553794887,0.051812129741452675,0.05182614036498711,0.04564034142228377
99403622.14478502,-2.361953825002445,2.9970974476880494,0.054726601626362975,0.054991101465904114,0.047998806124122315
99530897.79098003,-0.7829682418611994,4.137307321402486,0.05648942273230987,0.05654523016248719,0.04488931319916255
99661032.15452018,-0.5387655345036872,4.411166094683397,0.056638052916155736,0.056833779866265206,0.043502784497110654
99791151.04306448,-0.6555605754582966,4.366321176423779,0.059773254998918425,0.05979634110740366,0.04753384526863803
99921273.01890363,-0.8703701717563588,4.339027581049188,0.05939702345907308,0.05965165216573406,0.04751676083572807
100051400.87714475,-1.6400294054767872,4.308942302198688,0.05577730383835045,0.05584082430239237,0.04234354549093037
100181513.00022662,-2.461873227524826,4.028509865945413,0.05563926138584985,0.05571426372863577,0.043315532423075884
100311645.97491205,-2.693042849905499,4.041251103674585,0.058443011553104184,0.058449331129834026,0.046515273731574935
100441747.88194315,-3.201051483643058,4.370880956779313,0.05864810710744398,0.05865646635093621,0.04412054289232805
100571868.3747501,-3.570739962880508,4.786434341410394,0.061153944973421887,0.061241075799483395,0.04405737145070822
100699162.98397765,-3.43408630270197,5.209482682024125,0.06420363801497282,0.06425357210625954,0.045297373271868134
100826496.24003491,-2.853316981050517,5.562938056210827,0.06705828332469538,0.06708923916604878,0.04711265495871671
100956573.74245687,-2.240965159026492,5.618275938621101,0.06565776853031606,0.06568955954511764,0.04529408494462048
101083854.77203311,-1.763839525478343,5.363623285091716,0.08627071872096216,0.08642346561252265,0.04297642489439098
101216817.35385408,-1.214683670099031,5.567316666503399,0.09584558729287578,0.09596277936435983,0.04450338299454303
101349756.36584412,-0.8012043066601999,5.818298781071694,0.0673600877593132,0.06738598420835626,0.04699172123589201
101477051.97325155,-0.21877787109124297,5.233657104710735,0.06882615122050316,0.07010886632113913,0.055194981204403123
101607191.42758459,-0.5033306840614646,4.531199206640954,0.06834114878257178,0.06863227107652009,0.05742717127802573
101737237.07153505,-0.2460540963280492,4.92018431135465,0.06381742519089297,0.06458798517986007,0.049897649913424456
101867464.7245124,0.5653917251696758,4.728784597148525,0.06096026666348115,0.06139642308657665,0.04752125232286342
101997480.42277184,0.33679284516172175,4.617902939371029,0.06043302540303423,0.06043769069728846,0.04702806045289937
102124822.83452675,0.33395874692934924,4.705826214981804,0.057825142644342874,0.05782786882714116,0.04294019136233416
102252142.9632528,0.2626470745881945,4.769029089873809,0.059313095031761624,0.059586501309189334,0.04486576507727849
102382244.97589542,0.17329596562433722,4.666181216957909,0.057500423110993994,0.05752628394268922,0.04279483787606287
102512340.46912777,0.10606423756060868,4.556965096078866,0.05837833575144297,0.05842852018369123,0.04475755707040429
102642485.24630892,-0.09777608709563458,4.552815322137963,0.061841972859452365,0.062036242430309065,0.049367340720736314
102772579.9149526,-0.3484918574310632,4.458954718775065,0.05997826395528718,0.06045776270827899,0.04791104421843846
102902743.97513926,-0.2631573521123295,4.342463335094362,0.056066309923386355,0.056082767110057434,0.043098917076964144
103032819.94687852,-0.3265527114273351,3.8389827725317187,0.06752562909049659,0.06753379459265803,0.04529915892370715
103162972.6635473,-0.7647545564909172,3.6172329571989184,0.06854580931857486,0.06934174209993249,0.047911712981106344
103293065.48023254,-1.3871418435950524,3.89976803582298,0.05558673749355426,0.05563741506735813,0.04485595441463616
103420356.06084879,-1.4115468848825627,3.3435344545042467,0.0648339048743531,0.06528311083647458,0.046621337066518644
103550465.63578646,-2.3253900851114753,2.8186114351848106,0.07139588522647666,0.07142791595853679,0.04992366534061244
103677785.1140601,-3.1244303222819823,2.828461969023728,0.07093296042491434,0.07126530500025333,0.05618127262782285
103807880.50445008,-3.289431806254559,3.4006462644858932,0.06703952233550765,0.06708680413684817,0.05925377212600874
103938045.36672613,-3.6321067289554585,3.386307286689262,0.05930266255120007,0.059723792650997615,0.05045949124298273
104068121.50423613,-4.257901210532519,3.157405524055312,0.05441377458991079,0.055220312664924366,0.0453211143016592
104198255.34483398,-4.508065830020489,2.653397701207017,0.061385895427961634,0.0615424536177674,0.04471606647955989
104328360.79909241,-4.053702052357757,2.3270154837021435,0.05805022348892843,0.05819200785518885,0.04304750143058897
104458495.0858792,-4.0561902737160045,2.151623567981347,0.050945517255188595,0.05113497947849882,0.04502540039149605
104588584.4381928,-4.127845821481985,1.318081815399883,0.05252686186715475,0.05254546767123754,0.04870743649762145
104718769.53843586,-3.7504061966177518,1.0965268710119789,0.059021390554044526,0.0591776885579524,0.051720372791711294
104846009.58124089,-2.3470294452145923,1.1044444758763765,0.05166504069254885,0.05186395842038833,0.045644698193221644
104976178.79060963,-0.44546238211863726,1.2338721055317317,0.042719428027456645,0.042880913623794585,0.041597553880725446
105103406.87057818,0.6661672619298082,1.5622015767720066,0.042471501560546895,0.04247669229504963,0.04044571806183966
105233577.82278341,1.0903375569575946,1.9486883599095117,0.04397199225035583,0.043976180370054824,0.04082610360073391
105363638.9261619,-0.5641407659914053,2.0025621891283514,0.054753865260639,0.054809147751509774,0.04617470774943376
105493833.84948152,-1.79976719557471,1.7161208891692268,0.05866973099650486,0.05873909517101007,0.04751072609691689
105623898.79827373,-2.4748371033355925,1.5638820958083093,0.0551880468766317,0.0551954787097585,0.04395205688836703
105754073.71597418,-2.9130668022368837,1.2767286354479501,0.054640040552058594,0.05486742401838667,0.044298825683318735
105884126.33133829,-1.2833108845433479,1.2041491757964127,0.05358457232757169,0.05376454118090204,0.045388793264001685
106014308.73184593,1.0945038980393098,1.3274382581949518,0.047538103030378955,0.047544096306164,0.042738063816176446
106144378.74979132,2.0621457414178033,1.1379939766179905,0.05012300655097075,0.05070432590956771,0.04590895733346533
106271725.46566497,0.7852053985123829,1.0993391439965081,0.05376136510183002,0.053764468612582675,0.047974728836299045
106401745.41943544,0.150266818564183,1.048442173862065,0.0506538754497065,0.051156413691930545,0.04622928529556152
106529107.28419851,0.10332960304320957,0.4883156238364144,0.05085398470719428,0.050863177861782065,0.04924128727036058
106659183.23816054,-0.622802292527892,0.4635903881162337,0.050011217923377205,0.050210802870417515,0.04886385545301509
106789359.68203789,-0.7304196797589205,0.6878920236405103,0.04748667272623676,0.047629158622108175,0.04566018859349346
106919439.74326432,-0.6063212588960807,0.8350434996446838,0.045044187884750314,0.045046637483357466,0.04180317444771364
107049599.92432806,0.17161505806342472,0.7438396768008197,0.04777501159483066,0.04786134552373658,0.044940812946247334
107179681.82099152,0.6410299298432132,0.7317411247250306,0.04754130237974991,0.048660223601244695,0.04606207084188966
107309859.28092869,0.33648584398344916,1.036424328489214,0.049134623354458756,0.04915115972733218,0.0436064282248414
107439920.99662586,-0.16624435321732464,1.2592102983684537,0.05243983627966876,0.05246179331644258,0.046146733562177286
107570106.36310682,-2.2179158316372565,1.2136910539568706,0.05823632220802448,0.05831140284119521,0.05008281001332649
107697331.92235708,-3.5001983074927185,0.9480360330568788,0.05271760432431651,0.05272525723413155,0.04642574640182269
107827506.17671497,-4.137873021016774,0.18493188562720833,0.04629248779330799,0.04629619439056467,0.04311178029243972
107954741.0157105,-4.6382545743799115,-0.40220021441236614,0.045915568901860215,0.045955880913492744,0.04126396733464974
108084900.20019576,-4.298955393775136,-0.4144429275312215,0.04633931488878948,0.046351374462829054,0.04208591578274985
108214968.941239,-3.0694681737030214,0.20853605331822894,0.04534607877077337,0.045384126131516316,0.043092621329068645
108345156.31341942,-1.995318934646912,0.19562403998309968,0.042795608635092894,0.04280083837298518,0.04174515329620022
108475207.37862158,-1.0073216027955216,0.2556960634050921,0.04213982326251059,0.04221351919366487,0.041612487844336715
108605394.44522285,-1.1980104825177158,0.19915764624200488,0.043843852741738354,0.043846803640251245,0.0431967807620585
108735448.3359617,-0.8509232321646479,0.034090010023966194,0.04315551203384172,0.04315759221581154,0.04298283883173205
108865633.41858077,-1.176509342654839,-0.008755968266587418,0.04147209131305802,0.041499671706719185,0.04120418440583877
108995698.56892484,-2.6790321484205255,-0.30620927114245555,0.04455735618769677,0.04456433273146434,0.04300023746008255
109123023.61812693,-3.2870535986107887,-0.9449889056774508,0.04803767104316374,0.048086663852916316,0.045488614150307326
109253096.74124949,-4.507281426845702,-1.663908360897536,0.05689834888923359,0.05691857536334061,0.04939974583370957
109380457.92325562,-5.117677904913511,-1.7742960800889196,0.06134715865283431,0.06137487843841679,0.04791937757964476
109510520.34637198,-5.626064007720862,-1.759423518896519,0.06356475199358819,0.06360214743174682,0.049138684425543123
109640701.22835124,-5.2906632801748845,-1.6922436436552335,0.06006046321306984,0.060067544773915016,0.04795248625395875
109770745.22251049,-4.7577398823566766,-1.284580979057601,0.05442969874422473,0.05476115568835259,0.04796125967985588
109900928.25838599,-4.366477484593608,-0.8553517530240663,0.05001309397454021,0.050056642729609524,0.04465655201330843
110030994.15985489,-4.102944629380364,-0.44834470931549125,0.04491363126542955,0.045067309164877556,0.04094209066665571
110161168.09245259,-3.9736414258745594,-0.8634009354903901,0.047610939449545364,0.04788030110043469,0.04164658042603176
110291285.70913228,-4.595541801619406,-1.4672307351901783,0.05052692747285698,0.05079027330250155,0.04142244216623328
110421413.77135023,-4.653403604110634,-1.6020418058037373,0.05616149897292888,0.056699034781277274,0.04399692128125689
110548642.84318085,-4.317870510973875,-1.2530562098786273,0.06299136414487802,0.06366686164615426,0.055092942969667054
110678815.93808979,-4.7777505018110915,-0.6591667145465062,0.05870058408043056,0.060846920163560095,0.05581846312426661
110806046.28183016,-4.944110577538612,-0.7683887863169684,0.056974679777653345,0.05704057684313208,0.05033949535559067
110936229.20390078,-3.9838578339837474,-0.9345727971168644,0.05127518733421669,0.05136832603652216,0.04612421915997659
111066286.65294752,-3.4674910206401828,-0.5763751836820096,0.04324849472355881,0.0432563515690566,0.04064462719704696
111196469.90681602,-3.1813660834719184,-0.29689589750361817,0.04504268946388856,0.045049192647633116,0.043033106797900594
111326526.52925473,-2.919730313161775,-0.4707535038105767,0.04536587864495629,0.045479382486934145,0.043298485271120166
111456710.05141887,-2.8011724731284677,-0.4953691636240571,0.04407194160732267,0.04417470627215563,0.04151294563736742
111586793.9413704,-2.400966156102676,-0.5242606544387378,0.046792098157829774,0.04682479561407563,0.044044262866144906
111716947.21673611,-0.8508858541250858,-0.38894414032736635,0.04176884639536481,0.04211423790273259,0.04127893831081722
111847018.60471696,0.6398062214567886,0.02859384011477348,0.04013960483423129,0.04019053657441756,0.040106825315650275
111974353.4670003,1.1352293204027015,0.1806157007943753,0.043659375858308785,0.04370363826135283,0.04336907274551741
112104447.67784849,1.6187755706660123,-0.005050698562457053,0.04410254323010217,0.04456944488381529,0.04410700572896401
112231772.26393235,1.7800587790604718,0.18503943728432407,0.04579637664596699,0.04579930611734792,0.04510951004425935
112361840.78880963,1.9624928894925817,0.3602948466227302,0.05005898450924927,0.05006105770272953,0.04896384975982164
112492014.10557604,1.9846435212142854,0.0722341829603909,0.0535236846663158,0.053548730562105316,0.05294660943187203
112622063.89886087,0.6149533995218398,0.07444959350773439,0.06780301317476572,0.06817396709092916,0.06811191912763079
112752235.58934744,1.6580004784305327,0.7267360521204951,0.05530705198353076,0.05769646209354433,0.057067529311713064
112882318.15816848,3.925753628850738,0.69395632457823,0.05047218240274098,0.05050261582761964,0.04630190030402371
113012482.5757863,4.462037432366465,0.7875407134187251,0.05031418293943371,0.05040331967068623,0.04452329401725717
113142549.99815758,4.557763611970271,1.2055933209805634,0.0523917024884386,0.05248052549263104,0.04546683102649639
113272674.52695033,4.828193513114374,1.1226431090812177,0.053239753240106095,0.05324275382299661,0.04432259629823051
113399975.43302433,5.19189015714377,1.3332517481503277,0.053412349614572294,0.05363753463770074,0.04379472817035829
113527339.28927812,5.4547018696019896,1.6404699304683172,0.055138748255569324,0.05532975662399606,0.04437475219445578
113657386.48180383,4.878701526010131,1.939990903697296,0.06518789642053922,0.06530308223721101,0.04688192278679784
113787531.16832604,5.371480524838979,2.0204527422073544,0.061716098045797974,0.06172167836520204,0.04386438268369047
113917618.68700963,5.4965525721090795,1.9993323471045295,0.05678662731823415,0.05688930486588095,0.04388245588006193
114047786.57905282,5.52527258856787,2.364844038622574,0.05958549754427601,0.06006137068975275,0.04785817331283213
114177853.56422459,4.828299024235782,2.6884275379831752,0.07029607535720521,0.07128186127179863,0.049846301769730664
114308025.42073284,3.995317131388709,2.7038992907550097,0.08678561429896793,0.0878347235801971,0.06180609277330359
114438093.383095,4.627898437127644,2.451456290120045,0.07578489983646026,0.07584166702173016,0.059871696941656505
114568265.72373366,5.5992460950721945,2.3721410948336064,0.06111427873552277,0.06127999781930448,0.04845801775256547
114698276.82300551,5.723737627747286,2.9932851602952106,0.05411344918874156,0.05411789465752818,0.04368140596508581
114825661.86112286,6.400450875723156,2.917323617353602,0.054298939826035196,0.054303784206945496,0.04292041356671789
114952936.91018334,7.296271996357797,2.8845293566053405,0.05452281345204791,0.05452750409210058,0.04136145488213884
115083094.55479246,7.478945839855923,2.9991362159258066,0.05645923114427775,0.057027689519786415,0.043704787789711826
115213165.74178141,6.709778840160645,2.8746807451499534,0.05814946646766676,0.058175195134932634,0.04728525030026786
115343313.10515606,6.25352256216738,2.789439642733327,0.05993410363087495,0.06042582356364542,0.05117167312083695
115473392.75768813,6.505232427343462,2.632067525161174,0.057975204254151175,0.05798291232702827,0.04835102872342735
115603566.70720905,7.023683723618538,2.7762331028997034,0.05254281712873456,0.052585723120711,0.039962340202351225
115733629.57012598,6.866493569196642,2.920263703882247,0.05378086093763466,0.053818362959112666,0.04131093264163854
115863805.69433533,6.3516058455901465,2.8462030344865012,0.05346903743357041,0.05359102959241634,0.042459390711019215
115993881.26055416,6.229182775987691,2.743728397112743,0.05209439986239949,0.05209747389843288,0.0412713627979999
116121214.46621832,6.164240385401614,2.4300929004026637,0.05444554808221414,0.05451100195126865,0.04551008467805021
116251300.9870186,6.38197904281977,2.429001121724232,0.053888092869531536,0.05401580317718473,0.04450164267636081
116378628.79406518,6.094012069781894,2.341733535641643,0.05290522046087566,0.05291935853411178,0.04403700126909277
116449323.78095871,5.452445981329953,1.9209661302898196,0.053970231042380766,0.05398393830566053,0.047685527898519604
116638860.22958753,5.762278207341406,2.1355425907881243,0.05220988843902271,0.05223688742774462,0.044461162116380966
116774619.76012322,5.5246530011580814,2.1407159699958096,0.051406582639465036,0.051651759690062166,0.04419786527608175
116899108.94751276,5.130319401434869,2.009978481810385,0.05052690619202529,0.05053275236169963,0.043962946559597406
117029183.19377342,4.788154652723198,2.113152628115432,0.05606784045523035,0.05620099216361059,0.05056785381723406
117159325.85623254,4.2789486471681855,2.5082975110609818,0.05648481748522851,0.05669373587831482,0.05056837032477465
117289426.28095105,3.7667137876114762,2.5510815417287125,0.05093088523515696,0.05102208199782702,0.04458573739239397
117419566.24989477,3.4722970874896943,3.1382290775696595,0.05331797519885783,0.05332203098223516,0.045157411236173346
117546857.38966337,3.5560341050208497,3.7244920341438967,0.05678410599357777,0.056802877037884746,0.04625318787095429
117676962.28274593,4.222885187914521,4.014657527905147,0.058428248434363964,0.05844195633016581,0.04592588288973646
117804245.96094888,4.483147962584682,4.013685263571915,0.05666156783600069,0.05668301533734684,0.04347913182435302
117934408.54290608,4.69475349651898,3.877921286491098,0.057217316451637856,0.05727862122490517,0.04478044310128666
118064485.13637489,5.498536747052401,3.740121488777069,0.05980197955453859,0.059809972996471464,0.04758371963784213
118194628.85939187,5.807703687841274,3.500161146225737,0.060910097245899415,0.06091837556282835,0.04958155155815451
118324729.8915267,3.301063166926385,1.4183303213055933,0.060056772043800735,0.060474432683592934,0.05812226898903507
118454868.99302003,0.18358164398095964,-1.3163143489448599,0.05136109927010509,0.051419370443075825,0.05025245361183473
118584981.91179469,-1.8286789670861856,-2.4669332142907527,0.04764623256448895,0.04765701584433199,0.042733466138785106
118715109.783264,-2.153773840400712,-2.607681863003742,0.05121818101055432,0.051434001368850506,0.04619445869743287
118845223.34169406,-2.0792942971890485,-3.0383699661709005,0.05547384677504883,0.05548297601451459,0.048980411333663834
118972520.24651107,-2.9094004972333263,-3.2672281057690213,0.05169595024153139,0.051748115093376575,0.04298757884664777
119102630.26729527,-4.039553449922404,-3.6641883118667584,0.052741001521743734,0.05284226300280897,0.04119331865933855
119229930.91792694,-4.730895159921621,-4.272196412507361,0.07008040104261026,0.0702204229807024,0.05867423235630452
119360031.3878914,-4.485975719646424,-4.553332915490427,0.07075208068203544,0.07077551158343759,0.05819246628169671
119490170.67859536,-3.885455096714201,-4.574141403978139,0.0559122916316654,0.05592959451840799,0.03944452544868393
119620282.40033937,-2.1270083066605565,-4.467497766624011,0.05451620143559031,0.05453849179695366,0.03984538091454608
119750425.75243048,-0.512282040219486,-4.271916070686207,0.05487592993442821,0.054949100025860356,0.042259821326869416
119880523.1797338,0.10310623065654197,-4.2113027719090965,0.05369771097767602,0.053723277452691655,0.04102875574774957
120010650.70329201,0.48889951114306507,-4.187332001000348,0.05384866964094518,0.05385454992706946,0.041256541848751924
120140769.31611478,0.04339465768336816,-3.971483425340062,0.05219845218542669,0.05220613814152975,0.04058369077217392
120270904.99274406,0.15669189639085987,-3.8246141461294716,0.05296431481780405,0.053113492897396614,0.04262023144185289
120398179.75907557,-0.007262826855881094,-3.6495958825387866,0.051786938475830276,0.05179024084711723,0.04215273249643531
120528286.38593075,-0.7012533793187257,-3.5064883972331002,0.04930399394859572,0.04937001745204688,0.04001435001819429
120655583.65438464,-1.2193773657687876,-3.622587158597621,0.052892681312436005,0.05293667229921606,0.04359030590431801
120785727.22519982,-2.9076012192851914,-3.882361131227948,0.057260989529360866,0.057300873188894,0.046645811654694384
120915833.13409548,-3.3781983372785263,-4.07978828497003,0.05583605427220014,0.05584107163635505,0.04337562412016992
121045954.43628791,-3.437821715714622,-4.179221084935514,0.054261643114057505,0.05442785648209423,0.04073464808964965
121176074.5964379,-3.594776271946267,-4.366234410151021,0.07706431173982059,0.07764250604030394,0.06770023084635411
121306192.99651179,-3.632158741234137,-4.356669458447595,0.07900798791482525,0.07919455829551587,0.06942838383902494
121436320.88311104,-3.1486697690868746,-4.112399968126672,0.05551231636285344,0.05552060789867351,0.04286499670882124
121566433.29839805,-2.9650859601222375,-4.147707281008162,0.054474624143598195,0.05472364815093303,0.04178742522351658
121696562.3079201,-3.003991874497526,-4.200365527462899,0.054737312096179755,0.054833804677478136,0.04157751461944276
121823858.86968826,-2.9158653456980788,-4.193733235713399,0.05362538527874703,0.05363475784483685,0.04011445076777473
121953963.75434956,-2.0585391580346006,-3.8415621556564967,0.05058761049601649,0.05060471538944044,0.038906253806956746
122081270.36258304,-1.7332593398496197,-3.7485829083273745,0.04892939824242279,0.04905317372136578,0.03772350284757811
122211376.89341621,-1.1232529559334552,-3.905284584694019,0.050447555308154084,0.05046381816942827,0.038855306543500924
122341496.10332054,-0.5142619802083955,-4.19789274924359,0.05350371027007619,0.05382191883326313,0.04122650443267777
122471624.86256504,-0.3901700561352583,-4.324039329431047,0.054851242081500565,0.054885333585944406,0.04170858338010764
122601736.26275098,-0.5061847988959073,-4.28283997115746,0.05678552430060941,0.056789368595415,0.04443568564909622
122731871.01066718,-0.600855160657983,-4.066956320931759,0.060400582109493575,0.06043934960436194,0.050211960039778465
122862007.14165519,-0.6586777080169983,-3.7458668588806003,0.05801813460551067,0.058051749840086174,0.049075826456044
122992106.71567518,-1.2513834690327275,-3.691013856767559,0.056012358012373885,0.056080449162292816,0.047021862294462716
123127855.11411853,-0.6889104041739508,-3.554532264406551,0.051482598247012346,0.05150274555392161,0.0422725962147378
123249513.51272783,-0.37585924527904874,-3.494025325655643,0.048012409603076865,0.04809214964104379,0.03852278458675021
123379623.30069274,-0.7728082940814508,-3.429996956384389,0.049048424424131265,0.04906399906279523,0.04013945273134552
123506922.84130695,-0.963510830453991,-3.202546073556931,0.049389552290081414,0.049403879389086,0.04171133799364903
123637038.16925184,-1.095810457765822,-3.0308295568354775,0.04855139497325404,0.04856491338234247,0.0415414113273527
123767164.50868294,-1.7759860531816836,-2.871918472563508,0.04796501884418165,0.048012922397022935,0.0414570672685796
123897259.75686285,-2.0735753199512517,-2.8833194039728474,0.047992985875290654,0.04803535822870451,0.041286077982842874
124027405.83805284,-1.1816565619359298,-2.650423806348303,0.04822695953577781,0.04824031585737124,0.04233459336319385
124157500.35317431,-1.264228575032137,-2.5315018277094126,0.04820758233929596,0.04835783942595909,0.04295012177877921
124287665.07935554,-1.6347101226157656,-2.7118741081667603,0.04801316452614008,0.04804030968966493,0.04227064494285821
124417740.98203686,-1.3322825450779219,-3.0376216760296266,0.04869534347297931,0.049070361691700086,0.04205910209700053
124547857.21417111,-1.9683571070756067,-3.2702754813219754,0.04842960295072967,0.04859037584746643,0.040009673154075366
124675152.41768232,-2.2628568007723695,-3.211674821533716,0.046494174783476304,0.04667044496052315,0.037789073690924706
124802503.8112121,-2.3528559373770004,-2.948765077445317,0.04473843987597296,0.04482304961573731,0.03690980726796081
124932562.14659685,-2.3764584099170944,-2.8546676618563738,0.04649661545570802,0.04655629438350434,0.03934869513399711
125062704.82281792,-2.1556827283294377,-2.837049961484116,0.047630657614241435,0.04766369886357669,0.040972864025057495
125192844.28016585,-2.1462108219985905,-2.6419210237073676,0.04885962609251398,0.04896218617218698,0.04327393760210602
125322975.01272698,-2.0183171153216666,-2.612567447922024,0.04591870454290018,0.04604753474156009,0.040176080198663255
125453035.36201221,-1.8839208177654068,-2.4595658686342228,0.0463572438917938,0.046573816652339804,0.041512741290426335
125583178.63295409,-2.2231524936662113,-2.326653925890617,0.04686900544759624,0.046891272946252775,0.04216115811693917
125713271.14152521,-2.889891850998222,-2.146696576306282,0.04674906993293525,0.04689840320073423,0.042306599842330435
125843413.33648866,-3.1933063713222634,-1.991993696627397,0.043403474362289605,0.043407050450766115,0.03859309143934148
125973466.33835489,-3.2505990137754073,-1.8377269209896974,0.04087794041457397,0.04139385928966778,0.036772407200858295
126100866.58477053,-2.532686020900971,-1.5978255190297617,0.042118713559743275,0.042124771982751205,0.03902174183139586
126228142.85718042,-2.8964793731108696,-1.5996819703836396,0.04336355272383951,0.04371495881609723,0.04040618053300782
126358258.36569563,-3.3068155665569887,-1.518896874667324,0.04319089900503272,0.043197616783930956,0.03959861398291077
126488340.79913656,-3.078425658171862,-1.4203405959030402,0.04329976132186382,0.04386313848221486,0.0408038053250734
126618489.80384944,-2.6701243945204682,-1.2773298104767215,0.04171306158111396,0.04171562389144013,0.03921823212508566
126748563.71208082,-2.2246007968216253,-1.0741800758095392,0.03882941890596978,0.03903730905517206,0.03718127325547925
126878700.77818567,-1.6243956913072555,-1.0297491758288013,0.037395612286653335,0.037540960487048226,0.03612045655598449
127008803.30620298,-0.6229809753842243,-0.937432370024911,0.04015611718174523,0.04016199909389265,0.03936154771150148
127138997.94861424,0.46696234419058746,-0.7150499376290607,0.040338831278318873,0.0403538982016397,0.039869887074775484
127269013.5251555,1.3062107327000017,-0.26180045152653925,0.0364254530851069,0.036616633509874846,0.03619130075899365
127396392.03696856,1.2506399251801277,0.2752098632711117,0.036228630459947245,0.03623240925235566,0.03586279102945684
127526477.62724824,-0.08311083095037258,0.5663761913604676,0.041771537784814135,0.04200454034699178,0.04174302684341804
127653850.9516091,-2.041401056966966,0.28851283458711785,0.04270303950620321,0.042736188088008616,0.041926656233578996
127783867.05982122,-1.2695940634762939,-0.022218425271372338,0.04117330274793894,0.04146076613073377,0.04117655160963386
127914044.91561772,0.6034598769666549,0.044628652913966886,0.044164607484723985,0.04462808516579446,0.044568086652954614
128044139.699202,0.25571056447080903,0.615427356662274,0.046463023628452206,0.04676548674536624,0.046484814078206205
128174278.37783068,0.8334620173081132,1.5206829660720762,0.044801738740768815,0.04493766081415894,0.043076298308840834
128304357.62268406,0.6232926307217008,2.128351616889983,0.041801051249256364,0.04182417671682892,0.037960505334992074
128434517.69552772,-0.6759941442392355,2.024930319723119,0.042106666678856396,0.04211968220272858,0.038503649161997104
128550470.62726547,-0.05361629536659852,2.2786064373321775,0.0490880632272489,0.049131462868544674,0.045369116130584315
128694773.99161553,2.6644848574608653,1.9359123231092643,0.050741633289783185,0.05088082820252171,0.0474321875272008
128824823.76720975,4.189048994735704,1.0522690762872817,0.04789823855631821,0.04797523453590695,0.04458697796977685
128952163.50725989,2.572172047880358,0.2643340063799522,0.04263225461407522,0.042787719480982075,0.04161887430268416
129079405.36141713,0.7273707156341149,0.17738668848428837,0.042485450876092824,0.04248766938996801,0.04237669673268924
129209596.16758604,-0.5119636601964972,0.06563303801407845,0.04099417452059475,0.04101949080276806,0.040967568468845535
129339657.11043274,-1.1044167364286697,-0.08567842825526933,0.03538312583430619,0.035408462928595966,0.0351539555941684
129469818.71718028,-1.6543263628836495,-0.10907224197705835,0.03556914147469735,0.03566927919787369,0.03510186486343005
129599885.44274613,-1.8927119808375699,-0.35394401808813813,0.03784504624707109,0.03784747949579216,0.037067871983463466
129730091.52010019,-2.257944088992267,-0.45799786662584807,0.039117578595929306,0.039179836528406044,0.03807877515627168
129860125.31885898,-2.3028380085693367,-0.7470049446530755,0.03828643911780595,0.03832897119475108,0.03687454957034208
129990316.92451204,-2.2199477140436135,-0.9953978067861652,0.03892318949502333,0.03898005291375402,0.037256470715231665
130120365.06108925,-1.0787951958164597,-0.897462119752276,0.04064993304161934,0.04072086149962384,0.03987575925853253
130247710.52021387,0.2728217521325018,-0.8081368745854052,0.03921820802053528,0.03936548543359,0.03877014414817833
130377797.53694023,-0.027049968278390863,-0.8107779257589269,0.03642815502437789,0.036475785906109164,0.03586019649381677
130505121.51394457,-1.1289059886456105,-0.7150950891283455,0.035592555547571646,0.03559551116355181,0.0348791611242062
130635187.98682173,-0.23876980851885996,-0.8048821411723085,0.03692736942083769,0.036984462482158045,0.036380599845899815
130765380.34061243,0.054813032446635594,-0.6590877380826331,0.039477846427058254,0.03949042011033839,0.0391113102358468
130895442.72095753,0.5649065817280264,-0.7242549743367015,0.038573755082116495,0.03899098110083818,0.038450106707982316
131025619.74764208,1.0503530400520522,-1.3072617378163052,0.04047628962499943,0.04049037390031863,0.03874460735305476
131155666.90562223,-1.5717716285022583,-1.1293593823809964,0.0409684734804344,0.04106940620387775,0.03962873249393226
131285855.3196621,-2.274439915503976,-0.632636419507731,0.03976796933659323,0.03984149337998186,0.03859893372410907
131415919.13235001,-0.610089031271894,-0.28797574550978816,0.038017248998101,0.03807465830214464,0.03793757534224346
131546094.50501505,1.0659627241308658,-0.6835368158267796,0.03688150415324852,0.03698251255325988,0.036284907999544196
131673317.43286987,1.5328431932213322,-1.3204955080669245,0.03781529053100533,0.03814386027913488,0.03598244843001715
131803499.34352729,0.7587458856520624,-1.5233687007183794,0.036890031342537884,0.03696323654559453,0.03458361551330351
131930743.89254417,-0.44184442425030945,-1.659531270947035,0.03655777042861017,0.036561901889466605,0.03390463119106459
132058090.67033648,-1.4722340374520975,-1.4555548630538813,0.043121339941479375,0.04312822789954694,0.03817341149866926
132190968.75131701,-2.274944165526605,-1.217996966958398,0.0477749622818511,0.047795912083271656,0.04221783505533404
132321154.2676684,-2.9334321849524594,-0.6401452673280092,0.04592842857615734,0.04614908194827839,0.04298957133031161
132451199.47269472,-2.6187405228509713,0.7104261308819669,0.04872383081604873,0.04874173612774529,0.04462727122769524
132581397.8668339,-2.65441082866723,0.744654092407898,0.044797633750965224,0.04531069692685507,0.0417558610993009
132711446.21336012,-2.893533035635863,0.4657422034748859,0.05039198272043116,0.0505481866701786,0.04876270939693852
132841630.1790797,-3.146490217816534,0.12380994655007593,0.047806315348959835,0.0486210929786202,0.04708024271315915
132971718.07696345,-3.432304812764955,0.1205430435975562,0.04136403342512817,0.04175994015025238,0.039615916750785685
133099039.09879982,-3.3101171818225597,0.06555852239060456,0.037484365904734904,0.03751355970910289,0.03529715850238914
133172532.86737223,-3.3066639792465926,-0.005843363658769935,0.03761152061824268,0.037880402132859765,0.035707196007892954
