delta_time,x_bias,y_bias,total_sigma,rgt_corr_sigma,xy_corr_sigma
24819596.548051253,9.258485398606197,3.747872037191328,0.069445622355771,0.06948872732433858,0.052071716743570154
24881791.041886397,6.3304774065829745,3.9843522996280165,0.17312379834088343,0.17319310326099008,0.06035682519655022
25011865.70762094,5.449741871879508,4.6249795221665435,0.15900076034388025,0.15906571797539726,0.06208156489606282
25142014.586491257,7.7650171669664605,4.976010378984757,0.0771129184778694,0.07715830547835704,0.05992450075146432
25272150.21891067,4.65619066478624,4.44993594478368,0.07180130032746063,0.07289814283609093,0.061299122668661284
25402241.084605753,1.3490408192188095,4.142539082877193,0.06258310517542252,0.06258938849631705,0.052395238537315494
25532337.577658843,1.689786660132644,4.435916253331504,0.06328376378479197,0.06354644110423258,0.05188697956504083
25665310.442875933,2.1733487167821943,4.745320845132582,0.06587759238324231,0.06607332748218062,0.053035403502588487
25798258.221503116,3.1077577739362345,4.962997304988094,0.06598553373090622,0.06640683169719182,0.05145548323026379
25917041.35989729,2.5810795376705085,4.184381795498724,0.06586417579453602,0.06589514192176682,0.055444799428905865
26050015.305559397,0.7336975257575415,3.4390610045371472,0.07484939307423455,0.07535129958127429,0.05892311416232979
26177306.92175305,1.1077561674351284,4.063642319230204,0.07680282518643144,0.0768809924943813,0.05448366844279701
26310259.471377738,3.8994809184945307,5.000192127954468,0.06618009671715266,0.06618568195449469,0.05040915297474494
26437556.961937018,3.657939781870706,5.389773594495962,0.06882250088769078,0.06882968918219776,0.05135787489229625
26570487.249860648,2.8486818325812275,5.209864122013345,0.0668789482995886,0.06689299469320145,0.05040034634007589
26694987.879730526,2.262943539000034,4.540171905265255,0.06160427588975785,0.061678801006492104,0.04841129440449153
26827877.296992786,1.4372705970717687,3.818540436262127,0.059423814370014774,0.05997243375530644,0.0506165582011382
26958065.192572154,1.214418609115905,3.057280327710616,0.05844192468519934,0.05853529736205607,0.052405012717670646
27093797.42443461,1.9554698835087037,2.5922893610662543,0.05734781339833922,0.05736961317061101,0.05262427583967407
27184330.403445102,1.7416666979418989,2.6338715605417375,0.0543239021493022,0.05437610894408629,0.04942290949001309
27345556.384545982,2.688557461218774,2.9901791629528067,0.05368544130556783,0.05377658629619432,0.046819736606797085
27486983.78436967,2.8986233204129093,3.1068813900141516,0.053785628054274545,0.053854888201177904,0.04631638142274454
27605782.744832106,2.3934099666190174,3.269396580248639,0.05406006619459407,0.05406815379685978,0.04615651419525447
27733092.563679915,1.6700653366508038,3.4934148611022784,0.05705618693782101,0.05739384823009003,0.049343577259918
27863211.049473017,0.8422741491950628,3.728961051257933,0.06095004726093546,0.06146578295068261,0.053059072817334345
27993326.98141008,1.586157078919712,3.6054752479239696,0.06410313753669561,0.06563015526684687,0.05828200962675124
28123430.678874098,3.790600492163994,3.121048678065826,0.05917194242200192,0.05932323083279469,0.052015640555565124
28253575.852400754,3.957366186836988,3.1959819484614793,0.057085179684948126,0.057245986552248496,0.0491657167836286
28383697.727869198,3.8203481580808574,3.41832927608961,0.05730263847487455,0.05742428245089703,0.048611005978393344
28513797.209335595,4.381563252091914,3.3347318420749525,0.056850387528513555,0.0568934054159302,0.04768986215537533
28643848.27598712,4.794483186941092,3.197903482383638,0.05613274286748013,0.056146440075059145,0.046854578030881354
28771223.673824355,4.696165910660398,2.9899925738532644,0.05384488251853115,0.05387568182115337,0.04521428343256443
28898563.745475862,4.338611524331716,2.9499785843907866,0.05379933916793079,0.053843329339301034,0.045777161661177526
29028620.92173119,4.498083945154678,2.7199098658787304,0.055159932091373966,0.05532961055572384,0.04821140960947864
29158759.928344965,4.807950304738481,2.4293746138082692,0.054758905422111544,0.054831936658731865,0.048260046625564594
29288875.383277275,4.787152751314707,2.255178734445115,0.056299227695870764,0.05639652939977013,0.05052550354514156
29410494.443225864,4.9728754255081,2.069629865978599,0.056540377914071564,0.05660270931717885,0.05101205234264847
29549086.789853998,5.346901050579398,1.7254041959280784,0.05442001144724154,0.05453636832563672,0.04902060530053951
29699040.291912045,5.1329557249325415,1.6508322118334038,0.05622484252276183,0.05627072403441266,0.05135355572556788
29809295.400132064,4.5567569530509875,1.2699380328739496,0.054712382230529294,0.05486951118373823,0.05124317200370418
29939490.056069434,4.473171159600856,1.1552726712200618,0.054063396546621977,0.054090331202466854,0.05066127927797236
30069501.739255253,4.778352500417007,0.7447319857275925,0.05295251190865639,0.05308746163654739,0.04965805779717501
30196886.293392107,4.681552336058316,0.2808821814530477,0.04946239389358016,0.04947427280017216,0.04615504951151831
30324167.753801353,4.654274014282734,-0.07912716054355148,0.04771357715015216,0.04773988737474165,0.044301256972745055
30454278.22522275,3.7807881477047656,-0.31001137662742595,0.05011711366933498,0.05013855411206872,0.04790382023165952
30590075.651713938,2.4916687433324287,0.4564499398763887,0.04857707231931159,0.048598695567849445,0.04756797806049264
30714522.142127126,2.8496011372755103,0.8589390354787735,0.04491167995760386,0.04503439145114124,0.04326912481999987
30844643.0996977,3.133903866992599,1.2798432806851463,0.044813222711577165,0.044836532793382726,0.042146563561137766
30974762.77546949,3.28599339148105,1.5528777810543377,0.04861707752764929,0.04862215509769728,0.04549084297267833
31104887.930685885,3.51578231529268,1.386389588268257,0.049709106272706687,0.049713101194382464,0.04674585620110967
31237767.411720015,1.4873700288483338,0.3215466441629346,0.047368770975509816,0.04738570248050915,0.0468046072559559
31365153.709619485,0.7611330461466277,-0.12611517906281633,0.04268919584289534,0.042704067624866775,0.04255161739114397
31492430.687912114,1.4822834431314098,-0.1408874062102426,0.0389700346127086,0.03898392075030647,0.03853824845786784
31622536.128851257,1.1743744784200636,-0.31174976497583573,0.03917279632211572,0.03924557036460337,0.038881220501775726
31749841.005626764,0.5464860685499743,-0.36089293828729563,0.039341569182010455,0.03938317010172327,0.03920301383868714
31879942.453827173,0.2579926606207866,-0.7870948738481235,0.0427460304479457,0.043234970685419656,0.04271246570383664
32010056.500313397,0.010319225814407829,-0.9904868657795352,0.04546381333162038,0.04553599673194074,0.04478458604621916
32140185.761735387,-0.7302989082872267,-1.2717688320744898,0.04469043605841424,0.044821495775288454,0.0435255098776339
32270284.873640195,-0.8618125855126654,-1.3588287611085725,0.0443851029897231,0.044489719475568866,0.042978657499103
32403252.277415812,-0.9006538298287965,-1.4758997125397604,0.044532282069037095,0.044552767123527036,0.04276931768255398
32530526.315687418,-1.102247594275511,-1.8146073273325787,0.04773040117402691,0.0477331098624582,0.045215117038397354
32663507.098216444,-0.6101425752464665,-1.7574221744256786,0.05018538548549697,0.050238766657486986,0.04808744368016927
32796419.696044147,-0.35450394783319833,-1.402968778540808,0.04899739535370434,0.04900133018810114,0.047612727489952655
32918068.24646035,-0.4631093818080819,-1.3738423607446595,0.04917664605190298,0.049232761131652224,0.047895503568775026
33048188.402803034,-0.3500302665746475,-1.427358215553217,0.04948975912926714,0.04953056826559898,0.048102045170100506
33175481.93242681,0.017511429083789144,-1.0801665595106664,0.0496561147002949,0.049669409499632465,0.04885859755966074
33305587.20900498,0.20739394807436112,-0.7648542712122237,0.0514383574022548,0.051480326278966725,0.05107176890184364
33435731.429069,0.34110450522607183,-0.10787837126659737,0.04581631732587385,0.045879777727850866,0.04585069700992647
33571477.00519188,0.2614478068997302,-0.3955733876909118,0.0416292407599877,0.041631849336783454,0.04148499309939239
33695984.273040906,-0.030359452157858187,-0.8413303052564949,0.03980834205968407,0.039816859060737016,0.03920469256809792
33828905.36765955,-0.12984348261492074,-1.3671716421306839,0.04268706517072975,0.04276488055241517,0.04125277152996863
33953383.85843117,-0.3643555198432156,-1.9661146843046595,0.04644197815703305,0.04677010140680449,0.04385814781504021
34086333.64378528,-0.3358647603814999,-3.1805183355253814,0.057538242728521406,0.057541262806188986,0.05114648424178749
34216453.62844594,-0.33605781298631165,-4.366432079208426,0.06411790466614689,0.06412633541666157,0.05291895702790797
34343745.51292768,-0.4802275684409481,-4.503048662191113,0.06269917993640799,0.06286634889265261,0.05064095400307439
34473879.63083124,-1.116273791224711,-4.531801088413368,0.0635427583025937,0.06354782935352422,0.05117179696445998
34601141.13766597,-1.4704973991382224,-4.452806352037903,0.06182440913639744,0.06191802779185572,0.049596231210216155
34731275.576638356,-1.5187090115307207,-4.3144953024640005,0.06030217370257597,0.0603148540586894,0.04844254896379735
34861394.32398906,-1.575137875381943,-4.425013924872937,0.06012526130601915,0.06025309061297091,0.047718419444436055
34988684.255808644,-1.6629689944411568,-4.288045293134237,0.06205178964592896,0.06286096266982562,0.051741977516368595
35121617.246536285,-0.9098993832884621,-3.9060977420357887,0.0600353427123948,0.06006358668985533,0.05064553422318064
35251737.39801219,-0.6141935389185869,-3.3701721505709448,0.05186247967864351,0.05191124816406667,0.0438285191519638
35381885.6598512,-0.6570665957295758,-3.083371782041225,0.049723706663748625,0.049749505323208286,0.04280007387154639
35512005.70254721,0.29178549119838154,-2.8481310267891096,0.054303189742992905,0.05473909301320899,0.04935572374708922
35642096.356152184,1.072613871646725,-2.7745875294303217,0.056439132004193746,0.05644313642559694,0.051276750591615565
35766557.57835492,1.7078401154588279,-2.9549979026872806,0.05534461921152758,0.05535342339183187,0.04899506429936348
35899521.12022811,1.9547706348318166,-3.7405122111201727,0.05775852046130296,0.05863938000772422,0.04893727896693379
36026811.33965984,1.7977833126783036,-4.460412611058735,0.061069842506088906,0.061121590034524165,0.04791486454041466
36156932.19517555,1.0870457234230182,-4.953345119701292,0.06582672830753175,0.0659953584679103,0.05127628373449328
36287047.94217338,0.5592584063766468,-5.260069694254375,0.07007990042705046,0.07021561618264414,0.054864057288096214
36417191.80867517,1.0400938718056414,-5.359634931414085,0.0700070706442593,0.0700176317735495,0.05383033855286164
36547311.95427399,3.3808052196844303,-5.246128478270266,0.07157618433456292,0.07176897804684021,0.051437129701347124
36677412.956507616,3.7018351354870953,-5.365370111960489,0.07089101918582762,0.07096236028067159,0.048989388983624434
36807518.398218155,2.4841719839797145,-5.445769527800888,0.06721103701883105,0.0672554497675872,0.04860479151096989
36937652.23451644,2.339331395257561,-5.398365865663206,0.0688973967331808,0.06890953162439664,0.05126027122852452
37067757.77142361,2.1278824282354853,-5.389506290994379,0.06960352387065055,0.06965625670823355,0.05246147373308043
37195077.88677861,2.3440214694037818,-5.283303938768251,0.07072800342958314,0.07090679263107597,0.054715852076621774
37325183.355295405,2.7527949101716374,-5.155244520066804,0.07823333455223011,0.07824249266552756,0.06453450464663789
37452493.166457385,2.9946037329524766,-4.951818831280336,0.07486428756893887,0.07523007935246319,0.06172274205311391
37582578.5071959,2.419768685140317,-4.8095256573308065,0.06752899119113985,0.06753389349941914,0.053395188791854106
37712712.866961,2.3170006092340203,-4.869403847664186,0.0663569377960625,0.06642915554765823,0.05175863505433493
37842817.72903314,2.0264451433053123,-4.992197846606619,0.06730728340269887,0.06746817154571186,0.05197467289758544
37972937.39513941,1.6529028324665016,-5.331866654558636,0.07156712244159459,0.07179564336709891,0.05561078149406529
38103057.13519345,2.0297629732659654,-5.4139074348194764,0.07243717930857306,0.07274977293975621,0.05647436641654428
38233172.5563457,2.759964461135284,-5.49242792944432,0.07732460413003621,0.07739945347074391,0.06125969754129562
38363324.343309246,3.084648882148972,-5.619490728708697,0.0782481620236778,0.07853753657955209,0.06168352599125089
38493422.25025582,2.918371945551662,-4.736821030280605,0.07151528588750511,0.07169115792282049,0.05662592114339816
38620706.20793625,2.974656704333739,-4.541054189005444,0.06495686432141388,0.06515931689261104,0.05108773269329475
38750858.130958766,3.074185794541572,-3.994977891866356,0.06040658250445535,0.060537148975792064,0.04901504976683366
38878130.38956384,2.4913264999529336,-3.268031633942768,0.05667312182428407,0.05689932741241921,0.04889101522156403
39008195.52358922,1.1395258455602661,-3.6494955673649208,0.054149118165307965,0.0542227407000809,0.044749752291329645
39138369.401599765,0.33895798340414746,-4.565741091127445,0.0606694520514518,0.06148758371702653,0.0485457645726995
39268471.3868863,0.9700176491903736,-3.5474081643126465,0.056552219791452044,0.0565548699042218,0.0481504791690255
39398596.09821065,1.0277656917960691,-2.467423832912138,0.053303160546554755,0.0534254275732728,0.04914166698226974
39528729.77041598,0.6754589193959916,-2.2029496802749042,0.05192110802063404,0.05219175001240361,0.048796714802614695
39658835.08211568,0.7429143152972433,-2.1701012263326938,0.0486015394015361,0.04881509438012401,0.04525858053442046
39788999.454531744,0.04969924675651264,-2.425961099668091,0.05349972258960761,0.05436277035189982,0.05054145499435917
39919046.06635842,-1.934892047869817,-1.8765136351410552,0.052502822876122686,0.05251511868094719,0.049755986997552265
40046366.71043712,-1.5432868729300993,-0.8082666628339549,0.047310214355470316,0.04742396958858074,0.0466307186215517
40173718.914902255,0.007599182900522586,-1.063633940827809,0.042949240058154606,0.04301094716277783,0.04210441617263861
40303789.9617942,-0.0845879687767436,-2.143873264374559,0.04636647561051601,0.04652027475779673,0.04302868467593364
40433909.50342466,-1.034336626506897,-2.304563379564647,0.05021084373305173,0.05023275965118085,0.04644909195720158
40563985.26955584,-1.4135890246650282,-1.8782797740790211,0.05009990578437634,0.050507079939795994,0.04786842106541793
40694124.2428701,-0.5878085844964305,-0.9188638838312024,0.049792748761965405,0.050403377409825645,0.04979853579372435
40824306.120370165,0.5054723259550323,-0.4990137487122474,0.04937283829093791,0.049552224934374604,0.04933238697696229
40954372.12021129,1.2489958754677448,-0.8243260540654636,0.047721142792534005,0.04803277786196133,0.04726805219487093
41084506.704185605,1.6144978535664,-1.3988006390030667,0.048406097559942116,0.04860714005791956,0.046730141170962095
41214626.448151484,1.8093260044568016,-2.0475337971271648,0.048485204208102935,0.04849172355075321,0.044811610042231026
41344673.86971695,1.724699289926511,-2.227443412560539,0.04873525891225228,0.048745528849281974,0.04455504189627046
41472022.105478644,1.6645952629518939,-2.0332573439085544,0.04749828911150932,0.04750502508418905,0.04386844389223417
41599352.40493539,1.464794983472288,-1.5111815088098755,0.045829289985703146,0.04615827377345489,0.04399548098356459
41729447.20924931,0.670115261160478,-0.7868788318081611,0.04333997199117126,0.04358310413251937,0.04300197249200287
41859566.733720556,-0.23378422693453543,-0.2745983875257607,0.04225962489268507,0.04230859734540281,0.04224120382983684
41989686.022511125,-1.1490562252482022,-0.5313299378436638,0.04570476966252897,0.045718703580954326,0.0453200012417764
42119810.69674383,-1.6677252578634645,-1.9231926662970167,0.05011157418996484,0.05013526047453044,0.04724341232644868
42249908.21410318,-2.305150563990979,-3.0322916296544955,0.05196980087219959,0.052296548029058094,0.04536389237409407
42380045.56527262,-2.1876828390503116,-3.11054999909707,0.052936139963062546,0.05296917852059058,0.045852155063019366
42510141.59243013,-0.48214563937173055,-2.776970220605808,0.05194292631352107,0.052194273007107876,0.04694723630431713
42640286.2294492,1.038372825193493,-1.9558897910954256,0.04721311667950476,0.047215757242941594,0.04411665376891215
42767590.43233876,0.45484240030445233,-1.1389183940463923,0.043393902125762496,0.04360202468982394,0.042518546922660216
42897693.96154872,-1.1399502127422465,-1.1192410630503404,0.042654825063754634,0.042806375583065714,0.041626600426146125
43024985.72133049,-1.4778809151967631,-2.129616740987461,0.05055094640198992,0.05068165804314112,0.04731044268077288
43155104.95085852,-1.0721482738347745,-2.3170870729653514,0.05175812100282126,0.0522489410797085,0.048535630110027
43285224.12268166,0.9140257911835545,-1.6353409891517139,0.054097453724885496,0.054352344053175065,0.05249586422865087
43412494.84449726,1.5592462519380021,-0.3775029194381145,0.05337986993605736,0.05401821998351564,0.05357848939125943
43545447.72457197,0.5518194302318419,-0.1133393669868511,0.044488545108554954,0.0451286189121077,0.045067203254435355
43675604.96584009,0.17334583613108845,-0.6252485536354953,0.042695821152356546,0.04270535676088224,0.042382782726977826
43805701.598639324,0.8301340296285316,-1.5605167787083212,0.04681700934535703,0.047025673791427414,0.04506348388304339
43935820.24101428,0.13636747410190744,-1.7195726040990655,0.04621949599820218,0.046244370964615325,0.04399929326672545
44065954.87269436,-0.2218701860328277,-1.3393259150366514,0.04872619721159006,0.048944301011197705,0.04767958893322484
44193231.67554656,1.673643093485438,-0.6541738438700276,0.04895943404370519,0.04912610718653613,0.04836715642410804
44323366.1309572,2.3047057360465697,-1.2772102812648476,0.047778992879440464,0.04779898121227861,0.045664980027490774
44450642.1455547,1.3530710600807632,-2.0431631881947245,0.052553013090767056,0.05256965212595178,0.04941571254522029
44580761.662474625,0.39541944175950344,-2.3987629748637556,0.05331200894065191,0.05335798282071674,0.04948319067670727
44710966.86457318,-0.5950514008851752,-2.40408081773768,0.04986363860298335,0.04986661338304782,0.045746631861361964
44841000.17764538,-0.6761356130617737,-2.1661280580600453,0.049226345827820525,0.049686030794972635,0.04633385951469013
44973971.9514156,-0.7053617660462534,-2.19412970615526,0.04963150843126174,0.04964164024170334,0.04617079150446833
45101254.74715443,-1.07312928498628,-2.459661693465085,0.04780726148829441,0.047824003466678595,0.04322943059132101
45231359.8436389,-1.136161254395533,-2.524288194688712,0.04954930851095738,0.049577161405101836,0.044892582608215034
45361464.778342046,-1.0484241340849632,-2.4635973550495325,0.05045448513634064,0.05084646898934999,0.04654852593285889
45491644.516077906,-1.1411868017214613,-2.418877411701005,0.04848882150158616,0.04855222197916521,0.04414870718690552
45618891.275704004,-1.5708219735407911,-2.480244654284488,0.047412177130457624,0.04741785343506031,0.04250901422387247
45749025.1259902,-1.6408067138811486,-2.4111761389243362,0.04721143219463337,0.04730616455034324,0.04262905610022689
45879115.35956629,-1.363920462265883,-2.2991132031914776,0.04872326367487028,0.04873202847651923,0.04470737298778068
46003592.88283643,-1.138296496695537,-2.2191249060153653,0.053126836156360616,0.053201009884735945,0.04984910385448588
46136540.51320005,-0.6541896995093862,-2.101819301508273,0.05474132755207738,0.055203690051747266,0.05239734990144733
46266645.56834729,-1.0511256797908974,-2.2401183920847787,0.05223749330682317,0.05224802572711123,0.04878446892741739
46396729.95008567,-1.438965625573147,-2.237982510580396,0.048317380950354184,0.048327700148631546,0.044452522618210796
46526923.15146802,-1.2003820019634788,-2.278568640633774,0.047870368928637615,0.04791582973222937,0.043948350596151285
46656990.19374259,-0.45038092169699506,-2.3404763699350926,0.05248566105217357,0.05285793481701001,0.04921806546357449
46727720.50146286,-0.5163215703620511,-2.3224473303704563,0.05271628884565303,0.052910623107044946,0.049289822138293464
48011933.13529929,-1.9345464456872776,0.2268696446063632,0.07552359947584643,0.07590932831637065,0.07552790273793676
48082703.19423407,-1.6422736330540622,-0.663162811762884,0.08079523813735706,0.08085310647784308,0.08041736329487922
48212786.47000824,-2.4358470349243015,-3.597238201000823,0.09059080782476811,0.09079869287584151,0.0852431232828008
48342921.93351845,-3.0282358069374973,-4.663698175523135,0.09173930905109137,0.09251942955763777,0.08324376971220243
48470198.43238393,-2.952350016328461,-4.778675470251775,0.09250629100950833,0.0926587439809205,0.08295436377989822
48600333.481333286,-3.2964337933899768,-5.0374273260451705,0.09368637127481357,0.09383471197940868,0.08301329947401416
48727595.59712812,-3.5756601710550004,-5.26025479035469,0.09655647690863917,0.09716915642653315,0.08567777156452805
48857731.03561641,-2.9606923040600934,-5.151643000750606,0.09508116066535484,0.09509077376070041,0.08405350531139626
48987870.06135355,-2.537072570582821,-5.480507557387354,0.09972539443970936,0.10147108461003264,0.08992781547464569
49117972.89480725,-2.56590379120891,-5.843871415794013,0.10582736728191738,0.10694475223428555,0.0942990892243009
49248080.11338924,-1.0263024785504709,-3.7422883296702376,0.08132244699554404,0.08148920444236453,0.07384026045028227
49378215.06745258,0.053333536492129206,-1.4524000114890865,0.06491616709894087,0.06634385158940301,0.0652328559722108
49508336.56387074,-1.7329221024897552,-0.492754100815409,0.0558241387549224,0.05622930818202993,0.055716792086076224
49638472.02061436,-2.007487080237809,-0.37837354486498714,0.04633729451167828,0.04653619284510038,0.04582200853693059
49768590.9542146,-2.329313739508676,-0.3041280536064883,0.043999407835448874,0.04409268571183933,0.043142523027943386
49895873.89484762,-2.698500813730651,-0.27398309185121444,0.04385271839805874,0.04389633368403811,0.042637511484627987
50025988.13480789,-2.70294983283055,-0.21547480627888962,0.04414109692759893,0.04414816799302608,0.04290687877215594
50153295.62340809,-2.5596573333445005,-0.139130140518765,0.046178148182554356,0.04695304777514354,0.045918983662152114
50283413.51196459,-2.361975740460856,-0.07954021588415235,0.04934619690140659,0.049575310572271554,0.04874616374409831
50413519.58533138,-2.586187790321708,-0.11589823353527878,0.04895784061378492,0.04906774966160166,0.04806388850449903
50543620.15137187,-2.7356042381801333,-0.1232954559316346,0.04765342486823986,0.04809620989098877,0.04694614834637977
50673773.06264439,-2.9715089704693995,-0.15820769058213519,0.04618064012038078,0.046326475934953294,0.04490830675709173
50803846.958465055,-2.6379237899513206,-0.2684737316808276,0.045043182739752365,0.045418270639158195,0.0442599732046243
50934013.487877026,-1.3911857563261878,-0.08484017317311007,0.04571630919302443,0.046200352757027136,0.04584067668762313
51064099.61697386,-2.8390857963733884,0.25408997256855415,0.04551051648474219,0.04558835349616391,0.04416454313066139
51194234.72810532,-3.679657850938693,0.22497773501845755,0.04446098076375697,0.044473499435735656,0.0421021964612325
51321531.35152676,-3.494904006019156,0.08513660671058906,0.04384355568149459,0.04410247105787452,0.042004861891200375
51448913.3291994,-3.437624891406219,0.091903243933028,0.04453016902371226,0.0448569241833015,0.042866502380668116
51578933.26119422,-2.688432457761444,0.1294072703106331,0.046725608993052926,0.04787707843236446,0.04673513479492405
51709068.827767335,-2.670639199632132,0.03708400040649401,0.047877735024649565,0.04790491567011226,0.04679686991668055
51839182.32380654,-2.8337669661865825,-0.10868037724428312,0.0436210530604385,0.04381504703684355,0.04245423092837709
51969318.10463258,-3.0389871591550306,0.06418511207435412,0.04234141976541777,0.042492210535417164,0.04085697187312794
52099437.25043973,-2.5370857431475975,0.30467900511767987,0.04267872452543308,0.04292632567800904,0.04169959523278242
52229542.56261476,-1.4279374336655681,0.5394996359111686,0.04065253918109115,0.04068751464031412,0.040036215470224755
52359662.356239304,-0.10771576257408765,0.8525579439662228,0.04317217875327232,0.0431937065085709,0.04261247742632287
52489768.75690937,1.1153219409737503,0.9215314369486647,0.042834135452293254,0.042890333550657994,0.04204373483304908
52619851.76964763,1.5071157202466758,0.6421380529520193,0.04233396882290471,0.04238442772405892,0.041699817202434465
52747177.3669203,1.459739403574949,-0.011431654667130647,0.04287350205013097,0.04307341834746714,0.04270778953204216
52874540.358097866,1.5916410409374155,-0.038396121346093784,0.04738562821143724,0.04760340814273072,0.0472084849203779
53004666.31364201,1.173440138235212,-0.8684811390007915,0.0495772798467751,0.04975174346365444,0.04898216339768945
53134736.529717706,-0.3245603437007642,-1.8748374429997456,0.04848972738451889,0.048493835426940024,0.045976031159956396
53264843.1494913,-1.8723600267214362,-2.5076274484162306,0.05289812226345283,0.05290221588688238,0.04835884543923187
53394958.241510645,-2.4404143193355363,-2.7237532414291694,0.0551754117472534,0.05524004073631558,0.04985063755068137
53525083.18901463,-1.9574578179867808,-2.544413445025204,0.05035773981619627,0.050363214780844774,0.04539101050221355
53655179.29670952,-0.34134687983178225,-1.754070993755067,0.043163466554471,0.043218342614176466,0.04074531142008264
53785324.39079578,0.7057434343824572,-1.040662079090953,0.040194565545310416,0.04021041981334314,0.039155234046437656
53915427.840183444,1.006381470006294,-0.7565981798765421,0.045959993561247976,0.046097466979389004,0.04547333970307257
54048320.30948058,0.7623400126436508,-1.0496892361564953,0.047948199406678826,0.04840727283912538,0.047504720541351214
54172859.26742162,0.8273867780285225,-0.9327335799929768,0.04579766084800459,0.046707781817433625,0.04592781619788884
54300160.945670694,-0.20778677632875783,-2.3366465252631836,0.055588411334209845,0.055768131401361325,0.05235553353668127
54430266.601920806,-1.0747519810371091,-2.3587763651643106,0.055216395251801664,0.05523133008421474,0.051630973146561315
54566044.23072392,-0.754448045658083,-0.7479807997196446,0.045065447261735656,0.045078910797717656,0.04458781339754773
54690452.27828758,-0.8010590880616849,-0.7347671185342838,0.0424231208944738,0.04243377331837622,0.041914828285497564
54820649.91776125,-1.1687802716844862,-1.215688367372976,0.042225544553793216,0.042342782440444475,0.0409653561558227
54950694.2238313,-1.3032069253426204,-1.9140280421847427,0.04639859386197485,0.04654508428785263,0.04361972262461793
55080865.411050305,-1.113050728819257,-2.0836382291589204,0.048626824236243156,0.048684023564138625,0.04545216980962331
55213795.170642085,-1.0121116309103952,-1.630797224183737,0.04652537894316272,0.046596814960849595,0.044518289981932746
55338229.97232391,-0.35102461338237706,-1.385967882279536,0.04585052916502549,0.04587147058411612,0.044424275596861386
55468396.43194477,0.15076146437979662,-1.235772033133386,0.04866927627843754,0.04868879300182724,0.04759056527713293
55598517.505456425,0.30418326625031417,-1.0565251763982357,0.04689654787026207,0.04691220378057691,0.04606521069669351
55725807.1880762,0.06317545687689471,-1.1192522031368664,0.043174542976145515,0.04323225061447611,0.042230403110581426
55855927.946042195,0.3558011178586399,-1.2682164993820382,0.040951450933924646,0.041377905376119,0.039993329806351896
55986046.403326124,0.2855751438219082,-1.1012582081362152,0.04303913895562235,0.04304344954657276,0.042045935266465516
56113337.52413647,0.17383995769620678,-0.7903790408851687,0.043097553668891765,0.04321530996175555,0.04270806166679924
56246286.116049424,0.7148794763405727,-0.550440857062761,0.04005175888012808,0.040065833739080244,0.03969449090178401
56376405.02686177,0.7899189269556387,-0.04191178868005763,0.038960614640210126,0.03899340192792478,0.03887282107719695
56506525.588191375,0.6539123766986848,0.3290900588616243,0.043507710436788555,0.043930711749584385,0.043784928513724716
56636647.17469691,0.4126438508868416,0.4698435769098681,0.04655334765444536,0.046576066300449206,0.04639586531194397
56766780.659452274,0.548686123281854,0.596577059169596,0.043526250151610525,0.04352856075817974,0.04321354128240564
56894071.9284025,0.7410552188394308,0.8386959320912292,0.04066100316936975,0.040674658032441476,0.04001019620678863
57024163.039363265,0.852150493099508,0.9894645604994327,0.039503400947151365,0.039519567442658735,0.03857092672530889
57151483.23060583,0.5816941432524375,0.9891606598363446,0.04077028495668426,0.040775307239809086,0.03991727113113749
57281573.93166186,0.8014308520356311,1.2654585557742828,0.04215966127128932,0.042200033651555925,0.04082050403723704
57411707.35004485,1.0760627331775101,1.418583674799443,0.04165831400894745,0.041732612576246775,0.0399265803366099
57541826.79377769,1.0846330837832738,1.3454031758211464,0.04152484666199227,0.041605651018415686,0.03996281547079426
57671965.81688181,0.41205459810564843,1.209407483691718,0.043000269926921623,0.043003573303495066,0.041820669627678435
57802084.38396756,0.04223434142173805,1.18545420464687,0.04609788508485273,0.04611229418699172,0.04505090515308051
57932171.51397836,0.11881779668310893,0.37549083526245164,0.042866916960077175,0.042949095996572095,0.04283621186876275
58065133.96189997,0.03499312828847573,0.4214141433536698,0.04047536291001804,0.04048613296384418,0.04033771947490141
58192410.61320671,-0.42270167997570507,1.198823978742416,0.04066641284798485,0.040708059427245195,0.039437747799902306
58319716.80930315,-0.7988888719315095,1.1910670025320889,0.04103534068160427,0.04111054405173271,0.039752911861477655
58449836.09881247,-1.1998807025834806,1.2228573009154307,0.04035770999710422,0.04046705835614002,0.03884267706201989
58577142.03153706,-1.3546343014550946,1.5504993064896697,0.042024659453449145,0.04203018254484722,0.03960276842957505
58707262.59222433,-1.8018144862883994,1.587950547801822,0.04307110655835223,0.04330302324187035,0.040565050822542005
58837367.927687004,-1.911306495515873,1.4231470592053568,0.044768445972136195,0.04492468872284629,0.042634271580483
58967468.36442356,-1.9880030640067057,1.4894203926591187,0.04799313476407056,0.04806855436565165,0.045728624999089244
59097593.18086075,-1.9492047705745863,1.6323968493347627,0.047552799719229676,0.04813132041952337,0.045477449662591096
59227727.723217785,-1.9493380195398513,1.2292324024571593,0.04173522824362938,0.04173704442652565,0.03967731886774565
59357848.16547538,-2.4209736430742783,0.9495723145298265,0.03980745210673431,0.03980963612047211,0.037796466856706123
59487967.5332337,-3.1130629224915607,0.7182329078277085,0.041021235735338994,0.041065584046352466,0.0387305824259814
59618095.21646875,-3.031135113220991,0.4677752268396136,0.039951663920004474,0.04005436624418193,0.03807030282264626
59745363.15992068,-3.318457649961409,0.14235825007093006,0.03925520878955544,0.039724090618048484,0.037602594773044395
59875496.93519142,-3.4773973137283347,-0.16880982992878008,0.04104080268567901,0.04105807713719896,0.03885233730416531
60002786.910374105,-3.0030289404831203,-0.5902987969808186,0.039826908117951,0.03993033042344823,0.03803059676043176
60132905.54342884,-2.847815383608132,-0.9197983580443277,0.03964285439991451,0.039690331802964156,0.037539823593266936
60263026.69887295,-2.763778889075792,-1.1663870026580505,0.04124249023418523,0.04135092845199699,0.03897018882261721
60393145.4774048,-2.5493420727245537,-1.4416649104872667,0.041853240560640215,0.04230103066902101,0.03959943772098257
60523250.88928059,-2.2680672690205146,-1.5677754468503808,0.041809983466179354,0.0418156053970905,0.0389939744039176
60653370.37822975,-2.0033636981883993,-1.6165117369408282,0.04111573855806853,0.04116736980652758,0.03833985154108299
60783505.10207574,-1.8117823388599066,-1.7106701223015444,0.04105920608363757,0.04106371157790146,0.03807470828054133
60913604.81226799,-1.5933989011806313,-1.870922896407416,0.041350391363007846,0.041415606292777844,0.03808725457593519
61043724.17505201,-0.9754273564521827,-1.9122554526467068,0.04331435475918874,0.043339052708940055,0.04028731239460457
61171019.80542819,-0.46394675006592345,-1.7728202691686494,0.0416948760081272,0.04174252417818963,0.03910642195856036
61301154.42720231,-0.19075010715029442,-1.646844827685239,0.042241170889491975,0.04224598547930501,0.03996473987031317
61428426.51361492,-0.0064880149805266775,-1.6627711235856992,0.04569850351904981,0.04572417120265467,0.043610790323900604
61558565.19647455,-0.6627865542215838,-1.3898296652064397,0.046875124812840535,0.04688346445910705,0.04543608378586983
61688700.5973555,-1.45404375540446,-1.153681407035146,0.044524484335581045,0.0445512645123849,0.043240998018612774
61818781.766705096,-2.0559410218220746,-0.9428240995342507,0.04125190727777071,0.04125937983492782,0.03984227683807649
61948910.62499942,-2.023063297820923,-0.8173335712039864,0.04101935559731645,0.041137095661959715,0.03991012318813623
62079045.29425776,-2.5957406326332637,-0.6809571248380082,0.04031388249308339,0.04063401294810503,0.03908257785759796
62209166.41447208,-3.6096082527065834,-0.6505410606171613,0.040426647070851,0.04048146927640273,0.03780105971690068
62339285.24522632,-3.513528802186978,-0.9086264373787326,0.040186490244460166,0.04020041625670485,0.03730454022029761
62469405.63498289,-1.9578184077717062,-0.5523044925528243,0.0397941966746338,0.039799820915817914,0.03888017504246593
62596681.47233553,-0.6306164699298858,0.14369491973181864,0.039674899610582716,0.039733559863834554,0.03963864496626087
62726870.47849855,-0.40904199563305893,1.3055400957458478,0.046933035875172655,0.04698776134407576,0.045700542522645826
62854085.98273723,-2.017499593600216,1.5525581677114837,0.049745840115642814,0.04975115146841109,0.04732236763220481
62984239.53495766,-1.986760238382046,0.8347938345625381,0.04415965914936611,0.04418742251806244,0.042905708542923804
63114321.75116417,-1.5654599176646613,0.5724122593455967,0.03984878617461243,0.03985211622190156,0.03907327179889662
63244494.105702326,-2.9388688764802393,0.28197796321472984,0.04069315603591117,0.040759746113854654,0.039067333056967496
63374566.79559293,-3.901086799023382,-0.4682085502953269,0.04332694785312695,0.04340094343424891,0.040663706212495335
63504703.55204725,-3.6877610916794845,-0.368975915123049,0.043382180208510444,0.04355743526902047,0.041166467895389865
63634805.12355557,-3.913480695425639,-0.27002208750844203,0.04155612251229771,0.04158909241933856,0.03879441934115047
63764942.7165844,-4.364968644205371,0.19475781297692002,0.04606146812084271,0.04608826745587755,0.042645758839054686
63895032.526231736,-3.74674766120557,0.31071563704636523,0.05435818625935027,0.05442897724367698,0.051746401464969685
64022369.83175149,-2.559533073522242,0.4985144133423411,0.051521518299941206,0.05156769688864262,0.04932721168936778
64149705.991949365,-2.6533007868054588,0.036645473185695894,0.04803414574051827,0.04811715079907466,0.046612776581214065
64279777.39733205,-2.9241953402942564,-0.44345549526250794,0.04857254470385166,0.0485834695667462,0.0464993893532399
64409878.98902692,-3.213541196885625,-0.7180231926686673,0.044711028677116765,0.044951147148175614,0.04254056436375572
64540003.41657385,-2.930717125764659,0.8344580677757578,0.04244156781041598,0.04245053132424586,0.040247528380837456
64670123.81283569,-2.043651941264615,1.9903809666486711,0.04209006967134936,0.04211902119625089,0.037799465042884825
64800243.60535457,-0.3361964228239372,2.103111183814728,0.04443468165862507,0.04473789855054025,0.04117260065091827
64930434.13970709,0.18321639989726157,2.1340400871807716,0.0468189243690694,0.04683226243933547,0.04338785116915626
65060484.44310082,-0.13035311305229205,2.485150330018791,0.048998194187052924,0.04927406515208257,0.0447194141968551
65190572.7678798,0.5409068512413538,2.4283658279024327,0.04737736258226014,0.04759797032572785,0.043155906275438756
65320639.850074485,-0.3523018158053233,2.1918242410693765,0.047379301613647055,0.04742871335278992,0.04378418592905568
65448015.914452806,-0.2568240892870999,2.818734335802977,0.046606976223709524,0.046776924135058504,0.04055282948387477
65575361.623919964,0.7504503375327264,3.025159578935568,0.04686675330525285,0.04691045480765014,0.03972942288469613
65705426.016509786,1.520418091926566,2.7911787768423246,0.045865437022638206,0.045894743173813986,0.03947636101907491
65835545.69125669,1.470360916532738,2.2362819415485413,0.04647754278825343,0.04650176193489178,0.04246283589518077
65965659.52433147,0.016422294168386902,1.3599307032782644,0.04202652989476389,0.04206259880456637,0.0405516569380216
66095798.223948345,-1.0594133924971803,0.9328071018093869,0.040505137158953305,0.04051631724884344,0.03952887320230299
66225883.366781734,-1.8048583421890516,0.473914629787667,0.04449106110508021,0.04449894167791403,0.043750907890227834
66356036.09641425,-1.103349690874047,0.4821134282392888,0.043317495524747944,0.04334955263522222,0.04293625196019267
66486127.737120345,-1.0598688646569372,0.32878311245071096,0.03987453292966766,0.039887562885425054,0.039571261927412005
66616276.08397399,-1.663434382578329,0.4868956964396842,0.0389705849674615,0.039014561450837044,0.038240721350723046
66746290.856814,-1.909358306411156,0.9085891519343637,0.04136631838329601,0.041370770780782426,0.039943754636242855
66873692.133816004,-1.8297010363633315,1.2443753667010589,0.040922209113216625,0.04099803600465974,0.03896863311799446
67000983.1196942,-1.04090752541112,1.5303475982346997,0.0381573230273476,0.038165261661339586,0.03570928577956003
67131117.39175303,-0.38279448496801055,1.6514318278634497,0.03769045241025876,0.03772511728940489,0.035127619341960785
67261218.33196071,0.3282601530943563,1.7267849904109371,0.03954051413893469,0.03961567494862305,0.03697802209066316
67391355.42028725,0.8541252778127703,1.7356441462974477,0.04153845535805579,0.04157486047828005,0.03896687916601504
67521443.24075891,0.9821446122861044,1.5857290625612297,0.040430187283154534,0.04045189094609935,0.03817256543802329
67651563.27900586,1.4898935265570648,1.5602023175954505,0.039815529187276086,0.03984369307382067,0.037402867901914744
67781678.51377952,2.2482324647438596,1.5960796177498728,0.04120101106027094,0.04122209996265292,0.038287785625830136
67911817.49623999,3.096811422128159,1.627347647052595,0.04053372922755598,0.0406671972171288,0.03678730690320152
68041921.89144577,3.473455156433687,1.5890800278014094,0.04341485979185658,0.04342522657264011,0.039478601130316704
68169226.9258112,3.5166475722044774,1.63607053426339,0.04698599650193296,0.04714468182287671,0.04335505709148791
68299315.00807898,3.245496312218599,1.8072326660660725,0.051025841835346586,0.05165851153028743,0.04810466826258962
68426622.08994538,2.83693759145922,1.8616619139255222,0.051718827358494014,0.052027775143801164,0.04873281614626691
68556718.87932137,3.6108308859545817,2.0384436519364275,0.04745327196986196,0.047743565777080214,0.04283391116429296
68686895.01430273,3.687768549367217,1.8568810869332124,0.04775023679032784,0.047800154819802015,0.043356915496784366
68816997.82892485,4.052647452993819,1.9384394404897496,0.04796352517809951,0.04796924583268778,0.04286347467697369
68947134.25703916,3.5957773551728778,1.521313687318366,0.047413562509071305,0.047460423815865856,0.043865661079167236
69077210.98253173,3.1302964748907285,1.026561190580114,0.04618482434965383,0.04619851358897725,0.04392605039033835
69207354.24323994,4.013329559153222,1.4206679892098455,0.04720386204856657,0.047217636938261,0.042997491391744296
69337442.30399415,4.230852465401057,1.6161061591199097,0.05282972262885458,0.05299140432456945,0.0428775352414692
69467586.21435675,4.204553907298424,1.7328636908603658,0.05768189062777045,0.05771938127442498,0.046049145376593215
69594863.0752139,3.9681736890365293,2.1354107161548797,0.0642040993022069,0.06420904347641064,0.04831031178407004
69725011.7646364,4.001260453922559,2.335459320601062,0.07299171536596483,0.07304019599658086,0.04978938442989549
69852302.03022948,4.664897011698521,2.8458565524319024,0.06346630010671866,0.06354640868862264,0.04517861912326369
69982405.95004317,4.546239239546658,3.1246172675049086,0.05340183420511797,0.05340726523629472,0.044092630265215454
70112509.49968249,4.395452804084871,3.2400222124485123,0.05562988708776479,0.05565834317564026,0.046461953718346785
70242650.95958933,4.355182347345688,3.3668003844301975,0.05776259682522835,0.058228752562296655,0.04904872186027676
70372706.08797051,4.178408843624783,3.460711924562138,0.0579801871137089,0.05798992634544057,0.04848937429050255
70505708.51463631,3.328056227773929,3.390682860202966,0.05491641888656441,0.054968516176127045,0.04609008098650952
70633014.27522369,2.7871022119356774,3.479203118059701,0.05584866595309681,0.05617922610319282,0.04751062148545328
70763119.4488281,2.6114633427495884,3.5632535712124307,0.05563804584247938,0.05580290512904362,0.046738338597163885
70893224.37671664,2.671562973666061,3.6438714481094885,0.055424587316524776,0.05545964386915874,0.04589114338854622
71020536.30076957,2.398164071356485,3.3232447679363806,0.07307234234509263,0.07339304526776083,0.046475197040718126
71150637.45539275,1.9420897114029883,3.2116047422744263,0.09129036707376348,0.0914266748316278,0.05029777319323894
71277957.42020404,1.6312892024091896,3.336157532072631,0.0898894529088501,0.08998841651147309,0.05280265578605982
71408064.14444739,3.795537212771215,4.3976331517916005,0.07921518585645416,0.07953608399666828,0.04732548572066883
71538203.13202935,4.536044796485936,5.066576113618931,0.08486954684786942,0.08503856270632365,0.04851581878795063
71668288.60491765,4.828273832296513,5.2088862571351395,0.11562246905274985,0.11582328494447783,0.053441161641027655
71798432.03181037,5.614391585025122,5.319874099073324,0.11382785822751497,0.11392842031339386,0.05323245333069892
71928534.67403355,5.451949932011368,4.252840383749924,0.08876801912327734,0.08897095060669179,0.05626860232099193
72058704.32682398,5.887402757182317,4.2606335758677,0.07576392573091112,0.07602039996274143,0.05524725292719043
72188774.86118051,6.522625825596615,4.632600286047909,0.07993611385334572,0.08354006155280513,0.07070436667553735
72318903.98693632,6.113742130168709,4.424479535105203,0.08061021709886579,0.08069790606486975,0.06880237297489342
72446210.58431995,5.937668362591542,4.516337125851241,0.07068209724930789,0.07072971010919335,0.05641123761471514
72576328.83250251,5.7342512560603645,4.820552463486147,0.08101723069549825,0.08102332071774312,0.05719649218925718
72703584.17944394,5.959889369588627,4.6647694045454475,0.10291546085266608,0.10329155136758805,0.057195417007214304
72833742.02419263,6.047834930720781,4.283753600770346,0.08544230646334584,0.08601732608464757,0.05138587839127295
72963846.3798275,6.670454837341949,4.502273507021807,0.06755356163104732,0.06781523664125075,0.051830693228237544
73093949.24941534,6.872175560073463,4.264537542273607,0.06643589131021131,0.06653199142196664,0.051158447607369616
73224099.99114254,6.036775771091673,3.5984704845997895,0.07551147355435299,0.07567088693093853,0.0540601247459815
73354203.7909885,5.778558266890125,3.5548256676025876,0.07589404645678967,0.0759763431599148,0.052650931299036474
73484337.47843958,5.112514495138345,3.815665788817153,0.0728529655837751,0.07289374882215177,0.051090372524308085
73614442.83153683,3.5383339579655004,3.665852389597871,0.08318946014932843,0.08337928714572586,0.054077017604108456
73744563.38571246,2.8720598023230686,3.41301444231748,0.09051946390314373,0.09053718666204529,0.060307017786807124
73871855.77735572,2.663202500189269,3.460560554342124,0.08957563942825945,0.08963038547274177,0.05871765571647164
74001933.6434426,3.478185296512611,3.7293729651889773,0.0719058088841489,0.07196306353245137,0.04989291110728654
74129266.16735688,3.7402938210528083,3.7519465118045514,0.06439501366903401,0.06445511205930227,0.05225369114490166
74259366.75059032,4.333980904831114,3.6133312736121055,0.08311382538330403,0.08322360464084282,0.05543120570223397
74389505.84855688,4.379318248011725,2.897131678980304,0.09051726534459117,0.09128197086047846,0.06411852601681536
74519626.04284903,4.1044391054689235,2.7648914262768542,0.08241961177437977,0.0826645235666005,0.06598099631598259
74649745.8460426,3.0739851345772204,4.08177845213442,0.0878581770253314,0.08883299606198977,0.06134478968466252
74779832.6427452,0.8639703569708787,4.170601377522802,0.08704337543228435,0.08707580698807565,0.056416758406125964
74909985.86354664,-0.49823892992361074,3.5291934520024997,0.08865130627122911,0.08975257405323846,0.05610065993577039
75040136.88325968,-1.1164259549665265,3.8371251694976296,0.09253827308719172,0.09255656550043856,0.04941651858468901
75170225.9109414,-2.5035101368973502,3.395974857258284,0.08233781933092763,0.08234791499533413,0.04912901158297362
75297536.51395872,-3.4366863395165645,3.139053486331169,0.07562973793984105,0.07563424319729072,0.051175624357667676
75424889.64507768,-3.6951583949156763,3.9624548329900433,0.09132847651268321,0.09135393424703958,0.057229617967559925
75554926.8901936,-3.793052676780561,3.7372452416661015,0.09448819668542453,0.09454497389455646,0.05512064024096059
75685046.17929123,-3.283597938397463,3.4930879887605517,0.08165922381186709,0.0817506829780295,0.04930828972045601
75815151.21610174,-1.9356189576880058,3.5137777707499875,0.08811294151069114,0.08815650190641709,0.04993036976557118
75945285.49164084,-0.7482718448473096,3.5232494861454238,0.08378861589411296,0.083851836302207,0.048935691083703825
76075329.37234975,0.6384922686278378,4.23074208670555,0.07638461365828768,0.07677559936684883,0.05200178078177714
76205583.16482945,0.30695712999812724,4.251944632913698,0.09372804199725582,0.09496989219003296,0.06383077433375034
76335625.45750824,0.122344389711299,2.720677657356465,0.08005986113167934,0.08075350266988837,0.06669867346362196
76465763.93388455,0.7983526538249234,3.4065303307291277,0.07984530070377725,0.0798526989265737,0.055392391605090414
76595857.80774641,1.2250977175630888,4.4684899770888995,0.08226996362690399,0.08244809673936668,0.04947843474523649
76723173.52565038,2.2451038541869575,4.844168305583809,0.08951752361093082,0.08953938429927712,0.04969940412552534
76850516.91623005,2.9904428100584273,4.434504268725782,0.07868525833673534,0.07872505921411704,0.051917984755236554
76980599.1469297,3.1390522853376517,4.338655264262722,0.08004853391672281,0.08009248260973277,0.04887957564886751
77110704.5810928,2.7296317145991966,4.300049402299742,0.08389046537897839,0.08409146093545339,0.04660333802378822
77243666.44015461,2.5484488858177974,4.41962166015275,0.0927018540842917,0.0929109130305052,0.04732535251222349
77370924.31330636,2.8820450222286773,4.30797180712293,0.08901018727832405,0.0890623401801923,0.04703865989082493
77501077.63421762,3.068029669432302,4.169081097370062,0.08012471717958058,0.08018140667324411,0.04876102299059669
77631202.21870038,2.5685270595523995,4.256486334185722,0.08740968188042451,0.08795331464845035,0.057892727875433904
77761273.3413294,3.4447425741837843,3.838570022748007,0.08986518362810712,0.08987916922903917,0.07152911003347276
77891481.3831453,3.391159645127123,4.2082165288676885,0.09146433682978841,0.09152212364874646,0.06092186650322887
78021487.67175725,2.9481490795198377,4.1047309296545835,0.08749568678148459,0.08768029570166021,0.05561576125419074
78148925.87000166,2.700681731579096,3.572474191275607,0.08768183100795779,0.08771442600888181,0.057571762799215116
78276163.64600296,2.1980710118766837,3.557803555342994,0.09293243442176195,0.09299609432292721,0.055789227368136525
78406252.80331591,2.104487261928266,3.512856357427152,0.07202293187190904,0.07233572435555603,0.04999563044725704
78536383.56887393,2.476976718894388,3.961542539650666,0.06826229489584056,0.06830422860942492,0.04705589472950159
78666460.63229246,2.296082455228088,3.9039384881389574,0.08194279713134515,0.0820122891933384,0.04910773362394837
78796588.97723398,2.3695445223995764,3.9815585892219265,0.08457460432856809,0.08458874174551685,0.04868321039785249
78926737.61060409,1.945744330968258,3.1091319213515107,0.07469530337409973,0.07470198966242327,0.05047674193995772
79056857.15264893,0.2621519891580607,2.5300145296343337,0.07313766432537948,0.07314321799742696,0.04949141266732862
79186998.5230026,-0.37229670125933484,2.83442360941285,0.06647474544512605,0.06647846682104894,0.04659656344020041
79314251.41520384,-1.4435119923194104,2.7834142697316056,0.05914767130575982,0.059220107235033057,0.04619509955619921
79444352.15509148,-1.8893392640230942,2.6929274756421555,0.06435581692799658,0.06446333191756055,0.04655334877938662
79574506.30104536,-2.186977978331688,2.596208449708869,0.06715707268164176,0.0676213185735329,0.050278259007771615
79701783.88363747,-2.700849972974657,2.3348755294966836,0.06890399123082087,0.06893443754708896,0.052458561801095274
79831905.62478755,-2.764357985777765,2.578007826344045,0.07299822257690974,0.0730018665964708,0.053561170477833694
79962024.87566361,-3.264467165421484,2.5540914372800785,0.07219750494178646,0.07224128435786561,0.05135310984528778
80092159.9512581,-3.296061463084512,2.709963331752346,0.06973808759736293,0.07008730139789122,0.05398402373546925
80222265.12291372,-2.401032989962809,1.6666867866197812,0.06378233269190912,0.06507786267787735,0.05657640190554128
80352370.09371264,-2.14583121590002,-0.013351498350850076,0.05207821835656751,0.052131062418303786,0.0513119860119127
80482504.80545278,-2.554963941986767,-0.743079719500076,0.051635512497302284,0.051649864994153485,0.048410125907343005
80612624.27905875,-1.928033007624226,-0.2779610806570653,0.046866151722628716,0.04687743076184542,0.04600554415445067
80742759.18005155,-1.773592907478731,0.4996337307766458,0.050823326812939704,0.050840303640098235,0.04899630918687428
80870036.12984312,-2.233765800073159,0.46679227764430886,0.048866059171722154,0.04977198895652035,0.04749512811037174
81000155.93268925,-2.561267369059185,0.41617273070824745,0.04841362575450191,0.04853076513472294,0.04648555409113987
81127444.82448809,-3.3562382103652912,0.49530423404809476,0.051034855925377924,0.051038652946849845,0.04739704111301094
81257566.12207851,-3.5364721696040387,0.9495347136886195,0.050093555101102014,0.05015266643833895,0.04362810636552218
81387670.09896363,-3.0694266049607735,1.1564612835594863,0.045766622315118494,0.04578117449838406,0.040302076523950944
81517803.76102683,-3.5518301708028788,0.9308056322131062,0.04825220453802401,0.04826769893517923,0.04262839660457393
81647924.1890499,-3.5746761902718993,0.33658498090088085,0.04893539421735438,0.048957443451047127,0.04567652302596054
81778043.8492567,-3.0438272983796812,0.3138873167619884,0.04726532690807619,0.04764696936494489,0.045237737207558554
81908148.52403584,-2.8315336024624607,0.2234753700053421,0.048043591624102676,0.04809290277322197,0.0464619796523296
82038283.2202531,-2.463638793098878,0.24593581355385402,0.051230043614868256,0.05457259556676014,0.053414692731694344
82168388.08878404,-2.1437636148670056,0.03920327216719233,0.05011001505903656,0.05039822134742981,0.04961237987965769
82295678.77814361,-1.3828463136453188,-0.3951259640968971,0.04920131851305709,0.04930120959694083,0.048551145994701186
82425812.08090697,0.21781929237553588,-0.6424315588531117,0.049050988715105166,0.049100617609951554,0.04781103161535768
82553105.11358002,2.5326423860618985,-0.6662590968842247,0.05629110187636676,0.05643973353079196,0.0522846381933604
82683316.2438606,2.821163720168714,-0.3097260308126554,0.05195936076702798,0.05206951034635619,0.050136027001908876
82813330.21248725,0.7392806005908413,-1.252997371392905,0.05792144878426157,0.058644945568006056,0.05212256908509571
82943450.04049578,0.1450208972334993,-1.4118207453364915,0.05694899326118425,0.05699167828439612,0.047982757931240516
83073584.69326955,1.2679395329892005,-0.9225922438481212,0.048113069558120454,0.04818179195823433,0.044479347563646285
83203689.30877835,2.4237150954569637,-0.7233151969923953,0.04266125184614068,0.04274876797558505,0.04026642535398335
83328080.00780109,1.6370634533426451,-0.5055075088027404,0.04286715519133973,0.042885176211262005,0.042181895283737586
83463943.63049787,-0.961879476142906,-0.17640573969196371,0.0462895060030215,0.046324186600141294,0.046161693563013244
83596960.94020176,0.8128668810676467,-0.07905635358969484,0.04414193516637443,0.044206773657662984,0.044089892117287484
83721354.62693262,0.9901802280403795,-0.8830303158113901,0.041819605953700566,0.04191798280533071,0.041061955398182796
83851474.39159158,-0.8966250743774123,-1.0266185824186422,0.044123297023782065,0.044571213738092495,0.04366377281831935
83978766.06850785,0.2890930150333614,-0.3725557365186654,0.050210479619668784,0.050215661440107924,0.05010516832160166
84108869.413854,1.1291618892575042,-0.5433501601322623,0.04831643147137686,0.04834443273813869,0.047916929300133186
84238989.58046685,-0.3933846002065815,-0.902312393762517,0.04690042454024721,0.04692290724616432,0.04631832922806629
84369125.77339128,-0.8556709925162788,-0.2946179093042683,0.047727023390033194,0.04772962747747008,0.04756495356945946
84502087.49182796,0.6947630806707542,0.5444538398063635,0.047707889912030205,0.04854579231702238,0.04827696823631608
84629397.06857431,1.9890379484194218,0.13385473209623636,0.04633010948056146,0.046397251808554155,0.04576777599504797
84759479.2001276,0.09335743160714015,-0.21239236166697928,0.041606004981712845,0.042201713520625565,0.042163017073965824
84889604.03002205,-0.17941506283389472,0.5746579451801922,0.040086143788618175,0.04032474965891013,0.04003413421481286
85019709.57064644,1.447954723120242,1.0502705383036388,0.04052612712666396,0.04057015770687967,0.039315559231467984
85147029.98080553,2.3953715647871547,0.3783064804576777,0.042050079503683564,0.04263008274281386,0.041557456220199115
85277119.55183071,1.6820756518481341,-0.7230922151844226,0.05175615857587851,0.05390566717126389,0.05314178776779856
85404425.33095247,-0.06371536383305873,-1.6604780326956468,0.05569283633337805,0.05615908774022018,0.054467827736706886
85534530.06418169,-1.9948627633878413,-1.6531269933037704,0.04573081899750177,0.04578355452562595,0.043172261490635036
85664664.9620769,-1.8554042765199315,-1.6076336969620024,0.0462843810565943,0.046822521529329184,0.044458749883317925
85794785.01530969,0.3635656294180388,-2.0219019388933317,0.05073131508034171,0.052068716569073116,0.04927384198951663
85924891.84684668,2.582502145110363,-2.225892967561983,0.051495709346846066,0.051527522191580466,0.04690332311795532
86054969.96807325,3.1119530520987175,-1.9683308472291778,0.04908955689937987,0.04909244176234261,0.044531701156862086
86185145.14092979,1.0579114613905316,-1.4542649451742677,0.04397839182754203,0.04402025519235874,0.04209753617520215
86315265.01005086,-0.42593606041538623,-1.7853398000041754,0.044931382196434,0.04509086106789821,0.04262803072548302
86445385.34721184,0.7700339529696134,-1.999586153975332,0.04463304920112566,0.04473351841671247,0.04140009775846522
86572658.38549234,2.328311391713965,-1.4906223683977784,0.04228464876483755,0.0424313627404531,0.039461626746842525
86702799.92620721,1.86013060772311,-1.2099552637211208,0.042240252032618116,0.04228302455850304,0.04036990268125565
86830080.93493366,0.46114046208347764,-1.7105233348715072,0.04310960446681574,0.043177274319789606,0.04073789932414188
86960201.52137168,1.4896869451935775,-1.7864387914707671,0.04869670216506127,0.0491437056769284,0.04642835770208742
87090320.9582718,1.227775383049972,-1.2823263692301146,0.04938441145723996,0.04946473357539901,0.04803910688229146
87220456.26018658,-0.3612651257337945,-1.5790633822354745,0.044784061203633374,0.045141320615483156,0.043231799644444936
87350561.82969955,1.062890869128592,-1.4685841721829227,0.04118230836145206,0.04120331596177721,0.039105651544309866
87480681.40257284,1.0305483724925966,-1.0154733455895657,0.0417012537769652,0.04175235325996667,0.04066468636456995
87610802.35256788,-0.25427171259181613,-1.185520950429012,0.04325410868477503,0.0432695699613403,0.04215382344739898
87740922.43922794,0.7076280903591265,-1.258880053153628,0.0422934028657881,0.042490346019866766,0.041074389555019804
87871037.2854275,-0.5489289487660625,-1.0046196176089686,0.039392377627546625,0.039395370761248674,0.03848525801090849
87998349.67657524,-1.4355712107433332,-1.2781490273293608,0.039991660406038326,0.04000921263981184,0.038295504378694396
88125696.33414088,-0.6856883485955397,-1.3193672027344925,0.042445642921076984,0.04245621392570124,0.04099312504204732
88255759.46289489,0.7830420327580803,-0.9295472444329218,0.0433441732002743,0.04360425156368161,0.04278959319390716
88385845.23546757,0.7637242074925447,-1.0349810143005835,0.04355277253225339,0.04395533355715341,0.042983897648501364
88515998.33749217,-1.2006423889648181,-1.1920802153881465,0.04501699442170738,0.045078182552701705,0.04381427864749371
88646117.94656461,-2.145347757773264,-0.7977985320532441,0.04481421917128594,0.04503749682780834,0.04387005723105054
88776223.70147781,-1.2461692734552896,-0.183325219201216,0.04532909824781866,0.04538700403755365,0.04512096140751584
88906328.7965112,0.13766093122298872,0.25557592359052206,0.045401769301519984,0.046192639971795284,0.046142964369597535
89036464.75434983,0.8062687347552334,0.1937787350928222,0.04301283536782655,0.043132317926967444,0.0429991058152819
89166599.31007212,0.8630226089513704,0.25339778899524074,0.04127604945271361,0.04203062232668946,0.04185812293010297
89296668.12037687,0.9284998650403968,0.2853892586102059,0.040008776454784574,0.040188480283253426,0.039974260602955405
89423995.37432921,1.2924359153184115,0.30838545849232074,0.04238263709862511,0.04239758162588739,0.042049135862798334
89551340.6282793,1.64963415446296,0.36773571009715694,0.04756861714528417,0.04776632533115152,0.04727492649240134
89681419.12533012,1.808765850526511,0.3798508512665309,0.06142077442458106,0.06318292861056805,0.06274531108164236
89811523.98276459,1.7994922014016828,0.8452950797261953,0.06016684205585595,0.060531992300009684,0.05977893902357739
89944457.86772028,1.5133341471513875,1.0841934018392625,0.04646269236445225,0.04656681058890794,0.0453970393488226
90071788.21296637,0.9837020531716075,1.2798373466822726,0.0427932567599659,0.042850380086260347,0.04141788279879429
90201900.1973697,0.6010799213449355,1.5629677101688884,0.04097315223634033,0.04099777331419437,0.038901522544149025
90332024.76840657,0.5586685342735629,1.875183683540246,0.044567161862307546,0.04555830192935094,0.042818151208147956
90462110.0114384,0.41510115380751544,2.420514037924905,0.050775268578848586,0.050879160695594776,0.04679895859754759
90592227.86685723,-0.257226734353818,2.8502283697967687,0.05481981628180366,0.05494273677900255,0.049603611013548696
90722266.780209,-0.6990196961839904,2.4396955952669863,0.054403692866091216,0.054560109710937124,0.050560048043597955
90849656.25784533,-0.5500898057873904,1.9800537554413895,0.04872537726862909,0.04875310617261203,0.045808679892280796
90976964.40205923,0.14910198332503963,2.0554394586619336,0.04834868765856499,0.04835185342428999,0.045265716440617186
91107081.94863476,-0.1690516013542334,2.3037987914177904,0.05235412048650798,0.052382528335639555,0.04875940807364335
91237202.28446826,-1.7120645116818614,2.3065023256225516,0.05018433532070906,0.05022633840025761,0.045785923937075465
91367307.17866024,-3.0443506573070747,2.0252368830697125,0.04591372283712232,0.04593525413073799,0.040892508709033625
91497412.26047964,-4.207006567910669,1.698253767456748,0.04480230919113297,0.04482337704645683,0.03907314760905054
91627546.44044325,-4.761066549052596,1.2996004793422666,0.04539129290321743,0.045705528577284424,0.0402377730775798
91757651.13727951,-4.710653071532708,1.1158306428680762,0.045051871433488405,0.045164220895021916,0.04014231981921783
91887800.43749395,-4.660795568140865,1.0932487984570225,0.04428383612927483,0.0442924289715111,0.039272124056001195
92017904.56035185,-4.659857492481348,0.9594429773101618,0.04780404128939493,0.04828237466246852,0.04396413446583668
92145215.64697564,-4.209685378715296,0.7891522901176813,0.049389309074287145,0.0493921634115145,0.04609189589153309
92275301.53894204,-2.7828113118587248,0.677880235219052,0.04429946758249422,0.04434686787851765,0.04260244226811706
92402592.49320053,-1.6223214477931591,0.560300049803504,0.04373117498648851,0.04381786205758846,0.04308614142334838
92532732.41109356,-2.032169982378547,0.5645319724056079,0.04333014464328765,0.043404013878375704,0.042396735618867094
92662833.79514197,-2.1797804744788,0.5640900799194981,0.04190514137533104,0.04192752965256244,0.040767316970609035
92792982.91795257,-2.2477934052393915,0.4701362467509238,0.041125567176987086,0.04114427144452679,0.03998527461630004
92920274.99281773,-1.9662055317772806,0.4934397763473296,0.041198786707034536,0.04120184831412345,0.04024952306772218
93053194.64485982,-1.6800997855745823,0.5194654959294593,0.045904975411040744,0.04613626809687285,0.045440360154241737
93183347.61362484,-1.789364492476514,0.40328423304785976,0.046960943095838585,0.04717805787623781,0.04652259894099683
93313502.99976031,-1.8216488602211252,0.3556244452378039,0.04811266783109784,0.0481186790380289,0.047487668763138056
93443568.43918216,-1.6225104088156412,0.4303524510382862,0.046281680013771045,0.04629933990088765,0.04570934958135769
93570858.06052147,-2.169185364146084,0.4721242270884678,0.04167414064311346,0.04168297412930635,0.04060904968592952
93683984.37628178,-2.324748276480275,0.6658922441792279,0.0423292453089946,0.042392021098823104,0.040999092218274566
93828256.00113845,-2.808754328825303,0.8909718281862199,0.04468889191115135,0.044712924537642126,0.042640510185988204
93969681.94734894,-3.7360618402065704,1.1165915474090782,0.044506240026980615,0.04452227442141819,0.04091975850987467
94088541.40728265,-4.28566880570277,1.3040780979740747,0.045474887715216745,0.04547775460300759,0.04075394649125342
94218652.93121335,-4.022417523025923,1.239251599679572,0.04571637422684102,0.04583167278225986,0.0416936877197193
94348734.61472519,-4.328617124653255,1.411884199449534,0.04791657055316403,0.04791996789694749,0.04312643985666729
94478869.14675581,-4.372802230673401,1.6119960139653706,0.04972722675016368,0.04973855436392837,0.04460177087661109
94608989.13999161,-4.579112910550116,1.7676555299135372,0.04987316573994882,0.04990536575914896,0.04404285499707104
94739109.67346942,-4.500603834250153,1.9114636473562834,0.04925404158421153,0.049335120313906404,0.04308356056471915
94869242.35186735,-4.049805057288889,2.079094440029228,0.04934945608966309,0.049352326034540886,0.043236301676786444
94993706.22186483,-2.7989100475790694,2.37836798728791,0.04811291522323691,0.04817124998352497,0.04238954758981137
95126631.07131842,-0.6080923700606325,2.639210490960756,0.047349160527285904,0.047370860993247964,0.041933527674787585
95253945.53250536,-0.11875416632762331,2.40331725090242,0.04508433817102248,0.04535565792305832,0.040782361891341615
95384036.80246094,-0.5562679951044828,2.0857604000033967,0.042745823658472855,0.04318624138038352,0.03949427901391226
95514187.00727975,-1.3273491671380828,1.9291653077070814,0.04453724445653917,0.04459933239814475,0.04122285308220047
95644277.13307214,-1.8061816851670855,2.042668674607264,0.04674911856850497,0.04700168890090629,0.04314771454459872
95774429.82713628,-3.0871681428332085,2.3627340848674727,0.05059814573552903,0.050602941586998296,0.044860515378067296
95904534.53696221,-4.2103081822930175,2.1620064923159337,0.05583066690979546,0.05585632767647665,0.05004311567963754
96034642.54307562,-6.967835843929461,1.5591671295097804,0.06060550574500327,0.06068835562126147,0.05252295602597412
96164764.65297031,-7.875871521861686,1.136132646753469,0.0596050341550068,0.05962792995338476,0.05022711978328703
96294903.49494754,-7.673691650655878,0.8814110654672526,0.05773485356812855,0.05775629766512081,0.04890445391625692
96422200.77754538,-7.644989312473138,0.8124982920390729,0.05520900946974005,0.05524343335049535,0.04609416168250544
96552317.28127992,-6.600180272867322,0.5810602077431606,0.052362451920972816,0.052409458286986975,0.045518815690857924
96676750.3797153,-5.296604071351726,0.5756519230693581,0.05191888454676854,0.05226379165815251,0.04781267803891647
96809708.75007749,-3.959811577316725,0.9076713708195635,0.04911571083945837,0.04912205319116171,0.04598629388733242
96942656.86616012,-2.275313603481339,1.3656430228203118,0.04794475955948338,0.04794766766005915,0.045662904392869776
97069939.73105243,-1.6132823916754344,1.8189567362859478,0.053125234222953885,0.05313127994874583,0.05050374592844585
97200053.13243428,-1.4233061715663902,2.0829537611881728,0.05152183402227272,0.05152638980526771,0.04813165211912417
97330192.09272556,-1.3707465762815845,2.294481190145153,0.0485214123492954,0.0485327661635168,0.04422443060016846
97460317.51967016,-1.098088793362153,2.6115316453551536,0.04791922897165474,0.047923190223721275,0.04247864937549319
97590418.49534878,-0.9771890857710204,2.7891090733513653,0.04942262291175073,0.049445370238584675,0.04347627707457849
97720552.68752146,-1.063626589006724,3.013778713727489,0.05199348213290774,0.05200601922550877,0.045322329540578715
97847843.38163097,-1.2581483656320969,3.335572873227001,0.054072091892478864,0.05412497075323713,0.046210358834120384
97977948.4711217,-1.3945968177575565,3.438171246337582,0.0531434953821599,0.05315548027101277,0.04448593534649541
98105239.68136945,-1.4367073410685953,3.5532065907036654,0.053242090702143224,0.05333913917925125,0.04402042316961524
98235358.40813984,-1.3745764364415642,3.7670681551437952,0.05656340143371123,0.05656863107956728,0.046768808733713474
98365508.3528414,-1.668399890754718,3.802807425028547,0.056560041284284684,0.05661222131628069,0.04648527125217738
98495612.75561027,-1.6191475279217131,3.7443331906313406,0.05514186322540559,0.055253459727041175,0.04517658811058671
98625717.56782484,-1.9645366446934085,3.6777112629556994,0.05416265182768477,0.05417307049882855,0.04397799430777361
98755879.97670248,-2.437184493882889,3.460676950222465,0.05296408797187127,0.05301012703988896,0.043341569636834
98885986.4486784,-2.893368159675995,3.239145385065024,0.053112419747462725,0.05314766970665488,0.044176885713365345
99016104.01380256,-3.5254287357245637,3.0884681159932454,0.05443666961058718,0.05443908673270409,0.04574019471446817
99146192.62539934,-3.9462358389090935,2.85763888965366,0.05463953722999674,0.05477222997461805,0.046662014028799464
99273503.57395567,-4.525623439042783,2.3770894544483663,0.05448850250837661,0.054490928956218584,0.04744498598534416
99403622.14478782,-3.3665982030076407,3.048430202000211,0.05512535924680968,0.05555971319185149,0.047445642756023074
99530872.88949686,-1.7613211517339207,4.131692544898495,0.05676490334802445,0.05676753671043897,0.04459461446981568
99661032.1545223,-1.5127577155527783,4.386472823300205,0.05821791161326058,0.058240934707664845,0.044968827982707994
99791151.57766849,-1.648576412901953,4.317990316742732,0.05890887932329057,0.05893122102425257,0.04618232697999983
99921273.01890266,-1.847760354365404,4.318373108120738,0.0591166028138864,0.05933692622060166,0.0466133252609127
100051373.43669742,-2.549278874179229,4.31030936928514,0.05860209954966596,0.05860785250442293,0.045102203432880024
100181513.00022298,-3.496117226384218,4.0389257090557855,0.05868723999257822,0.0586988580234373,0.045886400997412286
100311651.81682262,-3.735489480172929,4.074474289270941,0.0611830782924698,0.06118780508410595,0.04858626628013133
100441747.88194257,-4.20607364343,4.320319420511177,0.06119337437374474,0.06119673544332472,0.04650508313160891
100571853.87572896,-4.471628344824215,4.799534463316604,0.06475067120670065,0.06488692204741398,0.04764666896375893
100699162.9839805,-4.4000868582172865,5.154981607779071,0.06784518728873702,0.06799547262077327,0.04949584370877315
100826509.18860489,-3.8474515615318032,5.556286310425141,0.06742054619864184,0.06744522166332438,0.0464668416906912
100956573.75412889,-3.2177825046908253,5.656572666071779,0.06749121817211286,0.06749786021976495,0.04654647898688265
101083865.0066734,-2.93119763386168,5.548914212786544,0.08224992517893334,0.08225467187896712,0.04607478078363311
101216832.23116574,-2.2872141828401875,5.7875723002981045,0.09037021021483395,0.09049080783289991,0.04754192945403144
101349761.82253994,-1.9667466321802314,5.746077419673948,0.07013136036843813,0.07030187834858095,0.050770040779000276
101477065.98118865,-1.3152358948823395,5.159437966220636,0.0684823488515042,0.06927497704461878,0.054083960645259666
101607148.93332146,-1.6112096726045448,4.508651210991057,0.06942164971580805,0.06953652702646183,0.05819542000316657
101737237.07153866,-1.347844644032022,4.893719836928512,0.06521275823233576,0.06601357766271448,0.05148768684820143
101867410.765252,-0.36221227518683563,4.6599338812321704,0.06264297616856314,0.06294784292851095,0.04975743826958704
101997480.42277174,-0.5948735219407734,4.626198435228631,0.062163570280935415,0.06221289768362937,0.049048876840183483
102124823.7834473,-0.6864765696458675,4.686326406695279,0.059744371386441585,0.05974714297018896,0.04534279041718716
102252157.84285244,-0.7792190152601612,4.749786645500179,0.06201120945040761,0.06238533010272126,0.04830717306891315
102382234.9555037,-0.8510793991766972,4.679389407554469,0.05942021736348592,0.05943968059834483,0.04485113873324844
102512340.46912405,-0.9100219429128784,4.523433336349386,0.059672218515043736,0.059691529519481895,0.04626154602970828
102642474.80413613,-1.1124923405701654,4.475439554371538,0.06434434677865912,0.06463059378879002,0.05266431541237497
102772579.91495046,-1.433247816647502,4.375947126774622,0.06260569684353831,0.0629648630249174,0.05104530341247074
102902714.32571357,-1.2994111450971861,4.28128944782617,0.058099183267815095,0.058105427520595006,0.045615797693417115
103032833.77644944,-1.4363173511259795,3.7012520297803624,0.06765288723183993,0.06765866669884016,0.04812364752264885
103162953.8219181,-1.8222122686246043,3.586346663998339,0.0691132576471637,0.069923681252208,0.051091791524150484
103293069.32418892,-2.472807810877198,3.872243353075599,0.058112241233055674,0.05813281115505573,0.04726062045922627
103423097.7720867,-2.8286311137762086,3.7989644063105135,0.07105657745326768,0.0712979854948397,0.04977644781890388
103550465.63578635,-3.462411903513358,2.9277264124384135,0.07504830513102193,0.07505222337704813,0.05342890567581833
103677775.91647549,-4.081385642555493,2.866966492627569,0.07398940765321563,0.07423801822660225,0.059334855223982026
103807895.12378949,-4.26294271674662,3.418685495735669,0.07092449879922821,0.07097697822818326,0.06261312475234022
103938016.0759833,-4.668380264809003,3.3842071863890513,0.06297422421656286,0.06338047207930578,0.05346738949891668
104068136.03720784,-5.255903414888753,3.182532612749452,0.057671947594785444,0.05835482373282169,0.04741738535886671
104198241.20333672,-5.547385106709124,2.5949993203670743,0.06324210428363368,0.06333897053784493,0.046927040196571415
104328374.9940641,-5.093708893598492,2.351473117836025,0.06025258931104723,0.06033029342484908,0.045366438050637996
104458495.08588295,-5.0798429709059105,2.1837131307021007,0.05397338507075291,0.0540884615664162,0.046703016765565035
104588599.26463261,-5.236313681683478,1.3378342287977438,0.0558756495656428,0.055936305744749656,0.05077840135540602
104718733.48726352,-4.681768394924629,1.0843229248601067,0.060484152440765195,0.06074898374109087,0.052658454196140306
104846024.45821695,-3.320580474729069,1.0339630540610871,0.05373888501945524,0.05377409585986232,0.047502397130759336
104976144.56841707,-1.5202898078711016,1.2201250891496804,0.04589574438515394,0.04606556703930184,0.04449859048264187
105103406.87058145,-0.366106940497302,1.5341362913561118,0.04434711559525172,0.04437297243033809,0.042484183335977144
105233555.14306337,0.061937764904560634,1.925039254957261,0.04384043942121185,0.04385590654439513,0.040884470387664296
105363657.0358195,-1.5349947840205524,2.036347702866632,0.054784875198044126,0.05486256865717079,0.0463990969356598
105493801.22211623,-2.8224907183332286,1.697856685843234,0.06008199803454441,0.06013609449310966,0.0492208740069406
105623915.94230232,-3.505015464901958,1.4454510633842408,0.05618652569510272,0.05620054181953999,0.04596800015024323
105754036.1012928,-3.880815141634801,1.1399245144108052,0.05601515313750593,0.05617930709037816,0.04683662020738374
105884155.41211191,-2.2873293649904474,1.1683645140374634,0.05530046577323639,0.05562334463290013,0.04782331046604645
106014289.58676998,0.1561658252107422,1.3838522796005985,0.04877855743232372,0.04881804035696485,0.04445773833748796
106144396.13389802,1.1552670396985492,1.0844309785312838,0.051161894315026324,0.05173959542772267,0.04813607608855624
106271702.03115237,-0.17642635683155183,1.1008117956942118,0.05617696929823022,0.05618039468256777,0.05087867828855357
106401745.41943748,-0.7758413146560429,1.1120452282792932,0.05261523255667534,0.05287626862573165,0.04781991508922504
106529069.71717948,-0.8103128023045869,0.48166063061310244,0.0521872759796663,0.05226638662137245,0.050619204713157694
106659217.27942362,-1.5871344997669996,0.4176156827902013,0.052338984664922795,0.05260862515985403,0.05116604843517112
106789359.68203767,-1.872644971217701,0.705810228207574,0.049745992036673806,0.04978756455339891,0.047300467916955996
106919456.8804754,-1.5942139158022182,0.9191004830568452,0.047057572813954486,0.04705974803502333,0.04306878082690409
107049581.75734837,-0.7663402191847692,0.8451421816715544,0.050859258682213755,0.0510158456343284,0.04753606244611292
107179696.80449381,-0.3247250113731147,0.7496499129800106,0.04969632367034442,0.05073050673680747,0.048315609628658905
107309838.51766431,-0.6561829697410494,1.0745821822272832,0.05277060806916634,0.05281060418907408,0.04736671340831455
107439950.66611767,-1.062714133895047,1.213257374051717,0.05501333702391716,0.055017891666639965,0.049767432053132256
107570055.99807519,-3.026689988500296,1.2767842359217665,0.06160116109194155,0.06161692069082325,0.052746084337774925
107697361.5960803,-4.4516154058936355,0.9694463064842992,0.0554648691830526,0.05548257688953691,0.04804560913957694
107827466.61166792,-5.240004233351106,0.10095725111634464,0.0497921242389865,0.04979449175606285,0.045150083094640615
107954758.15213552,-5.591722251538589,-0.5299854611744382,0.049789539616843126,0.049800685709024246,0.043456599235554595
108084882.12472546,-5.226800533960309,-0.391956502727659,0.04908783487241304,0.049169386258448196,0.04375340251334535
108214983.75841552,-3.971680219687245,0.3400766041249355,0.048952552291390346,0.0489561195491821,0.04511700711487634
108345156.31341408,-2.830702714364128,0.2858809844103593,0.04611354249527228,0.04612076430870239,0.04411699010797532
108475237.04356593,-1.929197956081376,0.2492574389992762,0.04473327646827276,0.04481476350397116,0.04370267148038228
108605386.46461296,-1.9904321738834345,0.1667417717279085,0.04561235738464021,0.0456145149756991,0.044516442639620644
108735477.7348893,-1.6131898915043685,0.038703987728193126,0.044578011984094494,0.044582576725794784,0.044012461690144965
108865595.5369818,-2.1070578649865053,-0.06303552807673332,0.04310849908605763,0.04314771744891847,0.04225501650973053
108995711.09159112,-3.534704370340219,-0.34866921279926816,0.04553795808522765,0.045700215631330074,0.04324317039533046
109123006.48992306,-4.311858438717094,-0.9588688156708869,0.05038485803016358,0.05041310214722183,0.04684252661890082
109253126.41371405,-5.435664461291171,-1.6844242484994707,0.060413987871703614,0.06041994426077256,0.052368251821567846
109380418.25916243,-6.074368083395647,-1.7891657253904247,0.06336148220958676,0.06343799210112709,0.04986455993558224
109510552.31720622,-6.6312379914081765,-1.6195829159286792,0.06481089899068594,0.06491417651306222,0.05204553428366174
109640701.2283513,-7.090389705296132,-0.1445557223656311,0.0581707982126815,0.058253816481959486,0.05064994320377095
109770776.50710753,-5.769465021155945,-1.2758338858289398,0.05715214383459694,0.05724139575648665,0.04987047265639776
109900897.4152134,-5.396930000053863,-0.7558700725681903,0.0536320137818371,0.053757082679937424,0.048016769728259114
110031031.08333325,-4.985998295988426,-0.4126894716797146,0.047938315299640925,0.04804169223875691,0.04295726452208782
110161136.01641193,-4.966325448683829,-0.7651498083626572,0.049614298657768556,0.04991438887427103,0.043521187522563974
110291285.70913616,-5.676646003204016,-1.543101864900557,0.053141062001774195,0.05332186652397606,0.04247895056566258
110421377.23475151,-5.668234989822092,-1.652657927577164,0.05820058345594559,0.058781902103401416,0.045423000172538586
110548667.01192361,-5.36855155126702,-1.1889575635727831,0.0651854253554054,0.0659735367287786,0.05789981855616357
110678801.11344677,-5.567493414115025,-0.540319929807015,0.06001357953978087,0.061753757134037204,0.05654279576814668
110806077.14699212,-5.77194851981288,-0.7267952268842688,0.05785593212978279,0.057900263617742344,0.05083419221214343
110936211.92639641,-4.928159263381748,-0.9799832671124549,0.052972866901966155,0.05302476670567593,0.04686336138877457
111066299.18124756,-4.40354465787204,-0.6361884992629347,0.04677337049857433,0.04677549499271477,0.043127430935406975
111196437.77455762,-3.959481488717618,-0.3734363642033088,0.04747785862469664,0.04751828924441692,0.044625663139125214
111326544.00070402,-3.716760834498541,-0.4717694517277458,0.047904663222264464,0.0480796345198617,0.04528335449795426
111456697.61973298,-3.633687504128552,-0.5689691339287382,0.047606283619748474,0.04785376273309171,0.04439720730662736
111586790.28641066,-3.218748547645139,-0.47995956398423156,0.04876577647438524,0.048773891728957346,0.0457654041745301
111716932.40826549,-1.659044815483827,-0.26056583031855735,0.04333771451301727,0.04347856972870472,0.042763849061172074
111847008.99994011,-0.2963400910802162,-0.22371213176955704,0.04234208258481975,0.042361754117729536,0.04224004888841783
111974330.72265273,0.1251563159640336,0.21614007614264408,0.04482022930313819,0.04484333810304351,0.04474151123009721
112101709.86467902,0.5537901325048085,0.10203320937745478,0.04543384347767409,0.045892781104360396,0.045830564971584296
112231739.87755615,0.6836404184954724,0.18002365766047163,0.047576562836687736,0.04768895905511025,0.0475487794478873
112361874.7787491,1.0316697310005862,0.24363353492775086,0.04801925700986725,0.04802223247196475,0.04773426617675044
112492014.10557508,1.1838076698356927,0.22426748911216787,0.04942241404527813,0.049433103734297476,0.04914830085249716
112622064.30971752,0.11404488534229167,0.042945784438161126,0.06548914913719045,0.0655976142719764,0.06559179977522114
112752229.92080894,0.8076369486906044,0.7461878101289232,0.055360801533764596,0.05748818708587211,0.05709098878196962
112882318.15816978,2.6914370057684414,0.7276890771975536,0.04729332948590439,0.04729859984349301,0.04508929806567967
113012473.13551736,3.2574608121539046,0.9422643608151938,0.04792942830810509,0.04802396689524198,0.04420576585041622
113142579.66344555,3.3167648011569937,1.2217636660035924,0.04950190500710919,0.049658394899819915,0.04546331875281994
113272665.37076287,3.711131689975864,1.3587539874892927,0.050838139095711284,0.05084027768547135,0.04440152442814792
113399990.27823818,4.104424858969792,1.5854852051464015,0.05084904733073613,0.05109103635441743,0.04387196630545675
113527339.28927669,4.187438820448834,1.8144743206922649,0.05259594135359765,0.052796366798718096,0.04514302459079858
113657377.66142924,3.850606328197868,1.9229750349160633,0.05841772450053661,0.058448390607282345,0.047658712549070725
113787526.43708283,4.5008926282550075,2.182102709287264,0.05588773122683331,0.055902607156459574,0.043661825475624305
113917627.22319695,4.650474760527789,2.049968065971844,0.054761521470852434,0.05491546491693566,0.045960517833857815
114047762.6272367,4.621609248778644,2.4252806414645076,0.05956043071180306,0.05985496265856507,0.051444910399833135
114177883.23091206,4.078143033538397,2.6671048828499577,0.06474981872223867,0.0653234259252822,0.0516744731595234
114308016.30125454,3.4685223040323874,2.5723005481410173,0.07312091100280976,0.07381126364075642,0.058712238976908145
114438108.1943458,3.9103449797538015,2.405317133469986,0.06960274234167596,0.06963500394562935,0.059968430610473966
114568257.40148373,4.6068916346759154,2.4781263212238693,0.06121080074039531,0.06136254941964844,0.052248519039533724
114698276.8230074,4.690274662634035,2.9321028698557194,0.05551379194894675,0.055536191119970386,0.04726928601150398
114825653.3035101,5.428608152568564,2.8864359302334774,0.05521441591896708,0.05521696947131894,0.045970086931696866
114952959.133424,6.303901794250329,2.835144983261524,0.05436735119485718,0.054378127703861454,0.0435842003464941
115083080.19634405,6.417437344312215,2.9755865791678566,0.05547156402261985,0.055924360640628556,0.04467557277340011
115213199.41397418,5.7208334872547395,2.8538617423473123,0.0566968147190698,0.05670013765871655,0.047388028857283715
115343304.26900016,5.3640521006683155,2.714537557183984,0.059424266110554305,0.06001740819501527,0.052323988449895636
115473424.07355769,5.589396259457093,2.5794167769847696,0.05824294783142521,0.058280754394171366,0.05042734893492164
115603558.32137391,6.010133105463257,2.712209834101059,0.05336842477211506,0.05339547459160848,0.04343439643039458
115733648.7328269,5.871131037558774,2.8129080095410917,0.054545900825148375,0.054598854634580404,0.04476278691833793
115863782.96348199,5.319188440920796,2.757275635184589,0.05340598758821185,0.05350675777002039,0.044586214056262355
115993904.03638393,5.135889719477901,2.670444893521775,0.051065424912460584,0.05107095892325093,0.0422918330936216
116121195.87089652,5.187309111756445,2.3468554045216328,0.055133763136815186,0.05520331631814877,0.04821784659995371
116251315.79585847,5.333097333099048,2.32243046987894,0.05332937201053029,0.05338983164955946,0.04596629224179136
116378620.47424681,5.102132165966746,2.3073339847940724,0.051943696465752774,0.05195245298412668,0.04472448530973129
116449323.78095818,4.269751275460478,1.9434655804371286,0.05444373223118479,0.05453816857841804,0.04987862093839979
116638837.37844743,4.803263695735382,2.0947554789831546,0.05138835785793981,0.05167874070966125,0.04550312929645017
116774628.02023816,4.588043846868331,2.0627877697850527,0.049549172794375235,0.04970376804118065,0.043676343163710774
116899085.50543359,4.0833482211053,1.9671756778100005,0.04924191202194394,0.0492458704821912,0.044129709369019145
117029205.96893963,3.880175254104631,2.0966060394991892,0.055543533081156754,0.05580972104352894,0.051241607439691354
117159325.8562295,3.261992644335643,2.4599589490497196,0.05717626461758963,0.057378056374973674,0.052467100335069
117289446.01233064,2.8126013957762024,2.4965147411770863,0.05238297215411114,0.05246460713683687,0.04729238653484942
117419566.24988808,2.5689484119880843,3.1150735852588967,0.05342620373753368,0.053429717118318024,0.04612925438253057
117546856.60091315,2.6407838275200723,3.609130824995978,0.055949284622327865,0.055993636598784514,0.04668380558511217
117676962.28273949,3.3609241458867674,3.856537931297524,0.058882341224683304,0.05891177268180039,0.04829571390091566
117804268.73262209,3.695783227543377,3.8223591303803097,0.0575725244931438,0.0575757712778247,0.046610658729968966
117934388.69858325,3.8334598759437983,3.7450438795830197,0.0580541010389762,0.058210381427296475,0.047704589350376095
118064522.21221042,4.664681282915686,3.6296190987427845,0.0616277265368872,0.06165877630429591,0.05156216894394066
118194628.85939151,4.96874286702735,3.4926619808268247,0.06133174230188411,0.06135868326459494,0.05136258919891397
118324749.07875651,3.0132217193825617,1.416753255122142,0.05788261062123841,0.057932972881616196,0.055702965623192595
118454868.99301973,0.8216663174231515,-1.1738426213603936,0.050964564248936584,0.050973419162643537,0.04991024344224137
118584989.88554381,-0.8979575951342706,-2.249049200020063,0.048734133906757786,0.04874824026717938,0.04503916207051584
118715109.78326133,-1.2919173499481118,-2.422557674846128,0.05250363617213686,0.05269655040450618,0.048613877116637165
118845206.19262645,-1.1035922681198298,-2.8148101781077224,0.053403062847695214,0.05340967159281276,0.04794623868050713
118972520.23572195,-1.920373009702678,-3.1325042684558744,0.05034189751326986,0.05037366437151703,0.04275519642860747
119102624.7542765,-3.2456023544417745,-3.54740574250215,0.052525253012415056,0.05256611933797292,0.04235774455032132
119229930.91792592,-3.8657089747669904,-4.209731018574399,0.0573666610658093,0.05742808305611486,0.04409609355715771
119360050.57816362,-3.556984931527339,-4.489332513062684,0.05886058852817202,0.058891881486997436,0.044580473875735195
119490170.67859282,-3.0147024272065286,-4.510348450004185,0.056968739192936844,0.05700104652722413,0.042272376124835385
119620303.7462293,-1.0407279443913835,-4.382687246921775,0.05502262099993182,0.055025015246405545,0.04148698257054898
119750425.75242427,0.4967004259571983,-4.147279416009756,0.05477606833196505,0.05483121936866729,0.04278020802349528
119880545.71977599,1.0532232495205331,-4.029497175154816,0.0534863400382035,0.05350767295947276,0.041606080561023925
120010650.70328839,1.3668497161420055,-4.0326228619816,0.053708805750103845,0.053714400136680954,0.04164419365853589
120140771.23913476,1.0973172001968245,-3.779881360941265,0.05293826691089602,0.052954466861001324,0.042376013689076536
120270904.99307367,1.135747542936523,-3.644318185533447,0.05354207076475254,0.05368016711101508,0.044055705129055954
120398168.70745778,0.8940746761805335,-3.499497522920008,0.05349694823654519,0.05350950709314264,0.044781069072609134
120528286.38605767,0.20556287264553957,-3.2988965217015305,0.05137972120275715,0.051455778042262715,0.04361546419529581
120655592.59935457,-0.44870449857820327,-3.4592423101228222,0.05311934352739043,0.05312538989773289,0.04482589650832122
120785727.22524214,-2.0979147629233217,-3.761591502006059,0.05420711979068116,0.05429195528272699,0.04417174830049066
120915834.39555594,-2.5789635201072425,-3.9893882059982944,0.05391313808752975,0.05391580437071319,0.04207516376706432
121045954.43654472,-2.6630108676127304,-4.027240524773294,0.05254471655908751,0.052685080733783037,0.04013983606817452
121176089.23817903,-2.4690643369526044,-4.147315224693796,0.056660194042036566,0.05666518753497171,0.04442692245854412
121306192.99697821,-2.6163719208615013,-4.199447007615374,0.058709338405889315,0.05880835816489147,0.04663949654633673
121436297.82186653,-2.426060448504441,-4.064357262640835,0.056374592465227476,0.056384750891462485,0.04483365826046447
121566433.29854721,-2.1054036367023126,-4.084114687740498,0.05542839248832518,0.05548274546975789,0.043730690017795226
121696566.7762351,-1.9683651173810857,-4.080997689409721,0.054505987125577755,0.05457044969829625,0.042689802856659784
121823858.86980945,-1.9117072256643979,-4.093766635343209,0.0537833047402722,0.053785643979195996,0.04163826878297917
121953965.20184037,-1.1998872527553022,-3.7831446658526993,0.05146541390678084,0.05147502384779611,0.040813147063144664
122081270.36274493,-0.8518519047219514,-3.6708458047350976,0.05032083866636305,0.05052782074843251,0.04038948033921798
122211362.39190477,-0.2411811008044728,-3.820918171307912,0.05143784037976746,0.051448856821781026,0.04070380904620906
122341496.10349539,0.5095030947978797,-4.1042972359655,0.055226340538884325,0.05549315988634712,0.043761829651847724
122471633.76702629,0.7489703714928737,-4.225885532989247,0.05742897984260289,0.05752675704393358,0.04547441733010664
122601736.263032,0.5246107204237724,-4.214045896867197,0.05885631539098533,0.05886224856240669,0.04739521189576188
122731855.09950408,0.6585246863407543,-3.9728458676840788,0.06233661408169442,0.06235853376354729,0.05282900553804581
122862007.15378806,0.6311393623089743,-3.602102005220668,0.05941808911198769,0.05943701229586531,0.051289201586524
122992092.54932979,-0.2626122539940474,-3.7007197911665117,0.056770307509765625,0.056824174380860494,0.047859919251057655
123127869.5906485,0.2591700701998893,-3.5434797510166147,0.052770640073726886,0.05278606735326493,0.04379295135992858
123249502.92898294,0.6190305985168955,-3.4839340796535896,0.0494362686211282,0.04950126522540554,0.04004446160273145
123379623.30093166,0.27074597320395566,-3.447371874011038,0.05034310832764311,0.05034611345384249,0.04146657166752774
123506928.69495858,0.024986352019441136,-3.1645056930233575,0.05061768740242332,0.05062803344452844,0.04332335256978261
123637053.49189375,-0.06881819960425489,-2.9717126905160614,0.05027364690044848,0.05027697601502009,0.04383359933456898
123767169.36680833,-0.7560466171245882,-2.7914286170103555,0.050098753334635523,0.050161430646936206,0.0445199888990543
123897259.75715995,-1.1067000773864155,-2.7446437962417507,0.0495058566960508,0.04961048020037992,0.044096013182361456
124027380.3862819,-0.08945254652057227,-2.5355119123696945,0.050004302259720246,0.05000711952412639,0.044808408977372594
124157500.35346147,-0.28422006404690126,-2.46682763236153,0.04897649409118477,0.04911658986512637,0.0440846949764864
124287665.07227214,-0.7330704963812485,-2.6390601971021734,0.048886591869965954,0.048935673269845534,0.043811792589055085
124417740.98228058,-0.37560957525633226,-2.939464885274285,0.05058111372057648,0.05079262462543015,0.04464854133776227
124547838.37026708,-0.9053214147859343,-3.233644151205157,0.049659472811330166,0.04968660388114815,0.04187259327656527
124675152.41783422,-1.252672800490932,-3.175210954031331,0.04734142779326996,0.04758826933593623,0.03957152269868502
124802512.66353425,-1.398380162559641,-2.902603209511209,0.045816734473975766,0.04587179098134193,0.038918367942283184
124932562.1468493,-1.3173542826340907,-2.804684864101892,0.04816219609937295,0.0482316264819626,0.04208580906311466
125062681.42641398,-1.25260308316652,-2.8053419174928265,0.04915047577770515,0.04917291604014774,0.04328721420503883
125192844.28061411,-1.1252062652327934,-2.63725497743142,0.04923743472815428,0.049335641748764446,0.04414217008758359
125322979.14622399,-1.0434735017259376,-2.56350432100675,0.04604650170695676,0.046158078664791186,0.04092479210370497
125453035.36222364,-0.8261404116632781,-2.495728195370114,0.047782274615055124,0.047862040821990796,0.04314569864588111
125583178.63311066,-1.1371912583130364,-2.2714847671110077,0.048036517503848956,0.048090270025551156,0.04416589570170788
125713294.55470562,-1.7914881203521849,-2.0907111927993025,0.04693029388131696,0.047039272081484465,0.043394879649653516
125843413.33680584,-2.164604554588827,-1.9349988937992872,0.04457685048740999,0.044579282250595216,0.04097175744040939
125973466.33841896,-2.1713875369529023,-1.8537783367681218,0.04174758499473075,0.042044437403451373,0.03846944955006474
126100843.17936091,-1.4819688141516336,-1.5891173037351654,0.04246352257687922,0.04247503884342569,0.04009787964005281
126228157.94466844,-1.7971445423420875,-1.5441308803155867,0.04370103970413442,0.04401451355778892,0.041690206747803375
126358235.865134,-2.2537955399153478,-1.5098761719292104,0.043568666345525794,0.04357512772798223,0.041016657275039635
126488340.60438865,-2.1244886138433032,-1.3882258654026167,0.043699037360231,0.04433931270928353,0.042186899321612306
126618489.80385876,-1.562574318421371,-1.1548280965934004,0.0429887758755828,0.042993258670812655,0.041579409693075595
126748563.2194784,-1.1841829035268578,-0.9672220747491727,0.04045083714017123,0.040635483536516,0.039641946421607295
126878700.77833375,-0.5798297382693348,-0.99236178143474,0.03852049565075031,0.0386480921911559,0.03773411395638222
127008833.84673098,0.48644070584797816,-0.8747527887509395,0.04125533117223746,0.041269746736473774,0.04056291059813971
127138992.81982128,1.4340032320778942,-0.669718870037859,0.04135104599949189,0.04135635137674546,0.04057051341903404
127269060.33154035,2.1918426847345014,-0.22488930683473188,0.03957041048636919,0.03961689699632423,0.03865407955231313
127396374.85746303,2.220016896493253,0.31750125667514684,0.03829955719760318,0.03830847028027392,0.037304393053787084
127526504.61098221,1.074961620775314,0.5733117144648713,0.04094166161736745,0.04111755322823236,0.04066484123697767
127653850.95196068,-1.044202534223409,0.28485356397822537,0.04044074380009884,0.040481009915827086,0.0402020099077996
127783881.88484935,-0.33104088037977364,-0.0017385655550945982,0.040353932774584184,0.040680644148173135,0.040661024162254374
127914001.3584337,1.5471705763752706,0.029605393047847435,0.04450863515531296,0.04477548671826884,0.044384689216967387
128044149.81377317,1.3661814064635192,0.5862131706814915,0.04777010259905342,0.04782341060406952,0.04732309287750795
128174235.65089886,1.7120785364781281,1.5524261412314706,0.046056279929047546,0.046353825296319616,0.044149581535715264
128304374.81173313,1.5938062007874478,2.152537041627544,0.04488248434067191,0.04488747201904155,0.0409405004953154
128434493.68063062,0.341001843470876,2.0405295016683622,0.04412906173639299,0.04413306447629171,0.040800571860180795
128550470.62738952,0.9540438153204672,2.2372668894005012,0.04984535897686955,0.049887893619195336,0.04628372637896402
128694734.02341457,3.6085547598210543,1.9056757408409846,0.04980347967951479,0.04986788224540653,0.04557111825527328
128824833.8873562,5.070359537179827,1.1221645881840991,0.04756084884724772,0.04761932076167967,0.04277736925578258
128952135.59335527,3.380977453505914,0.34850792145110726,0.04226587552673871,0.04247809405829277,0.04041973230318109
129079420.18523975,1.782849364098963,0.15307949299433157,0.03904712030538807,0.03905063972915678,0.03844344000807753
129209569.07376409,0.6744347977465742,0.047816713679536056,0.038491475431480654,0.03850012444596607,0.03841288307181139
129339674.24888845,-0.1445327986734836,-0.030239331171704922,0.03781677925858469,0.037858329909686066,0.03785368941115642
129469803.23845842,-0.6744114868722063,-0.020653120558075593,0.037988408793940824,0.03802278853510363,0.03793562971612432
129599899.15781173,-0.9628929501837427,-0.2551962449108638,0.03806565759828784,0.03809317728947537,0.03786810337209739
129730050.02279818,-1.272848590019813,-0.40375574860383506,0.03887171183447647,0.038966040548380126,0.038540993263048835
129860154.64868087,-1.3470734213327225,-0.7165852881399916,0.037836052597191125,0.037885083518394556,0.037112272190443406
129990289.00102478,-1.241754203315986,-0.8847420813513915,0.03784163824386453,0.03788344888533675,0.03692421600047329
130120394.54251663,-0.054081817178381036,-0.8592561199461245,0.04090236062957772,0.04091739720537352,0.040303537005966734
130247685.25268431,1.3154208519071386,-0.7301083312946703,0.04041879864589505,0.04064649821470938,0.03983326732832529
130377814.78493059,0.9257329859818448,-0.7246836460192217,0.03880298017709383,0.03881381226500159,0.0381542757532519
130505098.13245153,-0.21130207340659254,-0.6641969580588921,0.03793566584979032,0.03795487015047197,0.03755448195753692
130635217.66575968,0.7235259403466442,-0.7664164520873207,0.0387808647992556,0.038855345273478795,0.038206761168962704
130765337.57368058,1.0591842302044951,-0.6587715750201556,0.04168007839600064,0.041682577616882925,0.04109268564826023
130895472.38206956,1.4992471298946641,-0.6884935646023215,0.04060327994245192,0.04092383328106471,0.04007195208627864
131025578.53089893,2.0450034831387534,-1.2644516726752955,0.04105190655983114,0.0410708948347951,0.03881057313489045
131155696.55747724,-0.5998644938155763,-1.1432935262738109,0.04086932728824972,0.040904733158868174,0.03976724439925825
131285831.76784778,-1.341117750413012,-0.6394577870997167,0.03954700933417217,0.03957663954196879,0.038929290685629024
131415950.4208563,0.20229843411935328,-0.3018303046402758,0.0375422147408092,0.03754693211884602,0.03745323950387315
131546055.41335747,1.9691800124212797,-0.6949334160590674,0.037935974113958035,0.03796236519129869,0.036690754072792243
131673347.1026898,2.4668639266604178,-1.2311353346821832,0.039258665112590976,0.03936076479233283,0.03667987295517822
131803482.20546857,1.7536337423389454,-1.443898105415985,0.03853948127722864,0.038651701519316815,0.03602717816812781
131930750.15921965,0.552279383049417,-1.5820987880060333,0.037880909047452706,0.03789042196430108,0.03546267719718247
132058063.41416329,-0.5519092925055451,-1.4006152044820674,0.04100096357719436,0.041033523653091576,0.03776043559573633
132190975.39969344,-1.30364394746208,-1.0244991259683596,0.04260015204998518,0.04260228174783347,0.03973486078644771
132321131.46258616,-1.8165875107482317,-0.672733003938832,0.043518466388453636,0.04366236967132483,0.04152743878192118
132451222.22715396,-1.7180791930288102,0.5709634938184373,0.04413741264016343,0.04420835373694426,0.04201426999650998
132581386.69026774,-1.6502829993195574,0.6383967508662474,0.04199628646063756,0.04252710205776015,0.04063733775960272
132711463.68953755,-2.0294162640404783,0.4320503428449211,0.05133520592437733,0.05158795290509036,0.05062046192150453
132841613.04229146,-2.161483869270539,0.09852809507204156,0.05234979216959194,0.05318924262810816,0.052528168686071394
132971733.55626547,-2.436464054790797,0.16959706766484142,0.04306425816814004,0.04317724681410697,0.042118514449518314
133099024.50862494,-2.4142906226434167,0.08945214794021825,0.03899500548316667,0.03902746871803187,0.03790001278866438
133229095.76035836,-2.2287082081080736,-0.3682656741194809,0.039768831512208565,0.03996347987538766,0.038960691810360125
133356475.73634997,-2.006488354527464,-1.3821172908897268,0.04663331036625934,0.046635693733220636,0.044683928427898804
133486526.0102652,-1.923421086937991,-1.8371725812755324,0.04616523937093257,0.046246081095228174,0.043237323528250625
133616661.62705798,-1.6770918280844898,-1.861203316640327,0.04707883188576956,0.04765695708465206,0.04479708046668074
133746780.45752776,-1.897466257785275,-2.413527691685379,0.05260316085724357,0.05261124355751503,0.048330317189894396
133876931.4061422,-2.1590103291624816,-2.184482597553939,0.05140020890945555,0.05193581519833475,0.04817912508268598
134007019.25305822,-4.575519905528674,-1.3627788918864736,0.05269599621454628,0.052769687601717165,0.048729286239443025
134137123.8536104,-6.711889050294265,-1.1200221668551347,0.05026283192009591,0.05031163407492017,0.0426069773144171
134221981.0993222,-6.85061177385624,-1.3519808927126946,0.05003485154311052,0.05005438152265893,0.04162790992237836
134999878.57197094,-3.1656152506371575,-1.0470744067678168,0.045395314581289384,0.045931483026709845,0.04346345067840043
135064917.39894712,-3.602555512144956,-0.9263119085682757,0.04391946189389492,0.04392211834004939,0.0410598041300863
135172412.32498315,-4.339640293053175,-0.9985451705043673,0.05001744528931523,0.05014449720157326,0.046691917016235825
135302537.39804727,-4.477075936234171,-0.9336710368998422,0.04898806352502863,0.04931760995531599,0.04573916256387877
135432667.84710848,-4.024389885665312,-0.7330177099729895,0.04263450373712989,0.04283059880312129,0.03963098198611705
135562795.08781052,-3.560173979231429,-0.7644277153423586,0.04160918873609331,0.041683729104924766,0.03902014291511593
135692919.3093406,-2.9166395806860934,-0.6644423244778517,0.04167888383463158,0.04171268965380874,0.03989168607329198
135823003.603732,-2.0295650305652626,-0.4066554045754083,0.05154181178873473,0.05168352990631617,0.05082333953883473
135950324.64472008,-1.9289494657654656,-0.5022222582393072,0.05090705513835785,0.0509831404105635,0.04986904858529128
136077698.71502256,-1.745862712449076,-0.639023064200978,0.04845031148655806,0.04847162249784292,0.047315220167099006
136207738.0083655,-1.6226128781652462,-0.4212000591924512,0.04645440041722208,0.04645846665754314,0.04575692052782033
136346301.73158562,-1.8898574814459443,-0.24150219445888593,0.04626486500065558,0.04636636146348246,0.04565148414961351
136468006.6107084,-2.73202128332021,-0.4229783973451321,0.0537896981420074,0.054872884772005893,0.053314261432049787
