,delta_time,x_bias,y_bias
0,24819586.29641579,10.412656580554243,3.6811171735417263
1,25078786.29641579,7.5923982419238865,4.8727492026633294
2,25337986.29641579,4.023574534137269,4.311801875278005
3,25597186.29641579,2.8828102299270757,4.585718713854717
4,25856386.29641579,3.831256656490314,4.5777949915536595
5,26115586.29641579,1.9367425887809666,3.7528444087983805
6,26374786.29641579,4.832517971229989,5.269773252537811
7,26633986.29641579,3.668249112742557,4.975027931615668
8,26893186.29641579,2.3098353053919163,3.5085436493708766
9,27152386.29641579,2.9029823239045585,2.7915006928705446
10,27411586.29641579,3.8565782400980453,3.121584999533328
11,27670786.29641579,3.0762770542779183,3.44663275753791
12,27929986.29641579,2.154248245801807,3.7091341923731385
13,28189186.29641579,4.911540780971701,3.2750507868380967
14,28448386.29641579,5.1056536389601455,3.4097303283549185
15,28707586.29641579,5.750250162792982,3.135822536745592
16,28966786.29641579,5.442847950887447,2.9149622640708768
17,29225986.29641579,5.833267636777085,2.386514713944522
18,29485186.29641579,6.208758296982236,1.9559380264712027
19,29744386.29641579,5.859324656791107,1.5176140412672439
20,30003586.29641579,5.5266622183948275,0.9490587934304343
21,30262786.29641579,5.666584767028774,0.1860597160072908
22,30521986.29641579,4.116860853768253,0.14553335872224338
23,30781186.29641579,4.020683628574314,1.163225136264809
24,31040386.29641579,4.351510736658008,1.5612955874802241
25,31299586.29641579,1.0475217303247435,0.08846196844217671
26,31558786.29641579,0.43069646347078416,-0.2093228357998075
27,31817986.29641579,-0.6214322010656265,-0.5871213263389776
28,32077186.29641579,-1.3982470945451866,-1.1580630748386918
29,32336386.29641579,-1.859748709574511,-1.4358445025926907
30,32595586.29641579,-1.7832923101076135,-1.7994605029177733
31,32854786.29641579,-1.463351911836362,-1.4238370763479975
32,33113986.29641579,-1.1264875777500483,-1.2368969669105128
33,33373186.29641579,-0.59841481758228,-0.45008780252764696
34,33632386.29641579,-1.006651010190005,-0.5676342073936362
35,33891586.29641579,-1.2150697109456854,-1.6489262996966656
36,34150786.29641579,-1.3259893451033309,-3.770469841341026
37,34409986.29641579,-1.7911771691790468,-4.519325823039781
38,34669186.29641579,-2.568513490369511,-4.418877765159461
39,34928386.29641579,-2.684661306694879,-4.342256066071539
40,35187586.29641579,-1.8184057841179184,-3.6606430206929117
41,35446786.29641579,-1.1770841912135093,-2.9546132825274225
42,35705986.29641579,0.3829274355424734,-2.875812213455667
43,35965186.29641579,0.885242533226454,-4.148268036494267
44,36224386.29641579,-0.16615904377815396,-5.109221550332015
45,36483586.29641579,1.1674782296913266,-5.339265546165568
46,36742786.29641579,2.138818503304365,-5.388348544491167
47,37001986.29641579,1.2161937754440646,-5.391625933737785
48,37261186.29641579,1.3910718975699115,-5.240561342254363
49,37520386.29641579,1.603916487723887,-4.935238889001721
50,37779586.29641579,1.1344045220797194,-4.9097335794462404
51,38038786.29641579,0.7979952365338789,-5.357585661761903
52,38297986.29641579,1.8583903828903856,-5.540443409206665
53,38557186.29641579,1.8571820969220922,-4.718091836218794
54,38816386.29641579,1.7123155558112282,-3.648227837909803
55,39075586.29641579,-0.3004291911475693,-4.138683539844598
56,39334786.29641579,-0.09977214044747477,-3.021800835006678
57,39593986.29641579,-0.3493321891580814,-2.1977632478158267
58,39853186.29641579,-1.9277661753321471,-2.183705125979743
59,40112386.29641579,-1.7480364775786374,-0.9680153526088825
60,40371586.29641579,-1.6447254329546246,-2.2465562064687137
61,40630786.29641579,-2.0273367771726147,-1.4226292786912014
62,40889986.29641579,-0.15989971036478356,-0.6845498739205818
63,41149186.29641579,0.6711660759623972,-1.7220331370543067
64,41408386.29641579,0.6028128955465002,-2.109251900563915
65,41667586.29641579,-0.08744352053097582,-1.1261677137519692
66,41926786.29641579,-1.9021176523464605,-0.4517090259150814
67,42185986.29641579,-3.108036923374227,-2.482975857435979
68,42445186.29641579,-2.4100888465433368,-2.9496440292811266
69,42704386.29641579,-0.32666793452325693,-1.5718839370360442
70,42963586.29641579,-2.3404070588522843,-1.6568097196318399
71,43222786.29641579,-1.1605080708009874,-1.9523565489408958
72,43481986.29641579,-0.0028637091466510167,-0.23976354596182187
73,43741186.29641579,-0.5408569783351149,-1.1005728951814249
74,44000386.29641579,-1.028162771679173,-1.513876725798621
75,44259586.29641579,1.007058235982187,-0.9769021695340108
76,44518786.29641579,-0.25101949812214724,-2.2315166295435187
77,44777986.29641579,-1.734410966351144,-2.2647054322086766
78,45037186.29641579,-1.8958660568308177,-2.3379403896237196
79,45296386.29641579,-2.1847044007904914,-2.525745870764281
80,45555586.29641579,-2.4281330199110323,-2.458641770849503
81,45814786.29641579,-2.575002376706742,-2.3764685425854086
82,46073986.29641579,-1.9946145634264478,-2.1687883719765684
83,46333186.29641579,-2.340977215293966,-2.2660692700979927
84,46592386.29641579,-1.9185499398695685,-2.3197906032670152
85,46851586.29641579,-1.648453239053555,-2.0358826670660823
86,47110786.29641579,-1.8911375796409087,-1.5259047390504836
87,47369986.29641579,-2.1338219202282622,-1.0159268110348847
88,47629186.29641579,-2.376506260815616,-0.505948883019286
89,47888386.29641579,-2.6191906014029698,0.004029044996312514
90,48147586.29641579,-2.964173240400558,-1.9444340694383908
91,48406786.29641579,-3.998938688478598,-4.641015842725404
92,48665986.29641579,-4.474460858109729,-5.039758379693754
93,48925186.29641579,-3.842819990900958,-5.240704163219781
94,49184386.29641579,-2.3104560443555973,-4.67200148380026
95,49443586.29641579,-1.478425970492102,-1.0502643523874562
96,49702786.29641579,-3.2413078777793456,-0.43766458629978516
97,49961986.29641579,-3.674782156016581,-0.2744502578699708
98,50221186.29641579,-3.4555469223260933,-0.07554109523155236
99,50480386.29641579,-3.7051883005747195,-0.14952837588576812
100,50739586.29641579,-3.8071348327234125,-0.24212876421078136
101,50998786.29641579,-3.0173809930283255,0.0880899194840434
102,51257986.29641579,-4.549206828570693,0.09416316682331718
103,51517186.29641579,-4.009672906243541,0.09261479042807706
104,51776386.29641579,-3.771562832439726,-0.09013785806386457
105,52035586.29641579,-3.8260710743680897,0.13893013780683594
106,52294786.29641579,-1.7410510224252107,0.644466762736602
107,52553986.29641579,0.36397883346806237,0.7656299747568825
108,52813186.29641579,0.5724084362025456,-0.05078648002070114
109,53072386.29641579,0.7271314292437039,-1.3412683575695008
110,53331586.29641579,-1.2269720747841664,-2.552957692853546
111,53590786.29641579,-0.19651324355885424,-2.148101962350167
112,53849986.29641579,1.776504245509276,-0.9181629761178276
113,54109186.29641579,1.7658136601267445,-1.0280011037217518
114,54368386.29641579,0.38184092259457436,-2.4060143767608433
115,54627586.29641579,0.26092947031064184,-0.764208838953569
116,54886786.29641579,-0.36450226391755847,-1.5707526865919745
117,55145986.29641579,-0.17664745278595442,-1.8571322829079877
118,55405186.29641579,0.892597294509572,-1.3271443572677584
119,55664386.29641579,1.1787003049706515,-1.076907895529106
120,55923586.29641579,1.2308492831818019,-1.224074747391674
121,56182786.29641579,1.3603261206889377,-0.6545310705168852
122,56441986.29641579,1.7726289619286935,0.1529965956560579
123,56701186.29641579,1.4830974985668202,0.5173826480734268
124,56960386.29641579,1.7055954375845688,0.9257298181886766
125,57219586.29641579,1.6261751229423185,1.148146022417728
126,57478786.29641579,2.058751675657143,1.4004408776733148
127,57737986.29641579,1.1589375888464697,1.2086116889036689
128,57997186.29641579,1.1108181733958695,0.38623594235863584
129,58256386.29641579,0.307383648199562,1.2242432177880187
130,58515586.29641579,-0.2685186905718804,1.404537881112669
131,58774786.29641579,-0.8780167637186373,1.5182162720876373
132,59033986.29641579,-0.9699513349001363,1.6072187041806965
133,59293186.29641579,-1.123365571325387,1.1165889640123554
134,59552386.29641579,-2.017450751893469,0.6584483577990782
135,59811586.29641579,-2.3263086077052626,0.022548045343574824
136,60070786.29641579,-1.8943696653963993,-0.771217286693539
137,60329986.29641579,-1.680215646709131,-1.3230378569923997
138,60589186.29641579,-1.110622467234555,-1.581404229334471
139,60848386.29641579,-0.5659406498897918,-1.7539053643186278
140,61107586.29641579,0.40729683595860955,-1.756103010898627
141,61366786.29641579,0.930205746310137,-1.6066443374154216
142,61625986.29641579,-0.09517381168270111,-1.3016527955600472
143,61885186.29641579,-0.9804342756653958,-0.9162876780565652
144,62144386.29641579,-2.0561593773874884,-0.6858068028301412
145,62403586.29641579,-1.6685567182940262,-0.7326991168683399
146,62662786.29641579,0.6276530002964256,0.7851122242552739
147,62921986.29641579,-0.8578957109421351,1.18168311868533
148,63181186.29641579,-1.1961182996584228,0.4137569559682482
149,63440386.29641579,-2.76934713088117,-0.48627274586831776
150,63699586.29641579,-3.0275047650265474,-0.20966895283714224
151,63958786.29641579,-2.0151982573993674,-0.19230102164218374
152,64217986.29641579,-1.9590010093947512,-0.3138281320008682
153,64477186.29641579,-2.0521562263206397,-0.08599146782235134
154,64736386.29641579,-0.20230697628653138,2.0001048607922893
155,64995586.29641579,1.1322539205327393,2.388863931854241
156,65254786.29641579,1.170386162890494,2.313282871455655
157,65513986.29641579,1.4142733945140447,2.9240484573474927
158,65773186.29641579,2.631362427691575,2.523959561055935
159,66032386.29641579,0.5347318044931054,1.161659782195636
160,66291586.29641579,-0.4949218664497578,0.4858097461428684
161,66550786.29641579,-0.23237513563873854,0.45258671988008925
162,66809986.29641579,-0.7993566905584042,1.1093649163522357
163,67069186.29641579,0.28730056456991926,1.6206315671442764
164,67328386.29641579,1.6637213487311202,1.7609579947449485
165,67587586.29641579,2.335164080505358,1.5693023265426662
166,67846786.29641579,3.7447494458777006,1.6225421103377518
167,68105986.29641579,4.59542615603329,1.6261276920141363
168,68365186.29641579,4.093093772952517,1.8414659466068652
169,68624386.29641579,4.668283849004397,1.958945420077132
170,68883586.29641579,4.816287077219467,1.6955467218598106
171,69142786.29641579,4.538684833709501,1.2652725457902405
172,69401986.29641579,5.277566201409753,1.8801164423653893
173,69661186.29641579,4.958514526177686,2.2989023339325776
174,69920386.29641579,5.633301947400205,3.004463513853971
175,70179586.29641579,5.381723084017346,3.295307285166469
176,70438786.29641579,4.704508783315229,3.4709480780895126
177,70697986.29641579,3.7357451021891515,3.5513255516012796
178,70957186.29641579,3.4319812993020964,3.458983023747175
179,71216386.29641579,2.1480039653528653,3.20773101965201
180,71475586.29641579,5.086388787968819,4.763394947231158
181,71734786.29641579,5.95809314877986,5.360083455178824
182,71993986.29641579,6.358505634522225,4.216455900421389
183,72253186.29641579,7.394090815193631,4.591451307642241
184,72512386.29641579,6.964089990944788,4.714875972291878
185,72771586.29641579,6.952505202771361,4.45631975485203
186,73030786.29641579,7.778923674016429,4.452218760908259
187,73289986.29641579,6.7745279118691455,3.412684441077831
188,73549186.29641579,5.323594647745117,3.7782014480539488
189,73808386.29641579,3.4112919711563303,3.4044263232965255
190,74067586.29641579,4.55889554332771,3.3895319404082596
191,74326786.29641579,5.04053278097602,3.2188808019936923
192,74585986.29641579,3.8361174149318993,3.296165736568161
193,74845186.29641579,-0.9841508595432172,3.552628025738506
194,75104386.29641579,-3.3524058385662405,3.342326586496977
195,75363586.29641579,-4.728274701613599,3.328695104905589
196,75622786.29641579,-4.4499962344304365,3.652839171334827
197,75881986.29641579,-2.3142339918251467,3.4714581852105733
198,76141186.29641579,-0.8169032071452057,3.891206450863119
199,76400386.29641579,-0.7422020991341627,3.089888528706772
200,76659586.29641579,0.69838361051848,4.453055908434436
201,76918786.29641579,2.0511500020066773,4.3887589481926215
202,77177986.29641579,1.3815141237090076,4.287299671329638
203,77437186.29641579,1.9193979093337736,4.287148928843513
204,77696386.29641579,1.9420669251416562,3.5552185624937276
205,77955586.29641579,2.0512323554606358,4.180821826890739
206,78214786.29641579,1.4939853588968606,3.3512127181650793
207,78473986.29641579,1.1832872617747152,3.7250301698802772
208,78733186.29641579,1.4359606998858596,3.8718811820866477
209,78992386.29641579,0.4703875540116734,3.1260084815928044
210,79251586.29641579,-1.9246373108330237,2.9418613846281283
211,79510786.29641579,-2.923627274836375,2.6030699980136682
212,79769986.29641579,-3.648690761457228,2.6037979741094777
213,80029186.29641579,-4.312851608183837,2.6147948882537606
214,80288386.29641579,-3.33440292809809,0.6989828052139556
215,80547586.29641579,-3.3913763789383897,-0.4578415605561592
216,80806786.29641579,-3.08542886043529,0.451613546728583
217,81065986.29641579,-4.138507022434173,0.6846620233528333
218,81325186.29641579,-4.458353137467817,0.9027106792625939
219,81584386.29641579,-4.507856946053196,0.4951603700793483
220,81843586.29641579,-3.9041526849098953,0.29606897239195373
221,82102786.29641579,-3.601638353294449,-0.07622368803229511
222,82361986.29641579,-1.7589421862544259,-0.5922452672300843
223,82621186.29641579,1.3205141368148996,-0.7230249817578462
224,82880386.29641579,-0.4969720220423638,-1.4903805505530903
225,83139586.29641579,0.7914355851224713,-0.8422574822295097
226,83398786.29641579,-0.7368545383825353,-0.3598385337629278
227,83657986.29641579,-0.2049353452950849,-0.4746739702939521
228,83917186.29641579,-1.2993446844542147,-0.7165466597569992
229,84176386.29641579,-0.723884567262285,-0.7775406332136463
230,84435586.29641579,-1.1637416548168376,0.10859410399308778
231,84694786.29641579,-0.06542069557838437,-0.038947126893423806
232,84953986.29641579,-0.4412319901446403,0.8339666784947721
233,85213186.29641579,0.8973744843075351,-0.15421253728225498
234,85472386.29641579,-2.257317235751382,-1.6629474619240665
235,85731586.29641579,-1.9315583686689486,-1.8207710065172262
236,85990786.29641579,1.6988823706775378,-2.1091546395904333
237,86249986.29641579,-0.9583486797792249,-1.6135667652926964
238,86509186.29641579,0.41152894439177906,-1.6986082035703587
239,86768386.29641579,-0.013840090280367923,-1.4649319988002125
240,87027586.29641579,0.1444284919054612,-1.5861120171688727
241,87286786.29641579,-0.757697615937793,-1.4753336998416853
242,87545986.29641579,-0.6295885450272344,-1.1166694475889332
243,87805186.29641579,-0.944723443371718,-1.1840420058976033
244,88064386.29641579,-1.9471251051685545,-1.3233345527187774
245,88323586.29641579,-0.279179868889366,-1.0307869347936036
246,88582786.29641579,-2.748725994333488,-1.0287478457706585
247,88841986.29641579,-1.5907119234728024,0.001507021154371735
248,89101186.29641579,-0.20466533001551254,0.22494812059735472
249,89360386.29641579,0.008419406455177164,0.26474287135803676
250,89619586.29641579,0.722447611978884,0.35345078044658773
251,89878786.29641579,0.6257444268457807,0.9660869565178498
252,90137986.29641579,-0.2752897507154359,1.348292398144933
253,90397186.29641579,-0.6354262837654294,2.140977859116366
254,90656386.29641579,-1.3814966598134133,2.516801737282948
255,90915586.29641579,-1.3230380870316172,1.9050704147206363
256,91174786.29641579,-1.9279314395494116,2.2303784822316137
257,91433986.29641579,-4.6381638562407215,1.772720767648046
258,91693186.29641579,-5.7643975435891255,1.1334353634084535
259,91952386.29641579,-5.699330482084934,0.9618469620562262
260,92211586.29641579,-4.555896317320687,0.7067921454648725
261,92470786.29641579,-2.9147766116604643,0.5415358606293427
262,92729986.29641579,-3.1927078960786157,0.4935388251131879
263,92989186.29641579,-2.774716227872273,0.4638777284186832
264,93248386.29641579,-2.774889682757725,0.2543135373421918
265,93507586.29641579,-2.9052746621293033,0.4128615555753068
266,93766786.29641579,-3.5770401346020124,0.7268352278661733
267,94025986.29641579,-4.9952567802688215,1.1062965326891447
268,94285186.29641579,-5.189016294576889,1.3015057040368774
269,94544386.29641579,-5.551480449737936,1.6831497768322343
270,94803586.29641579,-5.231935922824333,1.9923346148574812
271,95062786.29641579,-2.5358412813019218,2.496212240575233
272,95321986.29641579,-1.2632482302872148,2.1378934541100554
273,95581186.29641579,-2.5882905341115414,1.9990798960649785
274,95840386.29641579,-4.367490306839315,2.2750871044930414
275,96099586.29641579,-6.662536879009717,1.4389802246577406
276,96358786.29641579,-6.616511604913417,0.945463713250601
277,96617986.29641579,-4.985314677788461,0.6012308934661227
278,96877186.29641579,-2.1335899876522553,1.1273259251516914
279,97136386.29641579,-0.5933933332565788,1.9271619105714553
280,97395586.29641579,-0.2385224688787462,2.4818962695378533
281,97654786.29641579,-0.03957996690724635,2.957550633956488
282,97913986.29641579,-0.40817370013759025,3.444578094706579
283,98173186.29641579,-0.5438730376767268,3.728744965143202
284,98432386.29641579,-0.7043373334196025,3.8120023933425324
285,98691586.29641579,-1.3156818982514897,3.6586901517750317
286,98950786.29641579,-2.2561475965569575,3.2160462867603026
287,99209986.29641579,-3.2637331746637797,2.636642215373706
288,99469186.29641579,-1.548562942372314,3.584459565155346
289,99728386.29641579,-0.5992227813274816,4.387952777834882
290,99987586.29641579,-1.2625892326505084,4.3236960949830205
291,100246786.29641579,-2.577825416184681,4.034900733334123
292,100505986.29641579,-3.383560796686086,4.576033042984873
293,100765186.29641579,-3.13295276096139,5.392752122588621
294,101024386.29641579,-1.9867630373286302,5.482602563996957
295,101283586.29641579,-1.007012652730778,5.693373044843897
296,101542786.29641579,-0.3625074315150225,4.878840844587003
297,101801986.29641579,0.15739698931681206,4.825020320804982
298,102061186.29641579,0.3353750244891122,4.66188851345614
299,102320386.29641579,0.21577910249730145,4.715081564282605
300,102579586.29641579,0.0007399090469286107,4.554820907216597
301,102838786.29641579,-0.3050874891054082,4.399702779537159
302,103097986.29641579,-0.5459566188844435,3.7279545408846126
303,103357186.29641579,-1.3994355353887828,3.6195732951750745
304,103616386.29641579,-2.7390994485011717,2.823711626506812
305,103875586.29641579,-3.4676755858934025,3.39318778582488
306,104134786.29641579,-4.386055211768875,2.8992130614895193
307,104393986.29641579,-4.054956838994834,2.238566989612841
308,104653186.29641579,-3.9405486493194766,1.2081394250708262
309,104912386.29641579,-1.3773702151616491,1.1704430399842658
310,105171586.29641579,0.8883342406791692,1.7646311243917763
311,105430786.29641579,-1.2014088195163326,1.8548315439238297
312,105689986.29641579,-2.6973185530921384,1.4180993742726526
313,105949186.29641579,-0.09497401172221509,1.2657641357603409
314,106208386.29641579,1.4203245686104935,1.1185651206454859
315,106467586.29641579,0.12600219713558136,0.7588796478871702
316,106726786.29641579,-0.6786900113928501,0.5800744161127502
317,106985986.29641579,-0.20858840356411773,0.788414031285812
318,107245186.29641579,0.4877852698426456,0.8850557879762033
319,107504386.29641579,-1.1821927697096113,1.2366700404537274
320,107763586.29641579,-3.8247535677168156,0.559641354869939
321,108022786.29641579,-4.460874022414781,-0.4086005222666397
322,108281986.29641579,-2.5165217560816364,0.20188925671088495
323,108541186.29641579,-1.1039628917339561,0.22704234475542662
324,108800386.29641579,-1.0133296887421561,0.012717895893270523
325,109059586.29641579,-2.9841182957406223,-0.626728913378495
326,109318786.29641579,-4.822107910769363,-1.7208434494016263
327,109577986.29641579,-5.452243333093071,-1.7246076992610344
328,109837186.29641579,-4.5580526211761665,-1.0655167166717998
329,110096386.29641579,-4.0379898986391085,-0.6568458499114529
330,110355586.29641579,-4.624133235458149,-1.5338453520915771
331,110614786.29641579,-4.551544379517181,-0.951289534601357
332,110873986.29641579,-4.442972760340007,-0.8551170909060934
333,111133186.29641579,-3.3204547796865334,-0.432754064632489
334,111392386.29641579,-2.859751971741063,-0.48320655160711423
335,111651586.29641579,-1.6293117125829086,-0.4568979576401079
336,111910786.29641579,0.8879078557426505,0.10472446898943664
337,112169986.29641579,1.7017939334299286,0.0927956427440338
338,112429186.29641579,1.9739525770395479,0.21126590507305668
339,112688386.29641579,1.1463852552295068,0.4067891495671275
340,112947586.29641579,4.1946615690409015,0.7408821967975182
341,113206786.29641579,4.6912620073073965,1.1646447419418262
342,113465986.29641579,5.328101705372854,1.4924785339972897
343,113725186.29641579,5.135418305296868,1.9819080797272874
344,113984386.29641579,5.511284060888377,2.186815922889593
345,114243586.29641579,4.407669118883181,2.6962402911293597
346,114502786.29641579,5.11063777738575,2.4120383075554503
347,114761986.29641579,6.062184319097219,2.9552942786990224
348,115021186.29641579,7.392058745856151,2.9446245421792683
349,115280386.29641579,6.47412443067533,2.8306540815778547
350,115539586.29641579,6.768865251611989,2.7053758160162267
351,115798786.29641579,6.608778118834486,2.8831943042978936
352,116057986.29641579,6.196487971394139,2.5858307406514167
353,116317186.29641579,6.2329715828245424,2.3838448275669464
354,116576386.29641579,5.660153059791571,2.064815110399107
355,116835586.29641579,5.331534592860683,2.076689430941337
356,117094786.29641579,4.5314710009727115,2.312339657369792
357,117353986.29641579,3.6206591445435956,2.8423545019241203
358,117613186.29641579,3.8960021281061827,3.8724215971484766
359,117872386.29641579,4.593923823451356,3.942612588126288
360,118131586.29641579,5.657940980251749,3.6163996758786805
361,118390786.29641579,1.7186823194260503,0.03027097947034152
362,118649986.29641579,-1.9910776288384435,-2.53724312709062
363,118909186.29641579,-2.496398274414469,-3.1533644575283857
364,119168386.29641579,-4.396659917087861,-3.9782495375781237
365,119427586.29641579,-4.174247297509252,-4.5641345383417145
366,119686786.29641579,-1.3018752046632518,-4.367554553450955
367,119945986.29641579,0.29718685130494654,-4.1992438213500725
368,120205186.29641579,0.0994766344557335,-3.8987833348592362
369,120464386.29641579,-0.3604094154346217,-3.5767736804836785
370,120723586.29641579,-2.1015083973674256,-3.758324301501721
371,120982786.29641579,-3.408877201286618,-4.130950856231475
372,121241986.29641579,-3.613712426239093,-4.361389267368592
373,121501186.29641579,-3.057147068364707,-4.130001850604113
374,121760386.29641579,-2.9598069689342075,-4.197040227027125
375,122019586.29641579,-1.8908676691124247,-3.793634285659744
376,122278786.29641579,-0.807759815943274,-4.056872822123313
377,122537986.29641579,-0.4493416941809645,-4.303026193880598
378,122797186.29641579,-0.6298762801179947,-3.905801614659817
379,123056386.29641579,-0.9850412270496813,-3.6263870940478653
380,123315586.29641579,-0.577439226669362,-3.4615102269922464
381,123574786.29641579,-1.0325135372126826,-3.112984941075231
382,123833986.29641579,-1.9288390366215684,-2.8777744175672653
383,124093186.29641579,-1.223407936806334,-2.5902925836215727
384,124352386.29641579,-1.4842327437365486,-2.8739546981293285
385,124611586.29641579,-2.115795460469506,-3.240937641684446
386,124870786.29641579,-2.3652475728475135,-2.8993625891799524
387,125129986.29641579,-2.1507857983075414,-2.7361692390441323
388,125389186.29641579,-1.9498984817171339,-2.53467721445168
389,125648386.29641579,-2.593271142997092,-2.2348309723279502
390,125907586.29641579,-3.4177493197339093,-1.9122662966119925
391,126166786.29641579,-2.8159913753455976,-1.5429881826901963
392,126425986.29641579,-3.3125171293911215,-1.4854376012227797
393,126685186.29641579,-2.5412502074886167,-1.1858493337881617
394,126944386.29641579,-1.1747687778866789,-0.9684243998102211
395,127203586.29641579,0.8586815256627051,-0.44706654985831784
396,127462786.29641579,0.6051049588788227,0.41765308911352667
397,127721986.29641579,-1.7114954009669878,0.18447657240582455
398,127981186.29641579,0.5255572620236859,0.34777203352771635
399,128240386.29641579,0.7315332564571648,1.9126432171756518
400,128499586.29641579,-0.4442016103889284,2.1710984962795425
401,128758786.29641579,3.425735664276562,1.4694041581491843
402,129017986.29641579,1.5510966031280873,0.24214641975650691
403,129277186.29641579,-0.8965612955158767,-0.00902581501203479
404,129536386.29641579,-1.7765939713795609,-0.21755777371342253
405,129795586.29641579,-2.343417009955676,-0.5743477862474509
406,130054786.29641579,-1.6947688320477687,-0.9153569795544305
407,130313986.29641579,0.09949399876942275,-0.8300469107022375
408,130573186.29641579,-0.7133107388487565,-0.7845885586747647
409,130832386.29641579,0.2376835536570712,-0.7391902018213143
410,131091586.29641579,-0.32278472779269496,-1.2649556412574556
411,131350786.29641579,-1.4740053967701274,-0.5140998255710715
412,131609986.29641579,1.2238710068856844,-1.0761388808789791
413,131869186.29641579,0.05712091244863693,-1.6319376368843952
414,132128386.29641579,-1.8458106224622264,-1.322191379056973
415,132387586.29641579,-2.586820539334458,0.0830181100997604
416,132646786.29641579,-2.9053116511435375,0.5515445313954342
417,132905986.29641579,-3.350793888279874,0.09934581073275875
418,133165186.29641579,-3.303665293886068,-0.11977063226263807
419,133424386.29641579,-3.0605022519187535,-1.6825730619251102
420,133683586.29641579,-2.855765927683824,-2.3378589947200377
421,133942786.29641579,-4.588924973864225,-2.003672685439918
422,134201986.29641579,-7.949214968490702,-1.5071368215063763
423,134461186.2964158,-6.90952547665378,-1.5118303716491757
424,134720386.2964158,-5.716353439443964,-1.4647445299737405
425,134979586.2964158,-4.523181402234149,-1.417658688298305
426,135238786.2964158,-5.55566175065286,-0.9109670462527826
427,135497986.2964158,-5.1404775970368295,-0.8335244456288993
428,135757186.2964158,-3.77799401756649,-0.6563907338112821
429,136016386.2964158,-2.9324744723964518,-0.90482053982186
430,136275586.2964158,-2.300665755613735,-0.6522625893215168
431,136534786.2964158,-2.6623745533637657,-0.5256159615248142
432,136793986.2964158,-3.007320436389265,0.16568289217367563
433,137053186.2964158,-3.408344762590967,0.11484331638528658
434,137312386.2964158,-3.0894109457204957,-0.17641923608438814
435,137571586.2964158,-3.3079066256119987,0.1946531700209714
436,137830786.2964158,-4.0466293931796775,0.2659054936773315
437,138089986.2964158,-2.7712885532460003,0.5412257867218053
438,138349186.2964158,-1.9409619218035905,0.6540991664591452
439,138608386.2964158,-1.7119025423938665,0.7408293145507365
440,138867586.2964158,-3.3507936223555324,0.4241776110654298
441,139126786.2964158,-5.71877482507552,0.1461569093360197
442,139385986.2964158,-4.436064167088217,1.4985033612183338
443,139645186.2964158,-1.6119835744021982,0.861803145468527
444,139904386.2964158,0.9237000852073247,1.4568770456784153
445,140163586.2964158,2.815614118607102,0.7086449449247969
446,140422786.2964158,2.8267498168576495,0.9700117497641281
447,140681986.2964158,2.5202038559814826,1.256899237773086
448,140941186.2964158,0.4892778438334041,0.8458505969495611
449,141200386.2964158,-1.0772591538787033,0.882374832890084
450,141459586.2964158,-2.662951839494348,0.23614047575765246
451,141718786.2964158,-2.4879324460532017,0.01831390386266364
452,141977986.2964158,-1.7686045005986255,0.4827193933521279
453,142237186.2964158,-0.9236501585398937,0.693942502164122
454,142496386.2964158,-0.412725736528615,0.09295019448372263
455,142755586.2964158,-0.24884479477471816,0.48823687962736345
456,143014786.2964158,1.1044650995739462,0.7137074591108252
457,143273986.2964158,0.496109745292696,0.7346342846839831
458,143533186.2964158,0.16895075743477778,0.3583930682095787
459,143792386.2964158,-0.22474772845771865,0.2624566876373885
460,144051586.2964158,-1.8004754703622579,-0.11188676474636736
461,144310786.2964158,-3.2001471791241833,-0.3826291269103332
462,144569986.2964158,-2.6319146338135213,0.3675913166424508
463,144829186.2964158,-0.793296319527604,0.5884042083780257
464,145088386.2964158,0.9996859237343879,0.7198737904335234
465,145347586.2964158,1.2109489904953048,0.3360690758778875
466,145606786.2964158,0.23531130534838562,0.08281632864528918
467,145865986.2964158,0.7605324446521906,0.5160872361966795
468,146125186.2964158,0.7689640386062686,1.060270026035996
469,146384386.2964158,-0.34879048663967205,2.0156929687198075
470,146643586.2964158,-1.073422684317917,2.4033569063078923
471,146902786.2964158,-1.101164697106092,2.921160065832829
472,147161986.2964158,-1.2074071116176348,2.9052811459751546
473,147421186.2964158,-3.2178362136081624,3.2458556667608827
474,147680386.2964158,-4.609473523208825,2.9693649824292887
475,147939586.2964158,-1.5443821295905775,1.6074514118985894
476,148198786.2964158,-1.5924440990746256,1.8324267151649898
477,148457986.2964158,-1.6585357018892433,1.6663553221125857
478,148717186.2964158,0.1675776383902965,1.8405176757995019
479,148976386.2964158,0.0,0.0
480,149235586.2964158,0.0,0.0
481,149494786.2964158,0.0,0.0
482,149753986.2964158,0.0,0.0
483,150013186.2964158,0.0,0.0
484,150272386.2964158,0.0,0.0
485,150531586.2964158,0.0,0.0
486,150790786.2964158,0.0,0.0
487,151049986.2964158,1.4417305227799793,1.974060741279303
488,151309186.2964158,-1.5738759012037133,2.4440436556856246
489,151568386.2964158,0.2177360628005076,0.8295779184519412
490,151827586.2964158,-0.891963687580367,1.3888197318035298
491,152086786.2964158,0.4178187007173882,1.156374195149752
492,152345986.2964158,-0.5491096146020854,1.1617801487087203
493,152605186.2964158,-0.39348750031375457,1.852873560893673
494,152864386.2964158,0.7956301737497067,1.0328239667996386
495,153123586.2964158,0.39603216062590474,1.6091664337882832
496,153382786.2964158,0.16924826287588718,2.179183177356796
497,153641986.2964158,2.8172122558576222,3.1626849212845936
498,153901186.2964158,4.311327336706768,2.9069384547561947
499,154160386.2964158,4.219950249615449,2.5211686236669886
500,154419586.2964158,4.038591733169357,2.298062020558303
501,154678786.2964158,4.268491286020943,2.448988245456241
502,154937986.2964158,4.682534987357544,2.6879039899014687
503,155197186.2964158,5.121588139433016,2.600033901340545
504,155456386.2964158,5.630053005582808,2.686964565004337
505,155715586.2964158,5.970525989561247,3.256093227575124
506,155974786.2964158,4.231331986661138,2.359963609744785
507,156233986.2964158,4.070444501952808,2.136277773550142
508,156493186.2964158,4.0340694996318405,3.318131937845896
509,156752386.2964158,2.153056563483001,3.757110280364037
510,157011586.2964158,0.9384940978463239,3.6052071892734725
511,157270786.2964158,0.4225074616601218,3.1547419839661317
512,157529986.2964158,0.04838933820484615,2.7746418945858053
513,157789186.2964158,0.05250199297341536,2.9302578147273186
514,158048386.2964158,0.29002662317499633,2.8050394023573526
515,158307586.2964158,0.40269251210431606,3.098943580306328
516,158566786.2964158,0.11977810306080335,3.8609469155265432
517,158825986.2964158,0.7206698425912721,4.240867357451089
518,159085186.2964158,1.3093527358714276,4.166321055225819
519,159344386.2964158,2.5255612078076632,3.571676412984214
520,159603586.2964158,3.446927371091488,2.8036509707544752
521,159862786.2964158,3.2333725423260744,2.424046487308376
522,160121986.2964158,3.3929967997616894,2.1445399219651184
523,160381186.2964158,2.131576136837243,2.1430773206669085
524,160640386.2964158,0.8637066127415511,2.806394397797667
525,160899586.2964158,1.8047727683170254,3.631886113192506
