delta_time,x_bias,y_bias,total_sigma,rgt_corr_sigma,xy_corr_sigma
24819596.548051253,9.258485398606192,3.7478720371913306,0.069445622355771,0.06948872732433858,0.052071716743570154
24881791.041886397,6.330477406582972,3.984352299628011,0.17312379834088343,0.17319310326099008,0.06035682519655022
25011865.70762094,5.449741871879482,4.624979522166577,0.15900076034388025,0.15906571797539726,0.06208156489606281
25142014.586491257,7.77749571874616,4.9660338721908825,0.07716884832177084,0.0772098684784764,0.06002592100283892
25272150.21891067,4.674844713716073,4.4462332743163975,0.07189714214524223,0.07297970662744076,0.06140279802533279
25402241.084605753,1.343485973915868,4.142068619894673,0.06269961465282563,0.06270636055902763,0.052536552425313715
25532337.577658843,1.6874418834646074,4.437383265271662,0.06333208745524134,0.0636019643497078,0.05194094192998866
25665295.88951478,2.1708948624403575,4.74655108829116,0.06590713751196124,0.06610780969430723,0.05306769696298905
25798258.221503116,3.106171189641068,4.962344682608912,0.06600754113407709,0.06642703816268875,0.05149140169659038
25917041.35989729,2.59070516665702,4.179263466855618,0.06586305439776377,0.06589376481760993,0.05546634229663421
26050015.305559397,0.7141029171160554,3.450828866339066,0.07495710294759761,0.07546518426126088,0.059042732071860664
26177306.92175305,1.1077561674351253,4.063642319230178,0.07680282518643144,0.0768809924943813,0.05448366844279701
26310259.471377738,3.896163785425264,4.999661942878355,0.06618121684519745,0.06618663687105603,0.05042185365031132
26437556.961937018,3.6605772835878563,5.389043229857195,0.06882897655128623,0.06883628810920799,0.051371218419880536
26570487.249860648,2.848362497101507,5.209115395764908,0.06689370127302911,0.06690814243996515,0.05042839829020291
26694987.879730526,2.260873976177285,4.538305869642004,0.06161129715199938,0.06168514599598411,0.04842822489236235
26827877.296992786,1.4366280450954068,3.817872538680717,0.05942846977231875,0.059977631735552844,0.05062257306072916
26958036.322300173,1.21504469891861,3.0578436846713206,0.058438618918528966,0.05853083791683571,0.05239482474495721
27093797.42443461,1.9557769094830968,2.593264597681448,0.05734425667668235,0.057365585491532,0.05261438675426338
27184330.403445102,1.7416666979418989,2.6338715605417415,0.0543239021493022,0.05437610894408629,0.04942290949001309
27345556.384545982,2.694303955359874,2.9932590695238632,0.05370848715977565,0.05380095310272632,0.04683313991297956
27486983.78436967,2.900846607604054,3.1080827789751733,0.053794734910393875,0.05386446781475531,0.04632160774279613
27605782.744832106,2.3961942215825505,3.2752446104432433,0.054155351908377336,0.054165611161066364,0.04624045182717698
27733092.563679915,1.6716804734199704,3.4965579408665426,0.05707451479343635,0.057410559004324825,0.04934553441370473
27863211.049473017,0.8437552834753842,3.737805986431403,0.06111036955146437,0.06164172793357655,0.053225332128958996
27993313.518153295,1.587614580100043,3.6054730379940856,0.06411937431727467,0.06565328669977706,0.058310503345843825
28123430.678874098,3.7906004921639966,3.1210486780658306,0.05917194242200192,0.05932323083279469,0.05201564055556513
28253562.139387902,3.9573661868369805,3.1959819484614735,0.057085179684948126,0.057245986552248496,0.04916571678362859
28383697.727869198,3.8204463277337344,3.418792961485549,0.05730503027870993,0.05742596837727856,0.04860776638669763
28513782.893190116,4.381621321015145,3.3351481583444404,0.05685162796350283,0.05689497811196921,0.04768712739712417
28643848.27598712,4.793199112339384,3.1975140837024885,0.05612773712107837,0.05614146823030853,0.04685221233426565
28771223.673824355,4.720106417277639,2.996405068980363,0.05405439988280166,0.05408713557452197,0.04540503796538421
28898563.745475862,4.3645386562841155,2.952700199574284,0.05413739719244891,0.05418494359151224,0.04613511336561266
29028607.283674933,4.492819745080263,2.718499972751968,0.055238056430223254,0.05542058642558819,0.048326228370764224
29158759.928344965,4.799947705224929,2.4397346973266494,0.05499859457810959,0.055062700924231794,0.0485028709978059
29288861.496670198,4.786787271381654,2.253133204959631,0.056308936654613485,0.05640538494767014,0.050541284619277066
29410494.443225864,4.970545535130443,2.070264794510599,0.05654598469612574,0.05660856466088147,0.0510200408988006
29549085.66810769,5.346887385625896,1.727313956830655,0.05443344664550381,0.05454903917696041,0.04903079726629399
29699040.291912045,5.132955724932517,1.6508322118334051,0.05622484252276184,0.05627072403441266,0.05135355572556788
29809295.400132064,4.556756953050987,1.2699380328739482,0.05471238223052929,0.05486951118373823,0.05124317200370418
29939490.056069434,4.473171159600846,1.155272671220059,0.054063396546621977,0.054090331202466854,0.05066127927797236
30069501.739255253,4.7790549999926295,0.750777930625109,0.05314036294355067,0.05326287972624755,0.04983819476828214
30196886.293392107,4.674592089767483,0.2825593395775419,0.04951083647047423,0.04952190427368759,0.0462156772971247
30324167.753801353,4.654274014282719,-0.07912716054355258,0.04771357715015216,0.04773988737474165,0.044301256972745055
30454278.22522275,3.780788147704752,-0.31001137662742767,0.05011711366933498,0.050138554112068724,0.04790382023165952
30590075.651713938,2.4916687433324176,0.4564499398763886,0.04857707231931159,0.048598695567849445,0.04756797806049264
30714522.142127126,2.8496011372755112,0.8589390354787743,0.04491167995760386,0.04503439145114124,0.04326912481999987
30844643.0996977,3.133903866992614,1.2798432806851383,0.044813222711577165,0.04483653279338272,0.04214656356113776
30974762.77546949,3.2859933914810595,1.5528777810543373,0.048617077527649294,0.04862215509769728,0.04549084297267834
31104887.930685885,3.5157693536930195,1.3864101067785672,0.04970746956019952,0.04971146603210086,0.04674433641501777
31237831.20434167,1.4618250648888844,0.2924484067983052,0.04778974005054527,0.04780030004107185,0.04725773172060207
31365153.709619485,0.7646304143754511,-0.1291302766594663,0.042975243385119745,0.04298602894501918,0.0428330235474705
31492430.687912114,1.4822834431314131,-0.1408874062102421,0.0389700346127086,0.03898392075030647,0.038538248457867845
31622536.128851257,1.173786289303136,-0.31379084201150254,0.03917680136425799,0.039250238122396856,0.038884904829268804
31749841.005626764,0.5486651878428351,-0.36347267337908395,0.0393555671691984,0.03939731856461794,0.03921496604244936
31879942.453827173,0.2579926606207858,-0.7870948738481298,0.0427460304479457,0.043234970685419656,0.04271246570383664
32010056.500313397,0.010319225814408452,-0.9904868657795312,0.04546381333162038,0.04553599673194074,0.04478458604621916
32140185.761735387,-0.7302989082872264,-1.27176883207449,0.04469043605841424,0.044821495775288454,0.04352550987763389
32270284.873640195,-0.8618125855126648,-1.358828761108579,0.0443851029897231,0.044489719475568866,0.042978657499103
32403252.277415812,-0.9006538298287959,-1.475899712539756,0.0445322820690371,0.044552767123527036,0.04276931768255398
32530526.315687418,-1.1022475942755148,-1.8146073273325845,0.04773040117402691,0.0477331098624582,0.045215117038397354
32663507.098216444,-0.6101425752464636,-1.7574221744256762,0.05018538548549697,0.050238766657486986,0.04808744368016927
32796419.696044147,-0.3545039478331982,-1.4029687785408083,0.04899739535370434,0.04900133018810114,0.047612727489952655
32918068.24646035,-0.46310938180808214,-1.3738423607446575,0.04917664605190298,0.049232761131652224,0.047895503568775026
33048188.402803034,-0.35195836595756963,-1.4274068431200997,0.049485655318220946,0.04952649914959068,0.04809812072927668
33175481.93242681,0.01751142908378954,-1.0801665595106684,0.04965611470029491,0.049669409499632465,0.04885859755966074
33305587.20900498,0.2073939480743606,-0.7648542712122238,0.0514383574022548,0.051480326278966725,0.051071768901843645
33435731.429069,0.34110450522607244,-0.10787837126659795,0.04581631732587385,0.04587977772785087,0.04585069700992647
33571477.00519188,0.2614478068997305,-0.39557338769091305,0.0416292407599877,0.041631849336783454,0.041484993099392395
33695984.273040906,-0.02562799287014341,-0.8388323927179115,0.039827709272937,0.03983631721119386,0.039227958988238984
33828919.527118504,-0.12888762553085756,-1.3647903346166337,0.042708041882475005,0.042786599193346986,0.04128079925778763
33953383.85843117,-0.36602746544297354,-1.9651159388905888,0.046447900405438,0.04677509631249228,0.04386649858014492
34086333.64378528,-0.3358578787841155,-3.180580337480253,0.057537372620058154,0.057540387204472826,0.05114544308336627
34216453.62844594,-0.33883795266117844,-4.366308579727752,0.06412407508796963,0.06413259746255341,0.05292809180475809
34343745.51292768,-0.48022756844094866,-4.5030486621911185,0.06269917993640799,0.06286634889265261,0.05064095400307439
34473879.63083124,-1.1155448346148462,-4.5320646399569045,0.06354148815712868,0.06354660966525243,0.05117128127868051
34601155.55877167,-1.470497399138223,-4.452806352037921,0.06182440913639744,0.06191802779185572,0.049596231210216155
34731275.576638356,-1.5193587306885783,-4.31525081238489,0.06030911069727852,0.06032182145090774,0.04844682430614417
34861394.32398906,-1.5736954358143709,-4.4257347142451575,0.06013545365825539,0.0602636862645848,0.047728622775129834
34988684.255808644,-1.6609386714993293,-4.286864716956423,0.062057754567641225,0.06286883270813813,0.051759468594118535
35121631.98459594,-0.9099085659898646,-3.9052890479067983,0.06003643527430153,0.06006455074760913,0.05065085988060903
35251737.39801219,-0.6141935389185861,-3.3701721505709363,0.05186247967864351,0.05191124816406667,0.04382851915196379
35381885.6598512,-0.6570665957295758,-3.083371782041222,0.04972370666374862,0.049749505323208286,0.04280007387154639
35512005.70254721,0.2917854911983779,-2.8481310267891233,0.054303189742992905,0.05473909301320899,0.049355723747089214
35642096.356152184,1.0726138716467253,-2.774587529430318,0.056439132004193746,0.05644313642559694,0.051276750591615565
35766557.57835492,1.707840115458817,-2.9549979026872872,0.05534461921152758,0.05535342339183187,0.04899506429936348
35899535.625823766,1.956003138370503,-3.7404062283127875,0.05775467446983151,0.058634729842660264,0.048933765411146725
36026811.33965984,1.799023544255831,-4.4604095541093125,0.06113501700384228,0.061187323806588235,0.047993348917162136
36156932.19517555,1.0850027209580333,-4.951241891579771,0.06587092367808593,0.06603970741009028,0.05134266913255415
36287047.94217338,0.5592584063766441,-5.260069694254388,0.07007990042705046,0.07021561618264414,0.054864057288096214
36417191.80867517,1.0424411888604344,-5.358582310354186,0.07001661567073307,0.070027169325195,0.053851171626774885
36547311.95427399,3.3809231026919324,-5.244923371845669,0.07157266062191897,0.07176491574027738,0.05143476708295335
36677412.956507616,3.701881909641771,-5.364343657547013,0.07088803542813005,0.07095912214269988,0.04898789457535491
36807518.398218155,2.484171983979702,-5.445769527800868,0.06721103701883105,0.06725544976758721,0.04860479151096989
36937652.23451644,2.3393383407019774,-5.396397739228478,0.06890075886957922,0.06891276531122666,0.05127944563654175
37067757.77142361,2.126798515438242,-5.389702593372127,0.06960358034678402,0.06965647239746617,0.052461835740318256
37195078.23745802,2.342304566282583,-5.2888606219348615,0.07085190876254818,0.07103104943407729,0.054846395759782327
37325183.355295405,2.7553234569294234,-5.141608553322014,0.07883451766174157,0.07884472697500446,0.06533377822458244
37452493.166457385,2.9963474141189557,-4.958137591969248,0.07514150562878216,0.07547861582627864,0.06198158960724691
37582578.5071959,2.4197686851403253,-4.809525657330824,0.06752899119113985,0.06753389349941914,0.053395188791854106
37712712.866961,2.317000609234027,-4.8694038476641515,0.06635693779606248,0.06642915554765824,0.05175863505433493
37842817.72903314,2.0264451433053043,-4.992197846606654,0.06730728340269887,0.06746817154571186,0.05197467289758545
37972937.39513941,1.6529028324665087,-5.331866654558639,0.07156712244159459,0.07179564336709891,0.05561078149406529
38103057.13519345,2.0297629732659557,-5.4139074348194764,0.07243717930857307,0.07274977293975621,0.05647436641654428
38233172.5563457,2.760250460650175,-5.493709665502924,0.07733436882600866,0.07740934910041151,0.06126375034313904
38363324.343309246,3.07658651188368,-5.62547527675942,0.07839918381258518,0.07870157376792608,0.06186374093414395
38493422.25025582,2.9066671953516243,-4.741695601879073,0.07156631922358349,0.07174558466437742,0.05667307204425917
38620706.20793625,2.9721607553612786,-4.542514587714949,0.06500041506128984,0.06519333564556755,0.0511220049937798
38750858.130958766,3.0767750973513723,-3.9972938525485175,0.060434162755896775,0.060564418243809016,0.049031662391981125
38878130.38956384,2.500767289239806,-3.2706711174040373,0.056776522730185935,0.05700660057437261,0.04899520603221324
39008195.52358922,1.1395303290000733,-3.6494369504298967,0.05415525641544784,0.054228489033483325,0.04475773069653039
39138369.401599765,0.340702314275874,-4.569575490865994,0.06074327460787768,0.061558991310632354,0.048599928756644754
39268471.3868863,0.970017649190373,-3.547408164312637,0.056552219791452044,0.0565548699042218,0.048150479169025505
39398596.09821065,1.0320628696913003,-2.4638974597119336,0.05327505483240367,0.05339673990307739,0.04912035304636793
39528729.77041598,0.6750926489772321,-2.193919311141879,0.05190695274769277,0.05217902598016423,0.04880899321354807
39658835.08211568,0.7439080822596237,-2.1686076513556474,0.04872090910976112,0.048915918838410136,0.04536794854245279
39788999.454531744,0.05021055818741595,-2.42215532332487,0.05352138578587712,0.05438979895814374,0.05058136354068555
39919046.06635842,-1.9316982496003936,-1.8727451347649695,0.05253209975968264,0.05254535619508201,0.049798806531341784
40046366.71043712,-1.543286872930099,-0.8082666628339512,0.047310214355470316,0.047423969588580736,0.0466307186215517
40173718.914902255,0.007302181589983141,-1.0635922202259696,0.04295454511064756,0.043016812739522604,0.04211064779179854
40303789.9617942,-0.0848605327723252,-2.14383082134529,0.0463722469240961,0.04652508786664658,0.0430346523871504
40433909.50342466,-1.0343366265068978,-2.3045633795646543,0.05021084373305173,0.050232759651180854,0.04644909195720159
40563985.26955584,-1.413589024665023,-1.8782797740790167,0.05009990578437634,0.050507079939796,0.04786842106541793
40694124.2428701,-0.5822575426763055,-0.9181855008894909,0.04978440942562309,0.05039029659904365,0.049787081441058534
40824306.120370165,0.5062162711220903,-0.5011931654932331,0.0494292745581092,0.049619583549371724,0.04939827723009095
40954386.63873009,1.2522996397429635,-0.8194999478673863,0.04792108607564113,0.04825141405631408,0.04749452004202472
41084506.704185605,1.614279036449375,-1.3989028879976315,0.048548671549797515,0.048745168155120436,0.04687305465707322
41214626.448151484,1.8093260044567967,-2.047533797127163,0.048485204208102935,0.04849172355075321,0.044811610042231026
41344673.86971695,1.7246992899265032,-2.22744341256055,0.04873525891225227,0.04874552884928197,0.04455504189627046
41472022.105478644,1.6645952629519005,-2.0332573439085473,0.04749828911150933,0.04750502508418905,0.043868443892234175
41599352.40493539,1.4615109015740582,-1.5101386209686012,0.045831725150563954,0.04616177722162058,0.044003381780441116
41729447.20924931,0.6691575274018939,-0.7869198101824213,0.04333984206085966,0.043583440353155985,0.04300256881181122
41859566.733720556,-0.2351913939169557,-0.2726366081402167,0.042306531955681695,0.04235662450926632,0.04229003029446378
41989686.022511125,-1.1523932910094083,-0.5294138208821739,0.04584437229349784,0.04585655493941712,0.045459180403975
42119810.69674383,-1.6682778468006876,-1.9231142396533447,0.05016270344567321,0.05019027304108662,0.04730212071156954
42249908.21410318,-2.305144011788732,-3.0338245880777297,0.051976308882337646,0.0523037674847815,0.04536244012111724
42380045.56527262,-2.1875414251700818,-3.112022898011863,0.052944069019999734,0.052976817262159505,0.045848141436348015
42510141.59243013,-0.4807055828013753,-2.7773430558068775,0.05194719558587672,0.0521979172506845,0.046948869939600305
42640286.2294492,1.0385333956922984,-1.9557451639238717,0.047211050842129454,0.0472137119342039,0.044113620032648335
42767590.43233876,0.4550884951405715,-1.1392670089252108,0.043406255558825275,0.043613198611259694,0.04252912303082361
42897693.96154872,-1.1399502127422412,-1.1192410630503324,0.04265482506375464,0.042806375583065714,0.041626600426146125
43024985.72133049,-1.4778809151967676,-2.1296167409874625,0.05055094640198993,0.05068165804314113,0.047310442680772884
43155104.95085852,-1.0815709587023374,-2.315571557407981,0.051787502480394376,0.05228221568396984,0.048574813741527244
43285224.12268166,0.9113471799090684,-1.6295623547436493,0.05420313112213768,0.05445153522168131,0.05261205256596712
43412494.84449726,1.5568486912370914,-0.37691843279970205,0.05338255381213049,0.05401993859593551,0.05358152238681927
43545447.72457197,0.5518194302318427,-0.11333936698685089,0.044488545108554954,0.0451286189121077,0.045067203254435355
43675604.96584009,0.17334583613108834,-0.625248553635494,0.04269582115235654,0.04270535676088224,0.04238278272697783
43805701.598639324,0.8301340296285329,-1.5605167787083296,0.046817009345357034,0.047025673791427414,0.04506348388304338
43935820.24101428,0.13627942343102914,-1.7190251883852732,0.04622555604908504,0.04625010098677412,0.04400687141780662
44065954.87269436,-0.22191442221856028,-1.3387173214961872,0.048731208651918136,0.04895036344874775,0.04768703106026684
44193231.67554656,1.6736430934854416,-0.6541738438700287,0.04895943404370519,0.04912610718653613,0.04836715642410804
44323366.1309572,2.312344105751335,-1.2742048183489185,0.04794508434006511,0.047965311356262134,0.045839861831424314
44450642.1455547,1.356566310226225,-2.044274648485682,0.0530446018063844,0.05305628860240038,0.0499262892705058
44580761.662474625,0.3954194417595023,-2.39876297486375,0.05331200894065191,0.05335798282071674,0.04948319067670727
44710966.86457318,-0.5950514008851757,-2.404080817737683,0.04986363860298335,0.04986661338304782,0.045746631861361964
44841000.17764538,-0.6761356130617737,-2.1661280580600337,0.04922634582782053,0.049686030794972635,0.04633385951469012
44973971.9514156,-0.7053617660462538,-2.1941297061552643,0.04963150843126174,0.04964164024170334,0.04617079150446833
45101254.74715443,-1.073129284986278,-2.4596616934650863,0.04780726148829441,0.047824003466678595,0.04322943059132101
45231359.8436389,-1.1361612543955317,-2.524288194688735,0.04954930851095738,0.049577161405101836,0.044892582608215034
45361464.778342046,-1.048424134084959,-2.4635973550495294,0.05045448513634064,0.05084646898934999,0.04654852593285889
45491644.516077906,-1.1411868017214646,-2.418877411701018,0.04848882150158616,0.04855222197916521,0.04414870718690552
45618891.275704004,-1.5723573483593105,-2.4802899018223603,0.04741352124535145,0.04741921290370295,0.042510022727409696
45749025.1259902,-1.6408067138811468,-2.411176138924345,0.04721143219463337,0.047306164550343255,0.04262905610022689
45879115.35956629,-1.3639204622658785,-2.2991132031914843,0.04872326367487028,0.04873202847651924,0.04470737298778068
46003592.88283643,-1.1382964966955393,-2.219124906015366,0.053126836156360616,0.053201009884735945,0.049849103854485884
46136540.51320005,-0.6541896995093861,-2.101819301508272,0.05474132755207738,0.055203690051747266,0.05239734990144733
46266645.56834729,-1.0511256797909028,-2.2401183920847774,0.05223749330682317,0.05224802572711123,0.04878446892741739
46396729.95008567,-1.4389656255731518,-2.237982510580396,0.04831738095035419,0.04832770014863155,0.04445252261821079
46526923.15146802,-1.2003820019634748,-2.2785686406337633,0.04787036892863761,0.04791582973222937,0.04394835059615129
46656990.19374259,-0.450380921696995,-2.340476369935092,0.05248566105217357,0.05285793481701001,0.04921806546357449
46727720.50146286,-0.5163215703620516,-2.32244733037046,0.05271628884565303,0.052910623107044946,0.049289822138293464
48011933.13529929,-1.934546445687272,0.2268696446063629,0.07552359947584643,0.07590932831637065,0.07552790273793676
48082703.19423407,-1.6422736330540653,-0.6631628117628837,0.08079523813735708,0.08085310647784309,0.08041736329487922
48212786.47000824,-2.4358470349243135,-3.597238201000833,0.0905908078247681,0.09079869287584152,0.0852431232828008
48342908.09463851,-3.028235806937491,-4.663698175523141,0.09173930905109137,0.09251942955763777,0.08324376971220243
48470198.43238393,-2.959365601889312,-4.780744373980409,0.09252805839460843,0.09267830808343701,0.082960154213548
48600319.32214716,-3.3032767709592648,-5.03925386382749,0.09370730914446959,0.0938534947313386,0.08301823800088737
48727595.59712812,-3.5740565860421545,-5.25915073250863,0.09656988293293085,0.09718024107841464,0.0856969825769699
48857716.17038554,-2.9592329654481198,-5.1506193160699745,0.09509224413559762,0.09510166097998785,0.08407185052705121
48987870.06135355,-2.5370725705828194,-5.480507557387378,0.09972539443970938,0.10147108461003264,0.08992781547464569
49117972.89480725,-2.5743022819269603,-5.8252799246995135,0.10617691453384172,0.10723461087114931,0.09470371050648664
49248080.11338924,-1.027351455636284,-3.7303357515232243,0.0815381453933883,0.08170953261465298,0.07411933826291789
49378215.06745258,0.053087326879112516,-1.4550746562131804,0.06493230927205701,0.0663518097493895,0.06523676509331636
49508336.56387074,-1.734520902346347,-0.49753348859858015,0.055887444959487845,0.056293539008100205,0.05577832460353865
49638457.85785183,-2.006998988581238,-0.3783439608095118,0.04633569532294464,0.0465345219769382,0.04582068217664461
49768590.9542146,-2.3266437391350108,-0.30533420122271165,0.04400489653160326,0.044097944716910635,0.043149620911645446
49895854.29612715,-2.7011890493738173,-0.2755003980226502,0.04388414894672274,0.04392727855460948,0.042666438273539886
50025988.13480789,-2.708095524577437,-0.21521471418115903,0.04417229425359532,0.04417911906032365,0.04293407012593429
50153281.219862856,-2.563339614736949,-0.14288718498105984,0.046206512367920304,0.04698738598987948,0.04595071973166025
50283413.51196459,-2.3668053783660015,-0.08013142874745181,0.04941139304975893,0.04963953025694276,0.048807949886073156
50413505.42089051,-2.5772533904730497,-0.114373280987023,0.04902941324912542,0.04913601358891006,0.04814059896019273
50543620.15137187,-2.732763418110757,-0.12370491258864788,0.04765156218752879,0.04809390328522691,0.046946215277270685
50673758.60556859,-2.9709819093962317,-0.15820487187280893,0.0461808966145555,0.04632624213313455,0.04490864844256898
50803846.958465055,-2.637923789951323,-0.2684737316808279,0.04504318273975236,0.045418270639158195,0.0442599732046243
50934013.487877026,-1.3911857563261885,-0.08484017317311007,0.04571630919302443,0.04620035275702713,0.04584067668762313
51064099.61697386,-2.842118944873214,0.25366075337676575,0.04552267852352697,0.04560032306875932,0.044174097240214566
51194234.72810532,-3.67965785093868,0.22497773501845916,0.04446098076375697,0.044473499435735656,0.042102196461232505
51321531.35152676,-3.4949040060191643,0.08513660671058972,0.04384355568149459,0.04410247105787452,0.042004861891200375
51448913.3291994,-3.4376248914062257,0.09190324393302782,0.04453016902371226,0.0448569241833015,0.042866502380668116
51578933.26119422,-2.6884324577614507,0.12940727031063273,0.046725608993052926,0.04787707843236446,0.04673513479492405
51709068.827767335,-2.6651348200867973,0.034305291636526285,0.047907897413743,0.04793598293009226,0.04683367018757214
51839182.32380654,-2.8342542706349994,-0.11338135253834125,0.04364537361927784,0.043841290489286096,0.042480283874395265
51969318.10463258,-3.038987159155027,0.06418511207435378,0.04234141976541777,0.04249221053541717,0.04085697187312794
52099437.25043973,-2.537085743147594,0.3046790051176796,0.04267872452543308,0.04292632567800904,0.04169959523278242
52229542.56261476,-1.4310652968320368,0.5369089879327572,0.040688654710836346,0.040722862148438344,0.04007284724131199
52359662.356239304,-0.10667920176543991,0.8474179047959729,0.043216801716467156,0.04323713055450855,0.04266325637711759
52489768.75690937,1.1167332297724484,0.9225318591362279,0.042860094712395366,0.04291642185822356,0.04206851220963423
52619851.76964763,1.5071157202466714,0.6421380529520179,0.04233396882290471,0.04238442772405892,0.04169981720243447
52747177.3669203,1.4597394035749534,-0.011431654667130801,0.04287350205013097,0.04307341834746714,0.04270778953204216
52874540.358097866,1.5916410409374158,-0.038396121346093756,0.04738562821143724,0.04760340814273072,0.0472084849203779
53004666.31364201,1.1690162163815159,-0.8709824226539921,0.04961575777710376,0.04978671553770323,0.049016322992280495
53134736.529717706,-0.3246216883208682,-1.8759131174268548,0.04850142378336712,0.04850566910341808,0.045985641321171535
53264843.1494913,-1.872360026721443,-2.5076274484162235,0.05289812226345283,0.05290221588688239,0.04835884543923187
53394958.241510645,-2.4402313635974706,-2.7237761712811897,0.055175714716547045,0.055240781153300646,0.049852334395262814
53525083.18901463,-1.9577928082064062,-2.5447303367858405,0.05036494484649227,0.05037044274150647,0.045397891625984774
53655202.40532228,-0.34216039715630525,-1.7558022365613213,0.043179808710857574,0.04323542252840332,0.04075791133084443
53785324.39079578,0.705831910886948,-1.0418529343784346,0.040209843244305356,0.040226016362497,0.03916907114290435
53915427.840183444,1.006474878837875,-0.7577370898544096,0.04597238394455055,0.04610889954814485,0.045483579555224946
54048320.30948058,0.7609666152688369,-1.0497187727514965,0.04794899696574627,0.048406896758053104,0.04750486201853942
54172859.26742162,0.830648699663689,-0.9318963965788092,0.04589133198797269,0.046785436168851044,0.04600689428970271
54300160.945670694,-0.21569660753663833,-2.3421092734631856,0.05563058602126807,0.05581298538503602,0.05238607176124529
54430280.808272675,-1.077535070818823,-2.3588101732132656,0.055215772840185376,0.055230637806849434,0.05162976331854466
54566044.23072392,-0.7544480456580851,-0.7479807997196458,0.04506544726173567,0.045078910797717656,0.04458781339754773
54690452.27828758,-0.8046748113516272,-0.7348853493491903,0.042431285032151836,0.04244198507139363,0.0419222264381694
54820649.91776125,-1.1687802716844868,-1.2156883673729735,0.042225544553793216,0.042342782440444475,0.0409653561558227
54950694.2238313,-1.3032069253426128,-1.9140280421847409,0.04639859386197485,0.04654508428785263,0.04361972262461793
55080865.411050305,-1.1129959274938583,-2.0832373902308245,0.04862636251067445,0.048683739873289195,0.04545299444096024
55213814.07510726,-1.0154098481944258,-1.633794772914737,0.0465498307552624,0.04661964848816748,0.044533300987689595
55338229.97232391,-0.36754064006563647,-1.3868668357633147,0.04595340308635,0.045975025216329145,0.04452728766776013
55468396.43194477,0.16219735502333602,-1.237739737089159,0.048841628660069865,0.04886562004341377,0.04776552217093895
55598517.505456425,0.3071301211555546,-1.0550446107109865,0.04690661395959022,0.04692244126057689,0.046077026959634435
55725807.1880762,0.06411872926880498,-1.1194023200158387,0.04317568432810087,0.04323326236882489,0.042230911134947695
55855927.946042195,0.3558011178586376,-1.2682164993820442,0.040951450933924646,0.04137790537611899,0.039993329806351896
55986060.60637141,0.2855751438219091,-1.1012582081362248,0.04303913895562235,0.04304344954657276,0.042045935266465516
56113337.52413647,0.1702138473715303,-0.7896616955427396,0.043129447137075026,0.04325144913152922,0.04274578508871996
56246300.3233939,0.7167562431750262,-0.5459294098326585,0.04018215428360838,0.040192261598679814,0.039825845240341544
56376405.02686177,0.7913168822948232,-0.04093170211940869,0.03896799193090959,0.03900090280045391,0.03888003409190202
56506510.72481698,0.6608389568319255,0.3374819488711505,0.043558233564993956,0.04397832231814894,0.0438271784911425
56636647.17469691,0.4168673737441403,0.47827877549250275,0.04658192979296097,0.04660432648705266,0.04641806210824127
56766780.659452274,0.5486861232818546,0.596577059169597,0.043526250151610525,0.04352856075817974,0.04321354128240564
56894071.9284025,0.741055218839433,0.8386959320912339,0.04066100316936975,0.040674658032441476,0.04001019620678863
57024177.244484425,0.852150493099512,0.9894645604994325,0.039503400947151365,0.039519567442658735,0.038570926725308895
57151483.23060583,0.581694143252437,0.9891606598363448,0.04077028495668426,0.040775307239809086,0.03991727113113749
57281573.93166186,0.801430852035633,1.2654585557742846,0.04215966127128932,0.04220003365155592,0.04082050403723705
57411707.35004485,1.077104983652779,1.4206775044500801,0.04165110487834167,0.04172509914284598,0.0399134106095825
57541841.90925014,1.0808249576416344,1.3461284584050484,0.04162839944113838,0.04170228974237792,0.040063457215958345
57671965.81688181,0.4083960093117464,1.2002427181792221,0.04322056241008241,0.04322342441912638,0.04206432330131239
57802084.38396756,0.04248179804496823,1.1795616488975935,0.04617713516873575,0.04619285511848511,0.045143385661096526
57932171.51397836,0.11612324051956265,0.37387854729542336,0.04290242535949126,0.04298301586123398,0.04287119600843253
58065133.96189997,0.03532419142932893,0.4220157021483022,0.04047793462418647,0.04048847778577679,0.04033956115802519
58192410.61320671,-0.4223506872003555,1.1991013661358092,0.04067300032365291,0.04071498014256506,0.03944461007889415
58319716.80930315,-0.7996441395213707,1.189771880893854,0.04104582458506253,0.04112227801075779,0.039767054218359445
58449836.09881247,-1.2028331334116684,1.2212434344138554,0.04051022481561686,0.04062694597252809,0.03901085306544957
58577142.03153706,-1.364768946069066,1.5496604014071522,0.04213362830496573,0.04213800848681491,0.03971256137641149
58707262.59222433,-1.7962930104099548,1.5895703143282327,0.04308352122849075,0.0433104934057536,0.04057288663742879
58837367.927687004,-1.9094884656269742,1.4236259064499912,0.044770555539397884,0.04492707262658397,0.04263723899638849
58967468.36442356,-1.9871106469446569,1.494942322269286,0.04795005884911574,0.048026836448055055,0.04567284131946006
59097593.18086075,-1.949236639098104,1.6330168782672891,0.047558254756154286,0.04813765046182934,0.045482628408257446
59227727.723217785,-1.9493380195398555,1.229232402457154,0.04173522824362938,0.04173704442652565,0.03967731886774565
59357848.16547538,-2.42097364307428,0.949572314529829,0.03980745210673431,0.03980963612047211,0.03779646685670613
59487967.5332337,-3.1130629224915607,0.7182329078277093,0.041021235735338994,0.041065584046352466,0.0387305824259814
59618095.21646875,-3.0322344003249886,0.4675500194862761,0.03995303106396877,0.04005495232578628,0.038069866496165804
59745363.15992068,-3.3171698053039687,0.14083567175867598,0.03924808939291399,0.03972514552703131,0.03760589152915347
59875496.93519142,-3.483948049527097,-0.17062871198490615,0.041105549095428774,0.041120790121651735,0.03890962542474662
60002786.910374105,-2.9973387251319035,-0.59488326647021,0.03988831836897306,0.03999136038888989,0.03809634226997697
60132905.54342884,-2.847456033419949,-0.9213843382635843,0.03967455774713102,0.03972034875817044,0.0375693161916159
60263026.69887295,-2.763778889075793,-1.1663870026580474,0.04124249023418523,0.04135092845199699,0.03897018882261721
60393145.4774048,-2.549342072724543,-1.4416649104872656,0.04185324056064022,0.04230103066902101,0.03959943772098257
60523250.88928059,-2.2655849349216877,-1.5659823044548347,0.04182075956443509,0.041826444720278584,0.03901244085694929
60653370.37822975,-2.0013360083244236,-1.6166588690150347,0.041116944835699214,0.041168313889029785,0.03834215713945673
60783505.10207574,-1.8117823388599115,-1.7106701223015481,0.04105920608363757,0.04106371157790146,0.03807470828054133
60913604.81226799,-1.593398901180638,-1.8709228964074203,0.04135039136300784,0.041415606292777844,0.03808725457593519
61043724.17505201,-0.977258734968846,-1.909593972758904,0.04336553448754848,0.04338884619136185,0.040348817233539634
61171019.80542819,-0.4639467500659246,-1.7728202691686556,0.0416948760081272,0.04174252417818963,0.03910642195856036
61301154.42720231,-0.19147910238207086,-1.6469793150743157,0.04224598291006794,0.042250661946248956,0.03997007969444635
61428426.51361492,-0.006488014980526155,-1.662771123585698,0.04569850351904981,0.04572417120265467,0.043610790323900604
61558565.19647455,-0.6627865542215847,-1.3898296652064432,0.046875124812840535,0.046883464459107044,0.04543608378586983
61688700.5973555,-1.4540437554044572,-1.1536814070351444,0.044524484335581045,0.0445512645123849,0.043240998018612774
61818781.766705096,-2.055941021822083,-0.9428240995342507,0.04125190727777071,0.04125937983492782,0.03984227683807649
61948910.62499942,-2.0230632978209226,-0.8173335712039884,0.04101935559731645,0.041137095661959715,0.039910123188136234
62079045.29425776,-2.5975282469365477,-0.6818924196889566,0.04044587848693236,0.04075357012457061,0.039204049575400454
62209166.41447208,-3.6109639400990625,-0.6523416187725919,0.04055740881687422,0.04061033988127423,0.03793492907490857
62339285.24522632,-3.510037939454714,-0.9105546421689685,0.04024675256122443,0.04026167052288934,0.037372644531244545
62469405.63498289,-1.95501337051769,-0.55111883777627,0.03981173517486892,0.039817045294689234,0.03890079953263055
62596681.47233553,-0.6236377077685388,0.15268696403512852,0.0397756294105219,0.039838138902224,0.03974263538722979
62726870.47849855,-0.40673886448864777,1.3060098627189083,0.04697854217049549,0.04703039124120579,0.04574268947416557
62854085.98273723,-2.017499593600213,1.5525581677114804,0.049745840115642814,0.04975115146841109,0.04732236763220481
62984239.53495766,-1.986760238382048,0.8347938345625399,0.04415965914936611,0.04418742251806243,0.042905708542923804
63114321.75116417,-1.5654599176646617,0.5724122593455945,0.03984878617461243,0.03985211622190156,0.03907327179889662
63244494.105702326,-2.9388688764802384,0.2819779632147291,0.04069315603591118,0.04075974611385465,0.039067333056967496
63374566.79559293,-3.901086799023384,-0.4682085502953274,0.04332694785312695,0.04340094343424891,0.040663706212495335
63504703.55204725,-3.6877610916794783,-0.36897591512304845,0.043382180208510444,0.04355743526902048,0.041166467895389865
63634805.12355557,-3.905391694276333,-0.2732934340799306,0.041715875111184256,0.041745187522783084,0.038971988066108985
63764942.7165844,-4.3730036739540115,0.19623239471426676,0.04635908527827285,0.04638186133790783,0.04294888275717608
63895032.526231736,-3.7510197731784563,0.3115643234376022,0.054421001596099375,0.05448798115440068,0.05180187573814072
64022369.83175149,-2.5595330735222444,0.4985144133423377,0.051521518299941206,0.05156769688864262,0.04932721168936778
64149705.991949365,-2.653300786805458,0.03664547318569644,0.04803414574051827,0.04811715079907466,0.046612776581214065
64279777.39733205,-2.924195340294256,-0.4434554952625094,0.04857254470385166,0.0485834695667462,0.04649938935323989
64409878.98902692,-3.213541196885647,-0.7180231926686642,0.04471102867711677,0.044951147148175614,0.04254056436375572
64540003.41657385,-2.9317828204604184,0.8344845683746622,0.042520178897238026,0.04252752571681733,0.0403273990753242
64670123.81283569,-2.0456458730425164,1.992174137142827,0.042217908314547054,0.04224983556515258,0.03793469340483388
64800243.60535457,-0.3395323352970111,2.1084873692938073,0.04445478958090729,0.04476143483035203,0.041178182045534716
64930434.13970709,0.18321639989726246,2.1340400871807788,0.0468189243690694,0.04683226243933547,0.04338785116915626
65060484.44310082,-0.13035311305229058,2.4851503300187914,0.048998194187052924,0.04927406515208257,0.0447194141968551
65190572.7678798,0.5427498396408564,2.4263417726994936,0.04737989956143913,0.04760239765304609,0.04316939785464712
65320639.850074485,-0.3523018158053241,2.1918242410693707,0.047379301613647055,0.04742871335278992,0.04378418592905568
65448015.914452806,-0.2506268488248194,2.8218458599075245,0.04664194178010685,0.04681563656258757,0.04058065052428665
65575361.623919964,0.7520608388288534,3.027358378236777,0.04689997026745502,0.046941795223035876,0.03974969893786706
65705426.016509786,1.519341179582081,2.7874404850439336,0.045826199165746914,0.04585422026269172,0.039444879331479
65835545.69125669,1.4741806571246803,2.2379824787684237,0.04658058675946576,0.0466042979285727,0.042565076399743475
65965659.52433147,0.013702665019508986,1.362066967152361,0.04210855962750395,0.04214513938858141,0.04063028387717456
66095798.223948345,-1.0571684975514182,0.9419770497817765,0.0406943594834675,0.04070247822859721,0.039705709908926294
66225883.366781734,-1.8226851020346913,0.47059885514442334,0.04483564333983379,0.044840731912568196,0.044090427613334635
66356036.09641425,-1.1033496908740483,0.4821134282392893,0.04331749552474794,0.04334955263522222,0.04293625196019268
66486127.737120345,-1.0598688646569367,0.3287831124507118,0.03987453292966766,0.039887562885425054,0.039571261927412005
66616276.08397399,-1.66343438257833,0.4868956964396807,0.0389705849674615,0.03901456145083704,0.038240721350723046
66746290.856814,-1.9093583064111617,0.9085891519343637,0.04136631838329601,0.041370770780782426,0.039943754636242855
66873692.133816004,-1.8234864421346477,1.2436140717427722,0.041098213550258764,0.04116350821750498,0.039149131812109675
67000983.1196942,-1.0469486321506207,1.5310348950721886,0.03829221077911165,0.03829823305346779,0.03584648720238947
67131117.39175303,-0.38279448496801044,1.6514318278634497,0.03769045241025876,0.03772511728940489,0.035127619341960785
67261218.33196071,0.3270099419351919,1.7282410267407207,0.03954220561707985,0.03961636258628327,0.03697415439005274
67391355.42028725,0.8516001724723111,1.737145889002356,0.041535454490302486,0.04157122720786492,0.0389590409879049
67521443.24075891,0.9792238072232662,1.5839350357542856,0.04044000413728226,0.040461100156060775,0.03818856798994619
67651563.27900586,1.4891505913445326,1.5586406730735727,0.03981791773477699,0.03984650480493783,0.037410840580451445
67781678.51377952,2.24823246474386,1.5960796177498742,0.041201011060270944,0.04122209996265292,0.038287785625830136
67911817.49623999,3.0968114221281624,1.627347647052592,0.04053372922755598,0.0406671972171288,0.03678730690320152
68041921.89144577,3.4735061429130214,1.5883037627527168,0.04341921308446837,0.043430221324748046,0.03948480027095932
68169212.41737773,3.5190477377050366,1.6353456002286355,0.0469827803486519,0.047140640178239664,0.04334895592550148
68299315.00807898,3.2456513680634393,1.8088588862938897,0.05104681017552333,0.051679516258262406,0.048122959903744905
68426622.08994538,2.8369375914592236,1.8616619139255215,0.051718827358494014,0.05202777514380116,0.04873281614626691
68556718.87932137,3.6108308859545892,2.0384436519364275,0.04745327196986196,0.047743565777080214,0.04283391116429296
68686895.01430273,3.6872547014133836,1.856842437345481,0.047746545871160624,0.047796710354406455,0.04335434308782007
68816997.82892485,4.051454128733044,1.938380539453211,0.047961409277439145,0.047967273974350175,0.04286398668219712
68947134.25703916,3.5957773551728773,1.521313687318369,0.047413562509071305,0.04746042381586585,0.04386566107916724
69077210.98253173,3.1302964748907236,1.0265611905801084,0.04618482434965383,0.04619851358897725,0.04392605039033836
69207354.24323994,4.013329559153245,1.4206679892098468,0.04720386204856657,0.047217636938261,0.042997491391744296
69337442.30399415,4.230852465401072,1.616106159119913,0.05282972262885458,0.05299140432456944,0.0428775352414692
69467585.80418994,4.204553907298432,1.7328636908603705,0.05768189062777045,0.05771938127442498,0.046049145376593215
69594863.0752139,3.968173689036542,2.1354107161548845,0.0642040993022069,0.06420904347641064,0.04831031178407004
69725011.7646364,3.9957648832203754,2.3390017751093533,0.07299365009571541,0.07304257008570661,0.04976086934123623
69852302.03022948,4.664985492948278,2.847484759988065,0.06342252106412985,0.06350368098620841,0.04515691030268412
69982405.95004317,4.555191065715506,3.123870936059584,0.053420342604627656,0.05342544384918642,0.04410628441471606
70112509.49968249,4.39702357282058,3.2398221405940357,0.055652591691647796,0.055680200003513876,0.046489370587671976
70242627.53937006,4.354943951950923,3.359368946395251,0.0577647835691404,0.058236708952936846,0.04908784602130677
70372706.08797051,4.177610358055959,3.458351918395911,0.057960935222325205,0.05797021618138274,0.04847413172245135
70505708.51463631,3.330625009599152,3.392809985036243,0.054940056625951514,0.05499523991417754,0.04610712275149482
70633014.27522369,2.788733949073458,3.4788871929647365,0.05584168532980995,0.056174384906023486,0.047504262039118325
70763119.4488281,2.610745358124742,3.5625116703750903,0.055635852397163135,0.05580375844947734,0.046741908651862014
70893224.37671664,2.667535041175086,3.6403349404901726,0.055416243504414014,0.05544973223168583,0.04589627763505557
71020536.30076957,2.3981640713564802,3.323244767936364,0.07307234234509263,0.07339304526776083,0.04647519704071812
71150637.45539275,1.899296748665796,3.189786021863461,0.09109226086326225,0.09122707886084996,0.05050335842135114
71277942.20405293,1.645879424774851,3.336058855412379,0.08992236296269673,0.09002359826063369,0.0529158924065176
71408064.14444739,3.7956929467853393,4.3975569025009325,0.07922748961730476,0.07954848853511591,0.047353612128137886
71538184.2736958,4.539255237255187,5.066589628516464,0.08487505772383168,0.08504357705217128,0.04854938007219862
71668288.60491765,4.827271176228255,5.210088534659539,0.11565306408854825,0.11585566562669876,0.05344989949328518
71798409.47809096,5.614391585025129,5.319874099073346,0.11382785822751497,0.11392842031339386,0.05323245333069892
71928534.67403355,5.451949932011355,4.252840383749895,0.08876801912327734,0.08897095060669179,0.05626860232099193
72058704.32682398,5.8874027571823415,4.260633575867688,0.07576392573091112,0.07602039996274143,0.05524725292719043
72188774.86118051,6.538431667268519,4.63382129434356,0.08026277358550357,0.08398311090183457,0.07120558029049115
72318903.98693632,6.095145694932346,4.44597877377431,0.08102585327201248,0.08110136846461992,0.06921119527622753
72446210.58431995,5.931245060294324,4.528053274299439,0.07083123482584573,0.0708759732016979,0.0565405578728072
72576328.83250251,5.726694545411454,4.819689381288551,0.08106906543571336,0.08107659351843313,0.05734507623412564
72703584.17944394,5.957327800504323,4.662415258613077,0.10285185046673548,0.1032430094157593,0.057286365264632745
72833727.86273924,6.044373961392827,4.281235706442664,0.08544221354754061,0.08601733725862948,0.05140175293909986
72963846.3798275,6.6695895724329946,4.4994013753005,0.06754923599062589,0.06781193005617048,0.051840591654031695
73093949.24941534,6.874826229471595,4.2644560533344675,0.06648784172016986,0.06658241438463659,0.051221508427348586
73224099.99114254,6.0260605043433255,3.6337089432272505,0.07581798197556044,0.0759808782132436,0.054070442374009625
73354203.7909885,5.7656964096226675,3.554524719810218,0.07590670370241388,0.07598997274085448,0.05271688402313359
73484337.47843958,5.118792711711102,3.8119607846783703,0.07297406781542781,0.07302166070392621,0.05132942013337765
73614442.83153683,3.5421564538054375,3.6657292505354495,0.0832263556202771,0.08340404711923272,0.05419788176575864
73744563.38571246,2.873924861100796,3.4130676632594783,0.090526079000434,0.09054413131425952,0.06032158019217267
73871855.77735572,2.663202500189288,3.460560554342141,0.08957563942825945,0.08963038547274177,0.05871765571647164
74001933.6434426,3.478185296512613,3.7293729651889813,0.0719058088841489,0.07196306353245137,0.04989291110728654
74129266.10132468,3.7366246496064504,3.7518665760488377,0.06439801301821296,0.06445772149714771,0.052263590151783355
74259366.75059032,4.330871005508084,3.6131604131604433,0.08311189379450283,0.08322203447558309,0.05543970717255957
74389505.84855688,4.379311418569028,2.8971478731347062,0.0905227007381158,0.0912863883091387,0.06412585502908559
74519626.04284903,4.090319301036725,2.7614124948865126,0.08245601885886399,0.08270211788435869,0.06606074349801613
74649745.8460426,3.062190093378772,4.0812983510093215,0.08789334779866054,0.08886386052615636,0.06141813583634821
74779832.6427452,0.8578148874711848,4.167262313234155,0.08706990120829126,0.08710479760984702,0.056560250575823263
74909985.86354664,-0.5841591616396984,3.484418026569501,0.08847317747054943,0.08960256834647326,0.056321466798972035
75040160.67292544,-1.12602321847647,3.8340850364194394,0.09246115090101521,0.09248016962587828,0.049433265511369354
75170225.9109414,-2.502549567767772,3.395547034246344,0.08234060033535176,0.08235072145474574,0.04916048266499482
75297536.51395872,-3.436686339516559,3.139053486331161,0.07562973793984105,0.07563424319729072,0.051175624357667676
75424889.64507768,-3.6954470935797787,3.9627212455940506,0.09133071840658565,0.09135584377744162,0.05722895311345128
75554926.8901936,-3.7933587740852497,3.73747105434975,0.09449311186548956,0.09454956600750396,0.05512828775666735
75685046.17929123,-3.283732728944598,3.492934943240765,0.08166556386479112,0.0817575692384554,0.04932398590016945
75815166.10407221,-1.9237893618321351,3.5176928156398923,0.08821340915292149,0.08825984338955233,0.05005398748365719
75945285.49164084,-0.7427657604921947,3.5252821245227164,0.08383944335852733,0.08390652614278601,0.049087505261440775
76075420.30227229,0.6438881420560506,4.229031690714121,0.07636744238195425,0.07677859691344206,0.05210028732208756
76205583.16482945,0.42198250395144016,4.049876568849871,0.09120531709812281,0.09244290269257933,0.06374704300854643
76335625.45750824,0.12234438971130093,2.7206776573564655,0.08005986113167934,0.08075350266988837,0.06669867346362196
76465763.93388455,0.7964261205478207,3.4044414162361605,0.07984105358195412,0.079848353415981,0.055414764427057235
76595857.80774641,1.2241839073017635,4.468071128207282,0.08226129284058926,0.08244004302615218,0.049484961496227275
76723173.52565038,2.245103854186963,4.844168305583811,0.08951752361093082,0.08953938429927712,0.04969940412552534
76850531.80464493,2.990442810058421,4.434504268725777,0.07868525833673534,0.07872505921411703,0.051917984755236554
76980599.1469297,3.1390710179051653,4.339379394521891,0.08007695659160324,0.08011971249357323,0.04892450705167916
77110704.5810928,2.746509685061675,4.291282491090634,0.08403201084619,0.08423543435419852,0.046840753386443085
77243666.44015461,2.5477713896483145,4.4192867198036065,0.0926372843536469,0.09285080909541717,0.04739984256335393
77370943.41129172,2.8649038349742137,4.300910191414347,0.0890335802551546,0.0890797061354853,0.04726448532904564
77501077.63421762,3.0682341767621613,4.170766288952123,0.080160889675378,0.0802171609399594,0.048836564663187046
77631216.86488335,2.5699932799683114,4.25652066289137,0.08740545649336726,0.08794704549979619,0.05789352011334201
77761273.3413294,3.4447425741837803,3.8385700227480037,0.08986518362810712,0.08987916922903917,0.07152911003347276
77891481.3831453,3.3942312768159244,4.208230783330491,0.09146280684612963,0.09152062021556226,0.060925426289368305
78021487.67175725,2.9481490795198373,4.104730929654591,0.08749568678148459,0.08768029570166022,0.05561576125419074
78148925.87000166,2.6937932032145824,3.568715773567041,0.08769268847070552,0.08772498103749998,0.05764547396810213
78276163.64600296,2.21984175606542,3.5773070936360787,0.09352289805174914,0.09358949757323679,0.05599657439397625
78406252.80331591,2.1044872619282637,3.5128563574271463,0.07202293187190904,0.07233572435555603,0.04999563044725704
78536383.56887393,2.4769767188943943,3.96154253965067,0.06826229489584056,0.06830422860942491,0.04705589472950159
78666460.63229246,2.3018512926928056,3.9035250160923063,0.0819378006907356,0.08200713387817787,0.04912805107084036
78796588.97723398,2.369544522399586,3.981558589221947,0.08457460432856807,0.08458874174551685,0.04868321039785249
78926738.03225262,1.9457443309682667,3.1091319213515214,0.07469530337409973,0.07470198966242325,0.050476741939957735
79056857.15264893,0.26215198915805443,2.5300145296343346,0.07313766432537948,0.07314321799742696,0.04949141266732863
79186998.5230026,-0.37229670125934006,2.834423609412855,0.06647474544512605,0.06647846682104894,0.04659656344020042
79314251.41520384,-1.4435119923194235,2.7834142697315905,0.05914767130575982,0.059220107235033057,0.04619509955619921
79444371.0720163,-1.8941355073404733,2.6916848926936674,0.06436423864154922,0.06446802530109533,0.046610067109985144
79574506.30104536,-2.199058351721691,2.591341463309828,0.06720348243906421,0.06766466629986484,0.05042052386764326
79701798.43458521,-2.683373032066156,2.339064119288136,0.06924609991792215,0.06928320916543806,0.05288338921629928
79831905.62478755,-2.7473245593433187,2.5797838335205037,0.07327280260234204,0.07327741088345047,0.05390050114821302
79962024.87566361,-3.2664006388342397,2.5537331401911794,0.07220459721195736,0.07224857348912142,0.05137382351953109
80092159.9512581,-3.296061463084516,2.709963331752359,0.06973808759736293,0.07008730139789122,0.05398402373546925
80222265.12291372,-2.401032989962817,1.6666867866197774,0.06378233269190912,0.06507786267787735,0.05657640190554128
80352370.09371264,-2.1458312159000226,-0.013351498350850187,0.05207821835656751,0.05213106241830379,0.0513119860119127
80482504.80545278,-2.5549639419867702,-0.7430797195000735,0.05163551249730228,0.05164986499415349,0.048410125907343
80612624.27905875,-1.9235651069086874,-0.2765669438383817,0.047036137695185117,0.04705085535920241,0.04618790532071389
80742759.18005155,-1.7827601366728039,0.49428799913659127,0.05095481302619375,0.050969569709490965,0.0491463928783737
80870036.12984312,-2.233765800073143,0.4667922776443092,0.04886605917172215,0.04977198895652035,0.04749512811037174
81000155.93268925,-2.5600924065475845,0.4158589364332522,0.048448371886231176,0.04856709525785823,0.04652600355600942
81127444.82448809,-3.355018601369264,0.49527862067755984,0.05103117869959165,0.05103489778564503,0.04739718717902589
81257566.12207851,-3.5342697961708947,0.9498180134044958,0.05008746337855142,0.05014759970863723,0.04362939410081759
81387670.09896363,-3.0669165334872335,1.1569649129647253,0.04577091827576219,0.04578563238730402,0.04030835722696309
81517803.76102683,-3.551268512575076,0.9307590861246092,0.04826206442531525,0.04827751212024876,0.042641692554033654
81647924.1890499,-3.575181808819864,0.33658611963215856,0.04894355756284674,0.0489654131715934,0.04568431096447871
81778043.8492567,-3.0564272825563257,0.31724272528284286,0.04746846087779454,0.047844600857619254,0.04541917657220557
81908148.52403584,-2.83964446733406,0.22408384421307975,0.04834408575334063,0.0483900056601721,0.04676168396753949
82038283.2202531,-2.466049551415579,0.24582713156103864,0.05124216888073575,0.05459518729568622,0.05343647120190143
82168388.08878404,-2.148198684593977,0.030220863239031476,0.050229157273609173,0.05053972812878622,0.049758976797542556
82295678.77814361,-1.378026134141729,-0.39249260367339484,0.049291659405080436,0.04938498528435044,0.04864456829175857
82425812.08090697,0.21785672865123773,-0.6424265849919591,0.04906100600369322,0.049111029285392994,0.047821831818567084
82553105.11358002,2.5326423860618825,-0.6662590968842221,0.05629110187636676,0.05643973353079196,0.052284638193360405
82683316.2438606,2.8211637201687125,-0.30972603081265654,0.05195936076702798,0.05206951034635619,0.050136027001908876
82813330.21248725,0.7392806005908609,-1.2529973713928977,0.05792144878426157,0.058644945568006056,0.05212256908509571
82943450.04049578,0.1450208972334979,-1.4118207453364926,0.05694899326118425,0.05699167828439612,0.047982757931240516
83073584.69326955,1.2619474917084348,-0.9247137028705145,0.048238946510357775,0.048303343873509194,0.044601433722518305
83203689.30877835,2.426977323559661,-0.7235206406894921,0.04267396388776192,0.042761259936987595,0.04027525666071694
83328080.00780109,1.642366421764411,-0.5054301314797037,0.0429476646343188,0.04296316947289211,0.042258327284726005
83463943.63049787,-0.9618794761429085,-0.1764057396919627,0.0462895060030215,0.046324186600141294,0.046161693563013244
83596960.94020176,0.8122557393478583,-0.07556029933285639,0.04415034338950333,0.04421441192900494,0.04409825182348815
83721354.62693262,0.9897114458808293,-0.8827532619281215,0.041827150603582774,0.04192631864758797,0.04107090340995725
83851474.39159158,-0.8966198445858385,-1.0269345406819208,0.044125970519070905,0.04457335408633102,0.043665478973507414
83978766.06850785,0.2890930150333627,-0.3725557365186656,0.050210479619668784,0.050215661440107924,0.05010516832160166
84108869.413854,1.1291618892575135,-0.5433501601322629,0.04831643147137687,0.04834443273813869,0.04791692930013319
84238989.58046685,-0.39124239398714056,-0.9027237575583874,0.0469261255925014,0.0469477136684327,0.04634308381267896
84369125.77339128,-0.8403399134719898,-0.30001518829954127,0.04809099445521012,0.04809378416649186,0.04793206071117713
84502087.49182796,0.6891781526089352,0.5461530877760482,0.048000228663128974,0.04887128452119588,0.048604127245321094
84629397.06857431,1.985775476765388,0.1387659790199401,0.04641074264431695,0.04648205307313661,0.0458551542446556
84759479.2001276,0.09324254897089983,-0.21240436258886367,0.04160341621702719,0.042199476611261506,0.04216078494105714
84889604.03002205,-0.17872322068580654,0.5752711850231368,0.04008971204592315,0.04032885771104381,0.04003779962493656
85019709.57064644,1.4484901655195952,1.0509788019555992,0.04053284267090227,0.04057739052477571,0.03932170910508773
85147029.98080553,2.3953715647871574,0.3783064804576778,0.04205007950368357,0.04263008274281386,0.041557456220199115
85277119.55183071,1.68207565184813,-0.7230922151844236,0.05175615857587851,0.05390566717126389,0.05314178776779856
85404425.33095247,-0.06009489901626923,-1.6568054201848623,0.05570046508770345,0.05617312725554191,0.05448980955138184
85534530.06418169,-1.9900392046107191,-1.652055731180046,0.04569668364935561,0.045748511896362254,0.04314048645527164
85664664.9620769,-1.8554042765199252,-1.6076336969619993,0.046284381056594305,0.046822521529329184,0.04445874988331792
85794785.01530969,0.3635656294180409,-2.0219019388933326,0.05073131508034171,0.05206871656907312,0.04927384198951662
85924891.84684668,2.58250214511038,-2.2258929675619754,0.051495709346846066,0.051527522191580466,0.04690332311795532
86054969.96807325,3.1113045201563776,-1.9682716607670758,0.0490953323287139,0.04909816099328399,0.044539276628119115
86185145.14092979,1.0499156180547478,-1.4558281862854487,0.04402215365360019,0.04406753693462096,0.042145547858488966
86315265.01005086,-0.4292122556091901,-1.7859382619299276,0.04494740939759189,0.04510986599921883,0.04264501511933712
86445385.34721184,0.7729129426469118,-2.000467138888024,0.04465643258223215,0.04476219625809796,0.041427549547049206
86572658.38549234,2.321642603790199,-1.4898427458554082,0.042303749020014166,0.04245441735115224,0.03949427954361005
86702799.92620721,1.8403091780895011,-1.210975867230154,0.04227835900105196,0.04232345004363852,0.04042363303740248
86830080.93493366,0.46338087476627854,-1.7094639276145758,0.04320857653940531,0.043281984571693466,0.04085203107401217
86960201.52137168,1.4906620539956634,-1.7862375541088087,0.04870046570761478,0.04914875190330337,0.04643442177501504
87090320.9582718,1.2277753830499774,-1.2823263692301201,0.04938441145723995,0.04946473357539901,0.04803910688229146
87220456.26018658,-0.3612292636563809,-1.5790199557091171,0.044786691598838996,0.04514288068473677,0.043233905351148905
87350561.82969955,1.0627034358742626,-1.468557592181296,0.041184464341286114,0.041205288336730504,0.03910818301226486
87480681.40257284,1.0305483724925897,-1.01547334558957,0.041701253776965194,0.041752353259966665,0.04066468636456995
87610802.35256788,-0.2542717125918146,-1.185520950429007,0.04325410868477503,0.0432695699613403,0.04215382344739898
87740922.43922794,0.7076280903591291,-1.2588800531536275,0.0422934028657881,0.042490346019866766,0.041074389555019804
87871037.2854275,-0.5489289487660634,-1.0046196176089692,0.039392377627546625,0.039395370761248674,0.03848525801090849
87998349.67657524,-1.4354069936113292,-1.279543694622598,0.04004587688525856,0.04006529896883032,0.03835061711806235
88125696.33414088,-0.6857350332569147,-1.3200538753705935,0.04243729380214376,0.042447962239208936,0.040982763349330514
88255759.46289489,0.7830420327580769,-0.9295472444329264,0.0433441732002743,0.04360425156368162,0.04278959319390716
88385845.23546757,0.7637242074925389,-1.0349810143005878,0.04355277253225339,0.04395533355715342,0.042983897648501364
88515998.33749217,-1.2029707169427524,-1.1938743746348615,0.04504240438615171,0.045103944395187924,0.04383648250049269
88646117.94656461,-2.144806782293464,-0.7981896258116171,0.044844616618900414,0.04506909335824463,0.043902381767523944
88776223.70147781,-1.2474328733754652,-0.1823800933705001,0.04533220000925432,0.045390409062541555,0.04512410862922971
88906328.7965112,0.13766093122298798,0.25557592359052167,0.045401769301519984,0.04619263997179528,0.04614296436959753
89036464.75434983,0.8036555001750209,0.18812863496578477,0.04302942724870157,0.04314839937539068,0.04301741185803951
89166599.31007212,0.8602529694902313,0.25237007575354475,0.041270444175041915,0.04202352908360475,0.041852173531944176
89296668.12037687,0.9292441886512732,0.28543263045563927,0.04000879844166132,0.040188078242067965,0.03997358926575403
89423995.37432921,1.2927915450729681,0.3082188531939508,0.04238696498321875,0.04240187106215893,0.042053359496943776
89551340.6282793,1.6496341544629574,0.36773571009715667,0.047568617145284174,0.04776632533115152,0.04727492649240134
89681419.12533012,1.8037423901117131,0.37936524078944106,0.06139972023674052,0.06315815502472487,0.06272262860326717
89811523.98276459,1.7985925318217424,0.8452511649313293,0.060153235918323264,0.060518832584281215,0.05976598159502392
89944457.86772028,1.51340626525572,1.084168025482635,0.046466913259999576,0.04657158060723333,0.04540211413226724
90071788.21296637,0.983702053171608,1.279837346682271,0.0427932567599659,0.042850380086260347,0.04141788279879429
90201900.1973697,0.6010799213449347,1.562967710168883,0.04097315223634033,0.04099777331419437,0.038901522544149025
90332024.76840657,0.5586685342735611,1.8751836835402353,0.044567161862307546,0.04555830192935094,0.042818151208147956
90462110.0114384,0.415101153807517,2.4205140379249084,0.05077526857884859,0.050879160695594776,0.04679895859754759
90592212.99533501,-0.2572267343538173,2.850228369796766,0.05481981628180366,0.05494273677900255,0.049603611013548696
90722266.780209,-0.6990196961839926,2.439695595266991,0.054403692866091216,0.05456010971093711,0.050560048043597955
90849656.25784533,-0.5500898057873876,1.9800537554413964,0.04872537726862909,0.04875310617261203,0.0458086798922808
90976964.40205923,0.14910198332504143,2.0554394586619305,0.04834868765856499,0.04835185342428999,0.04526571644061719
91107081.94863476,-0.1701271942540925,2.30350814603829,0.05236673354183674,0.05239582441010042,0.048774795824482894
91237202.28446826,-1.7138301388337787,2.3081370277467803,0.050195432285063166,0.05023799982289259,0.04578984322645161
91367292.73465133,-3.0434633126122703,2.0252118066743017,0.04591984553003256,0.04594180213341168,0.04089982951003515
91497412.26047964,-4.210693570605117,1.7004162603645974,0.044833325893382354,0.04485433613784662,0.03909288112607881
91627531.56281422,-4.760579898309112,1.3007904861378228,0.04540214407768864,0.04571493147275969,0.04024526795579578
91757651.13727951,-4.709145150466728,1.1150595631458846,0.04505574529115621,0.04516763699620596,0.04015025287083032
91887786.27025296,-4.657324412072822,1.0873938864174741,0.04427785639005644,0.0442862978144891,0.03928268203550988
92017904.56035185,-4.6559739378606215,0.9532591358425883,0.04780930812352491,0.04828869728331354,0.043987411181561444
92145215.64697564,-4.2096853787153075,0.7891522901176785,0.04938930907428715,0.049392163411514506,0.04609189589153309
92275301.53894204,-2.7824299960032817,0.6778403084752879,0.04429792322717054,0.044345338563524975,0.04260148827742129
92402592.49320053,-1.6221851108930505,0.5602394000924246,0.04372945635657315,0.043816153939021656,0.04308468035584231
92532732.41109356,-2.0321699823785457,0.5645319724056103,0.04333014464328765,0.043404013878375704,0.042396735618867094
92662833.79514197,-2.179727664098193,0.5641132486451546,0.04190807125706694,0.04193060292650304,0.040770569449588755
92792982.91795257,-2.247745902750963,0.4701574682621651,0.04112862023152828,0.04114719762827367,0.03998837465772703
92920260.08495513,-1.966205531777276,0.49343977634733077,0.04119878670703454,0.041201848314123456,0.04024952306772218
93053194.64485982,-1.6800997855745936,0.5194654959294589,0.045904975411040744,0.04613626809687286,0.04544036015424174
93183328.54268798,-1.7893644924765169,0.4032842330478587,0.046960943095838585,0.04717805787623781,0.04652259894099683
93313502.99976031,-1.8216488602211198,0.355624445237805,0.04811266783109785,0.04811867903802889,0.047487668763138056
93443568.43918216,-1.6225104088156417,0.4303524510382847,0.046281680013771045,0.04629933990088765,0.04570934958135769
93570858.06052147,-2.1687563587502594,0.4739602453104334,0.04168567913020742,0.04169419475046035,0.0406192834023687
93684007.1354198,-2.3247482764802663,0.665892244179229,0.0423292453089946,0.0423920210988231,0.040999092218274566
93828256.00113845,-2.808754328825303,0.8909718281862233,0.04468889191115135,0.044712924537642126,0.042640510185988204
93969681.94734894,-3.730745198395299,1.1230787885644378,0.04454788233195441,0.04456266346623141,0.04095606024923537
94088541.40728265,-4.281954594636,1.3086550082152537,0.045509163060592064,0.045512042398075894,0.040786042078887336
94218630.01648813,-4.022417523025925,1.239251599679577,0.045716374226841015,0.04583167278225985,0.041693687719719305
94348734.61472519,-4.328716125407067,1.4132849179738771,0.04790500857288193,0.04790839883609806,0.04310980235399914
94478869.14675581,-4.372802230673405,1.6119960139653675,0.04972722675016368,0.04973855436392837,0.04460177087661109
94608989.13999161,-4.579112910550125,1.7676555299135386,0.04987316573994882,0.049905365759148966,0.04404285499707104
94739109.67346942,-4.504113610727825,1.9113302481833139,0.04927205210759689,0.04935348631474527,0.04309972171425051
94869242.35186735,-4.051611473865817,2.0783974631914073,0.0493606968302699,0.049363520516739964,0.04324909886102417
94993706.22186483,-2.798910047579074,2.3783679872879016,0.04811291522323691,0.04817124998352497,0.04238954758981137
95126631.07131842,-0.6080923700606348,2.639210490960765,0.047349160527285904,0.047370860993247964,0.041933527674787585
95253945.53250536,-0.11875416632762315,2.403317250902403,0.04508433817102248,0.04535565792305832,0.040782361891341615
95384036.80246094,-0.556267995104488,2.085760400003395,0.042745823658472855,0.04318624138038352,0.03949427901391226
95514187.00727975,-1.327349167138088,1.929165307707078,0.04453724445653918,0.04459933239814475,0.04122285308220047
95644277.13307214,-1.806181685167083,2.0426686746072624,0.04674911856850497,0.04700168890090629,0.04314771454459872
95774429.82713628,-3.0871681428332107,2.3627340848674794,0.05059814573552903,0.050602941586998296,0.044860515378067296
95904534.53696221,-4.21030818229301,2.162006492315927,0.05583066690979546,0.05585632767647665,0.05004311567963754
96034642.54307562,-6.965813490848077,1.55874115049435,0.0606048574042013,0.060687567995833365,0.052526273513122584
96164764.65297031,-7.8738241864026435,1.135652795281327,0.05959644393560775,0.0596191997420605,0.05022090028051358
96294903.49494754,-7.673691650655906,0.8814110654672525,0.05773485356812855,0.05775629766512081,0.04890445391625692
96422200.77754538,-7.644989312473183,0.8124982920390694,0.05520900946974005,0.055243433350495356,0.04609416168250544
96552317.28127992,-6.600180272867347,0.5810602077431567,0.05236245192097281,0.05240945828698698,0.045518815690857924
96676750.3797153,-5.29660407135171,0.5756519230693575,0.05191888454676854,0.05226379165815251,0.04781267803891647
96809708.75007749,-3.9601487276079164,0.9090253931394251,0.04913037813269012,0.04913688586568647,0.04599940777466227
96942656.86616012,-2.2760703603121915,1.367736905687672,0.04797052140235687,0.04797348302257107,0.045685014527252994
97069939.73105243,-1.6132823916754302,1.8189567362859471,0.053125234222953885,0.05313127994874583,0.05050374592844585
97200053.13243428,-1.4233779287928399,2.0840165153589925,0.0515261703290558,0.051530796675963324,0.04813246794846061
97330192.09272556,-1.3705814311666016,2.292763870124379,0.04853916355863495,0.0485503682290441,0.04424886614644256
97460332.69365904,-1.1050942003663597,2.6119147763641823,0.048085939416181354,0.04808977631752267,0.042660059545410654
97590418.49534878,-0.985602360997332,2.79037513944989,0.04962339030784328,0.049646496292642985,0.04369216803348796
97720566.89108129,-1.0639247953409852,3.0146694557816303,0.05201968432627379,0.052032071448480224,0.045346026791055316
97847843.38163097,-1.2581483656320993,3.335572873226999,0.054072091892478864,0.05412497075323713,0.04621035883412039
97977948.4711217,-1.3945968177575425,3.438171246337607,0.0531434953821599,0.05315548027101277,0.04448593534649541
98105239.68136945,-1.4412238092739695,3.554691905177866,0.05324461520769577,0.05334169539202951,0.04401318767156276
98235373.66638243,-1.3761786686045936,3.769513232674786,0.05659988683054077,0.056605214191174695,0.04680028870553191
98365508.3528414,-1.6683998907547204,3.8028074250285586,0.056560041284284684,0.05661222131628069,0.04648527125217738
98495612.75561027,-1.6214148994685849,3.7390845082872683,0.05516435917819189,0.05527945522159055,0.045233716345738084
98625717.56782484,-1.9652770602966176,3.67434777593833,0.054129838679823926,0.05413891879372682,0.043951602496384815
98755894.18013355,-2.4349674671504866,3.461827222599422,0.052950430338361235,0.05299778129742017,0.043320146533374786
98885986.4486784,-2.8955983243966177,3.2392904929005546,0.05312019697869078,0.053154812989263674,0.04418314186811907
99016104.01380256,-3.526438447679372,3.0868563481371445,0.05445009168443767,0.05445244574998127,0.04576103629257213
99146192.62539934,-3.943621070657344,2.856125583608803,0.05464422370282567,0.0547775824838091,0.04667691442362572
99273504.10735825,-4.5256234390427945,2.377089454448364,0.05448850250837661,0.05449092895621859,0.04744498598534416
99403622.14478782,-3.3665982030076553,3.0484302020002145,0.05512535924680968,0.05555971319185149,0.04744564275602308
99530872.88949686,-1.7613211517339025,4.131692544898508,0.05676490334802445,0.05676753671043898,0.044594614469815684
99661032.1545223,-1.5138205373134774,4.389194790256342,0.05824922394150502,0.05827265889177971,0.04499287751361099
99791166.87059186,-1.6501335320764263,4.32172978153625,0.058933683955111026,0.058955158131238715,0.04618708546017476
99921273.01890266,-1.8432049477110464,4.323805313104413,0.0592114822592763,0.05943962111634064,0.04671148607053457
100051392.35831028,-2.556015620742244,4.31254861989519,0.0587473868858038,0.05875318009852781,0.04527328608684419
100181513.00022298,-3.4961172263841935,4.0389257090557695,0.05868723999257823,0.05869885802343731,0.045886400997412286
100311651.81682262,-3.7354894801729133,4.074474289270968,0.0611830782924698,0.06118780508410595,0.04858626628013133
100441747.88194257,-4.206330015237406,4.32030870254813,0.061193702516543096,0.06119705439445081,0.04650656670410586
100571853.87572896,-4.473932245314747,4.798743793857104,0.06478901400323336,0.06492506719408041,0.04770059259268859
100699162.9839805,-4.413359500986949,5.156414255349366,0.06798709782252631,0.06814219506658263,0.04966483234155878
100826509.18860489,-3.8635587019443256,5.555706562453838,0.06764764052197575,0.06767431587029162,0.04676898293861478
100956573.75412889,-3.2177932032042937,5.6565796800286146,0.06749220998429616,0.06749889282741825,0.0465490957110317
101083879.88429737,-2.9384988426416316,5.550141608920339,0.0822848103161691,0.08228938094497143,0.046137955801610224
101216832.23116574,-2.2944099714955737,5.7873588636816695,0.09036544580660713,0.09048223266946992,0.04761922152255365
101349761.82253994,-1.966140394856802,5.7448741102770935,0.07015404998386304,0.07032288203375138,0.05080756019224663
101477065.98118865,-1.3152385984867407,5.1599800653667165,0.06848832020489505,0.06927971333051437,0.05408667712757565
101607148.93332146,-1.6112096726045533,4.508651210991049,0.06942164971580805,0.06953652702646183,0.05819542000316657
101737237.07153866,-1.3478446440320142,4.893719836928519,0.06521275823233576,0.06601357766271448,0.05148768684820143
101867410.765252,-0.3622122751868368,4.659933881232176,0.06264297616856314,0.06294784292851095,0.04975743826958704
101997480.42277174,-0.594873521940771,4.6261984352286305,0.062163570280935415,0.06221289768362937,0.04904887684018349
102124824.46041158,-0.6886854130072105,4.686932959318166,0.05976149814177867,0.059764204866889756,0.045357386809064634
102252157.84285244,-0.7803942582375941,4.752348330798938,0.062043939990570035,0.062416958683023833,0.04832565975960541
102382234.9555037,-0.8485318297428395,4.682367102957049,0.05947135969412716,0.059492375075688476,0.04489722430158363
102512340.46912405,-0.9084012067971852,4.52367840365691,0.05974380199610131,0.05976167322135734,0.0463433729475775
102642474.80413613,-1.1128806998710725,4.4760216206504335,0.06434890156014257,0.06463393524512888,0.05266229958710834
102772579.91495046,-1.4332289190065646,4.375943355623467,0.06260816849524473,0.06296687774657009,0.05104832650571729
102902714.32571357,-1.2994111450971864,4.281289447826158,0.058099183267815095,0.05810542752059501,0.045615797693417115
103032833.77644944,-1.4363173511259757,3.7012520297803624,0.06765288723183992,0.06765866669884016,0.04812364752264885
103162953.8219181,-1.8222122686246123,3.5863466639983144,0.0691132576471637,0.069923681252208,0.051091791524150484
103293069.32418892,-2.474953028191725,3.8741408257182344,0.05813224368290409,0.058152435799205905,0.04726927853175027
103423097.7720867,-2.827551629062688,3.799761568997908,0.07107220053638319,0.07131215734416718,0.04978976913212752
103550465.63578635,-3.4405646658448212,2.9076662328327245,0.07512565087935029,0.07512969807883178,0.05369094260757344
103677775.91647549,-4.0710984687092155,2.872157837754069,0.07411919856093062,0.07438372469419904,0.05952012534327543
103807895.12378949,-4.269133106007318,3.4195953916403266,0.0709951591163274,0.07104749141506268,0.0626807891770995
103938016.0759833,-4.668380264809003,3.384207186389067,0.06297422421656286,0.06338047207930578,0.05346738949891668
104068136.03720784,-5.255903414888747,3.1825326127494575,0.05767194759478544,0.058354823732821685,0.04741738535886671
104198241.20333672,-5.548587967074306,2.5944796974321553,0.06324733790911406,0.06334480170310898,0.046939802524528826
104328374.9940641,-5.096446704766025,2.353325980835226,0.06029470260012758,0.06037319659864632,0.04539006393951197
104458495.08588295,-5.07972711661085,2.185512358973461,0.05401646938968069,0.05413215280405452,0.046747949950375275
104588599.26463261,-5.235687538071056,1.336842654349335,0.05596578440685275,0.05602472322456099,0.05087949090165335
104718733.48726352,-4.677495062629943,1.0841757682635327,0.060502686216911426,0.06076794573016082,0.05269111946244192
104846024.45821695,-3.305775112885223,1.043131611265652,0.05379934206075741,0.053833642960454835,0.04751710418995774
104976144.56841707,-1.518952227408252,1.2201809899380522,0.045895263070617906,0.04606478818001507,0.04449852365307904
105103406.87058145,-0.3647257005186278,1.5351053881812535,0.04434878400129754,0.044374975840585744,0.04248290361054718
105233555.14306337,0.06294096973350781,1.9256981876291426,0.0438458769898544,0.043861217552715784,0.04088656035771361
105363657.0358195,-1.5349947840205456,2.036347702866628,0.054784875198044126,0.05486256865717079,0.046399096935659793
105493801.22211623,-2.8402304943603167,1.686309626097008,0.06011188297719381,0.060162048550465315,0.04933940577950574
105623915.94230232,-3.5072338009657287,1.445244637329836,0.05621402533304099,0.05622928729229015,0.046024062452041874
105754036.1012928,-3.900996472580369,1.137657237063983,0.05612551398335148,0.05628140079012804,0.046949825992203445
105884156.26796067,-2.2907951169957856,1.168547232424786,0.05531902749453606,0.05565100837796224,0.047872191814643104
106014289.58676998,0.16142888356024027,1.385528839501053,0.04876519809747208,0.048805787976335675,0.044440287859306184
106144396.13389802,1.1552670396985487,1.084430978531285,0.051161894315026324,0.051739595427722676,0.04813607608855624
106271702.03115237,-0.17642635683155966,1.10081179569421,0.05617696929823022,0.05618039468256777,0.05087867828855357
106401745.41943748,-0.7758413146560545,1.1120452282792908,0.05261523255667534,0.052876268625731644,0.04781991508922504
106529069.71717948,-0.8103128023045871,0.4816606306131012,0.0521872759796663,0.05226638662137245,0.050619204713157694
106659217.27942362,-1.587134499766999,0.4176156827902015,0.052338984664922795,0.052608625159854046,0.05116604843517112
106789359.68203767,-1.872644971217699,0.7058102282075737,0.049745992036673806,0.04978756455339891,0.047300467916955996
106919470.63683704,-1.5962500238714115,0.905167636527008,0.04698937193067006,0.04699161177170405,0.04310007846059838
107049581.75734837,-0.7688084809855926,0.8484323222041065,0.05095455877618376,0.05111250401335667,0.04760604295767558
107179696.80449381,-0.32472299168602664,0.7496499586778803,0.049695292020587985,0.05072950666082559,0.04831466262285005
107309838.51766431,-0.6561829697410477,1.0745821822272836,0.05277060806916634,0.05281060418907408,0.04736671340831455
107439950.66611767,-1.0627141338950459,1.213257374051716,0.05501333702391716,0.055017891666639965,0.04976743205313225
107570055.99807519,-3.0299131324891957,1.2769989624604121,0.061617907406787555,0.06163399609922258,0.05276177199353763
107697361.5960803,-4.450929317129555,0.9694536685775758,0.055467461668173484,0.055484914303312836,0.04805034942010117
107827466.61166792,-5.240004233351112,0.10095725111634511,0.049792124238986504,0.04979449175606285,0.045150083094640615
107954758.15213552,-5.591762836209257,-0.529986523360846,0.0497903079203981,0.049801414310389355,0.04345750490377014
108084882.12472546,-5.226892033833343,-0.39184913717210174,0.04909508341495236,0.04917638229483162,0.043761756807946924
108214983.75841552,-3.97195619731098,0.3404626099186718,0.0489646290082697,0.04896810589102886,0.04512795304454239
108345156.31341408,-2.8311449386293828,0.28404394352031787,0.046175241683195936,0.04618297444175224,0.044186906590190055
108475237.04356593,-1.9241713286706104,0.24969419597670978,0.04474074981249842,0.04482269509658143,0.043713951459342114
108605386.46461296,-1.9904321738834287,0.1667417717279081,0.04561235738464021,0.0456145149756991,0.044516442639620644
108735477.7348893,-1.6131898915043632,0.03870398772819299,0.044578011984094494,0.044582576725794784,0.044012461690144965
108865595.5369818,-2.1070578649865084,-0.06303552807673321,0.04310849908605763,0.04314771744891847,0.04225501650973053
108995711.09159112,-3.53537106121548,-0.34868219324913635,0.04553851561219518,0.04570075779207127,0.043242918554714724
109123006.48992306,-4.314732441898741,-0.9576263066182397,0.05040630490767348,0.05043524239062881,0.04686466284154733
109253126.41371405,-5.437140353952392,-1.6836334162414022,0.06042982445679207,0.060435601175484265,0.052388517692454846
109380418.25916243,-6.063992246417273,-1.787269782300604,0.06338589472801255,0.0634653164699827,0.04993304992304394
109510552.31720622,-6.624717277207557,-1.6180198283884384,0.06487660414010563,0.06498339394710403,0.052178940321476144
109640701.2283513,-7.087013440568276,-0.1451706889626022,0.05830180998411289,0.05837847916509325,0.0508047404484723
109770776.50710753,-5.772828058460735,-1.2742854132843078,0.05721281343671119,0.05730425024580424,0.04994591832906992
109900897.4152134,-5.3969300000538665,-0.7558700725681877,0.0536320137818371,0.053757082679937424,0.048016769728259114
110031031.08333325,-4.990453755478749,-0.40721079917321346,0.04798484986283384,0.04808758744178138,0.04301297727324582
110161136.01641193,-4.947722686778933,-0.7579952693367095,0.04960416425030683,0.049897766863527426,0.04359051386451491
110291285.70913616,-5.676646003203991,-1.5431018649005552,0.053141062001774195,0.05332186652397606,0.04247895056566258
110421377.23475151,-5.65998965071524,-1.649402554588156,0.058216172973659046,0.05879260600141009,0.04546029027819548
110548667.01192361,-5.3750640591881815,-1.1918667611317948,0.0652653777388364,0.06604175841351725,0.05793087286423065
110678801.11344677,-5.567493414115021,-0.5403199298070139,0.06001357953978087,0.061753757134037204,0.056542795768146685
110806077.14699212,-5.7720468766447555,-0.7268391761116348,0.057853255347978215,0.05789800043353271,0.050831837455701114
110936211.92639641,-4.92843574308913,-0.9800615797058393,0.0529723396082894,0.053023724285051844,0.04686190345603176
111066299.18124756,-4.403544657872033,-0.6361884992629313,0.04677337049857433,0.04677549499271477,0.043127430935406975
111196437.77455762,-3.959481488717622,-0.3734363642033105,0.04747785862469664,0.04751828924441692,0.044625663139125214
111326544.00070402,-3.714212137171241,-0.47146311455815154,0.047900801574870415,0.04807584563742751,0.04528346765393015
111456697.61973298,-3.6336875041285586,-0.5689691339287408,0.04760628361974847,0.04785376273309171,0.044397207306627356
111586790.28641066,-3.2207000356570883,-0.4824461941477417,0.048807691571318236,0.04881593986820684,0.0457920123376368
111716932.40826549,-1.6590448154838149,-0.26056583031855607,0.04333771451301727,0.043478569728704716,0.042763849061172074
111847008.99994011,-0.3005005848622945,-0.20912643785608268,0.04255273329005252,0.04257161054318333,0.04246354511667592
111974329.15426661,0.13328276234369688,0.23317896376462596,0.045111081199713535,0.045132463191511776,0.04501393269811347
112101709.86467902,0.5557086471718526,0.1020273344633647,0.04545788601198494,0.045914198075889895,0.04585167930447471
112231739.87755615,0.6788664406443956,0.1786534700541135,0.047612536005794175,0.04772691353484777,0.04758876184371005
112361874.7787491,1.0316697310005838,0.24363353492775164,0.04801925700986724,0.04802223247196475,0.04773426617675044
112492014.10557508,1.1849579973862985,0.22457037750488293,0.049421620103565024,0.04943217790932016,0.04914676864235779
112622064.30971752,0.11443180051278633,0.04972363373379779,0.0655895640041841,0.0657025727876602,0.06569527420294613
112752205.8956132,0.7866542311692823,0.7687955329870713,0.055546034286264284,0.057653696795917156,0.05724077661836175
112882318.15816978,2.692059793142942,0.7303220873718902,0.047389359676044365,0.04739448442592036,0.04518198531208108
113012458.2601156,3.257332029868308,0.9384716919301955,0.0480167209390007,0.04810610766320016,0.0443099015719298
113142579.66344555,3.3171288360377527,1.2227074011169912,0.04959440956144403,0.049742998659389866,0.04555246219085302
113272651.20543149,3.7118779070026497,1.3588909213323925,0.0508396058688918,0.05084174784398144,0.044401677441464775
113399990.27823818,4.1011248942572065,1.5884197945234808,0.05088240592945955,0.051123861700311,0.043890422228958975
113527339.28927669,4.187438820448829,1.8144743206922687,0.05259594135359765,0.052796366798718096,0.04514302459079858
113657377.66142924,3.877403786869161,1.8998982746307402,0.05829700376025596,0.058328847012957624,0.04767843521156774
113787506.8534262,4.503448918138931,2.1821627736274216,0.05589957464205391,0.05591434565350658,0.04367422885114678
113917627.22319695,4.650474760527769,2.0499680659718273,0.054761521470852434,0.05491546491693566,0.04596051783385782
114047762.6272367,4.6174644516316246,2.4233189622284512,0.05956086204419559,0.05985186627322225,0.05145731557506764
114177883.23091206,4.07895369031361,2.6668190106284615,0.06471404924827669,0.06529210849337785,0.051670370358016936
114308002.1363079,3.4431404919899236,2.570024382700398,0.0732333794132279,0.07391077214667884,0.058869282771247575
114438108.1943458,3.89261540971479,2.405449979172302,0.06972593610589074,0.06976076247067944,0.060134364476285986
114568242.99974036,4.607421251530698,2.4793716572249025,0.06123175026707691,0.06138523180232693,0.05226943194619856
114698276.8230074,4.691771976596425,2.9343246121637105,0.05551645899514135,0.055538956415516,0.04726216186162529
114825638.41774726,5.4286081525685725,2.8864359302334677,0.05521441591896708,0.05521696947131894,0.045970086931696866
114952959.133424,6.303901794250328,2.8351449832615225,0.05436735119485718,0.05437812770386147,0.0435842003464941
115083080.19634405,6.415244486884482,2.9715593056236145,0.055460779385684264,0.055916803413551985,0.04468824489799823
115213199.41397418,5.71408972879141,2.8494320143996137,0.05670945860940242,0.05671301869521509,0.04742764740703796
115343290.09412453,5.361735731409837,2.710652507088894,0.05955881303749437,0.06014960528029848,0.05248802730340153
115473424.07355769,5.564259411062205,2.5808105969317405,0.058525740805300625,0.05855997517833188,0.0507728626532304
115603543.98203744,6.007977460339036,2.7152881500842554,0.053444783552818655,0.05347014130091296,0.043520449117252225
115733648.7328269,5.872592838981414,2.8125567256968393,0.05454897372890977,0.05460211448960865,0.04476590638301079
115863782.25057054,5.324535953455785,2.7581751529634224,0.053399341704318974,0.05349965752720492,0.044566977900023924
115993904.03638393,5.135889719477907,2.670444893521784,0.051065424912460584,0.05107095892325093,0.042291833093621604
116121195.87089652,5.187309111756449,2.346855404521634,0.05513376313681519,0.05520331631814877,0.04821784659995371
116251315.79585847,5.332950182616746,2.32240555944417,0.05332613275529722,0.05338674754901205,0.04596361645813038
116378606.56213322,5.0985542601702285,2.306753423321294,0.05192558321053272,0.05193447901982869,0.04471138512536648
116449323.78095818,4.266330990054552,1.9415277886821505,0.054373231875582184,0.054465433090148875,0.04980715213031957
116638837.37844743,4.789002744402215,2.1005816396880954,0.05146416052052709,0.051748135580587114,0.045589766253596266
116774610.18399933,4.58426060461594,2.0637815539922446,0.049563479027983755,0.049716395138296066,0.04369408187672236
116899085.50543359,4.085117020213634,1.9667277090022446,0.04925875727509246,0.04926254196964849,0.04414790160528262
117029205.96893963,3.876649261928676,2.091569301275167,0.055602408117426026,0.055861895935028785,0.051314580781420295
117159325.8562295,3.261992644335637,2.4599589490497196,0.05717626461758963,0.057378056374973674,0.052467100335069
117289446.01233064,2.812601395776203,2.49651474117709,0.05238297215411114,0.05246460713683687,0.04729238653484942
117419566.24988808,2.5678312905262994,3.1170705593935075,0.05350039930224772,0.053503873866652105,0.046206453650849376
117546856.60091315,2.6460804836911667,3.6158001225352883,0.056141016130071913,0.05618470798818468,0.04687085617629145
117676962.28273949,3.360998285974231,3.8536338343525234,0.05886259781612829,0.05889161829363518,0.04828401578310864
117804268.73262209,3.6941427975005627,3.8236509483489005,0.05769286718837016,0.05769578394304922,0.046753411453558796
117934388.69858325,3.8272924261245755,3.7434278861586106,0.058166042017937396,0.05831103537837069,0.04784642089287317
118064522.21221042,4.657675256607532,3.624998602216575,0.06171174001658168,0.06174041856246396,0.05168595559049816
118194628.85939151,4.968742867027337,3.4926619808268122,0.06133174230188411,0.06135868326459494,0.05136258919891397
118324749.07875651,3.0095685005247717,1.4192933523076712,0.057903424298149216,0.05795323104470094,0.0557224672619951
118454868.99301973,0.8196332949673081,-1.1739656080170253,0.050972711028288764,0.050981409779869584,0.049918877873023675
118585004.77340746,-0.8938507218380627,-2.254513548669677,0.048770092970881355,0.048785256945297104,0.045061101516285756
118715109.78326133,-1.2922117898355983,-2.4298444716175136,0.05258179319294902,0.052766398301848594,0.04866356464889142
118845206.19262645,-1.1060820578823067,-2.8154867853401675,0.0534215432469767,0.053428429750979195,0.04796353116705758
118972520.23572195,-1.9203730097026823,-3.132504268455885,0.05034189751326986,0.05037366437151703,0.04275519642860747
119102624.7542765,-3.237813391845818,-3.5480319624552985,0.05255185124536047,0.052592039512062386,0.042393776642088106
119229930.91792592,-3.8657336412768464,-4.209823652220209,0.05737315342155282,0.05743467751450509,0.04410356570515616
119360050.57816362,-3.5554550503836766,-4.489278912347802,0.05886421550104198,0.05889575105730717,0.04458865487098964
119490170.67859282,-3.0147024272065246,-4.510348450004188,0.056968739192936844,0.05700104652722413,0.04227237612483539
119620305.26716289,-1.040727944391388,-4.382687246921795,0.05502262099993181,0.05502501524640554,0.04148698257054898
119750425.75242427,0.4952749174516237,-4.148402008862692,0.0548411134130244,0.054898922135133844,0.04285553854809078
119880545.71977599,1.0617272758571987,-4.033926170941133,0.05359006976079287,0.053613579348797465,0.04170251594269648
120010650.70328839,1.367022033125771,-4.036226438978511,0.05375544415096697,0.053761461196460615,0.04167636575425484
120140785.67164333,1.092959470230691,-3.7837680055717,0.05297847889222456,0.05299348374588272,0.04240219261323505
120270904.99307367,1.1444652331697376,-3.6475112704557255,0.05360823332754862,0.05374717298598109,0.04411541614826279
120398183.5943909,0.9033022931152964,-3.4965475085848046,0.05353022902363031,0.053542956617429874,0.04482524153026904
120528286.38605767,0.21769484328609418,-3.285858402807994,0.05140645468902681,0.0514773870037553,0.043696492248718424
120655607.93938068,-0.4529609112170484,-3.4589808347678876,0.05317145881562646,0.05317830475828806,0.044890373100982865
120785727.22524214,-2.0997645176101325,-3.76160208541005,0.05422936762694281,0.05431264747207851,0.04418831944553633
120915848.60029761,-2.585146138242942,-3.990490817252017,0.053953006067366596,0.05395571145958943,0.04211038356161758
121045954.43654472,-2.6652108637023404,-4.023366029490653,0.05254122145057004,0.052684911056874846,0.040162764037226364
121176103.66479608,-2.4712242794044776,-4.1421446342265185,0.05666836853503186,0.056673762193567546,0.04446660071098322
121306192.99697821,-2.613445621045581,-4.19876177979524,0.058694771274302365,0.05879330870204928,0.04662929084078177
121436312.7061275,-2.4260604485044324,-4.06435726264083,0.05637459246522748,0.056384750891462485,0.04483365826046447
121566433.29854721,-2.110972875363839,-4.082000862187197,0.05543994224875935,0.05549607908440694,0.04376045982778359
121696566.7762351,-1.9735621480129208,-4.079481537140061,0.054512840794748975,0.054575843510935376,0.04270663749064928
121823858.86980945,-1.9117072256643874,-4.093766635343194,0.0537833047402722,0.053785643979195996,0.04163826878297917
121953979.4054692,-1.197321807016449,-3.7819178745316093,0.05147854471520995,0.05148772711826478,0.040839727110669855
122081270.36274493,-0.8478108440305494,-3.6690847820014434,0.05034186503699236,0.05054713040068588,0.040427565374421257
122211362.39190477,-0.24106195860900098,-3.8208839761494073,0.05143547874423007,0.051446570067537556,0.04070279389009228
122341496.10349539,0.5095120442392241,-4.104322270502377,0.05522621096447261,0.05549328473984642,0.04376247940678488
122471648.16982794,0.7484601495308483,-4.226293690248733,0.057436879722949585,0.05753343534060658,0.04548245897699582
122601736.263032,0.5248518052236625,-4.212555658939278,0.05885082116031378,0.058856823438011005,0.047390984317015626
122731855.09950408,0.6576082149542153,-3.972620788634773,0.06233354003300845,0.062355468226104376,0.05282699020658658
122862007.15378806,0.6178916568563873,-3.60056749353636,0.05933486180498091,0.05935525982797435,0.05120757270045227
122992092.54932979,-0.2674727483930069,-3.697471975472979,0.05677998058573354,0.05683419760176866,0.04788433887686527
123127869.5906485,0.2630787635973348,-3.5433318955357977,0.052793619616332665,0.05280898520026502,0.04382364809370609
123249502.92898294,0.6208221880993592,-3.486195890642092,0.049464938903320675,0.049531344486006434,0.04006534412614893
123379623.30093166,0.25863049212664824,-3.4519154699503556,0.05050357656698069,0.05050642388426333,0.04163927886581474
123506929.37312655,0.022058840059434634,-3.1638501225110613,0.05077386755809121,0.050781650299525416,0.043507997544035455
123637053.49189375,-0.06750136444632321,-2.9710965814619485,0.05027522602515681,0.050278548627656676,0.04383990909025509
123767169.36680833,-0.7547504304531687,-2.7913541153204537,0.050100132044860274,0.05016260320692955,0.0445229639736945
123897259.75715995,-1.1067000773864117,-2.744643796241732,0.0495058566960508,0.04961048020037992,0.044096013182361456
124027380.3862819,-0.08923110574695309,-2.5330814394180585,0.05001475685972163,0.05001743368934354,0.044831298373436794
124157500.35346147,-0.2837163958050933,-2.4676907120694684,0.04898555001271613,0.04912596830243236,0.04409233064826356
124287665.07227214,-0.7330704963812534,-2.6390601971021828,0.048886591869965954,0.048935673269845534,0.04381179258905508
124417740.98228058,-0.375609575256333,-2.9394648852742886,0.05058111372057648,0.05079262462543015,0.04464854133776227
124547838.37026708,-0.9062308689702601,-3.2341308331490572,0.04972478058450408,0.04975389597237812,0.04194946193195404
124675152.41783422,-1.252672800490928,-3.175210954031345,0.04734142779326997,0.04758826933593623,0.03957152269868502
124802512.66353425,-1.3983801625596453,-2.9026032095112146,0.045816734473975766,0.04587179098134193,0.038918367942283184
124932562.1468493,-1.3167038265077813,-2.8054491233889998,0.04816324286033653,0.048233303089516746,0.04208499912658723
125062681.42641398,-1.2502812640106211,-2.809984721648456,0.04917016933634451,0.04919050472194467,0.043287091802437415
125192844.28061411,-1.1338564751492048,-2.6474827728101475,0.04942942913220933,0.04954101048006164,0.04432531745823923
125322979.14622399,-1.0527566257842977,-2.5638479486872,0.046216507587730785,0.046316873567594674,0.04109999001726655
125453035.36222364,-0.831664180623407,-2.4883497164337824,0.047765750601053265,0.04784830935494474,0.04315139715936125
125583178.63311066,-1.1371912583130315,-2.271484767111002,0.048036517503848956,0.048090270025551156,0.04416589570170788
125713294.55470562,-1.791488120352188,-2.0907111927992963,0.04693029388131696,0.047039272081484465,0.043394879649653516
125843413.33680584,-2.164604554588822,-1.934998893799294,0.04457685048740999,0.04457928225059522,0.04097175744040939
125973466.33841896,-2.1713850359728064,-1.8537875185919463,0.04175149075374564,0.042048833291245445,0.03847440201997815
126100843.17936091,-1.4811369311257827,-1.588480161288536,0.04248008507401038,0.042492178703233296,0.040117428580850836
126228157.94466844,-1.7933965364986564,-1.5423008967888483,0.043711339968138085,0.04402444033881926,0.04170623021561543
126358235.865134,-2.253795539915349,-1.5098761719292166,0.04356866634552579,0.04357512772798222,0.041016657275039635
126488340.60438865,-2.121579623800825,-1.3898200308716433,0.04372679896222987,0.04436526641254303,0.042213017607897224
126618489.80385876,-1.562156229053262,-1.1553199307796147,0.04300164430516971,0.04300607348435396,0.04159211755457993
126748563.2194784,-1.184182903526861,-0.9672220747491698,0.04045083714017123,0.040635483536516,0.039641946421607295
126878700.77833375,-0.5798297382693319,-0.9923617814347382,0.03852049565075031,0.0386480921911559,0.03773411395638223
127008833.84673098,0.4864407058479779,-0.8747527887509379,0.04125533117223747,0.041269746736473774,0.04056291059813971
127138992.81982128,1.4340032320778866,-0.6697188700378583,0.04135104599949189,0.04135635137674546,0.04057051341903404
127269074.84779269,2.1918426847344916,-0.22488930683473132,0.03957041048636919,0.03961689699632423,0.03865407955231313
127396374.85746303,2.2200168964932536,0.31750125667514817,0.03829955719760318,0.038308470280273926,0.03730439305378708
127526504.61098221,1.0749616207753145,0.5733117144648722,0.04094166161736745,0.04111755322823236,0.04066484123697767
127653850.95196068,-1.0442025342234047,0.2848535639782253,0.04044074380009884,0.040481009915827086,0.0402020099077996
127783881.88484935,-0.33008608343175194,-0.003121059080915447,0.04034523269742058,0.040671959723015474,0.04065246076887167
127914001.3584337,1.5476037624902927,0.03063761353303518,0.04452227446769346,0.04478757659736329,0.04439668327479675
128044149.81377317,1.3666779532285545,0.5918851435693195,0.047770048349314545,0.04782504488551745,0.047319944208000425
128174235.65089886,1.7241367467945168,1.558615352751772,0.04641370446660311,0.046670652063246526,0.04446296389676299
128304374.81173313,1.6054973111686672,2.1526717496723586,0.04507738688338197,0.04508480372492359,0.041150769470811116
128434493.68063062,0.34298098398764915,2.0400013850863985,0.04415682009953995,0.04416062998616592,0.04083160311512336
128550470.62738952,0.9540432989984852,2.2366990542083722,0.049848251656079,0.04989024035510284,0.046286860670417956
128694734.02341457,3.6042053352488566,1.9062168291184545,0.049835855672063334,0.04989925446206844,0.045607102496233204
128824833.8873562,5.075193561222879,1.1223844604785385,0.04757761292585983,0.04763629426219355,0.04278797237243125
128952135.59335527,3.38097745350593,0.348507921451108,0.0422658755267387,0.04247809405829276,0.04041973230318109
129079420.18523975,1.7842317399411607,0.15317315710643903,0.03905621702868608,0.039059632006425794,0.038451657013389824
129209569.07376409,0.6744347977465728,0.04781671367953588,0.038491475431480654,0.03850012444596607,0.038412883071811385
129339674.24888845,-0.14441892067433956,-0.03126392183389535,0.03787850559495348,0.037918427767724756,0.03791375210020389
129469803.23845842,-0.6741604740174049,-0.022512899813527554,0.03804368528985929,0.03807597877405528,0.03798900323334436
129599899.15781173,-0.9628929501837384,-0.2551962449108639,0.03806565759828784,0.03809317728947537,0.03786810337209739
129730050.02279818,-1.2728485900198188,-0.40375574860383506,0.03887171183447648,0.038966040548380126,0.038540993263048835
129860154.64868087,-1.3470527270322652,-0.7165868553706285,0.037842471244711046,0.037891236363633944,0.037118599199868464
129990289.00102478,-1.2417295912479491,-0.884743913012072,0.037849220143301,0.0378907433507973,0.03693176368928173
130120394.54251663,-0.054081817178381925,-0.8592561199461229,0.04090236062957772,0.04091739720537352,0.04030353700596673
130247685.25268431,1.3154208519071398,-0.7301083312946692,0.04041879864589505,0.04064649821470938,0.03983326732832529
130377814.78493059,0.9257329859818485,-0.7246836460192202,0.03880298017709384,0.03881381226500159,0.0381542757532519
130505098.13245153,-0.2113020734065917,-0.6641969580588913,0.03793566584979032,0.03795487015047197,0.03755448195753692
130635217.66575968,0.7276028635248513,-0.762861699039193,0.03884020352549236,0.03891786797423402,0.038274273471988064
130765337.57368058,1.0565524156536417,-0.6582560465590888,0.041675188267882995,0.04167760721248421,0.04108919667630941
130895472.38206956,1.4983449869209837,-0.6890050573690087,0.04061099493320892,0.04092836376921238,0.040076198639704234
131025578.53089893,2.045003483138735,-1.2644516726752997,0.04105190655983114,0.041070894834795105,0.038810573134890454
131155696.55747724,-0.598788691176642,-1.1438390655086303,0.04087164722154131,0.04090690908299734,0.03976856813448812
131285831.76784778,-1.3400008206815606,-0.6400955529287169,0.03954857909002419,0.03957810944440578,0.03893062066681667
131415950.4208563,0.20229843411935425,-0.3018303046402761,0.0375422147408092,0.03754693211884602,0.03745323950387315
131546055.41335747,1.9640932001820766,-0.6960639928648243,0.03791426237179187,0.037940574457138845,0.036670877955960995
131673347.1026898,2.466863926660435,-1.2311353346821847,0.039258665112590976,0.03936076479233283,0.036679872955178223
131803482.20546857,1.7536337423389534,-1.443898105415982,0.03853948127722864,0.03865170151931682,0.0360271781681278
131930750.15921965,0.5522529910726593,-1.5825892983560703,0.037884344033058286,0.037893893417404886,0.035465089064876894
132058063.41416329,-0.5510228488681795,-1.4008929923191997,0.041004016432364114,0.04103682653437731,0.03776297563303624
132190975.39969344,-1.3046779122744592,-1.0244258655502652,0.04262329163700356,0.04262544161958926,0.039760991159998434
132321131.46258616,-1.8276603323108322,-0.6559378644436931,0.043558928850880335,0.04369972902483029,0.041636499402186
132451222.22715396,-1.7359382173271396,0.5789292356243957,0.04425482088406314,0.04432500936241117,0.0420693444056709
132581386.69026774,-1.6502829993195656,0.638396750866246,0.041996286460637564,0.04252710205776015,0.04063733775960272
132711463.68953755,-2.0294162640404805,0.43205034284492383,0.05133520592437733,0.051587952905090356,0.05062046192150453
132841613.04229146,-2.161483869270538,0.09852809507204296,0.052349792169591944,0.05318924262810817,0.052528168686071394
132971733.55626547,-2.434323923508079,0.16901882181692623,0.04311597444150765,0.04322252742236785,0.04216700060433869
133099010.25334576,-2.412404166999947,0.09056472102588664,0.03903427803231711,0.039069144255379884,0.03794435357573595
133229095.76035836,-2.233978426236811,-0.36948397765955593,0.03977350004964155,0.039964287889858015,0.038956489807541475
133356475.73634997,-2.009557077208153,-1.3827855288267183,0.04663765625295952,0.046639998316007354,0.04468473071598456
133486526.0102652,-1.9234210869379953,-1.8371725812755448,0.04616523937093258,0.046246081095228174,0.043237323528250625
133616661.62705798,-1.6836128274652258,-1.8600498771287552,0.04710227001736561,0.0476818117358542,0.04482290472566906
133746780.45752776,-1.9061978191312292,-2.4099992210372743,0.052675455631307544,0.05268384571944751,0.04841590594753429
133876931.4061422,-2.159010329162488,-2.1844825975539393,0.05140020890945555,0.05193581519833475,0.04817912508268598
134007019.25305822,-4.578962957884375,-1.363266215174014,0.05270555425833931,0.05278018685213414,0.048734944880463406
134137123.8536104,-6.71461006163414,-1.12079866901215,0.05028319196964502,0.05033262762740313,0.0426243783219011
134221981.0993222,-6.8506117738562455,-1.3519808927126975,0.05003485154311051,0.05005438152265894,0.04162790992237836
134999878.57197094,-3.1656152506371567,-1.047074406767819,0.04539531458128939,0.045931483026709845,0.04346345067840043
135064917.39894712,-3.6025555121449515,-0.9263119085682752,0.04391946189389492,0.043922118340049394,0.04105980413008631
135172412.32498315,-4.339640293053181,-0.9985451705043693,0.05001744528931523,0.05014449720157326,0.046691917016235825
135302537.39804727,-4.4771980390363195,-0.9309925202993817,0.04904963569476239,0.04938048216030099,0.045810181814443074
135432667.84710848,-4.024503609104974,-0.734042671210686,0.04265140147982475,0.04284607634776928,0.03964679724726546
135562795.08781052,-3.560173979231428,-0.7644277153423593,0.0416091887360933,0.04168372910492476,0.03902014291511592
135692919.3093406,-2.904939010066758,-0.6621427202763855,0.041749521339536876,0.04178369983181431,0.039979698820026235
135823003.603732,-2.0295468909772754,-0.4064348290582107,0.051536159755039064,0.051676580568011346,0.05081674386795086
135950310.48752016,-1.933569634621406,-0.504745912275288,0.05098821455910222,0.05106462911189073,0.04994381528237147
136077698.71502256,-1.7466644659203734,-0.6400987481277876,0.04855883358611114,0.04857832464555036,0.04742300281222388
136207723.14085537,-1.6294598404019558,-0.4072068730172826,0.04641786761045534,0.04642202819460998,0.04573942967677791
136346301.73158562,-1.8898574814459428,-0.24150219445888602,0.04626486500065558,0.04636636146348246,0.0456514841496135
136468006.6107084,-2.7320212833202135,-0.4229783973451315,0.0537896981420074,0.054872884772005893,0.053314261432049787
136598037.6395293,-1.5075892469680514,-0.2782871754525561,0.04648799584668661,0.04664595546742217,0.046127457394466075
