delta_time,x_bias,y_bias,total_sigma,rgt_corr_sigma,xy_corr_sigma
24819596.548051253,9.258485398606178,3.7478720371913354,0.06944562235577101,0.06948872732433858,0.052071716743570154
24881791.041886397,6.330477406582998,3.984352299628007,0.17312379834088343,0.17319310326099008,0.06035682519655022
25011865.70762094,5.449741871879483,4.624979522166537,0.15900076034388025,0.15906571797539726,0.06208156489606281
25142014.586491257,7.765017166966476,4.97601037898474,0.0771129184778694,0.07715830547835704,0.05992450075146432
25272150.21891067,4.656190664786235,4.449935944783663,0.07180130032746063,0.07289814283609093,0.061299122668661284
25402241.084605753,1.349040819218812,4.142539082877195,0.06258310517542252,0.06258938849631705,0.052395238537315494
25532337.577658843,1.6897866601326472,4.435916253331507,0.06328376378479197,0.06354644110423258,0.05188697956504083
25665310.442875933,2.173348716782196,4.7453208451325954,0.06587759238324231,0.06607332748218062,0.053035403502588487
25798258.221503116,3.1077577739362447,4.962997304988096,0.06598553373090622,0.06640683169719182,0.0514554832302638
25917041.35989729,2.5810795376705165,4.184381795498723,0.06586417579453602,0.06589514192176682,0.05544479942890586
26050015.305559397,0.7336975257575432,3.4390610045371366,0.07484939307423455,0.0753512995812743,0.058923114162329794
26177306.92175305,1.1077561674351302,4.063642319230206,0.07680282518643144,0.0768809924943813,0.05448366844279701
26310259.471377738,3.8994809184945405,5.000192127954469,0.06618009671715265,0.06618568195449469,0.05040915297474494
26437556.961937018,3.6579397818707076,5.389773594495978,0.06882250088769078,0.06882968918219776,0.05135787489229624
26570487.249860648,2.8486818325812315,5.209864122013357,0.0668789482995886,0.06689299469320145,0.05040034634007589
26694987.879730526,2.2629435390000285,4.5401719052652485,0.06160427588975785,0.061678801006492104,0.04841129440449153
26827877.296992786,1.437270597071767,3.818540436262113,0.059423814370014774,0.05997243375530644,0.0506165582011382
26958065.192572154,1.2144186091159075,3.0572803277106333,0.05844192468519934,0.05853529736205607,0.052405012717670646
27093797.42443461,1.9554698835087008,2.592289361066254,0.05734781339833922,0.05736961317061101,0.05262427583967407
27184330.403445102,1.7416666979419002,2.6338715605417407,0.0543239021493022,0.054376108944086295,0.04942290949001309
27345556.384545982,2.68855746121878,2.990179162952801,0.05368544130556783,0.05377658629619432,0.046819736606797085
27486983.78436967,2.898623320412906,3.106881390014151,0.053785628054274545,0.053854888201177904,0.04631638142274454
27605782.744832106,2.3934099666190134,3.269396580248624,0.05406006619459407,0.05406815379685978,0.04615651419525447
27733092.563679915,1.6700653366508045,3.4934148611022393,0.05705618693782101,0.05739384823009003,0.049343577259918
27863211.049473017,0.8422741491950672,3.728961051257945,0.06095004726093546,0.06146578295068262,0.053059072817334345
27993326.98141008,1.5861570789197068,3.6054752479239545,0.06410313753669561,0.06563015526684687,0.05828200962675124
28123430.678874098,3.7906004921639833,3.1210486780658218,0.05917194242200191,0.05932323083279469,0.05201564055556513
28253575.852400754,3.957366186836981,3.195981948461468,0.057085179684948126,0.057245986552248496,0.04916571678362859
28383697.727869198,3.8203481580808627,3.4183292760896236,0.05730263847487455,0.05742428245089703,0.048611005978393344
28513797.209335595,4.381563252091922,3.33473184207497,0.05685038752851355,0.0568934054159302,0.04768986215537533
28643848.27598712,4.794483186941085,3.197903482383647,0.05613274286748013,0.056146440075059145,0.046854578030881354
28771223.673824355,4.696165910660393,2.9899925738532795,0.05384488251853116,0.05387568182115337,0.04521428343256442
28898563.745475862,4.3386115243317365,2.949978584390789,0.05379933916793079,0.053843329339301034,0.045777161661177526
29028620.92173119,4.498083945154664,2.7199098658787366,0.05515993209137396,0.05532961055572384,0.04821140960947864
29158759.928344965,4.807950304738491,2.4293746138082803,0.054758905422111544,0.054831936658731865,0.0482600466255646
29288875.383277275,4.787152751314721,2.255178734445122,0.056299227695870764,0.05639652939977013,0.05052550354514156
29410494.443225864,4.972875425508089,2.0696298659785852,0.056540377914071564,0.05660270931717885,0.05101205234264847
29549086.789853998,5.346901050579415,1.725404195928078,0.05442001144724154,0.05453636832563672,0.04902060530053951
29699040.291912045,5.132955724932533,1.6508322118334062,0.05622484252276183,0.05627072403441266,0.05135355572556788
29809295.400132064,4.556756953050994,1.2699380328739487,0.05471238223052929,0.05486951118373823,0.05124317200370417
29939490.056069434,4.473171159600846,1.155272671220062,0.054063396546621977,0.054090331202466854,0.050661279277972364
30069501.739255253,4.778352500417038,0.7447319857275952,0.05295251190865639,0.05308746163654739,0.04965805779717502
30196886.293392107,4.681552336058287,0.280882181453046,0.04946239389358016,0.04947427280017216,0.04615504951151831
30324167.753801353,4.654274014282726,-0.07912716054355197,0.04771357715015216,0.04773988737474165,0.044301256972745055
30454278.22522275,3.7807881477047593,-0.3100113766274289,0.05011711366933498,0.050138554112068724,0.04790382023165952
30590075.651713938,2.4916687433324247,0.45644993987638816,0.04857707231931159,0.048598695567849445,0.04756797806049264
30714522.142127126,2.8496011372755046,0.8589390354787746,0.04491167995760386,0.04503439145114124,0.04326912481999987
30844643.0996977,3.1339038669926125,1.2798432806851456,0.044813222711577165,0.044836532793382726,0.042146563561137766
30974762.77546949,3.2859933914810457,1.5528777810543404,0.04861707752764929,0.048622155097697274,0.04549084297267834
31104887.930685885,3.5157823152926726,1.3863895882682584,0.04970910627270668,0.049713101194382464,0.04674585620110967
31237767.411720015,1.487370028848335,0.3215466441629332,0.047368770975509816,0.04738570248050915,0.0468046072559559
31365153.709619485,0.7611330461466299,-0.12611517906281672,0.04268919584289534,0.042704067624866775,0.04255161739114397
31492430.687912114,1.48228344313141,-0.1408874062102429,0.0389700346127086,0.03898392075030647,0.038538248457867845
31622536.128851257,1.1743744784200592,-0.3117497649758355,0.03917279632211572,0.03924557036460337,0.038881220501775726
31749841.005626764,0.5464860685499742,-0.3608929382872971,0.039341569182010455,0.03938317010172327,0.039203013838687135
31879942.453827173,0.25799266062078613,-0.7870948738481242,0.0427460304479457,0.043234970685419656,0.04271246570383664
32010056.500313397,0.010319225814408004,-0.9904868657795395,0.04546381333162039,0.04553599673194074,0.04478458604621916
32140185.761735387,-0.7302989082872259,-1.2717688320744913,0.04469043605841424,0.044821495775288454,0.04352550987763389
32270284.873640195,-0.8618125855126667,-1.358828761108574,0.0443851029897231,0.044489719475568866,0.04297865749910299
32403252.277415812,-0.9006538298287967,-1.4758997125397626,0.044532282069037095,0.044552767123527036,0.04276931768255398
32530526.315687418,-1.1022475942755183,-1.8146073273325902,0.04773040117402691,0.0477331098624582,0.045215117038397354
32663507.098216444,-0.6101425752464651,-1.757422174425675,0.05018538548549697,0.050238766657486986,0.04808744368016927
32796419.696044147,-0.35450394783319933,-1.4029687785408071,0.04899739535370434,0.04900133018810114,0.047612727489952655
32918068.24646035,-0.4631093818080815,-1.3738423607446584,0.04917664605190298,0.04923276113165223,0.047895503568775026
33048188.402803034,-0.3500302665746489,-1.4273582155532238,0.04948975912926713,0.04953056826559898,0.048102045170100506
33175481.93242681,0.01751142908378887,-1.0801665595106698,0.0496561147002949,0.049669409499632465,0.04885859755966073
33305587.20900498,0.20739394807436218,-0.7648542712122236,0.0514383574022548,0.051480326278966725,0.051071768901843645
33435731.429069,0.3411045052260711,-0.10787837126659786,0.04581631732587385,0.045879777727850866,0.04585069700992647
33571477.00519188,0.2614478068997301,-0.395573387690913,0.0416292407599877,0.041631849336783454,0.04148499309939239
33695984.273040906,-0.030359452157858097,-0.8413303052564992,0.03980834205968407,0.039816859060737016,0.03920469256809792
33828905.36765955,-0.12984348261492257,-1.3671716421306943,0.04268706517072975,0.04276488055241517,0.04125277152996864
33953383.85843117,-0.36435551984321407,-1.9661146843046515,0.04644197815703305,0.04677010140680449,0.04385814781504021
34086333.64378528,-0.3358647603814976,-3.1805183355253677,0.057538242728521406,0.057541262806188986,0.05114648424178749
34216453.62844594,-0.33605781298631326,-4.366432079208441,0.06411790466614689,0.06412633541666157,0.05291895702790797
34343745.51292768,-0.48022756844094844,-4.503048662191124,0.06269917993640797,0.06286634889265261,0.05064095400307439
34473879.63083124,-1.116273791224714,-4.531801088413379,0.0635427583025937,0.06354782935352424,0.05117179696445998
34601141.13766597,-1.47049739913822,-4.452806352037902,0.06182440913639744,0.06191802779185572,0.049596231210216155
34731275.576638356,-1.5187090115307191,-4.31449530246399,0.06030217370257597,0.06031485405868941,0.04844254896379735
34861394.32398906,-1.5751378753819445,-4.425013924872911,0.06012526130601915,0.06025309061297091,0.047718419444436055
34988684.255808644,-1.6629689944411608,-4.288045293134252,0.062051789645928966,0.06286096266982563,0.051741977516368595
35121617.246536285,-0.909899383288461,-3.9060977420358007,0.06003534271239481,0.06006358668985533,0.05064553422318064
35251737.39801219,-0.6141935389185852,-3.37017215057093,0.05186247967864352,0.05191124816406667,0.0438285191519638
35381885.6598512,-0.6570665957295766,-3.0833717820412323,0.049723706663748625,0.049749505323208286,0.04280007387154639
35512005.70254721,0.29178549119838004,-2.8481310267891042,0.054303189742992905,0.05473909301320899,0.04935572374708922
35642096.356152184,1.0726138716467186,-2.7745875294303306,0.056439132004193746,0.05644313642559694,0.051276750591615565
35766557.57835492,1.707840115458826,-2.954997902687289,0.05534461921152758,0.05535342339183187,0.04899506429936348
35899521.12022811,1.9547706348318186,-3.7405122111201687,0.05775852046130296,0.05863938000772422,0.0489372789669338
36026811.33965984,1.7977833126782863,-4.460412611058738,0.061069842506088906,0.061121590034524165,0.04791486454041465
36156932.19517555,1.0870457234230195,-4.953345119701253,0.06582672830753175,0.0659953584679103,0.05127628373449327
36287047.94217338,0.5592584063766434,-5.260069694254372,0.07007990042705045,0.07021561618264414,0.054864057288096214
36417191.80867517,1.0400938718056374,-5.359634931414093,0.0700070706442593,0.0700176317735495,0.05383033855286164
36547311.95427399,3.3808052196844436,-5.246128478270266,0.07157618433456292,0.07176897804684021,0.051437129701347124
36677412.956507616,3.701835135487107,-5.365370111960452,0.07089101918582762,0.07096236028067159,0.048989388983624434
36807518.398218155,2.484171983979714,-5.445769527800844,0.06721103701883105,0.06725544976758721,0.04860479151096989
36937652.23451644,2.33933139525757,-5.39836586566318,0.0688973967331808,0.06890953162439664,0.05126027122852452
37067757.77142361,2.127882428235473,-5.389506290994379,0.06960352387065055,0.06965625670823355,0.05246147373308043
37195077.88677861,2.34402146940377,-5.283303938768263,0.07072800342958314,0.07090679263107597,0.054715852076621774
37325183.355295405,2.752794910171633,-5.155244520066841,0.07823333455223011,0.07824249266552756,0.06453450464663789
37452493.166457385,2.9946037329524797,-4.951818831280359,0.07486428756893887,0.07523007935246319,0.06172274205311391
37582578.5071959,2.4197686851403195,-4.809525657330827,0.06752899119113985,0.06753389349941914,0.053395188791854106
37712712.866961,2.3170006092340394,-4.869403847664149,0.06635693779606248,0.06642915554765824,0.05175863505433493
37842817.72903314,2.026445143305296,-4.99219784660663,0.06730728340269887,0.06746817154571186,0.05197467289758544
37972937.39513941,1.6529028324664927,-5.331866654558649,0.07156712244159459,0.07179564336709891,0.05561078149406529
38103057.13519345,2.0297629732659592,-5.413907434819486,0.07243717930857307,0.07274977293975621,0.05647436641654428
38233172.5563457,2.7599644611352896,-5.492427929444305,0.07732460413003621,0.07739945347074391,0.06125969754129562
38363324.343309246,3.0846488821489664,-5.619490728708706,0.0782481620236778,0.07853753657955209,0.06168352599125089
38493422.25025582,2.9183719455516655,-4.736821030280603,0.07151528588750511,0.07169115792282049,0.05662592114339816
38620706.20793625,2.9746567043337455,-4.5410541890054406,0.0649568643214139,0.06515931689261104,0.05108773269329475
38750858.130958766,3.0741857945415676,-3.9949778918663457,0.06040658250445535,0.060537148975792064,0.04901504976683366
38878130.38956384,2.4913264999529376,-3.2680316339427655,0.05667312182428407,0.056899327412419216,0.04889101522156403
39008195.52358922,1.1395258455602648,-3.649495567364931,0.054149118165307965,0.0542227407000809,0.044749752291329645
39138369.401599765,0.33895798340414734,-4.5657410911274425,0.0606694520514518,0.06148758371702652,0.0485457645726995
39268471.3868863,0.970017649190372,-3.5474081643126536,0.05655221979145204,0.0565548699042218,0.048150479169025505
39398596.09821065,1.0277656917960656,-2.467423832912133,0.053303160546554755,0.0534254275732728,0.04914166698226974
39528729.77041598,0.6754589193959891,-2.202949680274919,0.05192110802063404,0.05219175001240361,0.04879671480261469
39658835.08211568,0.7429143152972402,-2.1701012263326995,0.0486015394015361,0.04881509438012401,0.045258580534420466
39788999.454531744,0.04969924675651164,-2.4259610996681022,0.05349972258960761,0.05436277035189982,0.05054145499435917
39919046.06635842,-1.9348920478698253,-1.876513635141063,0.05250282287612269,0.05251511868094717,0.04975598699755227
40046366.71043712,-1.5432868729300966,-0.8082666628339492,0.047310214355470316,0.047423969588580736,0.0466307186215517
40173718.914902255,0.007599182900523205,-1.0636339408278075,0.042949240058154606,0.04301094716277783,0.04210441617263861
40303789.9617942,-0.08458796877674424,-2.143873264374565,0.04636647561051602,0.04652027475779673,0.04302868467593364
40433909.50342466,-1.0343366265069018,-2.304563379564642,0.05021084373305172,0.05023275965118085,0.04644909195720158
40563985.26955584,-1.4135890246650304,-1.8782797740790265,0.05009990578437634,0.050507079939796,0.04786842106541793
40694124.2428701,-0.5878085844964315,-0.9188638838312029,0.049792748761965405,0.050403377409825645,0.04979853579372435
40824306.120370165,0.5054723259550338,-0.499013748712248,0.04937283829093791,0.049552224934374604,0.04933238697696229
40954372.12021129,1.2489958754677402,-0.8243260540654618,0.047721142792534005,0.04803277786196132,0.04726805219487093
41084506.704185605,1.6144978535664045,-1.398800639003064,0.048406097559942116,0.04860714005791956,0.046730141170962095
41214626.448151484,1.8093260044568018,-2.047533797127156,0.04848520420810293,0.04849172355075321,0.044811610042231026
41344673.86971695,1.7246992899265032,-2.227443412560527,0.04873525891225228,0.04874552884928197,0.04455504189627046
41472022.105478644,1.664595262951904,-2.0332573439085504,0.04749828911150932,0.04750502508418905,0.04386844389223417
41599352.40493539,1.4647949834722849,-1.511181508809878,0.04582928998570315,0.0461582737734549,0.04399548098356459
41729447.20924931,0.6701152611604784,-0.7868788318081631,0.043339971991171254,0.04358310413251937,0.04300197249200286
41859566.733720556,-0.2337842269345354,-0.27459838752575866,0.04225962489268507,0.04230859734540281,0.04224120382983684
41989686.022511125,-1.1490562252482068,-0.5313299378436633,0.04570476966252897,0.045718703580954326,0.04532000124177641
42119810.69674383,-1.6677252578634654,-1.9231926662970196,0.05011157418996484,0.050135260474530444,0.04724341232644868
42249908.21410318,-2.3051505639909817,-3.032291629654503,0.05196980087219959,0.05229654802905809,0.045363892374094064
42380045.56527262,-2.1876828390503102,-3.1105499990970844,0.05293613996306255,0.05296917852059058,0.045852155063019366
42510141.59243013,-0.48214563937173305,-2.7769702206058144,0.05194292631352107,0.05219427300710788,0.04694723630431713
42640286.2294492,1.038372825193491,-1.9558897910954276,0.04721311667950476,0.04721575724294159,0.04411665376891215
42767590.43233876,0.4548424003044513,-1.1389183940463954,0.043393902125762496,0.04360202468982394,0.042518546922660216
42897693.96154872,-1.1399502127422407,-1.119241063050332,0.042654825063754634,0.042806375583065714,0.041626600426146125
43024985.72133049,-1.477880915196766,-2.1296167409874514,0.05055094640198993,0.05068165804314112,0.047310442680772884
43155104.95085852,-1.0721482738347743,-2.317087072965334,0.05175812100282126,0.0522489410797085,0.048535630110027
43285224.12268166,0.9140257911835545,-1.6353409891517108,0.054097453724885496,0.054352344053175065,0.05249586422865087
43412494.84449726,1.5592462519379968,-0.3775029194381153,0.05337986993605736,0.05401821998351564,0.05357848939125943
43545447.72457197,0.5518194302318399,-0.11333936698685092,0.044488545108554954,0.04512861891210769,0.045067203254435355
43675604.96584009,0.17334583613108764,-0.6252485536354978,0.042695821152356546,0.04270535676088224,0.04238278272697783
43805701.598639324,0.8301340296285336,-1.560516778708324,0.04681700934535703,0.047025673791427414,0.04506348388304338
43935820.24101428,0.13636747410190703,-1.7195726040990769,0.04621949599820218,0.046244370964615325,0.04399929326672545
44065954.87269436,-0.22187018603282727,-1.3393259150366443,0.04872619721159004,0.048944301011197705,0.04767958893322484
44193231.67554656,1.6736430934854487,-0.654173843870025,0.04895943404370519,0.04912610718653613,0.04836715642410804
44323366.1309572,2.3047057360465693,-1.2772102812648471,0.04777899287944048,0.04779898121227861,0.04566498002749077
44450642.1455547,1.353071060080761,-2.0431631881947285,0.052553013090767056,0.052569652125951785,0.04941571254522029
44580761.662474625,0.39541944175950483,-2.398762974863754,0.05331200894065191,0.05335798282071674,0.04948319067670727
44710966.86457318,-0.595051400885175,-2.4040808177376856,0.04986363860298335,0.04986661338304782,0.045746631861361964
44841000.17764538,-0.6761356130617767,-2.1661280580600506,0.04922634582782053,0.04968603079497264,0.04633385951469013
44973971.9514156,-0.7053617660462559,-2.1941297061552674,0.049631508431261746,0.04964164024170334,0.04617079150446833
45101254.74715443,-1.0731292849862797,-2.4596616934650815,0.0478072614882944,0.047824003466678595,0.04322943059132101
45231359.8436389,-1.1361612543955306,-2.5242881946887286,0.04954930851095738,0.04957716140510184,0.044892582608215034
45361464.778342046,-1.0484241340849574,-2.463597355049526,0.05045448513634064,0.05084646898935,0.04654852593285889
45491644.516077906,-1.141186801721461,-2.4188774117010086,0.04848882150158617,0.04855222197916521,0.04414870718690552
45618891.275704004,-1.570821973540789,-2.4802446542844776,0.047412177130457624,0.04741785343506031,0.04250901422387247
45749025.1259902,-1.6408067138811477,-2.4111761389243362,0.04721143219463337,0.047306164550343255,0.04262905610022689
45879115.35956629,-1.3639204622658774,-2.2991132031914763,0.04872326367487028,0.04873202847651924,0.04470737298778068
46003592.88283643,-1.1382964966955385,-2.2191249060153604,0.053126836156360616,0.05320100988473594,0.049849103854485884
46136540.51320005,-0.6541896995093822,-2.101819301508262,0.05474132755207738,0.05520369005174726,0.05239734990144733
46266645.56834729,-1.051125679790899,-2.2401183920847725,0.05223749330682317,0.05224802572711123,0.04878446892741739
46396729.95008567,-1.43896562557315,-2.2379825105803985,0.04831738095035419,0.048327700148631546,0.044452522618210796
46526923.15146802,-1.2003820019634728,-2.278568640633765,0.04787036892863761,0.04791582973222937,0.04394835059615129
46656990.19374259,-0.45038092169699506,-2.340476369935095,0.05248566105217357,0.052857934817010004,0.04921806546357449
46727720.50146286,-0.5163215703620522,-2.322447330370461,0.05271628884565303,0.052910623107044946,0.049289822138293464
48011933.13529929,-1.9345464456872694,0.22686964460636314,0.07552359947584643,0.07590932831637065,0.07552790273793676
48082703.19423407,-1.6422736330540713,-0.6631628117628845,0.08079523813735708,0.08085310647784308,0.08041736329487922
48212786.47000824,-2.435847034924317,-3.5972382010008204,0.09059080782476808,0.09079869287584151,0.08524312328280081
48342921.93351845,-3.028235806937506,-4.663698175523151,0.09173930905109136,0.09251942955763777,0.08324376971220243
48470198.43238393,-2.9523500163284466,-4.778675470251767,0.09250629100950833,0.0926587439809205,0.08295436377989822
48600333.481333286,-3.2964337933899737,-5.03742732604514,0.09368637127481359,0.09383471197940868,0.08301329947401417
48727595.59712812,-3.57566017105501,-5.26025479035471,0.09655647690863917,0.09716915642653316,0.08567777156452805
48857731.03561641,-2.9606923040600965,-5.151643000750591,0.09508116066535484,0.09509077376070042,0.08405350531139627
48987870.06135355,-2.537072570582814,-5.4805075573873685,0.09972539443970936,0.10147108461003264,0.08992781547464569
49117972.89480725,-2.565903791208913,-5.8438714157939895,0.10582736728191737,0.10694475223428555,0.0942990892243009
49248080.11338924,-1.0263024785504695,-3.7422883296702314,0.08132244699554404,0.08148920444236452,0.07384026045028226
49378215.06745258,0.053333536492129074,-1.4524000114890803,0.06491616709894087,0.066343851589403,0.0652328559722108
49508336.56387074,-1.7329221024897457,-0.4927541008154082,0.05582413875492239,0.056229308182029945,0.055716792086076224
49638472.02061436,-2.0074870802377887,-0.3783735448649868,0.046337294511678284,0.04653619284510038,0.045822008536930595
49768590.9542146,-2.3293137395086805,-0.3041280536064897,0.04399940783544887,0.04409268571183933,0.043142523027943386
49895873.89484762,-2.6985008137306448,-0.273983091851214,0.04385271839805874,0.04389633368403811,0.042637511484627987
50025988.13480789,-2.70294983283056,-0.21547480627888885,0.04414109692759893,0.04414816799302608,0.04290687877215594
50153295.62340809,-2.559657333344523,-0.13913014051876493,0.04617814818255435,0.04695304777514354,0.04591898366215211
50283413.51196459,-2.3619757404608683,-0.07954021588415267,0.04934619690140659,0.049575310572271554,0.04874616374409831
50413519.58533138,-2.5861877903217003,-0.11589823353527859,0.04895784061378493,0.04906774966160166,0.04806388850449904
50543620.15137187,-2.7356042381801258,-0.12329545593163452,0.04765342486823986,0.04809620989098877,0.04694614834637977
50673773.06264439,-2.971508970469391,-0.15820769058213505,0.04618064012038078,0.046326475934953294,0.04490830675709173
50803846.958465055,-2.6379237899513197,-0.26847373168082694,0.045043182739752365,0.045418270639158195,0.0442599732046243
50934013.487877026,-1.3911857563261965,-0.08484017317311032,0.04571630919302443,0.04620035275702713,0.045840676687623136
51064099.61697386,-2.83908579637339,0.2540899725685549,0.045510516484742185,0.04558835349616391,0.0441645431306614
51194234.72810532,-3.6796578509386895,0.224977735018458,0.04446098076375698,0.04447349943573566,0.0421021964612325
51321531.35152676,-3.4949040060191607,0.08513660671058941,0.04384355568149459,0.04410247105787452,0.04200486189120038
51448913.3291994,-3.437624891406223,0.09190324393302833,0.04453016902371226,0.0448569241833015,0.042866502380668116
51578933.26119422,-2.6884324577614462,0.12940727031063332,0.046725608993052926,0.04787707843236446,0.04673513479492405
51709068.827767335,-2.670639199632128,0.03708400040649387,0.047877735024649565,0.04790491567011226,0.04679686991668055
51839182.32380654,-2.833766966186572,-0.10868037724428306,0.0436210530604385,0.04381504703684355,0.042454230928377086
51969318.10463258,-3.0389871591550297,0.0641851120743547,0.04234141976541777,0.04249221053541717,0.04085697187312793
52099437.25043973,-2.537085743147597,0.30467900511767865,0.04267872452543308,0.04292632567800904,0.04169959523278242
52229542.56261476,-1.4279374336655581,0.5394996359111692,0.04065253918109115,0.04068751464031412,0.040036215470224755
52359662.356239304,-0.10771576257409045,0.8525579439662181,0.04317217875327232,0.0431937065085709,0.04261247742632287
52489768.75690937,1.1153219409737496,0.9215314369486632,0.042834135452293254,0.042890333550658,0.04204373483304908
52619851.76964763,1.507115720246673,0.6421380529520178,0.04233396882290471,0.04238442772405892,0.041699817202434465
52747177.3669203,1.459739403574952,-0.011431654667130689,0.04287350205013097,0.04307341834746714,0.04270778953204216
52874540.358097866,1.5916410409374193,-0.038396121346093805,0.04738562821143724,0.04760340814273072,0.0472084849203779
53004666.31364201,1.1734401382352098,-0.8684811390007906,0.0495772798467751,0.04975174346365444,0.04898216339768945
53134736.529717706,-0.32456034370076614,-1.874837442999757,0.04848972738451889,0.04849383542694002,0.045976031159956396
53264843.1494913,-1.8723600267214329,-2.507627448416225,0.05289812226345283,0.05290221588688238,0.04835884543923187
53394958.241510645,-2.440414319335538,-2.72375324142915,0.05517541174725341,0.05524004073631558,0.04985063755068137
53525083.18901463,-1.9574578179867683,-2.5444134450252,0.05035773981619627,0.050363214780844774,0.04539101050221355
53655179.29670952,-0.34134687983178463,-1.7540709937550767,0.04316346655447101,0.04321834261417647,0.04074531142008264
53785324.39079578,0.7057434343824598,-1.0406620790909558,0.040194565545310416,0.04021041981334314,0.03915523404643766
53915427.840183444,1.0063814700062923,-0.7565981798765421,0.045959993561247976,0.046097466979389004,0.04547333970307257
54048320.30948058,0.7623400126436484,-1.049689236156493,0.047948199406678826,0.04840727283912539,0.04750472054135122
54172859.26742162,0.8273867780285219,-0.9327335799929789,0.04579766084800459,0.04670778181743363,0.04592781619788884
54300160.945670694,-0.2077867763287573,-2.336646525263179,0.055588411334209845,0.055768131401361325,0.05235553353668127
54430266.601920806,-1.0747519810371082,-2.358776365164316,0.055216395251801664,0.05523133008421474,0.051630973146561315
54566044.23072392,-0.7544480456580847,-0.7479807997196442,0.04506544726173566,0.045078910797717656,0.044587813397547735
54690452.27828758,-0.8010590880616849,-0.7347671185342881,0.04242312089447381,0.04243377331837622,0.04191482828549757
54820649.91776125,-1.16878027168449,-1.2156883673729753,0.042225544553793216,0.042342782440444475,0.0409653561558227
54950694.2238313,-1.3032069253426184,-1.9140280421847435,0.04639859386197485,0.04654508428785263,0.04361972262461794
55080865.411050305,-1.113050728819256,-2.0836382291589115,0.048626824236243156,0.048684023564138625,0.04545216980962331
55213795.170642085,-1.0121116309103968,-1.6307972241837405,0.04652537894316272,0.046596814960849595,0.044518289981932746
55338229.97232391,-0.35102461338237434,-1.3859678822795385,0.04585052916502549,0.04587147058411612,0.044424275596861386
55468396.43194477,0.15076146437979596,-1.2357720331333895,0.048669276278437534,0.04868879300182725,0.04759056527713293
55598517.505456425,0.3041832662503165,-1.0565251763982333,0.04689654787026207,0.04691220378057691,0.04606521069669351
55725807.1880762,0.06317545687689337,-1.1192522031368748,0.043174542976145515,0.04323225061447611,0.042230403110581426
55855927.946042195,0.3558011178586388,-1.2682164993820446,0.040951450933924646,0.04137790537611899,0.039993329806351896
55986046.403326124,0.2855751438219085,-1.1012582081362192,0.04303913895562235,0.04304344954657276,0.042045935266465516
56113337.52413647,0.1738399576962046,-0.7903790408851719,0.043097553668891765,0.04321530996175555,0.04270806166679924
56246286.116049424,0.7148794763405734,-0.5504408570627588,0.04005175888012808,0.040065833739080244,0.03969449090178401
56376405.02686177,0.7899189269556376,-0.04191178868005718,0.03896061464021013,0.03899340192792478,0.03887282107719696
56506525.588191375,0.6539123766986803,0.3290900588616246,0.04350771043678855,0.043930711749584385,0.04378492851372472
56636647.17469691,0.41264385088684175,0.46984357690987044,0.04655334765444537,0.0465760663004492,0.04639586531194397
56766780.659452274,0.5486861232818553,0.5965770591695956,0.043526250151610525,0.04352856075817974,0.04321354128240564
56894071.9284025,0.7410552188394289,0.8386959320912315,0.04066100316936975,0.040674658032441476,0.04001019620678863
57024163.039363265,0.8521504930995093,0.9894645604994354,0.039503400947151365,0.039519567442658735,0.038570926725308895
57151483.23060583,0.5816941432524387,0.9891606598363496,0.04077028495668426,0.040775307239809086,0.03991727113113749
57281573.93166186,0.8014308520356327,1.2654585557742812,0.04215966127128932,0.042200033651555925,0.04082050403723704
57411707.35004485,1.0760627331775112,1.4185836747994442,0.041658314008947456,0.04173261257624677,0.0399265803366099
57541826.79377769,1.0846330837832685,1.3454031758211409,0.04152484666199227,0.041605651018415686,0.03996281547079426
57671965.81688181,0.4120545981056491,1.209407483691726,0.043000269926921623,0.04300357330349507,0.041820669627678435
57802084.38396756,0.042234341421738354,1.1854542046468712,0.04609788508485273,0.046112294186991726,0.04505090515308051
57932171.51397836,0.1188177966831087,0.37549083526245147,0.042866916960077175,0.042949095996572095,0.04283621186876275
58065133.96189997,0.034993128288475714,0.4214141433536695,0.04047536291001804,0.040486132963844186,0.04033771947490141
58192410.61320671,-0.42270167997570685,1.1988239787424144,0.04066641284798485,0.040708059427245195,0.039437747799902306
58319716.80930315,-0.7988888719315085,1.191067002532088,0.04103534068160427,0.04111054405173271,0.03975291186147765
58449836.09881247,-1.1998807025834815,1.2228573009154367,0.04035770999710422,0.04046705835614002,0.03884267706201989
58577142.03153706,-1.3546343014551034,1.5504993064896675,0.04202465945344914,0.04203018254484722,0.03960276842957506
58707262.59222433,-1.8018144862883965,1.587950547801819,0.04307110655835223,0.04330302324187035,0.040565050822542005
58837367.927687004,-1.911306495515859,1.4231470592053612,0.044768445972136195,0.044924688722846294,0.042634271580483
58967468.36442356,-1.9880030640067095,1.4894203926591134,0.04799313476407056,0.04806855436565165,0.045728624999089244
59097593.18086075,-1.9492047705745807,1.6323968493347618,0.047552799719229676,0.04813132041952337,0.04547744966259109
59227727.723217785,-1.9493380195398482,1.2292324024571541,0.04173522824362938,0.04173704442652565,0.03967731886774565
59357848.16547538,-2.4209736430742805,0.9495723145298255,0.03980745210673431,0.03980963612047211,0.037796466856706123
59487967.5332337,-3.1130629224915616,0.7182329078277119,0.041021235735338994,0.04106558404635247,0.0387305824259814
59618095.21646875,-3.031135113220982,0.4677752268396156,0.039951663920004474,0.04005436624418193,0.03807030282264626
59745363.15992068,-3.3184576499614282,0.14235825007092912,0.039255208789555435,0.039724090618048484,0.037602594773044395
59875496.93519142,-3.477397313728333,-0.1688098299287802,0.04104080268567901,0.04105807713719896,0.038852337304165305
60002786.910374105,-3.0030289404831145,-0.590298796980817,0.039826908117951,0.03993033042344823,0.03803059676043176
60132905.54342884,-2.847815383608145,-0.9197983580443302,0.03964285439991451,0.039690331802964156,0.037539823593266936
60263026.69887295,-2.7637788890757933,-1.1663870026580505,0.04124249023418523,0.04135092845199699,0.03897018882261722
60393145.4774048,-2.549342072724552,-1.4416649104872643,0.041853240560640215,0.04230103066902101,0.03959943772098257
60523250.88928059,-2.268067269020518,-1.5677754468503793,0.041809983466179354,0.0418156053970905,0.03899397440391761
60653370.37822975,-2.0033636981883944,-1.6165117369408315,0.04111573855806853,0.04116736980652758,0.03833985154108299
60783505.10207574,-1.811782338859909,-1.7106701223015466,0.04105920608363757,0.04106371157790145,0.03807470828054133
60913604.81226799,-1.593398901180635,-1.8709228964074067,0.04135039136300784,0.041415606292777844,0.03808725457593519
61043724.17505201,-0.9754273564521841,-1.9122554526467102,0.04331435475918874,0.043339052708940055,0.04028731239460457
61171019.80542819,-0.46394675006592273,-1.7728202691686443,0.0416948760081272,0.04174252417818963,0.03910642195856036
61301154.42720231,-0.19075010715029447,-1.6468448276852405,0.042241170889491975,0.04224598547930501,0.03996473987031317
61428426.51361492,-0.006488014980526749,-1.662771123585701,0.04569850351904981,0.04572417120265467,0.043610790323900604
61558565.19647455,-0.6627865542215868,-1.389829665206446,0.046875124812840535,0.04688346445910705,0.04543608378586983
61688700.5973555,-1.4540437554044574,-1.1536814070351427,0.044524484335581045,0.0445512645123849,0.043240998018612774
61818781.766705096,-2.055941021822078,-0.9428240995342493,0.04125190727777071,0.04125937983492782,0.03984227683807649
61948910.62499942,-2.0230632978209204,-0.8173335712039878,0.04101935559731645,0.041137095661959715,0.039910123188136234
62079045.29425776,-2.59574063263327,-0.6809571248380059,0.04031388249308339,0.04063401294810503,0.03908257785759796
62209166.41447208,-3.6096082527065922,-0.6505410606171628,0.040426647070851,0.04048146927640273,0.03780105971690068
62339285.24522632,-3.513528802186973,-0.9086264373787288,0.040186490244460166,0.04020041625670485,0.03730454022029761
62469405.63498289,-1.957818407771713,-0.5523044925528272,0.0397941966746338,0.03979982091581791,0.038880175042465936
62596681.47233553,-0.6306164699298824,0.14369491973181858,0.039674899610582716,0.039733559863834554,0.03963864496626087
62726870.47849855,-0.4090419956330582,1.3055400957458418,0.046933035875172655,0.04698776134407576,0.045700542522645826
62854085.98273723,-2.0174995936002174,1.5525581677114837,0.049745840115642814,0.04975115146841109,0.04732236763220481
62984239.53495766,-1.9867602383820442,0.8347938345625397,0.04415965914936611,0.04418742251806244,0.042905708542923804
63114321.75116417,-1.5654599176646598,0.5724122593455933,0.03984878617461243,0.03985211622190156,0.03907327179889662
63244494.105702326,-2.9388688764802318,0.28197796321473123,0.04069315603591117,0.040759746113854654,0.039067333056967496
63374566.79559293,-3.901086799023372,-0.4682085502953262,0.04332694785312695,0.04340094343424891,0.040663706212495335
63504703.55204725,-3.6877610916794783,-0.36897591512304745,0.043382180208510444,0.04355743526902048,0.041166467895389865
63634805.12355557,-3.91348069542562,-0.2700220875084412,0.04155612251229771,0.04158909241933856,0.03879441934115047
63764942.7165844,-4.364968644205371,0.19475781297691994,0.04606146812084271,0.04608826745587755,0.04264575883905468
63895032.526231736,-3.7467476612055663,0.31071563704636496,0.05435818625935027,0.05442897724367698,0.05174640146496969
64022369.83175149,-2.5595330735222332,0.4985144133423387,0.051521518299941206,0.05156769688864262,0.049327211689367774
64149705.991949365,-2.653300786805448,0.03664547318569667,0.04803414574051827,0.04811715079907466,0.046612776581214065
64279777.39733205,-2.9241953402942573,-0.4434554952625097,0.048572544703851646,0.0485834695667462,0.0464993893532399
64409878.98902692,-3.213541196885642,-0.7180231926686665,0.044711028677116765,0.044951147148175614,0.04254056436375572
64540003.41657385,-2.9307171257646454,0.8344580677757559,0.04244156781041598,0.04245053132424586,0.040247528380837456
64670123.81283569,-2.043651941264619,1.9903809666486765,0.04209006967134936,0.04211902119625089,0.037799465042884825
64800243.60535457,-0.33619642282393386,2.103111183814732,0.04443468165862507,0.04473789855054025,0.04117260065091827
64930434.13970709,0.18321639989726182,2.1340400871807725,0.0468189243690694,0.04683226243933547,0.04338785116915626
65060484.44310082,-0.13035311305228983,2.485150330018798,0.04899819418705293,0.04927406515208257,0.0447194141968551
65190572.7678798,0.5409068512413527,2.4283658279024336,0.047377362582260135,0.04759797032572785,0.043155906275438756
65320639.850074485,-0.3523018158053234,2.1918242410693796,0.047379301613647055,0.04742871335278993,0.04378418592905568
65448015.914452806,-0.256824089287098,2.8187343358029753,0.046606976223709524,0.046776924135058504,0.04055282948387477
65575361.623919964,0.7504503375327273,3.025159578935577,0.04686675330525285,0.046910454807650145,0.03972942288469612
65705426.016509786,1.5204180919265693,2.791178776842326,0.045865437022638206,0.04589474317381398,0.03947636101907491
65835545.69125669,1.4703609165327296,2.236281941548541,0.04647754278825343,0.04650176193489178,0.04246283589518077
65965659.52433147,0.016422294168387253,1.359930703278268,0.042026529894763895,0.04206259880456637,0.0405516569380216
66095798.223948345,-1.0594133924971758,0.9328071018093906,0.04050513715895331,0.04051631724884345,0.039528873202302986
66225883.366781734,-1.8048583421890585,0.47391462978766724,0.044491061105080214,0.04449894167791403,0.043750907890227834
66356036.09641425,-1.1033496908740517,0.48211342823928804,0.043317495524747944,0.04334955263522222,0.04293625196019267
66486127.737120345,-1.0598688646569394,0.32878311245071096,0.03987453292966766,0.03988756288542506,0.039571261927412005
66616276.08397399,-1.6634343825783253,0.48689569643968317,0.0389705849674615,0.039014561450837044,0.038240721350723046
66746290.856814,-1.9093583064111541,0.9085891519343623,0.04136631838329601,0.04137077078078243,0.039943754636242855
66873692.133816004,-1.8297010363633284,1.244375366701058,0.04092220911321663,0.04099803600465974,0.03896863311799446
67000983.1196942,-1.0409075254111195,1.5303475982346946,0.0381573230273476,0.038165261661339586,0.03570928577956003
67131117.39175303,-0.3827944849680133,1.6514318278634474,0.03769045241025876,0.03772511728940489,0.035127619341960785
67261218.33196071,0.328260153094356,1.7267849904109327,0.03954051413893468,0.03961567494862305,0.03697802209066316
67391355.42028725,0.854125277812768,1.7356441462974523,0.04153845535805579,0.04157486047828005,0.03896687916601504
67521443.24075891,0.982144612286105,1.5857290625612372,0.04043018728315454,0.040451890946099356,0.0381725654380233
67651563.27900586,1.4898935265570552,1.5602023175954545,0.039815529187276086,0.03984369307382067,0.037402867901914744
67781678.51377952,2.2482324647438547,1.5960796177498682,0.04120101106027094,0.04122209996265292,0.038287785625830136
67911817.49623999,3.096811422128156,1.6273476470525863,0.04053372922755598,0.0406671972171288,0.03678730690320152
68041921.89144577,3.4734551564337135,1.5890800278014123,0.04341485979185658,0.04342522657264011,0.039478601130316704
68169226.9258112,3.516647572204464,1.6360705342633832,0.04698599650193296,0.04714468182287671,0.0433550570914879
68299315.00807898,3.2454963122185942,1.8072326660660742,0.051025841835346586,0.05165851153028743,0.04810466826258962
68426622.08994538,2.836937591459215,1.8616619139255222,0.05171882735849401,0.052027775143801164,0.0487328161462669
68556718.87932137,3.6108308859545857,2.0384436519364306,0.04745327196986196,0.047743565777080214,0.04283391116429296
68686895.01430273,3.687768549367259,1.8568810869332049,0.04775023679032784,0.047800154819802015,0.043356915496784366
68816997.82892485,4.0526474529938215,1.9384394404897596,0.04796352517809951,0.04796924583268778,0.04286347467697369
68947134.25703916,3.595777355172867,1.5213136873183633,0.047413562509071305,0.047460423815865856,0.043865661079167236
69077210.98253173,3.1302964748907316,1.0265611905801129,0.04618482434965383,0.04619851358897725,0.04392605039033836
69207354.24323994,4.01332955915323,1.4206679892098457,0.04720386204856657,0.047217636938261004,0.04299749139174429
69337442.30399415,4.230852465401063,1.61610615911991,0.05282972262885458,0.05299140432456944,0.0428775352414692
69467586.21435675,4.20455390729844,1.7328636908603645,0.05768189062777045,0.05771938127442498,0.046049145376593215
69594863.0752139,3.9681736890365253,2.135410716154876,0.0642040993022069,0.06420904347641064,0.04831031178407004
69725011.7646364,4.0012604539225665,2.3354593206010548,0.07299171536596483,0.07304019599658086,0.04978938442989549
69852302.03022948,4.664897011698515,2.845856552431919,0.06346630010671866,0.06354640868862264,0.04517861912326369
69982405.95004317,4.546239239546656,3.124617267504908,0.05340183420511797,0.05340726523629472,0.044092630265215454
70112509.49968249,4.395452804084855,3.2400222124485207,0.05562988708776479,0.05565834317564025,0.046461953718346785
70242650.95958933,4.355182347345707,3.3668003844302126,0.05776259682522835,0.058228752562296655,0.04904872186027677
70372706.08797051,4.1784088436247835,3.460711924562136,0.0579801871137089,0.05798992634544057,0.04848937429050255
70505708.51463631,3.3280562277739287,3.390682860202966,0.05491641888656441,0.054968516176127045,0.04609008098650952
70633014.27522369,2.7871022119356708,3.4792031180596723,0.05584866595309681,0.05617922610319282,0.04751062148545327
70763119.4488281,2.6114633427496017,3.5632535712124516,0.05563804584247938,0.05580290512904362,0.046738338597163885
70893224.37671664,2.6715629736660516,3.6438714481094623,0.05542458731652477,0.05545964386915874,0.04589114338854622
71020536.30076957,2.3981640713564785,3.3232447679363686,0.07307234234509263,0.07339304526776083,0.04647519704071812
71150637.45539275,1.9420897114029918,3.211604742274431,0.09129036707376348,0.0914266748316278,0.05029777319323894
71277957.42020404,1.631289202409199,3.336157532072647,0.0898894529088501,0.0899884165114731,0.05280265578605982
71408064.14444739,3.7955372127712286,4.397633151791625,0.07921518585645416,0.07953608399666828,0.04732548572066883
71538203.13202935,4.536044796485945,5.06657611361893,0.08486954684786942,0.08503856270632365,0.04851581878795064
71668288.60491765,4.8282738322965235,5.208886257135158,0.11562246905274985,0.11582328494447783,0.053441161641027655
71798432.03181037,5.614391585025126,5.319874099073335,0.11382785822751496,0.11392842031339386,0.05323245333069892
71928534.67403355,5.451949932011366,4.252840383749897,0.08876801912327734,0.08897095060669177,0.05626860232099193
72058704.32682398,5.887402757182304,4.260633575867728,0.07576392573091112,0.07602039996274143,0.055247252927190425
72188774.86118051,6.522625825596619,4.63260028604792,0.07993611385334572,0.08354006155280513,0.07070436667553735
72318903.98693632,6.113742130168665,4.424479535105196,0.08061021709886579,0.08069790606486975,0.06880237297489342
72446210.58431995,5.937668362591528,4.51633712585127,0.0706820972493079,0.07072971010919335,0.05641123761471514
72576328.83250251,5.734251256060379,4.820552463486168,0.08101723069549825,0.08102332071774312,0.05719649218925718
72703584.17944394,5.9598893695886,4.664769404545426,0.10291546085266606,0.10329155136758804,0.057195417007214304
72833742.02419263,6.047834930720816,4.283753600770363,0.08544230646334584,0.08601732608464757,0.05138587839127295
72963846.3798275,6.670454837341958,4.50227350702182,0.06755356163104732,0.06781523664125075,0.051830693228237544
73093949.24941534,6.872175560073436,4.264537542273626,0.06643589131021131,0.06653199142196664,0.051158447607369616
73224099.99114254,6.036775771091662,3.5984704845997917,0.07551147355435299,0.07567088693093853,0.0540601247459815
73354203.7909885,5.7785582668901165,3.5548256676025862,0.07589404645678967,0.0759763431599148,0.05265093129903647
73484337.47843958,5.112514495138352,3.815665788817157,0.0728529655837751,0.07289374882215177,0.051090372524308085
73614442.83153683,3.5383339579655115,3.665852389597883,0.08318946014932843,0.08337928714572586,0.054077017604108456
73744563.38571246,2.8720598023230783,3.4130144423174964,0.09051946390314373,0.09053718666204529,0.060307017786807124
73871855.77735572,2.663202500189272,3.4605605543421296,0.08957563942825945,0.08963038547274176,0.05871765571647164
74001933.6434426,3.4781852965126143,3.7293729651889893,0.0719058088841489,0.07196306353245137,0.04989291110728654
74129266.16735688,3.7402938210527963,3.7519465118045807,0.06439501366903401,0.06445511205930227,0.05225369114490166
74259366.75059032,4.333980904831125,3.6133312736121157,0.08311382538330403,0.08322360464084282,0.05543120570223397
74389505.84855688,4.379318248011704,2.8971316789802954,0.09051726534459117,0.09128197086047847,0.06411852601681536
74519626.04284903,4.104439105468924,2.7648914262768547,0.08241961177437977,0.0826645235666005,0.06598099631598259
74649745.8460426,3.0739851345772236,4.081778452134431,0.0878581770253314,0.08883299606198977,0.061344789684662525
74779832.6427452,0.863970356970879,4.170601377522794,0.08704337543228435,0.08707580698807565,0.056416758406125964
74909985.86354664,-0.49823892992361013,3.5291934520024935,0.08865130627122911,0.08975257405323846,0.056100659935770396
75040136.88325968,-1.1164259549665447,3.8371251694976074,0.09253827308719172,0.09255656550043856,0.04941651858468901
75170225.9109414,-2.503510136897336,3.395974857258311,0.08233781933092763,0.08234791499533414,0.04912901158297362
75297536.51395872,-3.43668633951658,3.1390534863311754,0.07562973793984105,0.07563424319729072,0.051175624357667676
75424889.64507768,-3.695158394915708,3.9624548329900415,0.09132847651268322,0.0913539342470396,0.057229617967559925
75554926.8901936,-3.7930526767805555,3.7372452416661015,0.09448819668542453,0.09454497389455646,0.05512064024096059
75685046.17929123,-3.283597938397477,3.493087988760558,0.08165922381186709,0.0817506829780295,0.04930828972045602
75815151.21610174,-1.9356189576880016,3.513777770749975,0.08811294151069114,0.08815650190641709,0.049930369765571185
75945285.49164084,-0.7482718448472955,3.5232494861454424,0.08378861589411296,0.083851836302207,0.048935691083703825
76075329.37234975,0.6384922686278399,4.230742086705558,0.07638461365828768,0.07677559936684883,0.05200178078177714
76205583.16482945,0.30695712999813496,4.251944632913705,0.09372804199725583,0.09496989219003296,0.06383077433375034
76335625.45750824,0.12234438971130228,2.7206776573564673,0.08005986113167934,0.08075350266988837,0.06669867346362196
76465763.93388455,0.7983526538249196,3.4065303307291255,0.07984530070377725,0.0798526989265737,0.055392391605090414
76595857.80774641,1.2250977175630826,4.468489977088876,0.08226996362690397,0.08244809673936668,0.04947843474523649
76723173.52565038,2.245103854186954,4.8441683055837945,0.08951752361093082,0.08953938429927712,0.04969940412552534
76850516.91623005,2.9904428100584264,4.434504268725785,0.07868525833673534,0.07872505921411703,0.051917984755236554
76980599.1469297,3.139052285337628,4.338655264262687,0.08004853391672281,0.08009248260973277,0.0488795756488675
77110704.5810928,2.729631714599216,4.300049402299767,0.08389046537897837,0.08409146093545339,0.046603338023788216
77243666.44015461,2.5484488858177885,4.419621660152736,0.0927018540842917,0.0929109130305052,0.04732535251222349
77370924.31330636,2.8820450222286573,4.307971807122906,0.08901018727832405,0.0890623401801923,0.04703865989082493
77501077.63421762,3.068029669432291,4.169081097370038,0.08012471717958058,0.08018140667324411,0.04876102299059669
77631202.21870038,2.5685270595524017,4.256486334185719,0.08740968188042451,0.08795331464845035,0.057892727875433904
77761273.3413294,3.4447425741837834,3.838570022748001,0.08986518362810712,0.08987916922903917,0.07152911003347276
77891481.3831453,3.3911596451271255,4.208216528867697,0.09146433682978841,0.09152212364874644,0.06092186650322887
78021487.67175725,2.9481490795198413,4.1047309296546,0.08749568678148459,0.0876802957016602,0.05561576125419074
78148925.87000166,2.7006817315790923,3.5724741912756057,0.08768183100795779,0.08771442600888181,0.057571762799215116
78276163.64600296,2.198071011876687,3.557803555343001,0.09293243442176197,0.09299609432292721,0.055789227368136525
78406252.80331591,2.104487261928268,3.5128563574271605,0.07202293187190904,0.07233572435555603,0.04999563044725704
78536383.56887393,2.4769767188943907,3.9615425396506847,0.06826229489584056,0.06830422860942492,0.04705589472950159
78666460.63229246,2.2960824552280847,3.9039384881389427,0.08194279713134515,0.0820122891933384,0.04910773362394838
78796588.97723398,2.3695445223995852,3.981558589221944,0.08457460432856809,0.08458874174551685,0.04868321039785249
78926737.61060409,1.9457443309682643,3.1091319213515223,0.07469530337409973,0.07470198966242325,0.050476741939957735
79056857.15264893,0.26215198915806104,2.530014529634341,0.07313766432537948,0.07314321799742696,0.04949141266732862
79186998.5230026,-0.37229670125933206,2.8344236094128665,0.06647474544512605,0.06647846682104894,0.046596563440200404
79314251.41520384,-1.443511992319429,2.7834142697315944,0.05914767130575982,0.05922010723503305,0.04619509955619921
79444352.15509148,-1.889339264023099,2.6929274756421506,0.06435581692799656,0.06446333191756057,0.04655334877938662
79574506.30104536,-2.186977978331675,2.5962084497088513,0.06715707268164176,0.0676213185735329,0.050278259007771615
79701783.88363747,-2.70084997297465,2.334875529496699,0.06890399123082087,0.06893443754708896,0.05245856180109527
79831905.62478755,-2.764357985777765,2.578007826344055,0.07299822257690974,0.07300186659647082,0.053561170477833694
79962024.87566361,-3.264467165421467,2.554091437280081,0.07219750494178646,0.07224128435786561,0.05135310984528778
80092159.9512581,-3.2960614630844938,2.709963331752354,0.06973808759736293,0.07008730139789122,0.05398402373546925
80222265.12291372,-2.4010329899628333,1.6666867866197674,0.06378233269190912,0.06507786267787735,0.05657640190554127
80352370.09371264,-2.1458312159000323,-0.013351498350850973,0.05207821835656751,0.05213106241830379,0.0513119860119127
80482504.80545278,-2.5549639419867494,-0.7430797195000752,0.051635512497302284,0.051649864994153485,0.048410125907343005
80612624.27905875,-1.9280330076242327,-0.27796108065706615,0.046866151722628716,0.04687743076184542,0.04600554415445068
80742759.18005155,-1.77359290747872,0.49963373077664586,0.050823326812939704,0.050840303640098235,0.04899630918687429
80870036.12984312,-2.23376580007315,0.46679227764431025,0.048866059171722154,0.04977198895652035,0.04749512811037174
81000155.93268925,-2.561267369059184,0.41617273070825433,0.0484136257545019,0.04853076513472294,0.04648555409113988
81127444.82448809,-3.3562382103653197,0.495304234048096,0.051034855925377924,0.05103865294684985,0.04739704111301094
81257566.12207851,-3.5364721696040418,0.9495347136886212,0.050093555101102014,0.05015266643833895,0.04362810636552218
81387670.09896363,-3.069426604960769,1.1564612835594819,0.045766622315118494,0.04578117449838406,0.040302076523950944
81517803.76102683,-3.5518301708028703,0.9308056322131074,0.04825220453802401,0.04826769893517923,0.04262839660457393
81647924.1890499,-3.574676190271899,0.33658498090087846,0.04893539421735437,0.048957443451047127,0.04567652302596054
81778043.8492567,-3.0438272983796826,0.31388731676199083,0.04726532690807619,0.04764696936494489,0.045237737207558554
81908148.52403584,-2.8315336024624544,0.22347537000534062,0.048043591624102676,0.04809290277322198,0.0464619796523296
82038283.2202531,-2.4636387930988817,0.24593581355385452,0.05123004361486826,0.05457259556676014,0.053414692731694344
82168388.08878404,-2.143763614867007,0.03920327216719221,0.05011001505903656,0.05039822134742981,0.04961237987965769
82295678.77814361,-1.382846313645312,-0.3951259640968963,0.049201318513057084,0.04930120959694083,0.048551145994701186
82425812.08090697,0.2178192923755359,-0.6424315588531141,0.049050988715105166,0.049100617609951554,0.04781103161535768
82553105.11358002,2.5326423860618847,-0.6662590968842247,0.05629110187636676,0.05643973353079196,0.052284638193360405
82683316.2438606,2.8211637201687156,-0.3097260308126535,0.05195936076702798,0.05206951034635619,0.05013602700190888
82813330.21248725,0.7392806005908634,-1.252997371392894,0.05792144878426157,0.058644945568006056,0.05212256908509571
82943450.04049578,0.14502089723349615,-1.4118207453364984,0.05694899326118425,0.05699167828439612,0.047982757931240516
83073584.69326955,1.2679395329892058,-0.9225922438481194,0.048113069558120454,0.04818179195823433,0.044479347563646285
83203689.30877835,2.4237150954569544,-0.7233151969923985,0.04266125184614068,0.04274876797558505,0.040266425353983344
83328080.00780109,1.6370634533426403,-0.5055075088027426,0.04286715519133973,0.042885176211262005,0.042181895283737586
83463943.63049787,-0.961879476142905,-0.1764057396919627,0.0462895060030215,0.046324186600141294,0.046161693563013244
83596960.94020176,0.8128668810676464,-0.07905635358969455,0.04414193516637442,0.044206773657662984,0.044089892117287484
83721354.62693262,0.9901802280403811,-0.8830303158113881,0.041819605953700566,0.04191798280533071,0.041061955398182796
83851474.39159158,-0.8966250743774111,-1.0266185824186376,0.044123297023782065,0.044571213738092495,0.04366377281831935
83978766.06850785,0.2890930150333623,-0.37255573651866614,0.050210479619668784,0.050215661440107924,0.05010516832160166
84108869.413854,1.1291618892575068,-0.5433501601322651,0.04831643147137687,0.04834443273813869,0.04791692930013319
84238989.58046685,-0.39338460020658195,-0.9023123937625157,0.04690042454024721,0.04692290724616431,0.04631832922806629
84369125.77339128,-0.8556709925162782,-0.29461790930426746,0.0477270233900332,0.04772962747747008,0.04756495356945946
84502087.49182796,0.6947630806707545,0.5444538398063605,0.047707889912030205,0.04854579231702238,0.04827696823631608
84629397.06857431,1.9890379484194247,0.13385473209623538,0.04633010948056147,0.046397251808554155,0.04576777599504797
84759479.2001276,0.0933574316071408,-0.21239236166697956,0.041606004981712845,0.042201713520625565,0.04216301707396582
84889604.03002205,-0.17941506283389502,0.5746579451801926,0.040086143788618175,0.040324749658910135,0.040034134214812854
85019709.57064644,1.4479547231202414,1.0502705383036361,0.04052612712666396,0.04057015770687967,0.039315559231467984
85147029.98080553,2.395371564787156,0.378306480457679,0.04205007950368357,0.04263008274281386,0.041557456220199115
85277119.55183071,1.6820756518481281,-0.7230922151844237,0.05175615857587851,0.05390566717126389,0.05314178776779856
85404425.33095247,-0.06371536383306127,-1.6604780326956625,0.05569283633337804,0.05615908774022018,0.054467827736706886
85534530.06418169,-1.9948627633878422,-1.653126993303769,0.04573081899750177,0.04578355452562595,0.04317226149063503
85664664.9620769,-1.8554042765199281,-1.6076336969620053,0.0462843810565943,0.046822521529329184,0.044458749883317925
85794785.01530969,0.36356562941803744,-2.0219019388933397,0.05073131508034171,0.052068716569073116,0.04927384198951663
85924891.84684668,2.5825021451103654,-2.225892967561978,0.05149570934684606,0.051527522191580466,0.04690332311795532
86054969.96807325,3.1119530520987175,-1.968330847229173,0.04908955689937987,0.049092441762342606,0.044531701156862086
86185145.14092979,1.0579114613905192,-1.4542649451742649,0.04397839182754203,0.04402025519235874,0.04209753617520216
86315265.01005086,-0.4259360604153877,-1.7853398000041822,0.044931382196434,0.04509086106789821,0.04262803072548302
86445385.34721184,0.7700339529696145,-1.99958615397533,0.04463304920112566,0.04473351841671247,0.04140009775846522
86572658.38549234,2.328311391713976,-1.4906223683977775,0.04228464876483755,0.0424313627404531,0.039461626746842525
86702799.92620721,1.8601306077230995,-1.2099552637211093,0.042240252032618116,0.04228302455850304,0.04036990268125565
86830080.93493366,0.46114046208347714,-1.7105233348715048,0.04310960446681574,0.043177274319789606,0.04073789932414188
86960201.52137168,1.4896869451935788,-1.7864387914707658,0.048696702165061265,0.0491437056769284,0.04642835770208742
87090320.9582718,1.2277753830499762,-1.2823263692301174,0.04938441145723995,0.04946473357539901,0.04803910688229146
87220456.26018658,-0.3612651257337943,-1.5790633822354732,0.04478406120363338,0.045141320615483156,0.043231799644444936
87350561.82969955,1.0628908691285863,-1.4685841721829311,0.041182308361452064,0.04120331596177721,0.039105651544309866
87480681.40257284,1.0305483724925908,-1.0154733455895673,0.041701253776965194,0.041752353259966665,0.04066468636456995
87610802.35256788,-0.254271712591817,-1.1855209504290145,0.04325410868477503,0.0432695699613403,0.04215382344739898
87740922.43922794,0.7076280903591278,-1.2588800531536237,0.0422934028657881,0.042490346019866766,0.041074389555019804
87871037.2854275,-0.548928948766063,-1.0046196176089695,0.039392377627546625,0.039395370761248674,0.03848525801090849
87998349.67657524,-1.4355712107433372,-1.2781490273293648,0.039991660406038326,0.040009212639811845,0.038295504378694396
88125696.33414088,-0.6856883485955404,-1.3193672027344951,0.042445642921076984,0.042456213925701244,0.04099312504204732
88255759.46289489,0.7830420327580788,-0.9295472444329264,0.0433441732002743,0.04360425156368162,0.04278959319390716
88385845.23546757,0.7637242074925399,-1.0349810143005926,0.04355277253225339,0.04395533355715342,0.042983897648501364
88515998.33749217,-1.2006423889648206,-1.1920802153881473,0.04501699442170739,0.0450781825527017,0.04381427864749371
88646117.94656461,-2.145347757773262,-0.7977985320532417,0.04481421917128594,0.045037496827808346,0.04387005723105054
88776223.70147781,-1.2461692734552865,-0.1833252192012162,0.04532909824781866,0.04538700403755365,0.04512096140751584
88906328.7965112,0.1376609312229882,0.2555759235905225,0.045401769301519984,0.04619263997179528,0.046142964369597535
89036464.75434983,0.8062687347552355,0.19377873509282215,0.04301283536782655,0.043132317926967444,0.0429991058152819
89166599.31007212,0.8630226089513753,0.25339778899523985,0.04127604945271362,0.04203062232668946,0.04185812293010297
89296668.12037687,0.9284998650404005,0.28538925861020703,0.040008776454784574,0.040188480283253426,0.039974260602955405
89423995.37432921,1.2924359153184104,0.3083854584923202,0.04238263709862511,0.04239758162588739,0.042049135862798334
89551340.6282793,1.6496341544629578,0.3677357100971568,0.04756861714528417,0.04776632533115152,0.04727492649240134
89681419.12533012,1.8087658505265078,0.37985085126653,0.06142077442458106,0.06318292861056805,0.06274531108164236
89811523.98276459,1.7994922014016919,0.8452950797261989,0.06016684205585595,0.060531992300009684,0.05977893902357739
89944457.86772028,1.5133341471513841,1.0841934018392645,0.04646269236445225,0.04656681058890794,0.0453970393488226
90071788.21296637,0.9837020531716065,1.279837346682276,0.0427932567599659,0.042850380086260347,0.04141788279879429
90201900.1973697,0.6010799213449364,1.5629677101688855,0.04097315223634033,0.04099777331419437,0.038901522544149025
90332024.76840657,0.5586685342735628,1.8751836835402493,0.044567161862307546,0.04555830192935094,0.042818151208147956
90462110.0114384,0.4151011538075145,2.4205140379248937,0.0507752685788486,0.050879160695594776,0.04679895859754759
90592227.86685723,-0.25722673435381854,2.8502283697967656,0.05481981628180366,0.05494273677900255,0.049603611013548696
90722266.780209,-0.699019696183985,2.439695595266989,0.054403692866091216,0.054560109710937124,0.050560048043597955
90849656.25784533,-0.5500898057873878,1.9800537554413935,0.04872537726862909,0.04875310617261203,0.0458086798922808
90976964.40205923,0.14910198332504102,2.0554394586619376,0.04834868765856499,0.04835185342428999,0.04526571644061719
91107081.94863476,-0.1690516013542315,2.303798791417808,0.05235412048650798,0.052382528335639555,0.04875940807364336
91237202.28446826,-1.7120645116818558,2.3065023256225636,0.05018433532070906,0.050226338400257614,0.045785923937075465
91367307.17866024,-3.044350657307071,2.0252368830697103,0.04591372283712233,0.045935254130737985,0.040892508709033625
91497412.26047964,-4.207006567910692,1.6982537674567668,0.04480230919113297,0.04482337704645683,0.03907314760905054
91627546.44044325,-4.761066549052592,1.2996004793422682,0.045391292903217424,0.045705528577284424,0.0402377730775798
91757651.13727951,-4.710653071532708,1.1158306428680747,0.045051871433488405,0.045164220895021916,0.04014231981921783
91887800.43749395,-4.66079556814088,1.0932487984570245,0.04428383612927483,0.044292428971511096,0.039272124056001195
92017904.56035185,-4.659857492481357,0.959442977310166,0.04780404128939493,0.048282374662468514,0.04396413446583668
92145215.64697564,-4.209685378715311,0.789152290117683,0.049389309074287145,0.0493921634115145,0.04609189589153309
92275301.53894204,-2.782811311858723,0.6778802352190517,0.044299467582494215,0.04434686787851765,0.042602442268117054
92402592.49320053,-1.622321447793155,0.5603000498035081,0.043731174986488514,0.04381786205758846,0.04308614142334838
92532732.41109356,-2.0321699823785453,0.5645319724056105,0.04333014464328765,0.04340401387837571,0.042396735618867094
92662833.79514197,-2.1797804744788096,0.5640900799194962,0.04190514137533104,0.04192752965256244,0.040767316970609035
92792982.91795257,-2.2477934052393898,0.47013624675092314,0.041125567176987086,0.041144271444526787,0.03998527461630004
92920274.99281773,-1.966205531777282,0.49343977634733105,0.04119878670703454,0.041201848314123456,0.04024952306772218
93053194.64485982,-1.680099785574585,0.5194654959294599,0.04590497541104075,0.04613626809687285,0.04544036015424174
93183347.61362484,-1.78936449247651,0.40328423304786154,0.04696094309583858,0.04717805787623781,0.04652259894099683
93313502.99976031,-1.82164886022112,0.3556244452378054,0.04811266783109784,0.04811867903802889,0.047487668763138056
93443568.43918216,-1.622510408815641,0.4303524510382866,0.046281680013771045,0.04629933990088765,0.04570934958135769
93570858.06052147,-2.1691853641460757,0.4721242270884714,0.04167414064311346,0.04168297412930635,0.04060904968592952
93683984.37628178,-2.3247482764802814,0.6658922441792327,0.0423292453089946,0.0423920210988231,0.040999092218274566
93828256.00113845,-2.8087543288253056,0.8909718281862217,0.04468889191115135,0.04471292453764213,0.042640510185988204
93969681.94734894,-3.7360618402065637,1.1165915474090755,0.044506240026980615,0.04452227442141819,0.04091975850987467
94088541.40728265,-4.285668805702762,1.3040780979740783,0.045474887715216745,0.04547775460300759,0.04075394649125342
94218652.93121335,-4.022417523025923,1.2392515996795748,0.04571637422684102,0.04583167278225985,0.041693687719719305
94348734.61472519,-4.328617124653261,1.4118841994495317,0.04791657055316403,0.04791996789694749,0.04312643985666728
94478869.14675581,-4.372802230673393,1.611996013965371,0.04972722675016368,0.04973855436392837,0.04460177087661109
94608989.13999161,-4.579112910550109,1.7676555299135308,0.04987316573994882,0.049905365759148966,0.04404285499707104
94739109.67346942,-4.5006038342501675,1.9114636473562827,0.04925404158421153,0.049335120313906404,0.04308356056471915
94869242.35186735,-4.049805057288877,2.0790944400292335,0.04934945608966309,0.049352326034540886,0.043236301676786444
94993706.22186483,-2.798910047579059,2.378367987287905,0.04811291522323691,0.04817124998352496,0.04238954758981137
95126631.07131842,-0.6080923700606327,2.6392104909607625,0.047349160527285904,0.047370860993247964,0.041933527674787585
95253945.53250536,-0.118754166327625,2.4033172509024086,0.04508433817102248,0.04535565792305832,0.040782361891341615
95384036.80246094,-0.5562679951044894,2.085760400003393,0.042745823658472855,0.04318624138038352,0.03949427901391226
95514187.00727975,-1.3273491671380886,1.9291653077070823,0.04453724445653917,0.04459933239814475,0.04122285308220047
95644277.13307214,-1.806181685167081,2.042668674607256,0.04674911856850497,0.04700168890090629,0.04314771454459872
95774429.82713628,-3.0871681428331996,2.3627340848674754,0.05059814573552903,0.050602941586998296,0.044860515378067296
95904534.53696221,-4.210308182293021,2.162006492315919,0.05583066690979546,0.05585632767647665,0.05004311567963754
96034642.54307562,-6.967835843929462,1.5591671295097802,0.06060550574500327,0.06068835562126147,0.05252295602597412
96164764.65297031,-7.875871521861699,1.1361326467534734,0.05960503415500679,0.05962792995338476,0.05022711978328703
96294903.49494754,-7.673691650655874,0.8814110654672539,0.05773485356812855,0.05775629766512081,0.048904453916256925
96422200.77754538,-7.6449893124731725,0.8124982920390693,0.05520900946974005,0.055243433350495356,0.04609416168250545
96552317.28127992,-6.600180272867371,0.5810602077431573,0.05236245192097281,0.05240945828698698,0.045518815690857924
96676750.3797153,-5.29660407135174,0.5756519230693584,0.05191888454676854,0.05226379165815251,0.04781267803891647
96809708.75007749,-3.959811577316717,0.9076713708195631,0.04911571083945837,0.0491220531911617,0.04598629388733242
96942656.86616012,-2.2753136034813344,1.3656430228203082,0.04794475955948338,0.04794766766005915,0.045662904392869776
97069939.73105243,-1.6132823916754313,1.818956736285948,0.053125234222953885,0.05313127994874583,0.05050374592844585
97200053.13243428,-1.4233061715663862,2.0829537611881555,0.051521834022272714,0.05152638980526771,0.048131652119124166
97330192.09272556,-1.3707465762815856,2.2944811901451487,0.048521412349295405,0.0485327661635168,0.04422443060016845
97460317.51967016,-1.0980887933621541,2.6115316453551576,0.04791922897165473,0.04792319022372127,0.0424786493754932
97590418.49534878,-0.9771890857710227,2.7891090733513573,0.04942262291175073,0.049445370238584675,0.04347627707457848
97720552.68752146,-1.0636265890067145,3.0137787137274876,0.05199348213290774,0.052006019225508765,0.045322329540578715
97847843.38163097,-1.2581483656321013,3.335572873226988,0.054072091892478864,0.05412497075323713,0.04621035883412039
97977948.4711217,-1.394596817757544,3.4381712463376037,0.0531434953821599,0.05315548027101277,0.04448593534649541
98105239.68136945,-1.4367073410685989,3.5532065907036605,0.053242090702143224,0.05333913917925125,0.04402042316961524
98235358.40813984,-1.3745764364415627,3.7670681551437855,0.05656340143371123,0.05656863107956728,0.04676880873371348
98365508.3528414,-1.6683998907547106,3.802807425028555,0.05656004128428469,0.05661222131628069,0.046485271252177385
98495612.75561027,-1.619147527921721,3.744333190631354,0.05514186322540559,0.055253459727041175,0.04517658811058671
98625717.56782484,-1.964536644693408,3.677711262955683,0.05416265182768477,0.05417307049882855,0.04397799430777361
98755879.97670248,-2.43718449388288,3.460676950222474,0.05296408797187127,0.053010127039888964,0.043341569636834
98885986.4486784,-2.893368159676002,3.239145385065025,0.053112419747462725,0.05314766970665489,0.044176885713365345
99016104.01380256,-3.5254287357245815,3.08846811599323,0.05443666961058718,0.05443908673270409,0.04574019471446817
99146192.62539934,-3.9462358389090717,2.857638889653648,0.05463953722999674,0.05477222997461805,0.046662014028799464
99273503.57395567,-4.525623439042801,2.3770894544483574,0.05448850250837661,0.05449092895621859,0.04744498598534416
99403622.14478782,-3.3665982030076607,3.048430202000202,0.05512535924680968,0.05555971319185149,0.04744564275602308
99530872.88949686,-1.7613211517339031,4.131692544898487,0.05676490334802445,0.05676753671043897,0.044594614469815684
99661032.1545223,-1.5127577155527734,4.386472823300205,0.05821791161326058,0.058240934707664845,0.044968827982708
99791151.57766849,-1.6485764129019491,4.317990316742743,0.05890887932329057,0.058931221024252564,0.046182326979999834
99921273.01890266,-1.847760354365412,4.318373108120759,0.05911660281388639,0.05933692622060166,0.0466133252609127
100051373.43669742,-2.5492788741792456,4.31030936928512,0.058602099549665956,0.05860785250442292,0.045102203432880024
100181513.00022298,-3.496117226384207,4.038925709055775,0.05868723999257822,0.05869885802343731,0.045886400997412286
100311651.81682262,-3.7354894801729137,4.0744742892709604,0.0611830782924698,0.06118780508410594,0.04858626628013134
100441747.88194257,-4.206073643429983,4.320319420511169,0.06119337437374474,0.06119673544332472,0.04650508313160891
100571853.87572896,-4.471628344824248,4.7995344633165855,0.06475067120670064,0.06488692204741398,0.04764666896375893
100699162.9839805,-4.400086858217261,5.154981607779064,0.06784518728873702,0.06799547262077327,0.04949584370877315
100826509.18860489,-3.8474515615318117,5.556286310425145,0.06742054619864184,0.06744522166332438,0.046466841690691194
100956573.75412889,-3.2177825046908457,5.656572666071756,0.06749121817211286,0.06749786021976495,0.04654647898688265
101083865.0066734,-2.9311976338617125,5.5489142127865465,0.08224992517893334,0.08225467187896712,0.04607478078363311
101216832.23116574,-2.28721418284021,5.7875723002980894,0.09037021021483396,0.09049080783289991,0.04754192945403144
101349761.82253994,-1.9667466321802454,5.746077419673963,0.07013136036843813,0.07030187834858095,0.050770040779000276
101477065.98118865,-1.3152358948823426,5.159437966220651,0.0684823488515042,0.06927497704461878,0.054083960645259666
101607148.93332146,-1.61120967260455,4.508651210991076,0.06942164971580805,0.06953652702646183,0.05819542000316657
101737237.07153866,-1.347844644032018,4.893719836928506,0.06521275823233576,0.06601357766271448,0.05148768684820143
101867410.765252,-0.36221227518683635,4.65993388123218,0.06264297616856314,0.06294784292851095,0.04975743826958704
101997480.42277174,-0.5948735219407661,4.626198435228641,0.062163570280935415,0.06221289768362937,0.049048876840183483
102124823.7834473,-0.6864765696458648,4.686326406695282,0.059744371386441585,0.05974714297018896,0.04534279041718716
102252157.84285244,-0.7792190152601648,4.749786645500173,0.06201120945040761,0.06238533010272126,0.04830717306891315
102382234.9555037,-0.8510793991766928,4.679389407554483,0.05942021736348592,0.05943968059834483,0.04485113873324845
102512340.46912405,-0.9100219429128844,4.523433336349386,0.05967221851504374,0.059691529519481895,0.04626154602970828
102642474.80413613,-1.1124923405701603,4.475439554371518,0.06434434677865912,0.06463059378879002,0.05266431541237497
102772579.91495046,-1.43324781664749,4.375947126774635,0.06260569684353831,0.0629648630249174,0.05104530341247074
102902714.32571357,-1.2994111450971784,4.281289447826161,0.058099183267815095,0.058105427520595006,0.045615797693417115
103032833.77644944,-1.4363173511259828,3.70125202978036,0.06765288723183993,0.06765866669884017,0.04812364752264885
103162953.8219181,-1.8222122686246147,3.5863466639983295,0.06911325764716371,0.069923681252208,0.051091791524150484
103293069.32418892,-2.472807810877196,3.872243353075644,0.058112241233055674,0.05813281115505573,0.04726062045922627
103423097.7720867,-2.8286311137761704,3.798964406310526,0.07105657745326768,0.0712979854948397,0.04977644781890388
103550465.63578635,-3.46241190351335,2.9277264124384192,0.07504830513102193,0.07505222337704813,0.05342890567581833
103677775.91647549,-4.081385642555468,2.8669664926275944,0.07398940765321563,0.07423801822660225,0.059334855223982026
103807895.12378949,-4.262942716746596,3.4186854957356823,0.07092449879922821,0.07097697822818326,0.06261312475234022
103938016.0759833,-4.6683802648090005,3.3842071863890633,0.06297422421656286,0.06338047207930578,0.05346738949891668
104068136.03720784,-5.2559034148887465,3.1825326127494553,0.05767194759478544,0.05835482373282169,0.04741738535886671
104198241.20333672,-5.547385106709142,2.5949993203670836,0.06324210428363368,0.06333897053784493,0.046927040196571415
104328374.9940641,-5.093708893598505,2.3514731178360377,0.06025258931104723,0.06033029342484908,0.045366438050637996
104458495.08588295,-5.079842970905913,2.1837131307021274,0.05397338507075291,0.05408846156641621,0.04670301676556504
104588599.26463261,-5.2363136816834865,1.3378342287977372,0.0558756495656428,0.055936305744749656,0.05077840135540602
104718733.48726352,-4.681768394924633,1.084322924860114,0.0604841524407652,0.06074898374109087,0.052658454196140306
104846024.45821695,-3.3205804747290792,1.0339630540610862,0.05373888501945524,0.05377409585986232,0.047502397130759336
104976144.56841707,-1.520289807871105,1.2201250891496767,0.04589574438515394,0.04606556703930184,0.044498590482641875
105103406.87058145,-0.366106940497308,1.5341362913561016,0.04434711559525172,0.04437297243033809,0.04248418333597715
105233555.14306337,0.06193776490455997,1.9250392549572553,0.04384043942121186,0.04385590654439513,0.040884470387664296
105363657.0358195,-1.534994784020546,2.0363477028666397,0.054784875198044126,0.05486256865717079,0.046399096935659793
105493801.22211623,-2.8224907183332286,1.6978566858432267,0.06008199803454441,0.060136094493109665,0.0492208740069406
105623915.94230232,-3.505015464901957,1.4454510633842423,0.05618652569510272,0.05620054181953999,0.045968000150243236
105754036.1012928,-3.8808151416348022,1.1399245144108119,0.05601515313750593,0.05617930709037816,0.04683662020738374
105884155.41211191,-2.287329364990426,1.168364514037461,0.05530046577323639,0.05562334463290013,0.04782331046604645
106014289.58676998,0.1561658252107468,1.3838522796005985,0.04877855743232372,0.04881804035696485,0.04445773833748795
106144396.13389802,1.1552670396985476,1.0844309785312838,0.051161894315026324,0.05173959542772267,0.04813607608855624
106271702.03115237,-0.17642635683156738,1.100811795694204,0.056176969298230225,0.05618039468256777,0.05087867828855357
106401745.41943748,-0.7758413146560378,1.1120452282792954,0.05261523255667534,0.05287626862573165,0.04781991508922504
106529069.71717948,-0.8103128023045886,0.48166063061310266,0.0521872759796663,0.05226638662137245,0.0506192047131577
106659217.27942362,-1.5871344997669974,0.417615682790203,0.052338984664922795,0.05260862515985403,0.05116604843517112
106789359.68203767,-1.872644971217693,0.7058102282075761,0.049745992036673806,0.04978756455339891,0.047300467916955996
106919456.8804754,-1.5942139158022228,0.9191004830568452,0.04705757281395448,0.04705974803502333,0.04306878082690409
107049581.75734837,-0.7663402191847659,0.8451421816715496,0.050859258682213755,0.05101584563432839,0.04753606244611292
107179696.80449381,-0.324725011373119,0.7496499129800067,0.04969632367034442,0.05073050673680747,0.04831560962865891
107309838.51766431,-0.6561829697410467,1.0745821822272819,0.05277060806916634,0.05281060418907408,0.04736671340831455
107439950.66611767,-1.0627141338950523,1.2132573740517127,0.055013337023917155,0.055017891666639965,0.04976743205313225
107570055.99807519,-3.0266899885002796,1.2767842359217692,0.061601161091941546,0.06161692069082325,0.052746084337774925
107697361.5960803,-4.451615405893633,0.9694463064843012,0.0554648691830526,0.05548257688953691,0.04804560913957694
107827466.61166792,-5.240004233351096,0.10095725111634554,0.049792124238986504,0.04979449175606285,0.045150083094640615
107954758.15213552,-5.591722251538582,-0.5299854611744391,0.049789539616843126,0.04980068570902425,0.043456599235554595
108084882.12472546,-5.226800533960318,-0.3919565027276601,0.04908783487241304,0.04916938625844819,0.04375340251334535
108214983.75841552,-3.97168021968724,0.3400766041249381,0.048952552291390346,0.0489561195491821,0.04511700711487634
108345156.31341408,-2.8307027143641097,0.2858809844103568,0.04611354249527228,0.046120764308702385,0.04411699010797532
108475237.04356593,-1.9291979560813735,0.2492574389992777,0.04473327646827276,0.044814763503971164,0.04370267148038228
108605386.46461296,-1.9904321738834352,0.1667417717279081,0.04561235738464021,0.04561451497569911,0.04451644263962065
108735477.7348893,-1.613189891504377,0.03870398772819326,0.044578011984094494,0.04458257672579478,0.044012461690144965
108865595.5369818,-2.107057864986497,-0.06303552807673286,0.04310849908605763,0.04314771744891847,0.04225501650973053
108995711.09159112,-3.534704370340221,-0.3486692127992682,0.04553795808522765,0.045700215631330074,0.04324317039533046
109123006.48992306,-4.31185843871709,-0.9588688156708866,0.05038485803016358,0.05041310214722183,0.04684252661890082
109253126.41371405,-5.435664461291167,-1.6844242484994676,0.060413987871703614,0.06041994426077255,0.052368251821567846
109380418.25916243,-6.074368083395643,-1.7891657253904305,0.06336148220958676,0.06343799210112709,0.049864559935582246
109510552.31720622,-6.631237991408129,-1.6195829159286754,0.06481089899068594,0.06491417651306222,0.05204553428366174
109640701.2283513,-7.090389705296127,-0.14455572236563097,0.0581707982126815,0.058253816481959486,0.05064994320377094
109770776.50710753,-5.769465021155959,-1.2758338858289382,0.05715214383459694,0.05724139575648665,0.04987047265639777
109900897.4152134,-5.3969300000538505,-0.7558700725681894,0.053632013781837094,0.053757082679937424,0.048016769728259114
110031031.08333325,-4.985998295988435,-0.41268947167971604,0.047938315299640925,0.04804169223875691,0.04295726452208782
110161136.01641193,-4.966325448683811,-0.7651498083626578,0.04961429865776855,0.04991438887427103,0.04352118752256397
110291285.70913616,-5.67664600320401,-1.5431018649005543,0.053141062001774195,0.05332186652397606,0.04247895056566258
110421377.23475151,-5.668234989822091,-1.6526579275771638,0.05820058345594559,0.058781902103401416,0.045423000172538586
110548667.01192361,-5.368551551267015,-1.1889575635727796,0.0651854253554054,0.0659735367287786,0.05789981855616357
110678801.11344677,-5.56749341411502,-0.5403199298070159,0.06001357953978087,0.061753757134037204,0.05654279576814668
110806077.14699212,-5.7719485198129,-0.7267952268842736,0.05785593212978279,0.05790026361774234,0.05083419221214343
110936211.92639641,-4.9281592633817635,-0.9799832671124513,0.052972866901966155,0.05302476670567593,0.04686336138877457
111066299.18124756,-4.40354465787204,-0.6361884992629336,0.04677337049857433,0.04677549499271477,0.043127430935406975
111196437.77455762,-3.9594814887176137,-0.3734363642033092,0.04747785862469664,0.04751828924441692,0.044625663139125214
111326544.00070402,-3.716760834498547,-0.47176945172774676,0.047904663222264464,0.04807963451986169,0.04528335449795426
111456697.61973298,-3.6336875041285377,-0.568969133928738,0.047606283619748474,0.04785376273309171,0.04439720730662736
111586790.28641066,-3.218748547645143,-0.47995956398423467,0.04876577647438524,0.048773891728957346,0.0457654041745301
111716932.40826549,-1.6590448154838096,-0.2605658303185556,0.04333771451301727,0.043478569728704716,0.042763849061172074
111847008.99994011,-0.296340091080217,-0.2237121317695572,0.04234208258481975,0.042361754117729536,0.042240048888417835
111974330.72265273,0.12515631596403398,0.21614007614264533,0.04482022930313819,0.0448433381030435,0.04474151123009721
112101709.86467902,0.5537901325048096,0.10203320937745468,0.04543384347767409,0.045892781104360396,0.045830564971584296
112231739.87755615,0.6836404184954706,0.18002365766047118,0.04757656283668774,0.04768895905511025,0.047548779447887296
112361874.7787491,1.0316697310005756,0.243633534927751,0.04801925700986725,0.04802223247196475,0.04773426617675044
112492014.10557508,1.1838076698356967,0.22426748911216784,0.049422414045278126,0.04943310373429748,0.04914830085249717
112622064.30971752,0.11404488534229174,0.042945784438161015,0.06548914913719045,0.0655976142719764,0.06559179977522114
112752229.92080894,0.8076369486906039,0.746187810128923,0.0553608015337646,0.05748818708587211,0.05709098878196962
112882318.15816978,2.6914370057684263,0.7276890771975509,0.04729332948590439,0.047298599843493015,0.04508929806567967
113012473.13551736,3.2574608121538953,0.9422643608151888,0.04792942830810509,0.04802396689524198,0.044205765850416225
113142579.66344555,3.3167648011569923,1.2217636660035993,0.04950190500710919,0.04965839489981991,0.04546331875281994
113272665.37076287,3.711131689975848,1.3587539874892929,0.050838139095711284,0.05084027768547135,0.04440152442814792
113399990.27823818,4.1044248589697805,1.5854852051464028,0.05084904733073613,0.05109103635441743,0.04387196630545675
113527339.28927669,4.187438820448825,1.814474320692267,0.05259594135359765,0.052796366798718096,0.045143024590798574
113657377.66142924,3.85060632819789,1.9229750349160588,0.05841772450053661,0.058448390607282345,0.047658712549070725
113787526.43708283,4.50089262825502,2.1821027092872765,0.05588773122683331,0.055902607156459574,0.043661825475624305
113917627.22319695,4.6504747605277705,2.0499680659718185,0.054761521470852434,0.05491546491693566,0.045960517833857815
114047762.6272367,4.621609248778654,2.4252806414644983,0.05956043071180305,0.05985496265856507,0.051444910399833135
114177883.23091206,4.078143033538416,2.667104882849961,0.06474981872223867,0.0653234259252822,0.0516744731595234
114308016.30125454,3.468522304032383,2.5723005481410213,0.07312091100280978,0.07381126364075642,0.05871223897690814
114438108.1943458,3.91034497975381,2.4053171334699672,0.06960274234167596,0.06963500394562935,0.059968430610473966
114568257.40148373,4.606891634675935,2.4781263212238778,0.06121080074039531,0.06136254941964844,0.05224851903953372
114698276.8230074,4.690274662634028,2.9321028698557026,0.05551379194894675,0.055536191119970386,0.04726928601150398
114825653.3035101,5.428608152568561,2.886435930233471,0.05521441591896708,0.05521696947131894,0.045970086931696866
114952959.133424,6.303901794250303,2.8351449832615305,0.05436735119485718,0.054378127703861454,0.0435842003464941
115083080.19634405,6.417437344312182,2.9755865791678486,0.05547156402261985,0.05592436064062856,0.04467557277340011
115213199.41397418,5.720833487254731,2.853861742347304,0.0566968147190698,0.056700137658716544,0.047388028857283715
115343304.26900016,5.364052100668296,2.714537557183982,0.059424266110554305,0.06001740819501527,0.05232398844989563
115473424.07355769,5.5893962594570725,2.579416776984757,0.05824294783142521,0.05828075439417137,0.05042734893492164
115603558.32137391,6.010133105463267,2.712209834101052,0.05336842477211506,0.05339547459160848,0.04343439643039458
115733648.7328269,5.871131037558748,2.8129080095410948,0.054545900825148375,0.0545988546345804,0.04476278691833793
115863782.96348199,5.319188440920824,2.75727563518458,0.05340598758821185,0.05350675777002039,0.04458621405626235
115993904.03638393,5.135889719477914,2.6704448935217853,0.051065424912460584,0.05107095892325092,0.042291833093621604
116121195.87089652,5.187309111756452,2.346855404521629,0.055133763136815186,0.05520331631814877,0.04821784659995371
116251315.79585847,5.333097333099045,2.322430469878931,0.05332937201053029,0.05338983164955946,0.04596629224179136
116378620.47424681,5.102132165966726,2.307333984794077,0.051943696465752774,0.05195245298412667,0.0447244853097313
116449323.78095818,4.269751275460486,1.943465580437127,0.05444373223118479,0.05453816857841804,0.04987862093839978
116638837.37844743,4.803263695735399,2.0947554789831506,0.05138835785793981,0.05167874070966124,0.04550312929645017
116774628.02023816,4.58804384686832,2.0627877697850585,0.04954917279437523,0.04970376804118064,0.043676343163710774
116899085.50543359,4.083348221105297,1.967175677809996,0.04924191202194394,0.0492458704821912,0.044129709369019145
117029205.96893963,3.880175254104638,2.0966060394991985,0.055543533081156754,0.05580972104352894,0.051241607439691354
117159325.8562295,3.2619926443356424,2.45995894904973,0.05717626461758963,0.057378056374973674,0.052467100335069
117289446.01233064,2.8126013957761913,2.496514741177085,0.05238297215411113,0.052464607136836865,0.04729238653484942
117419566.24988808,2.568948411988085,3.1150735852588847,0.05342620373753368,0.053429717118318024,0.04612925438253057
117546856.60091315,2.640783827520073,3.609130824995981,0.055949284622327865,0.055993636598784514,0.04668380558511217
117676962.28273949,3.3609241458867722,3.85653793129753,0.058882341224683304,0.05891177268180039,0.04829571390091566
117804268.73262209,3.695783227543374,3.8223591303803186,0.057572524493143803,0.05757577127782469,0.04661065872996896
117934388.69858325,3.833459875943814,3.745043879583017,0.05805410103897621,0.05821038142729647,0.047704589350376095
118064522.21221042,4.664681282915667,3.6296190987427766,0.0616277265368872,0.06165877630429592,0.05156216894394065
118194628.85939151,4.968742867027342,3.4926619808268233,0.06133174230188411,0.06135868326459494,0.05136258919891397
118324749.07875651,3.013221719382559,1.4167532551221564,0.05788261062123841,0.057932972881616196,0.055702965623192595
118454868.99301973,0.8216663174231383,-1.1738426213603972,0.050964564248936584,0.050973419162643537,0.04991024344224137
118584989.88554381,-0.8979575951342709,-2.249049200020071,0.048734133906757786,0.04874824026717938,0.04503916207051584
118715109.78326133,-1.2919173499481151,-2.4225576748461313,0.05250363617213686,0.05269655040450618,0.04861387711663717
118845206.19262645,-1.103592268119831,-2.814810178107732,0.053403062847695214,0.05340967159281276,0.047946238680507125
118972520.23572195,-1.9203730097026932,-3.1325042684558735,0.05034189751326986,0.05037366437151703,0.04275519642860747
119102624.7542765,-3.245602354441767,-3.5474057425021415,0.052525253012415056,0.05256611933797292,0.04235774455032132
119229930.91792592,-3.8657089747669984,-4.209731018574381,0.0573666610658093,0.057428083056114854,0.04409609355715771
119360050.57816362,-3.5569849315273463,-4.489332513062686,0.05886058852817201,0.058891881486997436,0.044580473875735195
119490170.67859282,-3.014702427206523,-4.510348450004162,0.056968739192936844,0.05700104652722413,0.04227237612483539
119620303.7462293,-1.0407279443913833,-4.382687246921789,0.05502262099993181,0.055025015246405545,0.04148698257054898
119750425.75242427,0.4967004259572006,-4.147279416009724,0.05477606833196505,0.05483121936866729,0.04278020802349528
119880545.71977599,1.0532232495205347,-4.029497175154818,0.053486340038203496,0.05350767295947277,0.041606080561023925
120010650.70328839,1.3668497161420001,-4.032622861981594,0.053708805750103845,0.053714400136680954,0.04164419365853589
120140771.23913476,1.0973172001968172,-3.779881360941273,0.052938266910896016,0.052954466861001324,0.042376013689076536
120270904.99307367,1.135747542936534,-3.644318185533424,0.05354207076475255,0.05368016711101507,0.044055705129055954
120398168.70745778,0.8940746761805299,-3.499497522919995,0.05349694823654519,0.05350950709314263,0.044781069072609134
120528286.38605767,0.20556287264553885,-3.298896521701532,0.05137972120275715,0.05145577804226272,0.04361546419529581
120655592.59935457,-0.44870449857820505,-3.4592423101228333,0.05311934352739043,0.05312538989773289,0.044825896508321215
120785727.22524214,-2.0979147629233172,-3.7615915020060577,0.05420711979068116,0.05429195528272699,0.04417174830049066
120915834.39555594,-2.5789635201072465,-3.989388205998308,0.053913138087529754,0.05391580437071319,0.04207516376706432
121045954.43654472,-2.663010867612736,-4.027240524773292,0.05254471655908752,0.052685080733783037,0.04013983606817452
121176089.23817903,-2.4690643369526044,-4.147315224693791,0.056660194042036566,0.05666518753497171,0.04442692245854412
121306192.99697821,-2.6163719208615053,-4.199447007615354,0.058709338405889315,0.05880835816489147,0.04663949654633673
121436297.82186653,-2.426060448504437,-4.064357262640851,0.05637459246522748,0.056384750891462485,0.04483365826046447
121566433.29854721,-2.105403636702308,-4.084114687740518,0.05542839248832518,0.05548274546975789,0.043730690017795226
121696566.7762351,-1.9683651173810868,-4.080997689409711,0.054505987125577755,0.05457044969829626,0.042689802856659784
121823858.86980945,-1.9117072256643908,-4.093766635343204,0.0537833047402722,0.053785643979195996,0.04163826878297917
121953965.20184037,-1.1998872527553002,-3.7831446658527,0.05146541390678084,0.05147502384779611,0.040813147063144664
122081270.36274493,-0.8518519047219499,-3.6708458047350745,0.05032083866636305,0.05052782074843251,0.04038948033921798
122211362.39190477,-0.24118110080447117,-3.8209181713079055,0.05143784037976746,0.051448856821781026,0.04070380904620906
122341496.10349539,0.5095030947978829,-4.104297235965491,0.05522634053888432,0.05549315988634712,0.043761829651847724
122471633.76702629,0.7489703714928807,-4.225885532989238,0.0574289798426029,0.05752675704393358,0.04547441733010664
122601736.263032,0.5246107204237676,-4.214045896867192,0.05885631539098533,0.05886224856240669,0.04739521189576188
122731855.09950408,0.6585246863407559,-3.9728458676840805,0.06233661408169442,0.06235853376354729,0.05282900553804581
122862007.15378806,0.631139362308965,-3.6021020052206865,0.05941808911198769,0.05943701229586531,0.051289201586524
122992092.54932979,-0.26261225399404564,-3.7007197911664953,0.056770307509765625,0.056824174380860494,0.047859919251057655
123127869.5906485,0.2591700701998902,-3.543479751016608,0.052770640073726886,0.05278606735326493,0.04379295135992858
123249502.92898294,0.6190305985168856,-3.4839340796536002,0.0494362686211282,0.04950126522540554,0.04004446160273145
123379623.30093166,0.27074597320395727,-3.447371874011034,0.05034310832764311,0.05034611345384249,0.041466571667527735
123506928.69495858,0.02498635201943668,-3.1645056930233637,0.05061768740242331,0.05062803344452844,0.04332335256978261
123637053.49189375,-0.06881819960425334,-2.971712690516066,0.05027364690044848,0.05027697601502008,0.04383359933456898
123767169.36680833,-0.7560466171245882,-2.791428617010347,0.05009875333463553,0.050161430646936206,0.0445199888990543
123897259.75715995,-1.1067000773864113,-2.7446437962417374,0.0495058566960508,0.04961048020037992,0.044096013182361456
124027380.3862819,-0.08945254652057431,-2.535511912369689,0.050004302259720246,0.05000711952412639,0.044808408977372594
124157500.35346147,-0.28422006404690037,-2.466827632361536,0.04897649409118477,0.04911658986512637,0.0440846949764864
124287665.07227214,-0.7330704963812533,-2.639060197102174,0.048886591869965954,0.048935673269845534,0.04381179258905509
124417740.98228058,-0.3756095752563327,-2.9394648852742833,0.05058111372057648,0.05079262462543014,0.04464854133776227
124547838.37026708,-0.905321414785933,-3.233644151205143,0.049659472811330166,0.04968660388114815,0.04187259327656527
124675152.41783422,-1.2526728004909284,-3.175210954031333,0.04734142779326996,0.04758826933593623,0.03957152269868502
124802512.66353425,-1.3983801625596384,-2.9026032095112124,0.045816734473975766,0.04587179098134193,0.038918367942283184
124932562.1468493,-1.3173542826340954,-2.8046848641018918,0.04816219609937295,0.0482316264819626,0.04208580906311466
125062681.42641398,-1.252603083166518,-2.805341917492824,0.04915047577770514,0.04917291604014774,0.04328721420503883
125192844.28061411,-1.125206265232796,-2.637254977431431,0.04923743472815428,0.049335641748764446,0.04414217008758359
125322979.14622399,-1.0434735017259344,-2.563504321006744,0.046046501706956754,0.046158078664791186,0.04092479210370497
125453035.36222364,-0.826140411663277,-2.49572819537011,0.047782274615055124,0.047862040821990796,0.04314569864588111
125583178.63311066,-1.1371912583130364,-2.2714847671110006,0.048036517503848956,0.04809027002555116,0.04416589570170788
125713294.55470562,-1.79148812035219,-2.0907111927993083,0.04693029388131696,0.047039272081484465,0.043394879649653516
125843413.33680584,-2.1646045545888297,-1.9349988937992901,0.04457685048740999,0.04457928225059522,0.04097175744040939
125973466.33841896,-2.1713875369528983,-1.8537783367681255,0.04174758499473075,0.042044437403451373,0.03846944955006475
126100843.17936091,-1.4819688141516296,-1.5891173037351625,0.04246352257687923,0.04247503884342569,0.040097879640052805
126228157.94466844,-1.7971445423420858,-1.5441308803155858,0.04370103970413442,0.04401451355778892,0.041690206747803375
126358235.865134,-2.2537955399153486,-1.5098761719292144,0.043568666345525794,0.04357512772798222,0.04101665727503964
126488340.60438865,-2.124488613843295,-1.3882258654026158,0.043699037360230994,0.04433931270928353,0.0421868993216123
126618489.80385876,-1.562574318421367,-1.1548280965933992,0.0429887758755828,0.042993258670812655,0.041579409693075595
126748563.2194784,-1.1841829035268612,-0.967222074749166,0.04045083714017123,0.040635483536516005,0.039641946421607295
126878700.77833375,-0.5798297382693313,-0.9923617814347347,0.03852049565075031,0.0386480921911559,0.03773411395638222
127008833.84673098,0.4864407058479786,-0.8747527887509384,0.04125533117223747,0.041269746736473774,0.04056291059813971
127138992.81982128,1.434003232077887,-0.6697188700378585,0.04135104599949189,0.04135635137674546,0.04057051341903404
127269060.33154035,2.1918426847344947,-0.22488930683472916,0.03957041048636919,0.03961689699632423,0.03865407955231313
127396374.85746303,2.2200168964932523,0.3175012566751479,0.03829955719760318,0.03830847028027392,0.037304393053787084
127526504.61098221,1.0749616207753157,0.5733117144648704,0.04094166161736745,0.04111755322823236,0.04066484123697767
127653850.95196068,-1.044202534223406,0.28485356397822453,0.04044074380009884,0.040481009915827086,0.0402020099077996
127783881.88484935,-0.33104088037977364,-0.0017385655550947988,0.040353932774584184,0.040680644148173135,0.040661024162254374
127914001.3584337,1.5471705763752754,0.029605393047847286,0.04450863515531296,0.04477548671826884,0.044384689216967387
128044149.81377317,1.3661814064635192,0.5862131706814944,0.04777010259905343,0.04782341060406952,0.04732309287750796
128174235.65089886,1.712078536478138,1.5524261412314664,0.04605627992904754,0.04635382529631962,0.044149581535715264
128304374.81173313,1.5938062007874527,2.1525370416275535,0.04488248434067191,0.04488747201904155,0.0409405004953154
128434493.68063062,0.3410018434708747,2.0405295016683516,0.04412906173639299,0.04413306447629171,0.040800571860180795
128550470.62738952,0.9540438153204666,2.237266889400486,0.04984535897686955,0.049887893619195336,0.04628372637896402
128694734.02341457,3.6085547598210406,1.9056757408409892,0.04980347967951479,0.04986788224540653,0.04557111825527328
128824833.8873562,5.070359537179846,1.1221645881841005,0.04756084884724772,0.04761932076167967,0.042777369255782585
128952135.59335527,3.380977453505924,0.34850792145110787,0.04226587552673871,0.04247809405829277,0.0404197323031811
129079420.18523975,1.7828493640989624,0.15307949299433193,0.03904712030538807,0.03905063972915678,0.03844344000807753
129209569.07376409,0.6744347977465707,0.047816713679535855,0.038491475431480654,0.03850012444596607,0.038412883071811385
129339674.24888845,-0.1445327986734843,-0.030239331171705103,0.03781677925858469,0.037858329909686066,0.037853689411156424
129469803.23845842,-0.6744114868721999,-0.020653120558075347,0.037988408793940824,0.03802278853510362,0.037935629716124325
129599899.15781173,-0.9628929501837431,-0.2551962449108643,0.038065657598287846,0.03809317728947537,0.03786810337209739
129730050.02279818,-1.2728485900198105,-0.40375574860383495,0.03887171183447647,0.038966040548380126,0.038540993263048835
129860154.64868087,-1.3470734213327176,-0.7165852881399877,0.037836052597191125,0.037885083518394556,0.037112272190443406
129990289.00102478,-1.2417542033159847,-0.8847420813513912,0.03784163824386453,0.037883448885336755,0.03692421600047329
130120394.54251663,-0.0540818171783809,-0.8592561199461216,0.040902360629577715,0.04091739720537352,0.040303537005966734
130247685.25268431,1.3154208519071349,-0.7301083312946716,0.04041879864589505,0.04064649821470938,0.03983326732832529
130377814.78493059,0.925732985981845,-0.7246836460192181,0.03880298017709383,0.03881381226500159,0.0381542757532519
130505098.13245153,-0.21130207340659182,-0.6641969580588913,0.03793566584979032,0.03795487015047197,0.03755448195753692
130635217.66575968,0.7235259403466484,-0.7664164520873203,0.0387808647992556,0.038855345273478795,0.038206761168962704
130765337.57368058,1.0591842302044987,-0.6587715750201519,0.04168007839600064,0.041682577616882925,0.04109268564826023
130895472.38206956,1.4992471298946533,-0.6884935646023191,0.04060327994245192,0.04092383328106471,0.04007195208627864
131025578.53089893,2.0450034831387516,-1.2644516726753012,0.04105190655983114,0.041070894834795105,0.038810573134890454
131155696.55747724,-0.5998644938155772,-1.1432935262738144,0.04086932728824973,0.040904733158868174,0.03976724439925825
131285831.76784778,-1.3411177504130127,-0.6394577870997189,0.03954700933417217,0.03957663954196879,0.038929290685629024
131415950.4208563,0.20229843411935453,-0.30183030464027666,0.03754221474080921,0.03754693211884602,0.03745323950387316
131546055.41335747,1.969180012421282,-0.6949334160590706,0.03793597411395804,0.03796236519129869,0.036690754072792243
131673347.1026898,2.4668639266604098,-1.2311353346821823,0.039258665112590976,0.03936076479233283,0.036679872955178223
131803482.20546857,1.7536337423389519,-1.4438981054159798,0.03853948127722864,0.03865170151931682,0.03602717816812781
131930750.15921965,0.5522793830494179,-1.5820987880060393,0.037880909047452706,0.03789042196430108,0.03546267719718247
132058063.41416329,-0.5519092925055457,-1.400615204482068,0.04100096357719436,0.041033523653091576,0.03776043559573633
132190975.39969344,-1.3036439474620818,-1.0244991259683598,0.04260015204998517,0.04260228174783347,0.03973486078644771
132321131.46258616,-1.8165875107482305,-0.6727330039388288,0.043518466388453636,0.04366236967132482,0.04152743878192118
132451222.22715396,-1.718079193028814,0.5709634938184385,0.04413741264016343,0.04420835373694426,0.04201426999650998
132581386.69026774,-1.6502829993195558,0.6383967508662466,0.04199628646063756,0.04252710205776015,0.04063733775960272
132711463.68953755,-2.029416264040477,0.43205034284492577,0.051335205924377326,0.05158795290509036,0.05062046192150453
132841613.04229146,-2.1614838692705427,0.09852809507204179,0.052349792169591944,0.05318924262810816,0.052528168686071394
132971733.55626547,-2.436464054790803,0.16959706766484164,0.04306425816814004,0.04317724681410698,0.042118514449518314
133099024.50862494,-2.4142906226434153,0.08945214794021866,0.03899500548316667,0.03902746871803187,0.03790001278866438
133229095.76035836,-2.2287082081080727,-0.36826567411948086,0.03976883151220857,0.03996347987538766,0.03896069181036013
133356475.73634997,-2.0064883545274594,-1.3821172908897263,0.046633310366259347,0.046635693733220636,0.044683928427898804
133486526.0102652,-1.923421086938002,-1.8371725812755428,0.04616523937093258,0.046246081095228174,0.043237323528250625
133616661.62705798,-1.677091828084488,-1.8612033166403235,0.04707883188576956,0.04765695708465207,0.04479708046668074
133746780.45752776,-1.8974662577852799,-2.413527691685373,0.05260316085724357,0.05261124355751503,0.048330317189894396
133876931.4061422,-2.1590103291624776,-2.1844825975539366,0.05140020890945555,0.05193581519833474,0.04817912508268598
134007019.25305822,-4.575519905528685,-1.3627788918864738,0.05269599621454628,0.052769687601717165,0.048729286239443025
134137123.8536104,-6.711889050294314,-1.1200221668551364,0.05026283192009591,0.050311634074920175,0.0426069773144171
134221981.0993222,-6.850611773856244,-1.3519808927126893,0.05003485154311052,0.05005438152265893,0.041627909922378366
134999878.57197094,-3.1656152506371567,-1.0470744067678168,0.04539531458128939,0.045931483026709845,0.04346345067840043
135064917.39894712,-3.602555512144957,-0.9263119085682777,0.04391946189389492,0.04392211834004939,0.04105980413008631
135172412.32498315,-4.339640293053158,-0.9985451705043686,0.05001744528931523,0.05014449720157326,0.046691917016235825
135302537.39804727,-4.477075936234165,-0.933671036899844,0.04898806352502863,0.04931760995531599,0.04573916256387877
135432667.84710848,-4.024389885665308,-0.7330177099729874,0.04263450373712989,0.04283059880312129,0.03963098198611705
135562795.08781052,-3.56017397923143,-0.7644277153423595,0.04160918873609331,0.04168372910492476,0.03902014291511593
135692919.3093406,-2.9166395806860965,-0.6644423244778521,0.04167888383463158,0.04171268965380874,0.03989168607329198
135823003.603732,-2.0295650305652613,-0.4066554045754075,0.05154181178873474,0.05168352990631617,0.05082333953883472
135950324.64472008,-1.92894946576546,-0.5022222582393087,0.05090705513835786,0.0509831404105635,0.04986904858529127
136077698.71502256,-1.7458627124490762,-0.6390230642009777,0.048450311486558054,0.04847162249784291,0.047315220167099006
136207738.0083655,-1.6226128781652494,-0.4212000591924508,0.04645440041722208,0.04645846665754314,0.045756920527820336
136346301.73158562,-1.8898574814459481,-0.24150219445888552,0.04626486500065558,0.04636636146348246,0.04565148414961351
136468006.6107084,-2.7320212833202064,-0.42297839734513254,0.0537896981420074,0.0548728847720059,0.053314261432049787
